2108 100
</s> 0.004003 0.004419 -0.003830 -0.003278 0.001367 0.003021 0.000941 0.000211 -0.003604 0.002218 -0.004356 0.001250 -0.000751 -0.000957 -0.003316 -0.001882 0.002579 0.003025 0.002969 0.001597 0.001545 -0.003803 -0.004096 0.004970 0.003801 0.003090 -0.000604 0.004016 -0.000495 0.000735 -0.000149 -0.002983 0.001312 -0.001337 -0.003825 0.004754 0.004379 -0.001095 -0.000226 0.000509 -0.003638 -0.004007 0.004555 0.000063 -0.002582 -0.003042 -0.003076 0.001697 0.000201 0.001331 -0.004214 -0.003808 -0.000130 0.001144 0.002550 -0.003170 0.004080 0.000927 0.001120 -0.000608 0.002986 -0.002288 -0.002097 0.002158 -0.000753 0.001031 0.001805 -0.004089 -0.001983 0.002914 0.004232 0.003932 -0.003047 -0.002108 -0.000909 0.002001 -0.003788 0.002998 0.002788 -0.001599 -0.001552 -0.002238 0.004229 0.003912 -0.001180 0.004215 0.004820 0.001815 0.004983 -0.003111 -0.001532 -0.002107 -0.002907 0.002815 0.001579 0.000425 -0.002194 0.001524 0.003059 0.000194 
583 -0.846306 -0.094843 0.853979 1.176853 -0.135943 0.429970 0.069958 0.105994 0.137706 -0.686877 0.134030 -0.166846 -0.273873 -0.844875 0.546984 -0.208809 0.393953 -0.963968 -0.254698 0.353567 0.658871 0.471756 -0.793707 -0.590444 -0.243657 -0.456349 0.145603 -0.160053 0.998163 -0.651008 -0.237499 -0.378742 0.479196 -0.708454 0.364072 -0.436283 -0.407093 0.908154 0.998615 -0.829861 -0.232251 0.405408 -0.790468 -0.252982 -0.151516 0.726994 -0.408143 0.307054 -0.675820 0.133161 0.343594 0.139853 1.618717 0.555397 -1.133333 0.034073 -0.406100 0.209368 0.605633 -0.848257 -0.937654 0.206375 0.836060 -0.967330 0.744840 -0.261004 -0.083066 0.642951 -1.221235 -0.005226 -0.250382 0.647779 0.837324 -0.112158 -0.419140 0.131463 0.275962 0.401977 0.297961 0.415666 -0.581677 -0.605156 -0.594449 -0.560961 -0.194173 -0.999377 -0.104677 -0.348702 -0.614096 -0.030745 1.023206 -0.645199 -0.632200 -0.447035 1.336130 -0.523316 0.399760 -0.759221 -0.824007 -0.995819 
597 -0.427371 -0.400480 0.416543 -0.182484 -0.629504 -0.229615 0.166164 0.653239 0.239975 -0.808741 0.283376 0.617184 -0.487623 -0.472189 0.301151 0.661925 0.554338 -0.316327 0.181365 0.659000 0.217708 0.102142 -0.155016 -0.513930 -0.536746 0.254363 -0.058339 -0.326089 1.220376 -0.296510 -1.231382 -0.342197 0.658464 -0.389755 -0.475801 0.050349 -0.229926 0.236666 0.547709 -0.721268 0.300767 -0.532314 0.651216 -0.376750 0.317756 0.515440 1.240147 0.162086 -0.389322 0.123391 0.517370 0.084590 1.786771 0.665860 -0.318893 -0.387972 0.398207 0.235580 -0.014048 -1.095546 -0.182742 -0.214315 0.738528 -0.609555 0.236167 0.595458 -0.626301 0.337007 -0.337707 0.070905 -0.973315 1.226339 -0.442752 -0.066054 -0.744004 -0.856531 0.645937 -0.628849 -0.569453 0.229741 -0.564300 0.124971 -0.394873 0.419723 0.269523 -0.933268 0.577594 -0.660960 -1.273653 -0.326405 1.227225 -0.128102 -0.468157 -0.741364 -0.411120 -0.971975 -0.071953 -0.818397 -0.326813 -0.135903 
764 -0.281399 0.434224 0.390222 1.103581 0.059252 0.003071 -0.238393 0.657905 0.288188 -0.390049 -0.379057 0.344990 -0.045077 -1.026920 1.243828 0.512264 0.602696 -1.468802 -0.482358 -0.372534 0.016300 0.757834 -0.884451 -0.584184 0.297056 -0.384872 0.606328 -0.689464 0.567574 -0.656220 -0.308055 -0.336527 0.826362 0.025926 -0.477236 -0.675736 -0.360319 0.748601 1.529451 -0.379564 -0.287345 0.525570 -0.761596 -0.348573 0.542974 0.851585 0.134880 0.318312 -0.481040 -0.342918 -0.151174 -0.219994 0.617939 -0.344075 -1.078883 -0.518093 0.062742 0.734882 0.367388 -1.868514 -0.981934 0.306400 0.847916 -0.839649 0.350600 0.388042 -0.279524 0.715215 -1.722090 0.117446 0.028068 0.226894 0.634691 0.018054 -0.865068 -0.184914 0.295968 -0.467993 0.611124 0.151138 -0.065911 0.583393 -0.741461 -0.175781 0.332006 -1.343265 0.274586 -0.160474 -1.103934 -0.538345 0.791385 -0.174589 -0.626228 -0.623784 0.371686 -0.872519 0.398640 -1.054530 -0.881988 -1.329214 
820 0.517136 -0.089141 -0.289246 0.710433 -0.735533 0.272084 -0.443590 1.572113 0.417004 -1.172434 0.579210 1.125228 -0.187147 -0.386068 0.399691 1.046184 -0.137735 0.432247 0.897087 1.072077 -0.462509 0.353456 0.122917 0.255737 -0.118067 0.448597 -0.361708 -0.387250 1.321558 0.289051 -0.700963 0.074226 0.577569 0.355443 -0.316747 -0.204489 0.295253 0.689267 1.707673 0.089559 -0.199241 -0.251823 -0.010567 -0.064799 0.424719 0.599844 0.851931 0.676258 -0.458828 0.891668 -0.460103 0.555003 2.016226 0.295352 -0.354376 -0.423339 0.646713 0.572524 0.703835 -1.306901 -0.160580 -0.083934 0.963222 -0.106015 0.489541 0.713937 -0.236469 0.752091 -1.112954 -0.158406 -0.239604 0.907149 -0.090220 -0.765898 -1.113730 0.038789 0.622940 -0.419325 0.115440 -0.221877 0.370961 0.419307 -0.997188 -0.027380 0.186042 -1.156532 0.394551 0.425545 -1.276930 0.840650 0.129655 -0.385768 -0.589803 -1.637461 -1.304399 -0.761597 -0.032783 0.321837 -0.285909 -1.066520 
859 0.750114 0.603629 -0.334865 1.571785 0.926568 0.340525 -0.602029 0.189335 0.051355 -1.065864 0.264915 0.457658 -0.239068 -0.570106 0.538686 0.267606 1.132432 -0.504889 0.197970 -0.183881 0.027547 -0.095255 -0.028651 -0.045450 0.482836 -0.601758 -0.237051 -0.503795 0.838019 -0.387048 0.078346 0.324344 1.127812 0.618525 0.234286 -0.289377 0.284284 1.062647 1.264749 -0.385856 0.198497 0.588944 -0.099710 -0.229651 0.006063 0.630453 0.134939 -0.056316 0.442311 0.174706 -1.055835 -0.129297 1.041077 0.149623 0.288235 -0.596485 0.060789 0.171880 0.196543 -1.095938 -1.316445 0.372364 0.663287 -0.296453 -0.241811 -0.290082 0.583668 0.141028 -1.193973 -0.279898 0.669441 0.860049 1.764603 -0.156264 -0.005244 -0.850807 0.111319 0.312975 0.042924 0.547393 -0.029056 0.506150 -0.827165 -0.107636 0.500980 -1.030267 0.086162 -0.225047 -0.994331 0.782175 1.120830 0.009907 -0.945061 -0.237197 -0.508641 -0.759360 0.705906 -0.735092 0.400097 -1.327256 
1985 0.413487 0.550099 0.973950 1.903545 0.289943 1.256275 0.313381 -0.916621 -0.383568 -0.361672 -1.188286 -0.555940 -0.630077 0.515669 0.520207 0.666220 -0.083559 -0.938388 -0.465689 -0.008181 0.757168 0.936972 -0.955464 -0.137779 -0.270510 -1.018901 -0.059136 -0.173270 1.280942 -0.772657 -0.002737 -0.393064 0.387377 -0.027069 0.213710 -1.673274 -0.622604 -0.015485 0.994967 -0.727742 -0.526997 0.175432 -1.535398 -0.364476 -0.533969 1.011181 -1.025114 0.562539 -0.661990 0.368740 0.740504 0.341899 1.158763 0.182250 -1.351543 0.684197 -0.294354 0.808986 -0.007117 -1.646670 -0.827181 0.864385 1.675775 -1.178333 1.149723 0.007277 0.507180 0.888196 -1.308878 0.511705 1.160569 0.327232 0.306055 0.282727 1.180582 0.822381 0.512659 0.974621 1.236778 0.512632 0.022467 0.378582 -0.258373 -0.547910 -0.136979 -0.382522 0.025331 0.212586 0.963808 -0.387732 0.623144 -0.182953 -0.366488 0.303825 2.135729 -1.906661 1.591504 -1.475287 -1.359252 -1.506735 
564 0.449123 -0.404951 -0.389977 0.041104 0.096538 0.189298 -0.708551 0.981538 0.398840 -1.625671 1.936099 0.694887 -0.375816 -0.830126 0.474701 0.580818 -0.717536 0.834156 0.203954 1.468652 0.335829 -0.599512 -0.066631 1.474063 -0.158258 0.875890 -0.506100 1.062671 1.576612 0.925824 -0.071350 0.730866 0.697426 0.003755 -0.183416 0.790338 0.279136 -0.373738 -0.422886 -0.006066 -0.148958 -0.760003 0.195213 -0.606321 -0.101427 0.422443 0.544265 -0.011777 -0.365307 -0.231788 -0.770176 1.272938 2.011749 0.183965 -0.964870 0.916480 -0.051562 -0.030379 -0.131017 -0.684452 0.069137 -0.430169 0.478490 -0.944264 1.276459 0.192514 -0.643009 0.279017 1.386536 0.582278 0.333406 0.968246 -1.495637 -0.703952 -1.474312 0.802315 -0.227047 -0.496974 -1.520616 -0.852066 0.244142 -0.432843 -0.756776 -0.171958 0.984849 0.211364 -0.817186 0.262263 -0.554764 0.292886 0.558250 0.516817 -0.849571 -0.348177 -1.441385 -0.216595 -0.934170 -0.328915 0.300993 -1.861617 
782 -0.456748 0.220525 1.206222 0.666198 0.612467 0.128535 0.144271 0.400794 0.772359 -0.700773 0.574146 -0.227635 0.536612 -0.449728 0.989114 1.836193 0.179279 -1.172369 1.168792 -0.594812 -0.920768 0.690967 -1.087890 -0.534507 0.298367 -1.580854 0.718018 0.421539 0.544174 -0.706408 0.315231 -0.004680 1.229489 -0.015326 -0.651513 -0.783144 -0.186253 1.298854 1.347946 -0.120862 -0.931507 0.447029 -0.805326 -0.718051 -0.618312 0.025646 0.256045 -0.098474 -0.077834 0.471086 -0.180054 -0.928058 0.834182 -0.109906 -1.754521 -1.233247 -1.279544 -0.118579 -0.674890 -1.637272 -0.515223 0.710425 0.490686 -1.098809 0.339329 0.067452 0.666841 1.281725 -0.430997 0.262607 0.662537 -0.796049 0.731535 0.623737 -0.458929 0.075655 0.805688 0.579609 1.359627 0.489620 -1.018908 0.163222 -0.310490 -0.576754 0.691395 -1.350892 -0.096040 -0.372926 -0.155863 0.022949 0.290888 -0.874399 -0.779120 -0.082402 1.710780 -1.391993 1.637730 -1.446406 -1.009261 -1.700755 
756 -0.301141 -0.366261 0.847769 1.157339 -0.140153 -0.458514 0.354452 0.714740 0.376041 -0.194706 0.699925 0.825470 1.217922 -1.353153 -0.162276 2.069055 -0.184652 -1.880407 0.597227 0.473151 -0.600375 1.430807 0.324244 -0.822768 0.663667 0.248617 0.189203 -0.205911 1.064596 -0.640713 -0.059035 0.326715 0.204860 0.295798 -0.917358 -0.795102 -1.168287 0.283166 1.639543 -0.740264 -0.489881 0.502725 0.373377 -1.064298 0.099654 0.171257 0.673416 -0.213416 -0.376622 -0.464331 0.156377 -1.031253 1.850501 -0.321652 -0.429767 -0.936050 -0.689054 0.831194 0.013678 -1.890813 -0.662197 0.847380 1.099782 -1.456448 1.043636 1.632415 0.032225 1.023644 -0.903249 -0.093822 0.203364 -0.612245 -0.756202 0.259292 0.021849 -0.118527 0.555985 0.336272 0.369023 0.835890 0.086678 0.247148 -0.428693 -0.999243 0.435421 -1.603163 0.230071 -0.391849 -1.047877 -0.741214 1.530849 -0.840158 -0.253458 -0.191620 -0.511100 -1.036170 0.856935 -1.047429 -0.325521 -0.903409 
1428 0.100587 -0.188593 0.126803 1.245256 -0.326641 0.416583 0.428022 -1.754447 -0.018011 -0.446725 -1.448904 -1.411046 -1.211655 0.967580 0.673398 0.876095 -0.128006 -1.883629 0.032782 0.104572 0.506073 0.546113 -1.423927 -0.419027 0.081893 -1.305458 -0.054238 -0.443256 -0.134114 -0.621080 -0.149855 -1.043512 0.682727 0.260435 0.148303 -0.725854 -0.050162 -0.028989 -0.180279 -0.454390 -0.328417 1.041089 -2.295825 0.104312 -0.647557 0.230754 -1.182367 -0.547634 -0.428401 0.857192 0.623166 0.666604 0.713709 0.421888 -0.523211 0.467297 -1.138162 0.965145 0.743309 -0.738361 -1.011564 0.022539 0.859217 -1.501208 0.216880 -1.114225 0.662670 0.847306 -0.633893 0.648270 0.322753 -0.822946 0.595117 -0.172660 1.785200 1.467291 0.198772 1.246888 0.962652 0.039873 0.301730 0.593701 -0.796104 -1.374515 0.198703 -0.971668 0.580426 0.468164 0.229300 -0.280693 0.514236 -0.471627 -0.525661 0.115823 2.107339 -0.890075 0.957018 -1.917260 -1.113864 -1.631296 
3559 -0.282450 -0.259423 -0.547980 1.276435 0.643150 -0.236746 -0.639723 0.379172 0.308169 -0.686031 -0.196097 -0.235153 0.147926 1.155155 1.605146 0.230031 -0.360441 -2.331453 0.552233 -0.764284 -0.086461 1.335808 -0.618973 -1.529216 -0.572633 -0.822394 0.129476 -0.587420 -0.290920 -1.576367 -0.006942 0.079946 0.815892 -0.607146 -1.306803 0.042880 -0.420352 -0.359879 -0.587532 0.886814 -0.151130 0.713649 -0.875912 0.112590 -0.939944 0.824962 0.385696 -0.938211 0.414458 0.016680 -0.294161 -0.550660 0.155267 -0.983139 0.342850 0.085288 1.363717 0.778118 -0.492680 -0.618857 -0.440041 -0.493971 0.818921 -1.520171 -0.471238 -0.149297 0.212694 -0.143476 0.643665 -0.103525 0.881337 -0.686503 1.539247 0.669041 -0.505538 0.219032 0.020846 0.443969 1.357526 0.617153 -0.360887 0.334059 0.097233 -0.670836 0.105218 -0.648430 0.691511 0.582844 0.115448 -0.845078 1.010229 0.145983 0.620081 -0.067811 1.913934 -0.883609 1.101962 -0.838179 -0.116008 -1.324365 
3237 -0.764200 0.131720 0.549707 1.253877 -0.284862 -0.831345 -1.203523 0.127063 1.000699 -0.648437 0.584683 0.132828 -0.359750 -0.268117 0.656567 1.007619 0.222853 -1.537598 0.251889 -0.047511 -0.642931 0.058272 -0.540726 -0.017105 -0.046715 -1.089188 -0.236701 -0.026784 0.800764 0.598229 -0.398182 0.611844 0.925452 -0.815632 -0.982553 -0.789789 -0.777373 -0.313792 0.397498 0.441209 0.254099 0.803420 -0.661981 -1.170468 0.131460 -1.405326 -0.078050 0.005958 -0.267794 -0.183179 0.088628 0.434325 0.635871 -1.583079 -0.489916 0.306266 1.683402 -0.171057 -0.209733 -1.310573 -0.695190 -0.143750 0.960145 -1.685581 -0.639345 0.505234 -0.330083 1.233218 -0.054970 -0.147394 0.767909 0.615310 -0.390267 0.704745 -1.194771 -0.272588 -0.730196 1.110773 0.514959 1.310552 0.304693 0.111509 -0.369823 -0.544501 -0.052395 -0.267490 1.516356 -0.479483 -0.408261 -0.498112 1.157296 -0.448169 0.211878 0.777680 1.155809 -1.799962 0.733325 -1.253244 0.945686 -0.235228 
985 -0.729344 1.166876 0.012510 1.588808 0.822808 -0.909294 0.683614 0.672408 -0.028351 -0.173106 -0.870746 -0.552698 1.198772 0.424356 1.900664 2.293344 0.807936 -2.200926 0.353624 0.213443 -0.743224 1.040536 -0.607668 -0.840422 -0.379136 -1.366106 0.179549 -0.331505 -0.632766 -1.063078 1.821591 0.151604 1.207034 -0.805203 -1.082883 -0.451476 -0.955824 1.086884 0.802515 -0.480183 -0.412047 0.103690 -2.378761 -0.447956 -0.144204 0.397842 -0.678143 0.163431 -0.693768 0.631912 -0.404799 -1.074070 -0.202336 -0.195241 -1.514885 -0.721000 -0.851926 0.089699 0.473407 -1.066221 -0.559798 0.680311 1.173511 -0.290072 -0.083111 -0.680687 1.113302 1.811239 -0.390049 -0.135410 1.068066 -0.039404 -0.100742 0.002730 0.023617 -0.831641 0.328636 0.796906 1.512519 0.681329 0.118344 0.491519 -0.378006 -1.231525 0.790405 -0.955167 0.058958 -0.236039 0.001565 0.589317 0.701810 -0.165635 -0.270851 -0.297804 1.598466 -1.639414 1.334374 -1.534998 -1.213337 -0.650946 
561 0.614219 -0.668817 -0.288683 -0.287015 0.023466 -0.400169 0.458539 2.166274 -0.122132 -1.065063 2.278527 0.866245 0.003100 -0.958374 0.687876 0.675851 -0.613303 1.366090 0.733358 0.958524 0.315786 -0.163240 0.806137 1.349687 -0.498104 1.001521 0.427109 0.821442 0.573570 1.048856 -0.838840 1.456316 -0.008564 0.484116 -0.250479 1.234689 -1.409355 0.703297 0.467730 -0.298265 0.909565 -2.111101 -0.072650 -0.441205 0.670553 0.000756 1.039518 0.360046 0.653612 -0.292222 -0.971300 1.558470 2.241827 0.669519 -1.033362 0.632678 0.228957 -0.052068 0.305234 -1.312031 0.698045 -0.512172 0.571804 -0.361338 0.079722 0.271172 -1.494470 -0.081552 1.675863 0.846812 1.025656 -0.350886 -1.738118 -1.401493 -0.706719 0.300928 -1.104511 -0.993212 -0.404674 -1.011520 -0.276169 -0.178056 0.149553 -0.377703 0.398606 -0.668517 -1.819207 1.025969 -0.458989 -0.071084 0.546702 -0.805581 -0.628927 -0.932849 -1.206142 -0.516433 -1.400851 0.192674 -0.402225 -0.838662 
792 -0.095272 0.313848 -0.419334 -1.070694 -1.331403 -1.162034 -0.958815 1.311043 -0.489747 -0.431013 0.465838 -0.051179 0.568196 -0.623488 -0.191067 0.121064 -2.042801 0.127881 -0.010357 2.115173 -0.026951 0.257620 -0.705898 -0.257932 -0.765118 -0.130192 -1.759511 0.016280 1.919865 1.212589 0.587521 0.982840 0.196772 1.222341 -1.406471 -0.961662 -0.731161 0.840883 1.110618 -0.388972 -0.489718 -1.292007 1.732465 0.464061 0.556796 0.008808 0.608664 1.244150 -0.958355 0.132239 0.342738 0.219845 2.293704 0.493675 -0.282393 0.149837 0.271288 0.953386 -0.629672 -0.780088 -0.492588 0.182528 1.687431 -0.429260 0.574757 1.144107 -0.211584 0.345035 -0.555082 -0.190115 0.522846 -0.298515 -0.322436 -0.319234 -0.379752 0.339551 0.911664 0.031886 -1.387089 -0.613105 -0.295319 0.721239 -1.057411 1.024545 0.367806 -0.980289 -1.077682 0.219075 -1.567206 -0.180946 0.871988 -0.059572 -0.833527 -1.500057 -1.486444 0.494459 -0.837214 -0.072939 -0.266322 -0.809083 
684 0.234330 -0.465657 0.061354 -0.460576 -0.902024 -0.865268 -1.151808 -0.755542 0.458695 -0.750951 0.823569 0.265639 0.679538 -0.027975 -0.337579 -0.266263 -0.034484 1.314016 0.792299 2.653023 -0.604659 -0.107240 0.347480 0.015173 -0.498878 0.712762 -0.242130 -0.413088 0.788922 -0.104209 0.044353 1.657369 0.310135 1.361175 -1.639588 -0.622407 0.237551 -0.822543 0.909517 -0.061025 -0.044191 -1.231158 1.758415 0.703312 0.084865 0.823745 0.730114 0.852053 -0.239930 -1.615835 1.087034 0.250481 1.368097 -0.192115 0.324332 0.074565 0.770177 -0.727542 0.065066 -1.368533 -0.595937 -0.478837 1.153798 -0.663848 0.141240 0.738224 0.076336 0.220289 -0.733227 0.861217 -0.303559 0.153749 0.463437 -0.048895 0.436067 -2.162484 -0.069040 -0.460647 -1.601564 -0.567599 -0.808944 0.294695 -0.261081 0.854173 0.098685 -0.760868 0.488553 -0.533193 -0.300873 0.080578 0.482052 -0.676016 0.511572 -0.207441 -0.698954 -0.933850 0.986303 0.150419 -1.002650 -0.200548 
734 -0.055563 -1.743893 -0.890051 -0.205134 -1.959280 -1.128237 -0.187217 -0.587400 0.054375 -0.736393 0.965032 0.066389 -0.961581 -0.895942 -0.704748 -0.780271 0.168990 0.446700 1.132119 0.959444 -0.915935 0.401901 -0.442385 -0.810660 -0.878994 -0.283110 -1.693129 0.092600 1.738893 -0.297585 -0.805086 -0.021442 0.384042 -0.054457 -0.621971 -1.114686 1.167772 -0.772392 0.486013 0.525151 0.392215 0.430939 0.635484 0.158255 0.063198 0.062056 0.583380 0.715922 -0.863246 0.073314 0.587926 0.537720 1.687218 -0.110167 -0.620451 -1.029558 -0.270501 0.219060 0.048996 -1.694532 -0.891333 0.349365 -1.029212 -0.643432 -0.846619 2.042583 -0.243700 0.164356 0.291411 -0.150010 0.757088 0.002797 0.042973 0.268358 -0.137421 -2.546462 0.176653 -1.436316 -0.977609 -0.646177 -0.190642 -0.458250 0.649256 0.378696 1.105547 -1.080261 -0.410386 -0.434654 -0.383233 -1.170146 1.477307 -0.490823 -0.181154 0.176077 -1.221045 -2.356337 -0.697000 -1.799438 -0.420918 -0.749485 
2564 0.888908 0.411784 -0.708511 1.036700 1.459793 0.134217 -0.823356 0.721935 0.598308 -0.986934 0.182938 -0.157092 -0.557593 0.943245 0.796299 -1.207356 -0.538902 -0.013029 0.872229 -0.860410 0.269435 0.281015 -0.527105 0.983051 -0.940608 0.283533 -0.092405 -0.038126 -0.747313 -0.440081 0.507356 -0.710301 1.281530 0.116035 -0.209600 0.533555 0.055423 0.557729 0.922477 -0.160077 0.300921 0.345538 1.239258 0.372435 0.398450 1.328015 0.070205 -0.009047 0.962060 1.660574 -0.297487 -0.056990 -0.342103 -0.218098 1.434252 -0.362146 0.208129 -0.011304 0.474484 0.191639 -0.483245 0.019743 0.248386 -0.464965 -0.709154 0.015992 0.184513 0.041745 -0.847206 -0.272768 1.436746 0.660919 1.604178 -0.065882 1.250844 -0.382028 0.114848 0.208392 0.528543 0.831856 -0.328506 1.263211 -0.573097 -0.882453 -0.006835 -0.922133 0.348433 -0.822499 -0.365032 0.925668 0.662719 -0.145138 0.276076 0.488128 0.486762 -1.818252 0.077088 -1.725827 0.640262 -0.907330 
3227 0.179583 -0.320292 0.336494 0.013146 0.466696 -0.519559 -0.562910 -1.456120 1.271922 -1.392018 1.849347 0.942920 -0.694499 -1.471504 1.207272 -0.800079 -0.679512 0.241369 0.021276 0.856399 -0.346990 -0.096121 -0.925555 -0.906970 0.072349 0.581604 -0.953617 -0.500245 0.947154 0.098962 -0.820142 1.213851 -0.260345 -0.158221 0.288773 0.992202 0.012166 -0.414591 0.408546 -0.006865 0.889356 0.514459 0.949754 0.349419 -0.285499 0.688914 0.001412 0.633012 1.192880 -0.475654 0.452545 1.153680 2.251712 -0.087222 -0.102306 0.550448 1.913714 0.395885 -0.516168 -0.607169 0.312454 -0.699442 0.842260 0.293456 0.063920 0.627076 -0.310199 1.038336 -0.188631 -0.381606 0.436114 -0.559188 -0.814741 0.288685 -0.806283 -0.270427 0.230455 -1.364468 0.008137 -0.423507 0.795763 -0.855738 -0.263184 -0.425802 0.284891 -0.345543 0.560462 -0.195706 -0.282847 0.551569 0.934875 -0.533827 -0.658588 0.458701 -0.247376 -1.094033 0.172644 -0.083114 -0.031628 -1.598601 
1587 -1.234910 -1.728268 0.119657 -1.590457 -0.458570 -0.012135 -0.082089 -0.037979 -0.161660 0.851616 1.762866 -0.121002 -0.324218 1.325901 -0.728838 -1.233386 -2.103402 0.080747 -0.123714 1.363562 -0.142225 -0.032196 -0.328261 0.610542 -0.546140 0.630792 0.056122 -1.234863 0.889316 -0.652761 0.635461 -0.657569 -0.074197 0.910078 -1.298996 0.015341 -0.718997 0.977096 -1.389344 0.281117 -0.223151 -0.530802 1.306443 0.265470 0.251208 -0.168326 0.422150 0.500193 -0.071019 -0.339630 0.620566 -0.120674 1.900557 -0.544981 0.548119 -0.223380 1.427141 0.588355 -0.004323 -0.837486 0.555928 -0.560557 -0.213377 -0.072832 -0.385861 0.556935 -1.030093 0.579144 0.426404 1.008992 0.847196 -0.517576 -0.047794 0.597375 0.481766 0.222970 -0.198979 -0.981582 -0.723173 -1.761869 0.246827 -0.079411 -0.716526 -0.270806 -0.470115 -0.603520 -0.820496 -0.032664 -0.200495 -0.394954 0.244862 1.019799 0.647680 -0.292024 -1.023718 -0.235417 -0.813989 -1.001281 -0.632442 -0.230207 
878 0.043171 0.430834 1.079435 0.364789 0.328146 0.882369 0.011685 -0.088663 0.574548 1.576777 -1.241616 -1.055560 -0.671047 0.927224 1.255914 -1.869051 -1.458872 -1.196578 -2.485636 -1.056568 2.296186 0.366091 -1.521571 3.370657 0.050816 0.599560 1.237204 -0.192860 -1.668023 -0.677726 -0.736028 -0.539524 1.940169 -0.383087 1.067365 -0.067893 1.248829 0.236927 0.013949 0.050685 -0.494341 1.503261 -1.888952 -0.574862 -0.316929 -0.080704 -2.156737 0.750514 -0.659025 1.019981 -0.522838 -0.531447 0.085569 0.387438 -0.650952 0.231699 -1.992203 1.565896 0.582228 0.566319 0.084535 0.500908 1.723972 0.637765 0.772509 0.024070 0.434129 0.895169 -2.283526 -2.055431 -2.059251 2.116126 0.896827 -1.474170 1.189109 0.507453 0.679200 1.174094 -0.707877 0.499828 0.555634 -0.302957 0.135001 -0.397985 -1.790469 -1.848823 -0.481340 -0.611873 -1.854625 -0.754850 -0.137930 -0.286158 -1.510814 -0.029864 0.184865 0.339271 -1.365048 -0.588632 -1.159854 -0.406187 
1595 -0.041675 0.106455 0.062271 1.782445 0.190507 2.174061 -0.923911 0.157103 1.733853 1.248177 -0.424722 -0.256179 -0.903070 0.555846 0.814391 -3.402103 -1.847375 0.269345 -1.753881 -1.786748 0.608924 -1.606284 -2.272022 1.004925 1.595577 0.700233 2.061283 -0.665709 0.289969 -1.613819 -0.492035 -0.673493 0.851265 -0.484767 0.899710 -0.878134 -0.833064 0.301087 -0.979878 0.367418 0.387559 0.819967 -2.582246 1.153004 -0.260062 0.151209 -0.942984 1.719123 -0.056271 1.462441 -1.355215 -0.127116 0.637923 0.418025 -0.775285 1.479854 -1.097044 1.714370 1.190426 1.259028 1.349278 0.004828 2.808810 0.179082 0.147145 -0.469144 -0.690815 0.313695 -3.059808 -2.003589 -0.858515 1.907826 0.083246 0.165266 1.428303 1.665860 1.031542 1.111718 -0.092525 1.891650 -0.385018 0.762110 1.175714 0.229646 -1.091914 -1.748846 0.561365 0.037626 -1.601922 0.747850 0.131123 0.442248 -0.276771 0.234521 -0.364374 1.506209 -1.444715 -0.049108 -1.057816 0.632823 
784 -0.303536 -0.702138 0.024007 -1.021391 -1.541969 -0.738536 -0.435375 0.727327 -0.763356 -0.382692 0.143793 1.284521 1.166690 -1.418263 -0.480159 2.294133 0.204144 0.039606 1.854754 1.856849 -0.331413 2.284049 -0.431113 -0.445301 -1.936194 1.214508 -0.582480 -0.522572 1.445917 -0.049095 -1.506446 0.183824 -0.000698 0.733733 -1.261356 0.243691 -0.328519 0.209589 3.651123 -0.841240 0.521786 -2.051282 1.629441 1.084817 1.401244 0.475316 2.488189 0.076727 -1.028910 0.476552 -0.032054 -0.076040 2.497820 -0.234026 -1.543114 -0.984015 -0.403486 0.705200 -0.702368 -0.369927 0.404010 0.463636 1.070775 -0.534656 1.088533 1.419071 -0.631748 -0.313456 -1.483640 -0.446764 -1.500714 0.846503 0.452545 -0.279337 -2.105582 -1.414058 1.162856 -0.338647 -0.985277 0.078628 -1.383059 -0.250977 -0.862029 1.347703 -0.123651 -2.588531 0.769576 -1.025036 -2.806407 0.105062 -0.385329 -0.119068 0.095563 -1.009106 -0.380765 -1.453414 -0.912737 -0.736441 0.366286 -1.976876 
809 -0.441633 -0.511947 -0.964810 0.794404 -0.110561 1.021011 0.623970 0.305071 1.513600 -0.995238 1.447402 0.090751 0.200147 -1.098858 1.651225 -0.352802 -2.079901 1.073477 -0.449230 -0.075865 1.458928 -1.046877 -1.064418 0.989644 -0.021736 0.100831 0.089131 0.068118 1.834197 0.434877 -1.214988 0.625356 1.062008 -0.286300 -0.540973 0.205330 -0.018164 0.283473 1.043669 -0.199647 -0.314020 -1.039609 -0.478744 0.652148 0.389507 0.685469 0.144922 0.087370 -0.659854 -0.196253 -1.083174 1.263797 1.037824 0.534319 -2.028451 1.304584 -0.338519 0.526967 0.604690 -2.056235 -1.502762 -0.730144 1.029814 -0.304200 1.888961 0.216273 -1.372100 0.910328 0.414832 0.415882 0.656508 0.709605 -0.780991 -0.809080 0.092977 -0.081155 -0.411989 -0.372642 -0.351729 -0.447928 -0.315305 -1.025568 -1.684094 0.542284 0.449157 -0.163490 -1.905083 0.935707 0.666083 0.791055 2.533429 0.341933 -1.759597 -0.417893 -0.039192 0.383806 0.086443 0.514892 0.193719 -1.859184 
571 -1.110064 -0.729906 1.560609 -0.115569 -1.134221 -1.185815 -1.460091 3.073145 -0.370139 -0.559205 0.336454 0.483138 1.334021 -1.590837 0.005446 1.946739 0.275308 -0.822096 0.723380 1.368474 -1.221806 1.348487 -0.578448 0.450419 0.408698 0.887625 0.717940 0.722128 0.538171 -0.851108 -1.025813 0.563277 0.978370 -0.265427 -0.655250 0.426728 -1.851503 0.083472 1.183584 -0.374645 -0.076656 -1.163130 0.405832 -1.272769 0.628991 0.548225 0.724161 -0.908180 1.170881 1.536334 -0.446214 1.152253 2.039512 -0.907867 -0.917215 -1.217860 0.847050 -0.749018 0.743275 -0.232137 -0.533062 0.527009 0.830780 -0.172415 -0.821495 0.876033 -0.104702 1.123873 -1.309179 -1.002969 1.330597 0.631688 -0.488871 -1.229573 -1.720331 -1.620468 0.332398 -0.238263 0.093454 1.028025 -0.590342 -0.096536 -0.167271 -0.010215 0.939588 -1.794700 1.885698 -0.433546 -0.413734 -1.489230 0.174928 -0.375269 0.977258 -0.147698 -0.253609 -0.088257 0.723006 -0.211219 -0.311871 -0.374238 
706 -0.574666 0.003554 -0.418423 0.043831 -2.411156 0.617302 0.824710 0.090802 3.086710 0.630680 0.508172 0.901414 -0.056615 -0.760406 -0.049032 -0.492591 -1.505377 0.728436 -1.239993 -0.159369 1.677450 0.483603 -1.398175 1.493302 0.381247 1.721440 -0.433795 1.295214 1.020007 -0.742088 -1.494807 0.170432 -0.381059 -0.891057 0.871681 0.430260 -0.620039 -0.001015 1.758214 -1.423859 1.888543 -0.184680 0.490891 -0.311672 -0.111844 2.033201 0.621610 0.997454 -0.372529 -0.177502 -0.118397 0.551485 0.766447 0.723240 -1.315799 -1.546576 -0.480794 0.623199 -0.118638 -0.730196 0.982404 -1.571511 1.036991 -0.059466 -1.251484 0.299456 -0.340825 1.741622 -0.790068 -0.901185 -3.779275 1.728570 -0.671049 -0.216001 0.726009 -0.134364 1.561014 -1.328743 -0.976066 -0.089511 0.800681 0.434967 -0.139558 3.816176 -3.335531 -1.302374 -1.435735 -2.282269 -3.154501 -0.348519 -0.014021 -0.310229 0.109446 -2.287756 -0.363991 -0.155524 -1.143105 -0.541844 -0.334051 0.841462 
679 -0.518308 0.062459 1.627485 1.177609 -0.102770 0.401725 -0.567008 -0.472662 -0.512843 -0.801564 -3.091978 -0.259958 0.374381 0.112568 -0.001474 0.747901 -0.966364 -2.624908 0.076951 1.400969 0.041341 0.491232 0.224510 0.138355 -0.334298 -1.406046 0.522657 0.380397 2.397069 -0.915276 -0.058231 -0.611513 -0.637349 0.291713 0.797743 -0.797634 -0.955957 1.609633 1.252493 -2.882898 -1.176891 0.611341 -2.246215 -1.093456 -0.355292 0.801157 -0.541275 -0.251909 -2.460997 -0.782784 1.423904 -0.050067 -0.052081 1.329528 -1.308393 -0.107467 -3.007549 -0.568195 1.634798 -1.809049 -1.956902 2.079645 0.738998 0.473033 1.363632 -0.340726 1.867933 1.861597 -1.259448 -0.527530 0.471959 -1.211165 1.579799 0.256331 1.338559 -1.115495 -0.458091 -0.595304 2.461019 0.202027 0.565266 -0.465042 -1.385015 -0.981254 -0.001361 -0.831727 0.782919 0.220071 0.375028 -0.182925 1.176059 -1.512930 -0.245647 -1.012991 1.880846 -1.104898 0.413395 -1.673380 -1.898889 -1.734307 
1859 0.456663 -1.002351 0.590802 2.043176 1.487462 0.405912 -1.539467 1.021367 -0.663472 -1.202351 -0.501442 -0.776266 1.007183 0.333593 1.350254 -0.948326 0.415965 -0.809462 1.667207 -0.672314 -0.630130 -0.642144 -0.022018 -1.332567 0.527968 -2.153296 0.133347 -0.166881 -1.191787 0.464857 -0.632492 0.953370 1.402284 0.751231 0.385712 -0.374311 -0.228732 0.154552 0.661750 0.286156 -1.371463 0.129783 0.973190 0.368551 -0.483433 -0.452080 -0.483580 -0.718629 0.241436 -1.417255 0.154583 -0.356134 -0.031513 -1.120792 0.654861 -0.436281 -0.337126 0.869793 -2.186063 -1.160241 -2.031964 0.849415 0.184220 0.495582 -0.313871 0.297920 0.431247 -0.432333 -1.389044 0.169128 1.341244 0.497175 1.214942 -0.674161 0.667980 0.389357 -0.992352 -0.032598 1.247998 1.297568 1.875020 0.264979 -0.599957 -0.789662 1.391465 -0.171468 0.866007 0.076588 -0.191689 1.309051 -0.172123 -0.113824 -1.255109 1.131211 -0.868238 -0.409754 2.089715 -0.942933 0.358497 -2.246619 
858 -0.471039 0.405736 0.321167 0.829945 0.452380 -0.455666 -0.922401 -0.097406 1.767245 0.509044 1.457110 -0.240415 0.340147 0.121000 1.596177 -1.703079 0.522792 -1.095504 -2.009516 -1.482776 2.022339 -0.237322 -1.536553 2.599621 1.147721 0.146975 1.000649 1.028101 0.045294 -0.639841 -0.672350 -0.469252 -0.219755 -0.531509 0.461458 0.217262 -0.053717 1.306551 2.704252 0.168570 0.190056 1.817479 0.120269 -0.707760 -0.088718 0.878613 -1.592927 0.231804 -0.531850 0.312090 -2.120941 -0.576002 2.253059 0.972358 -0.727891 -0.567936 -3.360642 1.542145 1.446014 0.880431 -0.003822 1.135318 2.313535 -0.201013 -0.860395 0.897294 1.226412 0.882446 -2.315440 -1.788903 -3.108047 1.579718 1.640983 -1.018449 1.346956 1.165177 0.578898 0.834290 -0.356059 0.710737 -0.704102 0.248801 0.335543 0.592821 -1.282899 -1.284774 -0.600555 -1.067820 -1.386303 0.669660 0.641358 -0.330491 -1.622071 -1.681001 -0.076285 1.367218 -0.049368 -0.182512 -1.340342 -0.338198 
1462 1.916314 -0.610946 0.329971 0.037298 0.350925 -0.998304 -0.735895 0.465939 0.824632 -0.247473 1.629306 0.278330 0.043995 -0.358168 0.760143 -0.388481 -1.012477 1.318594 1.866395 1.198162 -0.037269 -1.103763 0.166907 1.519294 0.941952 2.246771 -0.796841 0.253052 0.911734 2.436402 0.204146 1.172649 0.549233 -0.640129 -1.186327 1.360412 1.054735 -0.918789 -0.528509 -0.028983 -0.776583 -1.296598 0.384607 1.572197 -1.188884 -1.055691 0.003157 -0.672962 1.419299 -2.333768 -0.685683 2.796610 -0.519639 1.048001 -1.519863 -0.493553 -0.509271 -0.720153 -1.157717 -0.059379 0.263861 -1.034836 0.522675 -1.559335 0.881407 0.591401 -0.507997 -0.361495 2.009185 1.031867 0.871880 -1.149216 -2.893341 0.128937 -1.432879 0.120794 -1.309330 -1.896524 0.064560 -2.354202 -0.259064 0.091714 -1.011384 -1.042957 1.027144 0.276766 -1.127595 0.862935 1.319022 -0.291914 0.066887 1.047139 -0.818729 0.080900 -1.930071 2.150988 -1.856365 -0.595849 -1.253657 -1.750937 
1927 0.033124 0.258288 0.502479 2.366885 2.125303 0.098996 -1.915856 1.519741 -1.716587 0.752598 -0.519423 0.143068 -0.665764 0.682221 -0.531898 -1.741991 1.135238 -1.829160 1.430844 -1.270175 0.394398 -1.392853 -1.225857 -0.991429 -0.727826 -0.958680 -0.890562 -0.354144 -0.263310 0.417035 -0.182023 -1.149660 1.358405 -0.573833 -1.294923 -0.967348 0.141765 -0.000202 1.671301 0.043108 -1.958725 -0.933460 -0.186830 -1.479757 0.697997 -0.871640 0.570628 -2.091789 2.131110 2.637887 -2.084375 -0.887786 0.557662 0.710981 0.188166 -2.149764 -0.415592 -0.585028 -0.270170 -0.362603 -0.397874 0.556065 0.930640 -0.873414 0.527124 1.111175 0.259908 0.255618 -0.756521 -0.281042 1.389430 0.299203 1.592978 -0.499526 0.398623 -1.539491 0.451749 -0.934815 -2.216249 0.812846 0.125266 -1.993625 -2.158265 -0.444995 0.311219 0.721677 0.828205 -0.631807 0.924723 0.104062 1.157507 0.205300 -0.504472 -0.759123 -1.107586 -0.518361 -1.006605 -0.415650 0.780712 -2.559257 
643 -1.226699 -0.441579 -0.653048 -0.086512 -3.457708 -1.087151 0.151375 0.519739 0.141743 -0.832464 0.298665 -0.433993 -0.326129 -0.434237 -0.730932 1.363909 0.700046 0.580738 0.698603 1.284791 -1.123891 0.277758 0.184590 -2.057627 -1.218342 -0.292218 -0.261700 1.379655 1.894173 0.544322 -2.082920 1.475366 1.170985 1.167441 -1.181325 -1.294263 1.006421 -1.226669 0.930580 -0.846187 0.458270 -1.193280 1.558325 0.499788 1.235034 0.907108 2.646269 0.583182 -0.297311 -1.798702 2.315707 0.227711 0.485167 -0.540897 0.891133 -1.417894 0.612037 0.819108 -1.309915 -0.795035 0.013513 -0.411024 0.972636 -0.067681 0.990685 1.844134 -0.706412 0.769204 0.200656 1.874695 -2.524900 1.087399 0.284099 0.213540 0.109569 -1.425906 2.627893 -1.028115 -0.777516 -0.740319 -0.152469 -0.733487 -0.610625 0.775261 0.736493 -1.620116 0.334008 -0.485160 -1.855366 -0.766947 0.013503 -0.097780 1.211565 -1.665460 -0.587532 -0.668752 0.386712 -0.766320 0.206946 0.170693 
1919 -0.175872 -0.206472 -0.241806 -0.721185 -0.501122 -0.134631 0.357183 1.206375 -0.192973 -1.744267 1.840260 0.424873 -0.057417 -0.434018 1.039920 -0.113754 -1.049361 0.962022 0.742816 1.836972 -0.559812 0.982565 -1.069471 1.677364 0.221228 0.047658 -0.120723 1.017778 1.452845 0.980594 -0.372754 0.984353 0.156021 0.366238 -0.364305 0.432523 0.410975 0.053802 0.180424 -1.434961 -0.565538 -2.003376 0.329880 -0.484316 -0.989126 0.925548 1.101253 -0.036607 -1.077624 0.727073 -0.073640 0.510624 1.041960 -0.075239 -0.987213 1.525787 0.729152 -0.759979 0.563019 0.504149 -0.290211 -0.952040 1.227083 0.585342 0.102661 0.316030 -0.435126 -0.058752 0.516737 0.186487 1.475986 0.351381 -2.068215 -0.313849 -1.999974 -0.557465 -1.738574 -1.754613 -1.475630 -0.771944 -0.227084 0.433064 -1.222796 0.007483 0.298353 0.386838 1.006826 1.126032 -1.111550 0.949616 0.570837 0.682363 -0.852886 -0.686065 -3.084421 -2.260103 -1.104574 0.679165 1.515849 -0.528247 
702 -0.528951 -1.022899 -0.207465 -2.721479 -0.382126 -0.242682 -1.204821 -0.489213 -1.145566 0.467141 0.905250 0.330687 1.452806 0.853085 -0.597920 0.959404 -0.489533 0.697166 1.109508 0.707086 0.266561 -1.459782 0.417917 0.812031 0.988620 -0.276686 -0.668715 -0.427631 -1.210290 -0.442214 0.457534 1.343537 -0.751409 1.689018 -1.740019 -2.747089 -0.746788 2.339634 -1.232732 1.710757 -0.670966 -2.413043 1.470946 -0.338043 -0.350421 -0.616491 1.802421 -0.072013 -0.999252 0.310022 2.521554 0.426203 -0.385010 0.685536 0.366943 0.665821 1.025991 0.467135 -1.519086 -0.125262 0.024998 1.243973 -1.688856 -0.835804 1.791096 0.594620 0.804538 -0.058811 2.461874 0.168857 2.538050 0.623560 -1.729345 0.103194 0.358440 1.624141 -1.633041 -1.372994 -0.272539 -0.519893 -0.407596 -0.846378 -1.665894 0.293931 0.569180 -2.123456 -0.020219 -0.359029 -2.064816 1.317591 0.215606 0.417345 -0.895805 -1.721184 -1.909937 1.228969 0.371267 0.903800 -0.831379 0.882736 
786 -0.660585 -0.384865 1.870165 1.152569 -1.209153 -2.246130 0.681011 -0.652553 0.267154 -0.798387 0.401930 -1.994179 -0.754364 -1.162655 0.287041 -0.887422 -1.117231 -0.948375 -1.129782 -0.642290 1.780660 0.709702 -2.151218 2.177986 1.038455 0.434612 1.304149 -0.268560 -1.542966 -0.640099 -1.793594 -0.708032 0.018510 -0.759860 -0.582805 -1.360085 0.904480 0.464603 1.636461 -1.408997 0.982809 1.390581 -1.266655 -1.337235 -0.534236 0.096518 -0.014245 1.168879 -0.265737 0.472380 0.000054 -1.376958 1.280099 1.061357 -1.155319 -1.441062 -1.764407 0.940879 0.897481 0.856051 1.432498 -0.081585 0.760239 -0.085697 0.137009 0.181167 -0.322861 1.355946 -2.464820 -1.136432 -1.532168 -0.624719 1.001758 -1.211613 1.693270 1.176936 1.369523 -0.287640 1.798916 1.140490 -1.718668 0.053939 -1.137837 -0.110468 -0.600327 -2.387317 -0.991506 -0.455161 0.245625 -0.925439 0.307792 -1.276076 -0.123696 -0.405381 0.918209 0.479688 0.101127 -1.464914 -0.156578 0.082132 
743 -1.030954 -2.034410 -0.773162 1.083342 -0.037996 -0.350025 -0.496659 -1.004902 -1.110371 -1.443908 0.017365 0.318270 0.127723 -0.884427 -2.150411 0.789204 0.243578 0.710344 1.760397 2.547570 0.646702 0.818753 0.732554 -0.291880 -1.458024 1.329432 -0.724497 -1.295463 1.244910 1.025922 0.554847 0.532885 0.411483 0.089747 -0.350858 0.152914 -0.625127 -1.461020 0.926794 -1.909738 -0.175875 0.531918 1.897421 -1.174715 1.752079 -0.041525 2.236701 0.775450 -0.436711 -1.237411 0.296642 0.325786 1.733751 0.815322 0.538805 -0.128949 1.930492 -0.653232 -0.718367 -1.308145 0.763414 0.516931 0.050375 -0.078806 -0.473772 2.421632 1.000989 -0.958763 -0.711705 0.860078 -0.893672 -0.394714 0.126770 -0.950040 -1.388885 -2.131063 1.943441 -0.245466 -1.428908 0.801918 0.124228 -0.937218 -0.494335 2.217238 0.641731 -2.015602 0.342441 0.102453 -2.363175 -2.881095 -0.011526 -0.984140 -0.551226 -1.255448 0.426736 0.646632 0.092693 0.349571 -0.555828 1.007399 
3399 -1.194401 -0.288988 0.339366 0.164239 1.193927 -0.715902 -1.043843 1.118245 -1.456032 0.419216 -0.631899 0.583178 2.245564 -0.149251 0.197639 1.405169 -1.162951 -2.622060 2.997188 0.567547 -1.660978 1.593762 1.897447 -2.245900 0.124299 0.197051 0.636321 -0.523842 -0.692637 -0.949100 -1.067777 0.246337 -0.450007 0.321695 -0.150388 0.532990 -1.218927 -2.352194 0.108022 0.690837 -0.071788 0.385407 0.901307 -0.624419 1.336136 -1.383009 0.447753 -0.193785 0.416750 0.739967 -0.841948 -1.452148 0.391119 -1.151921 0.067629 -0.445535 1.900876 0.501972 -1.500603 -0.609346 1.341245 -0.332409 -0.018380 -1.320881 -0.256763 0.020691 0.465446 0.299415 -0.396859 -0.807265 0.505435 -1.342744 -0.133494 1.525134 0.201434 -0.373705 0.841060 -0.874306 0.993131 0.005662 -1.320831 1.566325 -0.341719 -0.173855 2.348138 -0.025487 0.638394 0.544184 -0.201930 -0.564894 -0.799388 -0.100451 -0.717645 1.365055 0.428753 -1.814248 -1.055359 -0.991184 0.731743 1.206696 
620 -0.388652 0.216871 -0.956127 -0.313198 -1.622060 -1.503407 -1.018948 -0.703976 -0.405587 -0.626208 1.284226 0.085981 -0.333166 -0.480460 0.057312 1.342760 0.824290 -0.562322 1.107820 1.830846 0.531357 0.682809 0.320589 -0.250152 -1.843939 -0.094907 -0.502648 -0.264947 0.514465 -0.435279 -0.184163 -0.587764 -0.995904 1.006297 -1.493211 -0.166716 1.359268 0.453716 1.630782 -0.398723 0.037752 -2.874581 1.108460 -0.026648 -0.437012 -0.202013 1.826308 0.986678 -0.287193 0.170522 0.511974 1.615652 1.647102 0.025689 -0.703887 0.666129 1.497053 -1.891846 -0.308409 -0.738863 -0.127765 -0.445985 0.167744 0.213407 -0.497551 0.669551 -1.083305 -0.135566 0.147719 -0.319118 -1.071473 0.357460 0.231672 1.046185 -0.337351 -1.517650 1.164725 0.070742 -2.758284 1.155741 -0.865775 -0.252399 -0.446857 0.478111 0.710086 -1.121796 0.985725 -0.963817 -1.689265 -0.993730 0.548072 -0.522828 -0.968408 -0.425660 -0.436245 -1.284078 0.491203 -0.662680 -0.190565 0.205033 
3187 0.082043 0.694276 -0.147617 2.885869 0.040227 0.867533 -0.028771 1.692109 -0.221529 -1.632430 0.465503 0.990962 -0.988898 -1.322473 0.442670 0.289214 0.579848 -1.119107 0.933720 -0.108598 -0.371472 -1.103384 0.500968 -0.974572 -0.433556 -1.748214 -0.411217 -1.387828 -0.722085 0.329202 -0.901127 0.268010 0.468081 1.332415 -0.032497 -0.439933 1.255269 0.635114 0.905385 0.925614 -0.588165 -1.221014 2.247510 0.469111 0.890304 -0.779080 1.311695 0.344240 1.393214 1.285568 -1.090171 -0.340469 1.066530 -0.601190 0.866803 0.345954 1.994497 1.296826 -0.421394 0.507338 -1.466408 0.312294 -0.597398 1.638211 -1.627659 -0.030664 2.045553 0.235988 -0.426808 1.917918 1.848136 1.338091 1.251976 0.504855 0.780070 1.120593 0.889935 1.078851 0.916172 0.510588 0.607255 0.824203 -1.338867 -0.612497 1.841498 0.502931 2.073883 -0.017993 -1.562196 0.971692 -0.374048 0.102750 -1.083784 -0.717639 -1.627391 -0.084953 -1.635474 0.133863 1.491774 -2.019840 
3904 -0.450826 0.143268 -0.690565 0.214692 -0.765875 0.487594 -1.239353 -1.696536 -0.104507 0.594417 0.116472 0.201478 0.600184 0.110202 0.784599 -2.245480 -0.440350 0.187401 -1.106335 -0.205918 0.498069 -0.608038 -0.542277 -0.563393 0.269692 0.929558 -0.148869 -0.687049 -1.798725 -0.286991 0.278714 -1.889506 0.332666 -0.104009 0.467505 0.124765 2.094466 -2.016917 0.161641 -0.006265 -0.301659 0.825230 -1.241367 -1.065276 -0.562534 0.611099 0.196253 1.619660 -1.019289 0.379670 -0.846081 -0.054540 0.510237 -0.377345 0.662113 0.068073 1.919584 1.499542 1.929438 2.190371 0.983069 -1.635922 -0.572828 1.652082 -0.591917 0.890187 -2.605464 1.279010 -0.175677 -1.189090 -2.012346 0.511823 0.246059 -0.749701 0.746510 0.373054 2.971404 1.100399 -0.891756 -1.453008 0.386709 1.319008 1.091246 3.353125 -1.453924 -2.322261 -0.407281 -1.124756 -0.648637 -1.984830 -0.560881 0.890444 0.894336 0.593189 0.806750 -0.607729 -0.987135 -0.659168 0.087093 4.173581 
4451 0.155575 -1.432217 -0.784948 0.269970 0.886194 0.196958 0.296939 -0.694888 0.259528 -0.549730 -0.370363 -2.064296 -0.952577 -0.231399 0.934780 -0.310324 -0.741096 -1.338573 1.039888 0.499133 -0.293067 1.463938 1.735352 -1.005678 -0.991807 -0.083775 -0.944998 -1.815995 -1.632652 0.077320 -0.346644 -1.512274 -0.572887 1.595005 0.586285 0.551617 1.034372 -0.296193 -0.925338 0.150710 -1.553272 0.314302 -3.039943 0.192378 -1.201151 -0.538174 -1.087304 -0.437479 -1.475189 0.296189 3.533287 -0.487135 -1.197954 -0.683205 -0.367695 0.836854 0.267488 0.099597 -1.237927 -1.429618 -0.590284 0.305194 1.469504 -1.645191 0.005009 -0.144571 1.140790 -0.419893 0.025633 0.786042 3.174757 -1.688598 1.741692 0.671104 1.326154 -0.057827 -0.338046 -0.132999 1.175333 1.451216 0.917385 0.603444 -0.523641 -1.187194 1.329115 -0.300198 1.432730 0.271387 2.461709 0.124286 1.311658 0.590465 0.525785 1.742313 1.093304 -1.618602 1.513776 -1.876171 -0.623381 0.319970 
824 -0.038849 -0.851494 0.093803 -1.892296 0.069280 -0.704831 -0.871608 2.165266 2.105898 -2.717633 1.663692 0.144529 -0.415352 -0.244028 1.323613 -0.249773 -1.742045 2.121301 0.800058 1.895255 1.140466 1.091782 -0.099749 2.524659 -2.089589 1.238608 0.097936 1.054772 0.583019 0.549360 -2.130625 0.491231 0.269994 0.977909 -0.947664 1.524939 -1.369192 1.260524 0.390868 -0.008057 -0.663097 -1.757073 0.093828 0.659779 -0.823866 0.781709 0.254355 0.535661 -0.364974 -0.505227 -2.490411 0.894820 1.305404 0.826140 -1.103990 -0.230272 0.202094 0.686770 2.143485 0.002558 1.468292 -0.732938 0.655499 -0.216227 1.529141 0.441650 -0.712878 0.753976 1.017413 0.750003 -0.164186 0.323820 -0.788839 0.050972 0.574279 1.107862 0.166803 -1.989347 -1.216071 0.034741 -0.540561 -0.498004 -0.210938 1.952912 0.217931 -0.085258 -1.732948 0.958026 -0.428632 0.467015 -1.121655 -1.109032 -0.762298 -1.915462 -2.533642 -0.699814 -0.986180 1.322872 -0.298896 -0.364209 
5525 1.352203 -0.883235 -0.200714 0.960391 -1.152058 -0.328369 0.193912 -0.948898 -0.699955 1.607429 0.641520 0.797552 -1.357255 0.437642 0.558121 -2.106438 0.246809 0.339036 -0.431091 1.995817 0.422416 -0.267474 1.093756 -1.414773 -1.686012 -0.401567 -0.702908 -1.214798 0.701792 -0.310825 -2.317552 0.805664 -1.149223 -0.290354 -0.077700 -1.052671 1.459715 -0.360380 -1.523212 -0.650751 1.748288 0.987694 1.460244 1.920863 1.281218 -0.557355 1.295241 -0.250383 0.838187 1.305926 2.116827 1.225929 -0.308359 0.310876 -0.266802 -0.120883 2.253877 -0.571186 0.357382 -0.531314 -0.963743 -0.239993 0.811195 -0.298270 0.024981 1.345860 -1.359176 0.637278 -0.349675 1.414566 0.061823 0.082136 -1.450661 -0.451295 -0.640610 -1.989955 0.202966 -0.331350 -0.865022 0.889903 -0.219629 -1.339316 0.125475 2.641087 -0.177427 -0.369485 -0.955206 0.489647 -1.457412 -0.663685 1.472850 0.674405 0.864115 0.957578 -0.381897 -0.387834 1.682317 -1.361058 0.386167 0.040168 
3464 -0.002153 0.937215 -1.047830 0.994807 0.721983 -1.305112 -0.913595 1.025845 1.032855 -0.378931 1.208166 -0.041603 0.865460 -0.244757 -1.406034 1.296769 -0.230134 -2.982216 -0.047273 -0.352415 -1.571184 0.652878 -0.302403 0.643072 -0.084239 -1.219283 -0.556028 -0.004633 -1.034713 0.459409 0.708474 0.748949 2.581686 -0.210461 -1.076633 -0.561833 -1.631351 -1.223716 0.595789 0.632938 -0.181636 -0.230032 -0.387725 -0.356278 0.808460 -0.255094 0.225153 -1.599906 0.936666 1.037027 0.960101 -0.009456 0.334888 -1.193756 -0.077931 -0.028048 0.457609 -0.719975 -0.289872 -0.510346 -0.286502 -1.666574 -0.059105 -2.609980 -1.315243 0.241580 0.554026 0.884753 0.573769 0.784785 0.978144 -0.213627 0.041719 0.991505 0.142657 -0.226717 0.141188 0.538645 2.759894 1.085574 0.787379 0.776762 0.564810 -1.634087 0.960180 0.256156 1.087595 1.585301 -0.421411 -2.063039 1.645254 0.064839 2.281314 1.251268 0.722552 -1.486256 1.064863 -1.589080 -0.575521 -0.182845 
664 -0.291015 0.296676 -0.058731 -0.269981 -0.861322 -1.189830 -0.202835 -0.183683 -0.161187 -1.454994 2.127416 0.020088 -0.335892 1.425227 -0.404650 0.228456 -0.891091 0.982850 -1.196839 1.735738 -1.052797 0.399233 1.126526 2.382529 -0.657993 1.668537 -0.869062 -0.219346 0.411082 0.070782 0.566543 2.309872 -1.552372 -0.333682 -1.344277 -0.807568 0.396898 0.433942 -1.245341 -1.001654 -1.932347 -1.423895 1.866260 -0.335711 -0.300732 -0.686733 1.212000 -0.646852 1.577983 -0.148319 0.614316 0.637246 1.266447 -0.949061 0.746500 -0.033558 1.055695 -0.929897 -0.799030 0.691883 -0.381882 2.450872 0.133322 -1.531278 2.164640 0.271267 -0.156264 0.133250 2.381747 0.937942 2.469727 -0.751931 -1.432695 -0.199748 -1.356737 -1.997200 0.114835 -0.374482 -2.083930 -1.524570 0.015117 -1.075959 1.101463 0.862696 0.121662 -1.177521 0.153810 1.355922 1.977950 0.008977 -0.103025 0.228087 -0.212623 0.094884 -1.562160 -0.138552 -1.785442 0.258577 -0.740265 -1.062880 
3556 -0.107548 -0.536564 -0.017431 -1.480281 0.094267 0.312036 -0.690295 1.154833 1.062983 -1.261329 1.634483 0.753304 -0.045633 -1.053624 0.552169 0.685033 -1.494671 1.206223 0.264859 1.969288 0.672806 -0.116048 -0.697646 0.662001 0.705856 2.609101 1.200236 1.695218 -0.295910 0.847866 -0.366071 -0.828410 -0.610896 0.434173 -0.494612 1.147573 0.469905 -1.284366 -0.725235 -0.129545 -1.009116 -0.954262 1.259246 0.045374 0.648154 -0.849928 -0.543881 0.247158 0.632494 0.347814 -0.827895 1.896018 0.183318 -0.174430 -0.580800 1.889510 -0.827554 -1.376555 -0.768103 0.702572 0.992147 -0.536393 -0.042811 -0.184542 1.001559 0.877308 -1.187892 -0.926626 3.403162 1.879720 1.404407 0.068414 -3.125110 -0.775119 -1.101868 -0.215600 -1.501864 -0.963422 -0.527584 -1.383205 1.399436 -0.811040 -1.102674 -0.390814 1.442197 1.666571 -1.049842 1.498210 -0.136007 -0.221188 -0.359479 1.053217 0.888216 -0.949802 -1.839395 1.030806 -1.011451 0.640083 -0.750252 0.252109 
3606 1.767379 -0.545199 -0.430692 -0.027936 -1.623362 0.090134 -0.248875 1.286459 0.562473 -0.669597 1.174777 1.045481 0.321169 1.776073 -1.044709 -0.973308 -1.419219 0.846366 0.206133 0.749527 -1.629172 -2.037635 0.507113 -0.268585 1.363884 -0.820622 0.233107 -0.287882 0.616534 0.550228 0.657447 -0.364349 -0.703850 -0.743525 0.234491 -0.903829 0.590706 -1.111247 1.107312 0.881001 -0.248481 -0.294325 -0.976797 0.510481 -0.943827 0.397467 1.526191 0.318166 -0.509646 2.791290 -0.102204 0.785403 2.383475 -1.303014 1.124408 1.593449 4.509201 1.694505 -0.443765 -0.200889 0.336414 -0.214334 0.642993 1.372175 0.514296 -0.449158 0.046458 0.137581 0.365115 0.382684 1.183907 0.542953 0.572858 -0.296753 -1.711568 -0.031065 -0.165723 0.172584 1.896045 0.242159 -0.312364 1.103643 0.066833 -0.399076 0.635863 -1.189496 0.430272 -0.174520 -1.287241 1.164013 0.134548 -0.555380 -1.286772 -2.272345 -0.719978 -0.341996 0.378152 -0.331381 0.692426 -1.997901 
2314 -0.421678 -0.213458 -0.050145 1.419486 -1.159775 -0.584056 -1.316574 -1.604683 -2.003612 -0.513346 -0.703284 -0.840233 2.602000 -0.598977 0.653470 0.149642 0.038248 -1.158803 2.919523 1.436890 0.136398 1.119645 1.180050 -1.479118 -0.612666 0.099874 -1.266526 -0.829773 -0.230834 -0.226562 -0.525013 -2.411821 0.715872 0.624640 -1.037049 0.429996 0.131903 0.114950 1.214702 -0.819318 0.682932 -0.207305 0.661826 -0.609607 1.252230 0.947660 1.821738 1.464248 1.287734 0.735928 -0.327529 -0.552046 1.347084 -0.396295 -0.630686 -0.603867 1.579380 1.561411 0.515985 -1.215196 0.344805 0.484172 -1.286428 -0.039613 -0.842614 -0.073966 -0.195477 0.260244 1.805002 1.791778 0.002820 0.260543 -0.647889 -1.665846 0.702588 0.213652 0.576006 -0.219355 0.077731 0.517356 0.990454 0.224936 1.384926 1.840710 1.890342 -0.760458 0.433448 -0.331615 -1.021299 -1.842959 0.108055 -0.230095 -1.196076 0.220943 -1.478604 -2.014990 0.335369 -0.645997 -0.924195 2.228110 
573 0.374465 -0.912862 0.305893 -0.049194 -0.011870 -2.854218 0.065352 2.213533 -0.671957 -1.758447 1.451527 0.731179 -0.428380 0.246486 0.212695 0.223673 -0.997782 0.813650 2.139611 -0.276597 0.143273 1.543869 1.350156 2.073837 -1.578839 0.796269 -0.697462 -0.749104 0.840242 -0.270150 -0.863444 0.286444 -1.165780 1.448067 -0.050369 0.525953 0.469679 -0.188854 -0.229343 0.021979 -0.144467 -1.595986 1.814580 1.408293 -0.147833 2.226628 2.048851 1.087761 -0.183055 1.232536 -0.033551 1.471286 0.264342 -0.020472 0.631619 -0.397491 0.371575 -1.215392 0.230303 -1.011748 0.043366 -0.799540 0.331972 0.615875 -0.368782 1.504122 -1.142551 1.822529 1.081398 1.432671 0.277942 -1.028991 -1.402699 -2.234651 -0.885621 0.224035 0.819523 -0.076090 -0.214443 -1.894930 -0.272409 1.449929 -0.584901 -0.652588 0.108098 -0.589831 -1.587604 1.552103 -0.871875 1.640468 0.623109 -0.820308 -0.190336 -0.818537 -1.958923 -1.348942 -1.608706 -1.183067 -1.333161 0.381402 
1996 -1.392426 1.937326 1.299338 0.267559 0.640404 -0.200015 -0.528363 -0.544764 1.279487 -0.836315 -1.503742 -0.894436 0.021448 -0.900846 0.634452 0.306489 -0.586486 -4.015409 2.690218 -1.494434 -1.705419 1.867157 1.121934 1.020427 -2.747755 -0.681804 0.470754 -0.602802 0.689102 -0.525095 0.347853 -1.924728 1.263826 -0.007114 -0.069303 -0.702307 -0.874087 -0.300185 -0.000266 0.639482 -0.858489 -1.265273 -2.024670 1.249421 -0.974212 -0.011916 0.812055 -1.138914 -0.047268 2.128883 1.783602 -0.239129 -0.363247 0.284454 -1.178096 -0.683338 -1.487677 0.580422 -2.002852 -0.902092 -0.259298 0.233660 -0.379504 -0.059251 1.626537 -1.155850 -0.211677 0.516785 -0.148542 1.336134 1.191483 -0.982845 1.469180 1.005454 2.514971 -0.028973 -2.639559 0.468762 2.880806 0.650487 0.695189 -0.537669 0.191306 -1.390919 1.464113 -0.230878 -0.381715 0.296785 0.777616 0.021145 -0.083828 -1.640859 0.173674 0.591679 0.536231 -0.807931 0.533404 -2.764580 -1.048184 -1.933725 
567 0.028349 0.131410 0.638957 1.886374 -1.068207 0.808259 1.012323 1.028957 1.139855 0.952737 -1.293960 -0.213016 -1.483863 0.856903 1.489359 0.417896 0.278752 0.825097 -1.802554 -1.166902 3.421471 -0.220228 -1.963517 2.928076 0.980210 0.193542 0.823664 -0.285220 -1.339870 -1.404750 0.792866 -0.851232 2.480037 -1.832028 1.059170 -0.875058 -0.587972 0.173855 -0.195572 -1.406271 -0.755220 0.734955 -0.900065 -0.304343 0.025749 0.349840 -1.821931 0.799896 -1.051727 0.405682 0.014001 1.128101 0.606801 -0.125295 0.316780 -0.225355 -1.365749 2.310032 2.267302 3.148999 0.093043 -0.914273 2.629663 1.146995 -0.138804 -0.100366 1.377109 2.151928 -3.106064 -2.107404 -1.956202 1.092569 0.575586 0.765041 1.645551 3.343657 1.466700 1.354071 -0.329391 2.772494 -1.499974 -0.102091 -1.312109 0.945441 -1.957214 -0.537098 -0.417398 -0.762335 -0.778229 2.111062 -0.443066 -2.009051 -1.909354 -0.205899 0.651871 -1.385613 -0.061230 -0.847011 -0.215625 -0.312389 
4180 -0.140357 -0.648377 0.314309 0.036565 0.504922 -2.244930 -1.923347 0.610753 2.373499 0.293511 1.214255 -0.485487 0.637740 0.513176 -0.658790 1.224288 -0.889444 -0.548833 1.006623 0.513000 -0.891060 0.602584 -0.156711 -1.725368 -0.094636 -0.483100 -1.248873 -0.846455 -1.343399 -0.217214 -0.283139 1.498233 0.289293 0.152333 1.302185 -1.244114 0.478297 -1.089749 -0.846668 1.217169 0.238339 0.500733 -0.969130 -0.588358 1.018997 -2.304641 -1.382112 0.745379 0.723755 -1.799638 0.062881 -0.671690 -0.567542 -1.670284 1.792123 0.761787 1.227468 -1.310493 -0.584997 -0.113448 -0.285704 0.180381 0.621129 -0.933160 0.023277 2.501299 -0.310036 0.285995 0.284811 -1.101829 1.761538 -0.548962 -0.174409 1.473178 -0.754477 0.013160 -0.702451 -0.904254 1.845673 0.374600 -1.156277 0.799861 0.663969 -0.712229 1.391216 -1.407416 0.855563 -1.452763 0.479389 -0.949233 0.255569 0.613503 0.680314 1.154695 1.290912 -2.014667 0.719412 0.393090 0.085411 0.628074 
690 1.183307 0.622500 1.113920 2.105611 -0.306370 -0.227215 -1.155440 -0.068966 -0.095912 0.658545 -0.773543 -2.896287 -1.095711 -0.651965 -0.767688 -1.831457 0.221697 -2.628057 0.179664 -1.683149 -0.159975 1.044603 0.445871 0.184421 -0.281971 -0.700963 0.613674 -0.661217 -0.943384 -0.009860 -1.273944 1.392686 2.108032 1.221192 -0.169516 -0.358599 1.640131 -0.523466 0.854984 1.009621 -0.088720 -0.292523 1.798987 0.828908 1.585885 -1.507148 -0.075152 0.007710 -0.989690 0.209587 -2.803144 -1.020135 -0.497341 1.221160 0.031006 -2.383725 -0.672317 1.191709 0.718612 -1.098866 -0.605663 1.062254 1.385393 1.220312 0.734363 -0.310934 -1.379349 -0.108984 -3.074527 -0.562470 1.460829 0.782206 0.766513 -0.794808 1.914143 -0.485977 -0.162250 1.082595 2.561098 1.261033 -0.271971 1.325121 -0.473453 -0.917208 0.820238 -0.470045 1.041820 -2.114305 -0.148582 0.030771 0.437559 -1.718700 -2.187001 -0.886649 -1.300529 0.066919 -0.775021 0.553726 -2.385785 -0.511099 
1202 1.220003 -0.581998 0.027898 2.098118 2.198156 0.207037 0.428426 -0.211715 -1.070691 1.156708 -0.036315 -0.582807 1.028618 1.353957 3.094710 -0.619266 -0.093599 -2.069888 -0.245847 -1.598525 1.910450 0.052260 -0.852844 0.609351 -0.907098 -0.131927 0.757045 1.389382 -1.726075 1.147590 1.508623 -0.973695 1.307469 -0.430667 1.609988 -1.126305 -0.764507 0.662095 0.134864 0.392200 -0.484656 0.933509 0.043949 0.103251 0.434185 -0.037692 -1.607340 0.710174 -0.179955 0.277353 0.340694 0.538296 -0.811556 1.669960 2.218419 -2.159848 -2.614732 -0.717033 1.605898 1.227274 -0.176185 0.735422 1.856090 1.103551 -0.657001 -0.066676 0.073332 0.322146 -2.363769 -1.671012 -1.155584 0.621883 1.391423 -0.740923 1.448199 1.152036 0.205132 1.341168 1.191033 1.580667 -1.160485 -0.749784 -0.261095 1.304313 -1.465596 -1.692458 1.282608 -0.870626 -0.079925 0.642292 0.203153 -0.577887 -0.249357 0.171121 -0.144232 0.518296 1.981580 -1.026018 -0.551109 -0.223413 
2042 1.497623 1.367194 -0.835011 -1.347644 -1.897239 -0.549493 -0.549645 -0.562555 0.735904 1.635523 0.924435 0.645938 -1.196471 0.614026 -0.166946 -0.184896 2.342419 0.888102 0.582950 2.921046 1.467091 0.752039 -0.399831 -1.367078 -0.990935 0.703120 -1.607972 -0.349563 1.460968 -0.797174 -1.745221 0.912828 -0.944578 -0.818196 -1.486499 -1.691291 0.200072 -1.051893 -0.933660 0.848673 0.188343 0.811147 1.129785 1.105015 -0.548668 1.344063 1.945011 -0.519837 -0.674215 1.911847 0.101121 1.942927 0.246418 1.864915 0.814136 -1.382353 1.054680 -0.182928 1.386048 -3.226078 0.070132 -0.476201 -0.298267 -1.285152 -1.333953 1.503594 0.062081 -2.144281 1.145508 0.725854 -0.703024 -0.059915 0.339749 -1.583393 0.092508 -1.889530 2.332378 -0.754040 0.246427 -1.463828 -1.577664 -0.674270 0.803843 0.391684 0.305953 0.284428 -0.425285 -1.609559 -2.805946 -0.576320 0.478216 0.595497 -0.153902 -0.966950 -0.085398 -1.579720 -0.550815 -0.734591 0.288204 -1.414731 
630 -0.169971 -0.897276 -1.902448 -0.668111 -0.671443 -2.236751 -0.370758 0.040304 -1.336421 -0.453979 0.317904 1.115341 1.344283 0.090565 -1.579368 2.335130 1.422304 -0.395084 1.997422 1.940949 -1.505134 0.412586 -0.283746 -0.476334 -1.622887 0.387174 -0.385765 -1.497584 2.415104 0.073290 -1.692077 1.313354 -0.619234 -0.199944 -0.968691 0.861442 -0.575534 -0.376377 0.970066 -0.421102 0.469291 -1.609748 1.144465 0.185924 1.880980 1.852184 3.171778 0.463336 -0.994334 1.786250 0.106217 -0.323922 -0.230580 -1.288105 0.542872 -0.688186 1.504412 -1.831780 0.076474 -1.294146 2.573053 -1.154089 1.408467 -1.083888 0.506171 1.771213 -0.067169 -0.357412 0.114515 0.323478 -2.110165 1.451384 -0.082924 0.326532 -1.606455 -1.362217 1.885836 -0.944542 -1.886880 1.067593 1.045490 -0.970635 2.074793 1.267741 0.519527 -0.643922 1.515050 -1.268319 -3.152582 -0.589064 -0.559732 0.710591 -0.661562 -0.540122 -1.315393 0.498467 -0.749544 -2.023365 0.709013 1.577224 
6760 0.397169 -1.046883 -0.308653 0.943742 0.280827 -0.389497 -0.238280 -0.933883 -0.257668 -0.621907 4.374745 0.390787 0.690294 0.124180 -0.515031 -1.529030 0.360151 1.444888 0.315388 1.549681 1.263918 -1.756071 -0.055156 1.456890 -0.409269 2.398585 -1.566242 1.094858 -1.528914 1.450468 -0.041333 2.079317 -0.190326 -0.950944 0.283614 -0.075817 -0.615238 0.104345 -1.257280 -0.003521 -0.843626 -2.152637 -0.114730 0.210090 1.157205 1.141746 -0.699612 -1.753235 0.487958 0.255770 0.171901 0.179112 0.920963 -0.314989 0.816132 0.045927 0.941040 -0.824938 -0.079610 0.786291 -0.256255 -0.667401 0.986895 1.028843 0.472870 -2.441861 0.113916 -0.147935 2.191488 0.300239 2.137329 -0.195141 -1.932649 -0.077397 -2.031718 0.110810 -2.320727 -0.255822 -1.161363 -0.744005 0.392927 -0.099302 -0.529328 0.107435 2.652637 1.912046 -1.549749 -1.635941 3.182799 1.202405 0.781449 1.034913 1.938013 0.392403 -0.715091 -1.001909 -0.477696 1.972262 -0.978769 -0.863036 
2886 0.747894 0.619481 1.300081 -1.654038 -0.323523 0.124020 -0.501146 2.557654 0.253580 -0.401667 3.196911 -0.761599 0.323675 -1.124876 2.070961 -0.649785 -1.430188 2.342048 -0.002845 1.498696 1.271238 -1.914976 0.041472 1.577059 -0.986280 2.479410 -0.115541 0.930316 1.549607 1.782693 -0.261389 0.982906 -0.135220 -1.117573 0.432219 1.237752 0.987063 -1.031241 -1.493180 -1.123851 1.223970 -1.302153 -1.467479 -1.088500 -0.208663 0.949967 0.196445 0.214961 0.327823 -0.754928 -1.786404 0.666234 1.331312 -0.946615 -1.392640 1.541677 0.269872 -1.751752 0.432927 -1.598599 1.672316 -2.381414 0.676475 -0.024874 -0.757436 0.074224 -1.286605 0.046740 4.059978 2.067270 2.440983 -0.230570 -0.415874 -1.370575 0.538256 1.189242 0.607172 0.269886 -1.395261 -0.299669 -0.617396 -0.476211 0.164999 0.138197 1.545389 0.152768 -1.390936 1.720226 0.685611 1.924344 -0.043224 -0.694151 -2.633713 -0.626363 -3.124939 1.431600 -0.207860 0.872059 1.242902 -1.237545 
2072 0.686843 -1.642062 1.008412 2.235704 0.833028 0.904200 -0.138268 0.186988 -0.381708 1.580674 0.100071 0.579235 -1.072867 -1.437114 0.323672 -1.470508 1.390067 0.463032 2.022800 -1.405738 -0.689585 -0.020656 0.832580 -0.272480 0.404517 -1.127313 1.321734 -0.573503 1.476217 -0.309863 0.303366 -0.202626 2.167513 1.273457 0.193801 -0.873889 1.826035 -0.039505 1.282059 0.312933 -1.962049 -1.003303 2.334598 0.550076 0.660201 -1.352697 -2.678152 -0.300572 0.815495 0.071860 -0.846443 -0.895141 -0.502781 0.237983 1.060437 -0.042000 1.441897 1.532229 -0.071168 -0.752322 0.257442 0.764776 1.229096 -0.071735 -0.360034 0.373662 -0.017976 1.034591 0.606051 -0.892468 1.786365 -2.635770 1.100196 -1.292930 1.318745 -1.405496 0.918218 -0.147562 0.216408 0.740740 1.817379 0.614019 -1.218246 -2.531770 0.125602 -0.384059 1.329015 -2.098354 0.628050 -1.800184 -0.128771 1.114467 -0.987534 0.552850 -0.507201 0.500534 0.223039 0.019835 0.126595 -1.928550 
1101 -0.921691 -3.051190 -0.434305 0.130818 0.613114 -0.337437 -0.700913 1.631956 0.310881 0.896108 0.113718 0.842310 1.559786 -1.006708 -0.190300 1.754128 1.163252 -0.491263 1.126472 1.005903 -0.281269 1.368859 0.361707 -0.330778 -2.317674 0.695148 -1.028731 -0.689548 0.416741 -0.602948 -0.615148 -0.565383 -0.575240 0.342286 -0.090260 0.033455 0.917191 -1.728404 0.298796 -1.961597 -0.582420 -0.789933 1.469262 -0.248111 1.734308 -0.541683 3.761582 0.535704 1.443426 0.265487 -0.088186 0.573559 0.952298 -2.044808 -0.730849 -0.692981 0.529819 -0.635146 0.211592 -1.391962 -0.578062 0.230026 -0.548897 0.455125 -0.971054 -0.545891 -0.681747 -0.433888 -0.181030 0.430253 -0.939259 -0.540948 1.036279 0.872450 -1.952055 -1.828137 0.895514 -0.944303 -1.315118 0.096113 0.443385 1.526234 0.290329 0.987289 1.491203 -1.599009 1.708673 -1.306364 1.039086 0.003052 1.680627 -0.725667 0.135997 -1.126005 -0.407463 -1.086754 -0.346051 -2.854886 0.098015 0.762995 
984 0.329523 -0.434168 0.113850 0.878218 0.731020 -0.439657 0.203985 -0.027932 0.311495 0.329603 0.411287 -0.302058 -0.542764 0.521691 0.516493 -1.723312 -0.380112 -2.080484 -1.899099 -1.816084 2.547743 1.514624 -0.811533 0.929579 -0.213003 1.488170 1.108263 -1.046397 -0.752367 -1.677602 0.317542 -0.907937 4.664655 -0.539230 0.484150 -1.430830 -0.517298 0.666335 2.282173 -0.126959 -2.624655 -0.201495 -0.675041 -0.180164 1.023484 -0.719767 -1.030888 0.684624 -1.326443 1.928706 -1.310929 1.322780 -2.188569 1.547222 -0.412564 -0.905778 -2.216071 1.323112 2.121453 1.909591 1.534458 0.471293 2.804168 0.314339 -0.483686 -2.350728 0.258093 0.830211 -1.163571 -2.228927 -0.212835 0.853237 1.376916 -1.177035 1.249470 0.828725 1.290896 1.697813 0.310496 1.050587 0.419307 -1.477217 0.044282 0.004965 0.225058 -1.892627 -0.047168 -0.997141 -0.560310 1.170709 -0.054715 0.437206 -0.501738 -0.338926 0.733684 -0.103070 0.865299 -0.446954 -0.392734 0.251635 
2939 -0.855283 0.139289 1.519567 0.431244 -1.781424 1.048196 0.876906 -0.275850 0.900326 -0.909384 -1.912359 -1.044680 -1.084199 0.673638 -0.959491 -0.806955 -0.385162 -2.841282 2.732567 -1.571130 1.540669 0.931575 -1.845342 -0.471212 0.045960 -1.684594 -0.251031 -0.599692 0.719715 -0.809071 1.478725 -0.605072 0.215115 -0.181656 0.397131 -1.052183 -2.776756 2.681604 -1.027945 0.636100 1.408532 -0.568913 -1.819346 -0.029957 0.655745 1.128906 -1.182194 -0.869640 0.033608 1.098954 0.845405 -0.493303 -0.343903 0.951806 -1.804805 0.080797 0.230609 0.338177 1.080091 -0.812319 -1.785486 1.068989 0.503174 -0.480756 0.066171 0.115636 0.574129 2.168823 0.473100 -0.724926 -0.673083 0.659784 1.488945 -1.725337 2.111585 1.273077 -1.406330 2.051794 1.538478 -0.156847 0.735487 -0.180768 -1.715143 -1.368263 1.223499 0.599501 1.427855 1.246696 0.431349 1.462211 1.428874 -1.742286 -1.687343 1.112194 1.201917 -0.337085 2.053376 -2.133231 -0.896644 -2.338048 
1529 -0.427565 -0.455233 1.216588 -1.230734 -0.861575 -0.897617 -1.763984 1.040233 -0.108967 0.329077 1.988497 -0.023386 1.236621 0.440189 -2.416633 0.793317 -0.992101 1.601673 1.157489 2.482603 -0.075306 0.921917 0.864104 -1.936979 -2.223343 -0.519171 0.891889 -1.929921 1.603548 2.441992 -0.860166 1.712330 -1.294478 1.522151 -0.380165 0.826967 0.333274 -0.312337 1.297965 0.202929 0.600829 -2.205240 1.317093 0.962617 -1.312378 1.002291 2.807695 0.383005 -1.651098 0.303658 1.333455 1.069436 0.940812 0.345221 -0.208411 0.540405 0.596220 -0.079025 0.529657 -1.663451 -0.395188 0.238019 0.459248 -0.085604 0.867034 0.711021 -0.077494 2.351987 -1.801561 0.692395 -0.128702 0.517434 -0.949421 -1.030638 0.124714 -1.855965 0.614675 0.190274 -2.224192 0.233196 -0.262983 1.298004 0.117703 0.423108 -0.143826 -1.164222 -0.761611 0.712921 -0.968670 -0.000858 -0.709722 -0.856339 1.181809 -0.957561 -0.638474 -1.154007 -0.701831 -0.908317 0.656737 -2.055245 
3459 -2.003843 2.119289 0.934388 -0.140195 -0.738715 -0.420312 0.498478 -2.069311 -0.011603 0.999764 -1.665164 -1.626688 0.966671 -0.019668 0.947545 -0.125525 1.241227 -2.177418 0.271511 -0.083065 0.194756 1.176497 1.660531 1.359269 -1.449670 -1.120519 1.647834 -2.536568 0.932640 0.434254 0.805820 0.254719 -0.975057 0.156471 1.486298 -0.725913 -0.989389 1.198044 0.200023 1.367016 0.099569 1.931482 -1.409053 0.233789 0.152910 0.693779 0.889541 1.623824 1.644346 1.380532 -0.000692 1.017815 -1.355029 0.993627 -2.390726 0.423111 -1.680317 1.073178 -0.959781 0.141407 0.015695 0.191441 -0.503467 -1.020399 1.028263 -0.821817 1.237673 -0.506423 -0.557938 1.153972 1.802105 -2.030636 1.595984 1.039213 2.674538 0.009180 -0.805239 1.624608 2.155632 -0.365716 -0.081937 -0.566141 -1.037981 -0.531479 0.030342 1.465506 1.922664 2.173776 0.438089 -0.883752 0.513090 -0.141760 -0.345390 1.266531 2.534767 -0.962068 1.759353 -2.471034 0.434489 -1.787844 
4165 2.406975 0.031601 -0.931131 -0.180792 -0.458684 -0.928681 -0.234849 -1.078061 -0.068613 0.642953 3.456471 0.129464 0.519255 -0.138476 -0.951818 0.241570 -1.389002 -0.263391 0.914068 0.908634 0.954730 -2.397726 1.613046 1.193796 -0.249167 2.088359 1.333228 2.706951 0.366618 0.705620 -0.090716 0.769915 -0.212622 -0.943558 0.107442 0.509898 1.081159 0.110586 -1.733173 -2.682235 -1.581632 -0.388952 0.551721 -0.145514 0.028487 -1.923243 -0.523389 -0.556823 0.549495 -0.626953 -1.295996 0.994841 -0.780626 -1.914268 -1.594151 1.014750 0.203252 -1.706431 0.256330 1.418870 -0.050409 -0.862111 -0.949607 -0.688071 1.569358 -0.707562 0.585197 -0.272749 2.459085 -0.711489 0.941333 -0.412283 -2.571215 -0.809264 -0.490129 -2.016791 -2.251891 -1.248262 0.171732 -1.050630 -0.669076 0.681520 -1.123678 -2.188470 0.698806 1.759033 0.548652 2.255154 1.779173 -0.384316 0.304287 1.083455 -1.220641 -0.671314 -1.087393 -1.891732 -0.616518 1.521507 -0.616732 -1.682675 
3179 -2.612028 0.827391 0.882624 0.737107 -0.290788 1.008450 0.137073 -1.220603 0.035827 -1.443757 -1.256254 -2.077437 0.939254 0.717446 -0.555377 -0.946008 -0.634923 -2.600780 -0.301567 -0.927602 -0.596106 0.776529 0.878772 -1.438151 -0.165542 0.222435 -0.211920 -0.281063 1.452285 1.098953 0.222032 -0.410011 1.731035 2.163411 1.630723 -0.700254 0.003045 1.279570 -0.004797 1.313578 -1.179954 -0.791918 -1.354644 1.801934 -1.654657 -0.667812 0.279342 -0.077445 1.302802 0.414970 1.734435 -0.077277 -0.782738 0.532707 -0.125366 0.230118 0.160992 2.219714 -0.411629 -0.661662 -0.262700 -0.326313 0.864245 -0.500697 -0.187352 -0.249133 1.992720 0.520165 -1.480711 1.301988 0.703456 -4.504957 0.794214 1.093324 -1.164053 0.429179 -0.310144 1.404248 1.525545 -1.756684 0.412199 1.672329 -0.335570 -2.353264 0.845989 0.898988 -0.224522 -0.489319 1.321986 -2.133261 0.070091 -2.523299 0.326606 0.713680 1.250878 -1.011686 1.754169 -3.533192 -0.501247 -1.355061 
1120 -0.580096 -0.017140 1.101406 1.751384 -0.306487 -0.324469 0.956050 -0.207592 -0.514551 0.442989 -3.436645 -0.630679 0.383485 -1.543862 -0.837879 0.247953 1.670687 -1.388588 0.275913 0.565105 0.818280 0.618602 -1.433487 0.407653 -0.376374 -1.118903 -0.921896 -1.224415 0.619005 -1.159170 -0.096492 0.217620 0.325216 -0.057036 0.754133 -1.683447 -1.718394 0.831059 0.988363 -0.384331 -1.473901 0.165650 -2.164797 0.669122 -2.494533 1.961617 -1.260953 -1.118393 -1.162888 0.159846 1.469843 1.586408 -1.040543 0.802594 -1.656338 0.193086 -1.562778 0.122548 -1.656693 -2.080136 -0.516281 0.870435 -0.629764 -0.166257 0.289468 -0.322114 0.641042 1.262873 -1.007739 2.395198 -0.372493 -1.617158 -0.177052 0.387338 1.706024 0.975595 -1.640315 0.704031 2.285991 0.892361 0.241608 0.195520 -2.366227 -2.493267 0.299946 0.973162 1.252450 0.497150 1.527731 0.009938 1.044989 -0.907530 -0.968677 -0.032466 2.598619 -0.464808 2.613011 -1.223990 -0.389457 -2.330815 
3313 -1.578089 -1.631055 -0.414081 -2.134186 -1.887942 -0.284653 -0.851235 0.217506 2.192213 -1.423313 0.913161 0.878131 -2.689678 -0.692728 -2.890046 -0.598227 0.461839 0.607523 0.432741 0.748536 -0.509618 0.505904 -0.184208 -1.350521 -1.379158 -1.208856 1.894861 2.254796 1.870111 -0.590643 -1.095191 0.543156 -0.498769 0.297068 -0.239821 -0.308824 -0.513103 0.081930 0.824038 -2.852435 2.012941 -1.427237 2.657340 -0.494237 -0.480634 2.721546 0.180378 -0.893551 0.770125 1.564213 1.003915 0.100213 -0.990190 0.140268 0.631698 -3.266294 1.666673 0.862486 -0.382431 -3.084571 1.602878 -1.425245 -0.231703 -0.575025 -1.482896 0.500873 -0.290841 -1.046095 0.117139 1.638574 -1.951949 1.858775 -0.718375 1.409811 0.174673 -0.346513 0.956991 0.728705 -0.079897 -0.553719 -0.463535 -1.205668 0.828261 1.876099 0.102551 1.311339 -0.276835 0.573051 -1.974542 -1.490717 1.169670 1.494404 -0.600437 -1.225118 0.773267 -1.425813 -0.801685 -0.116849 1.800458 0.747762 
3740 -2.968309 -1.352380 -0.586774 -1.904337 -1.561881 -0.775609 2.225340 -0.015901 0.617021 0.366314 1.723708 -0.982908 0.336988 -0.748614 -0.442225 0.158486 -0.953326 0.369349 -0.198307 -0.187400 -0.180180 1.943813 0.336646 -1.175961 -1.609815 -0.458421 -0.895617 -0.001109 0.991318 -0.965671 -2.139901 -0.990992 -0.430425 -0.507249 1.290225 0.019588 1.855023 -1.775461 0.616295 0.578207 2.088131 0.101074 2.276800 -0.196373 -0.173862 0.760025 3.153286 -0.818390 0.971021 0.429647 0.708201 0.427307 0.062955 -0.790197 1.651428 -0.794836 1.490230 -0.272727 -2.219843 -0.685542 1.950196 -1.184812 0.667102 -0.087929 -2.527197 0.141537 -0.192648 -1.038170 0.955988 0.622846 -1.801936 0.767894 -1.300386 0.653253 1.065007 -0.840950 -0.981897 0.529039 1.422588 -1.729712 -0.168629 0.895315 -0.591937 0.985706 -0.261117 -0.168036 -0.844063 -0.106050 -1.406270 -0.989572 0.468986 1.543461 1.428234 -1.595806 -0.892894 -0.596283 -1.308357 -1.136879 2.050631 0.081147 
2057 -1.119146 0.807026 1.506020 0.838496 2.670283 0.421020 0.615265 1.545981 -2.341566 -0.524476 -0.057664 0.046502 0.659429 0.952430 2.578252 1.812447 2.356396 -1.921347 1.626324 0.131605 -0.059583 2.339862 -1.006633 -0.492137 0.571166 0.876235 -0.025446 -1.965688 0.610132 0.711422 0.429432 -1.195600 0.816775 0.736066 0.306908 0.134224 -1.021801 2.631186 1.996087 -0.817133 -0.356698 -1.038785 1.586023 -1.348614 0.484343 2.236963 -0.967711 -2.717785 -1.328496 1.214614 -2.119365 -0.180715 0.155723 0.974599 0.479171 -1.840331 -2.212121 1.011306 -2.205192 -2.147902 -1.796640 0.913034 -0.937741 0.996907 0.481737 0.116162 1.088386 2.776867 -1.849358 1.228128 -0.190156 -0.210244 0.163887 -2.450798 1.554038 -2.592857 -0.014113 -0.261926 0.642182 -0.077512 0.022459 -1.625398 0.169204 -2.078079 2.233852 -1.805027 -0.207624 -1.170480 -0.958067 0.317585 0.411626 -1.839643 -1.829179 -0.328706 0.582248 -2.158197 -0.477642 -0.218335 -0.799763 -1.231076 
2151 0.558959 0.253707 -1.042162 -0.533743 -2.893861 -1.237862 -0.889861 -0.085304 -1.166439 1.282655 0.920826 -0.098169 -2.078252 -1.071993 0.330365 -0.587605 -0.491331 0.292941 2.260313 0.966148 0.177566 0.212818 -0.305603 -0.132716 0.262299 0.390326 -0.046445 0.455098 -1.017199 0.414305 -0.872091 0.279531 0.248160 1.259511 -1.376219 0.500127 0.012499 -1.020584 -0.822088 -0.756976 1.296293 -0.740756 2.947494 0.300093 0.243521 0.177892 0.946547 -0.154304 0.452183 1.596581 -0.292917 -1.163265 0.048280 1.913891 -0.581733 0.662326 -0.849692 0.433767 -0.178143 -0.629008 1.682752 -0.644095 -2.120373 1.487073 0.218167 0.867799 -1.619674 0.593178 0.350508 1.383422 -1.194169 -1.721725 1.093307 -0.892577 1.048104 -2.718084 0.497217 -1.463837 -1.502649 0.583767 0.093970 -0.611727 1.052577 0.397793 -0.898230 -1.614115 -1.091016 -0.777499 -0.659994 -0.938991 -0.449966 -0.186223 1.390281 -0.843635 -0.193009 -1.609821 0.204516 -2.824354 1.680846 1.080607 
3097 0.356052 -0.952760 -0.736245 -0.007234 0.396663 2.119595 0.445589 -0.331177 -1.196042 -1.120765 1.225809 -0.123912 -1.233517 -1.166361 -0.463277 0.605893 -1.623322 0.507431 1.878316 0.233778 0.199355 0.413527 2.297117 0.743727 0.967538 1.524488 0.068371 1.699533 2.480534 0.977915 0.004491 1.624065 -0.823505 -0.189827 -1.795442 1.705788 -0.464412 -1.305397 -0.803364 -0.702100 -0.798444 -1.670118 -0.379154 1.071041 0.462162 0.141529 -0.324876 -0.524683 1.033969 -1.495638 -1.330500 3.135366 -1.625400 -0.425514 1.149865 0.811153 -0.902388 -1.392441 -0.208848 -0.493045 0.324480 -2.007675 -0.531803 0.654810 -0.279443 0.541569 0.219545 -0.058364 2.622047 0.444507 0.969940 -0.240185 -3.152370 -0.576818 -2.046210 -0.414476 -1.962740 0.537690 -1.215200 0.494147 1.158352 -0.513346 -0.074950 -1.408802 3.573605 2.296683 -1.101647 1.014368 2.137615 0.455545 -0.499881 1.138052 -0.173149 1.369792 -1.416404 -0.768865 -0.458845 1.361133 -0.634461 -0.358816 
916 0.035878 -0.819159 -1.911725 -0.257077 -0.674764 0.046267 -0.823276 0.761465 0.665305 -0.007499 0.256082 0.510367 -0.565251 -0.522627 -0.207012 0.462222 0.287414 1.145437 2.206707 0.896194 -2.056569 1.206752 -0.494920 -1.591341 -0.561069 -0.980159 0.187185 1.553884 2.106581 0.667370 -1.033365 0.604985 0.451136 0.159861 -0.864720 0.178819 0.263846 -0.149365 0.947284 -0.061696 1.284181 -0.895654 0.952220 -0.293488 2.070851 0.564749 1.529305 -0.996874 0.894574 0.692132 1.715312 0.159712 -0.035373 0.910589 -2.355917 0.061424 1.041027 0.232293 -2.658915 -1.197048 -0.313653 0.844649 0.811893 -0.642823 -0.618665 1.941196 -1.676921 -1.541892 0.594459 0.651856 -2.302519 0.808670 -1.225410 1.431463 -0.321967 -1.779273 2.453086 -1.415332 -1.335888 1.371157 0.621238 -0.782984 -0.160564 1.014821 0.309522 -0.602542 0.880756 -0.953085 -1.710604 -1.570554 -0.056210 -1.404366 -1.405497 -2.228232 -0.543866 -1.275184 0.092053 -0.372865 0.152591 -0.397590 
2611 0.401347 -0.545668 2.214411 0.987727 2.310171 1.063097 0.560355 -0.704254 -0.569743 1.673499 -0.942131 -1.031447 -0.045943 0.298630 1.954792 -1.490498 -0.347011 -0.555108 -0.482314 -2.858179 0.460419 -0.416788 -1.266563 2.352092 0.094071 -0.595930 1.006786 -0.384696 -2.338956 -1.988966 -1.089534 0.236425 -0.683909 -0.491461 0.280329 1.312641 -0.258779 3.246941 0.931276 -2.709132 -1.229415 2.068947 -1.675048 -1.162195 0.123480 -1.375332 1.778821 0.883045 0.148651 2.563291 0.042778 -0.141007 0.203060 2.065321 0.160394 -0.141624 -2.556032 2.088129 2.415124 0.916245 0.572649 -0.996980 2.186610 1.049296 -1.470537 -1.832952 0.781960 -0.386603 -2.188699 -3.744414 -2.040169 1.231556 -1.181429 0.368828 0.780022 0.965650 0.784882 1.427552 0.776318 -0.409502 -0.854205 -0.346222 0.543451 0.252111 -0.345932 -1.930791 -0.516678 -1.701083 -0.032804 1.552087 -1.129239 -2.640543 -0.701662 -0.540507 -0.768201 0.126660 -1.068724 -1.395632 -0.276001 -0.783714 
759 -2.820096 -2.135782 0.533802 -1.254290 -0.436148 2.385082 1.439674 -2.322767 1.956042 -1.310183 2.125412 1.262120 -1.299352 1.265977 -0.956298 0.111381 0.766144 1.479137 -1.082213 1.095176 0.603135 -0.491321 -0.393430 -1.326955 0.827269 -0.806449 -0.879997 0.205006 2.474981 -1.091640 -0.677553 0.623294 1.055665 -2.584924 -0.616526 -0.108401 0.089649 -1.901773 1.396004 -0.566322 2.926579 -1.824906 1.912307 0.539247 0.472914 1.218530 0.056950 1.298276 -0.970952 -0.624577 1.658443 1.120046 0.628502 -1.821896 -2.011637 -1.458797 2.038398 -0.541274 -2.490380 -3.586507 -1.141166 0.861044 1.138049 -1.656806 0.347579 0.999436 -1.098511 -1.586511 0.397710 0.266769 -1.688956 0.611757 -1.142668 0.673998 -0.880735 -1.902111 1.210993 0.161196 0.360751 -0.705866 2.191755 -1.133375 1.022680 2.147279 -0.936327 0.615188 0.623324 -0.807002 -2.092649 0.742374 0.013914 0.241732 -0.251310 -2.469178 0.079899 -1.886538 -0.198574 -1.262922 3.071859 1.459847 
3337 2.208064 0.485355 1.136219 3.064785 3.379633 0.692663 -1.837507 -0.807168 0.326830 -2.062691 -0.310239 -1.269466 0.376306 0.368625 -0.805624 -0.714293 1.820375 -0.816091 0.683747 0.192232 -0.050256 -0.192459 -0.547424 -0.642397 0.866608 -2.489491 1.525928 0.484979 -1.137181 -2.658516 1.073946 -0.212001 0.979059 0.729379 -1.638059 1.348829 0.430835 0.027531 0.964492 0.794480 -0.964039 -1.172633 2.567451 0.238567 0.724152 -0.632150 0.368942 -1.458787 0.518635 -0.079325 -0.948614 -0.786759 -0.934209 0.897645 -0.253539 0.365809 1.523075 -0.157114 -0.000367 -1.104946 0.423187 0.158549 1.692533 -0.459072 0.371193 -1.475105 -2.208205 -0.572702 0.013073 0.411779 1.183092 -0.647311 2.776304 0.436632 -0.285754 -0.639019 -1.092362 2.653274 1.368110 0.482974 1.858404 0.128673 -0.257089 -1.210630 0.179553 -0.364891 0.120135 -0.272203 0.672534 0.713153 -0.624976 0.046682 1.011850 -0.365007 -0.110535 -1.755337 -0.482153 0.064849 2.244179 -1.936912 
2206 2.023959 0.124187 -0.720541 1.115882 -0.264247 1.616431 -1.124609 1.958036 1.061007 0.448015 -0.265892 0.229345 -2.388718 0.819574 0.015579 -1.651910 -0.475029 -0.052995 -1.661188 -1.415991 0.377964 -1.102335 -0.761815 1.669933 1.363366 0.718328 1.264575 -0.951159 -1.402790 -0.956361 0.571514 -1.435183 3.242178 0.470812 0.450591 0.105676 -0.665583 -0.373452 2.272316 1.351436 -1.327976 1.294878 1.322470 1.060461 0.452150 -1.131379 -1.247293 1.686674 -1.408784 0.741928 -1.064016 0.727308 -0.430307 0.382206 0.365246 0.012788 1.231312 -0.022864 0.796912 2.898144 0.192878 -0.590559 0.543949 2.504632 0.894397 -1.842840 2.367023 -1.055779 -2.749269 -0.620065 -0.139151 2.409352 0.352188 -0.400859 2.632864 1.549788 -0.090722 -0.116637 1.362065 1.287601 -0.453078 0.857367 0.125699 -0.369397 -0.014168 -1.638443 1.947464 1.014146 -1.085676 0.224817 -0.631907 -1.589157 -1.529223 -0.527112 -1.580099 0.609566 -1.873671 -0.232022 -0.822072 -0.681384 
3569 -0.507537 4.164401 -0.656748 0.295151 -0.250449 -1.624581 -0.736033 1.409637 1.399687 0.168048 -1.596957 -1.825605 -0.606779 1.149632 -0.107984 1.649088 -1.091483 -1.246527 0.689004 -1.990810 0.599609 1.110832 -0.833891 1.077032 0.321413 0.532410 -0.536893 -2.051708 -1.527840 0.825551 -1.193307 1.683565 0.665144 2.401191 1.739502 0.283758 0.492509 0.056460 -0.621489 0.668267 -0.544907 -1.339633 -0.574718 1.230231 0.765285 0.367384 0.691724 1.473096 0.115651 2.771369 -2.872260 0.876920 1.329361 -0.277635 -0.270553 -0.074289 0.266891 2.539212 2.115293 0.123433 3.166195 -2.011294 0.467554 1.133968 -0.793068 0.798374 -0.389206 -0.157052 -3.053078 -1.236271 -1.025637 0.025328 -1.251618 -0.616184 0.091238 -0.662075 -0.775888 -1.566788 1.195929 -0.050567 0.835463 0.784361 2.154523 2.436538 0.157000 -0.375849 0.514730 1.422140 -0.834658 1.684780 -0.827343 -1.266481 0.585252 0.372738 -0.614511 0.412250 -1.009106 -1.218575 -0.267040 1.803375 
657 -1.298193 1.125483 0.588989 1.990336 -2.366284 -1.016028 0.594003 1.446599 -1.376001 -0.075686 0.756577 -0.534402 2.262599 0.111305 -1.071711 1.789738 0.084213 -2.031335 1.220833 -1.849987 -0.387597 0.362075 -1.135203 2.610832 -1.352833 0.032592 3.421243 -1.779811 -1.182251 0.301943 -0.801966 1.463542 -0.553732 -2.388742 0.825799 -1.161382 -1.054470 0.596607 1.253857 -1.018283 0.787814 1.405749 0.113274 -3.025407 -0.926561 0.448012 -0.547090 0.367388 -1.014670 0.724226 0.380444 -1.228645 1.229009 -0.479450 -1.436929 -3.389206 -2.867628 1.018932 2.689132 1.286416 -0.857241 1.113866 1.482256 -0.797085 -0.597421 2.269462 -0.437576 0.960602 0.567220 -0.896694 -0.942315 -1.087036 1.948014 -0.923040 1.009006 0.049558 0.649573 -0.752808 1.272228 2.542732 -1.309120 1.338973 0.047586 -0.011114 0.068554 -1.450906 1.423793 -0.972137 -0.176993 -0.355413 0.456661 -1.312812 0.674500 1.540036 -0.406542 -0.825477 1.120804 -2.261688 0.038509 0.663880 
3855 1.350186 -1.193658 0.101756 0.477587 0.091985 -0.679521 -0.355309 -1.064594 0.519906 -1.404635 2.044730 0.342928 0.118940 1.110279 -1.642510 -0.876194 -2.142163 0.206402 0.198846 -0.011802 -1.095257 -0.486777 -0.934153 -0.406631 1.548031 0.957050 -0.456636 -1.624850 0.621976 -1.237170 -1.239003 0.969090 0.459988 1.372796 -1.404926 0.819354 0.696544 0.265295 -0.035991 0.677015 -0.611843 0.031067 -0.277130 1.909217 0.567940 0.548960 1.357895 1.285962 1.016168 1.081957 0.835623 1.832193 -1.163676 -1.552126 -1.276054 0.964206 3.607674 -1.478472 -3.246811 -0.349114 0.315934 -0.404078 -1.528894 0.340222 0.105036 1.675195 0.381735 0.300660 -0.422668 -1.174393 2.088526 -1.640684 0.000414 -0.174738 -0.517711 -0.207420 -0.036998 -0.484647 -0.106032 -1.861081 1.104690 -0.488680 -1.026050 0.598978 1.479971 2.350960 -2.077828 -0.413890 0.801607 -0.451946 1.695712 0.253507 0.840911 0.449504 -1.238594 -1.027950 -1.665310 -0.280281 0.016770 -1.022011 
898 -0.014367 -1.391872 -2.124768 -0.485862 -0.538977 -1.836499 -0.406808 0.870217 -1.288024 0.424737 1.551612 0.025471 1.602853 0.742170 -0.508391 0.458366 -0.749811 0.460250 1.491712 3.671454 -0.364101 1.530911 0.859890 1.200939 -0.737119 1.627195 -0.830005 -0.147197 1.112230 -0.357168 -0.376651 0.724006 -2.455824 -1.413121 -1.205297 -2.634580 -1.835122 -0.118404 -0.590329 0.417733 -0.478271 -3.340389 2.264045 -0.305712 0.855068 0.041247 0.108886 -0.416483 -0.625156 -1.247669 -0.671561 -1.061647 1.340040 0.894393 -0.305642 1.724237 0.919228 -0.904230 0.229158 0.198498 -1.962123 -1.096176 -0.423754 -1.048717 1.974394 0.798360 0.187131 0.273323 1.508939 0.775795 2.231009 0.111517 0.116948 -2.018639 -0.391423 0.552529 0.216994 -1.794227 -1.465398 -0.503647 -0.928550 -0.400112 -0.792261 2.436551 1.334422 -0.097869 0.950103 -0.045841 -0.316990 1.227622 0.033460 0.623972 0.310147 -2.513609 -1.154404 0.271505 -0.983410 0.321731 0.533978 0.249955 
8012 -0.657177 0.068749 -0.138794 -3.104844 0.930658 -1.758294 -0.762515 0.549811 -1.428758 1.378633 -0.481408 0.503554 -0.818271 0.305450 -0.230613 -0.476121 -1.808894 -0.735212 -2.328668 0.537157 -1.253823 -2.088468 2.361556 1.129310 2.399955 1.594384 -1.828916 -0.497055 -1.748150 -2.131264 0.977395 1.434236 -1.898976 0.973249 -1.512921 -1.243988 -0.044309 1.877236 -1.227326 0.667327 -0.148727 -3.486033 0.627264 0.298824 -0.364774 0.440214 0.664616 0.206822 -2.701510 -0.566131 2.042240 0.061730 -0.042970 2.807371 -0.293573 -0.862415 1.812812 -0.109023 0.124110 0.283131 -0.620008 2.036649 -1.761130 -0.264998 0.195468 0.505104 1.498803 -1.087469 1.819710 0.533000 2.696870 0.950652 0.378240 2.379140 -0.928852 0.621899 1.305516 0.150399 -1.681400 -1.652930 0.925557 0.590869 -0.267885 0.713850 0.372407 -0.184099 -1.156668 -0.265187 0.562110 1.211388 0.217053 -0.103487 1.705634 -0.170052 -1.355433 -0.687845 -0.751484 2.422186 -0.671222 1.615483 
815 -1.141116 0.912915 -0.238969 0.315281 0.547881 -0.991158 -0.240557 1.307043 0.272977 -0.031236 0.112308 0.208205 -0.273263 -2.502951 1.360042 -3.287808 -0.380040 2.263647 -3.781648 -0.161494 0.017816 0.385571 -1.903725 1.471099 0.802835 2.130280 1.658314 1.478611 -0.810186 -1.415611 -2.086557 0.192869 0.725670 -0.443505 0.110655 -0.543363 0.189888 -0.559952 0.661212 0.307677 -0.399490 -0.646951 -0.965190 1.573531 -0.473294 1.761735 0.165734 0.972342 -1.324946 1.710420 -1.300614 0.654198 0.892487 1.170212 -0.718196 -0.893525 -1.128245 2.663383 3.019451 1.227251 0.415376 -0.840781 1.347974 -0.363013 -1.031184 -1.634431 -1.923873 1.120273 -1.731843 -1.917315 -1.705752 2.289957 -1.463240 -0.946311 -0.735805 0.849048 0.444591 -0.534213 -0.414060 -0.764951 1.048146 -0.266010 -0.127718 2.066770 -3.054023 -3.482845 -3.296675 -1.007264 -1.539170 -0.119430 0.098483 0.306364 -2.412710 -2.288148 -1.137529 0.942123 -0.937885 2.068854 -2.407531 -0.259992 
3168 0.388078 -0.681363 0.262535 1.417245 1.043060 0.464384 -0.923105 1.264125 -1.743211 -0.260224 -2.145014 -0.643950 -0.323438 1.284714 1.096848 1.759433 2.250841 -0.463031 -1.129131 -0.463078 1.638649 2.301771 0.656321 0.826726 -1.195679 -1.934036 -1.683363 -0.678161 -0.209566 -0.222308 1.248217 -2.061536 0.419816 -0.066140 -0.607563 -0.338662 1.823645 0.130695 -0.091224 -2.310797 0.997775 -0.074367 -1.282518 1.321683 0.523694 0.553795 0.371561 -1.036863 1.239957 1.675499 1.745464 1.313484 0.117507 1.222945 -1.233047 -1.203268 -0.062076 -1.061927 0.120604 -1.142275 -0.420738 0.616360 -0.595142 -0.207234 -0.457534 -0.534166 0.275327 0.006850 0.747209 -0.252803 1.816247 -0.993530 -0.039025 0.217298 0.639269 1.326971 -0.787917 1.670653 2.135571 -0.675052 1.048375 0.310574 -1.529715 -2.012262 0.467078 -0.955497 1.016476 1.189337 2.141967 -0.348648 1.133892 0.415226 0.843137 -1.025570 3.166164 -2.324505 1.214934 -2.637314 -1.514652 -0.750457 
3027 -1.345086 -0.636018 0.723379 -1.774945 -1.568753 -0.048830 -1.562204 -1.800456 1.366648 1.320948 2.019747 1.075487 -0.333050 0.972967 0.037947 1.852933 0.414251 1.569614 -0.429206 1.287434 -0.898254 0.310012 0.209050 -1.111932 -1.568597 -0.636692 -0.419923 0.423479 1.692578 0.339336 -2.906319 -1.185306 -0.871255 -2.448024 0.203201 1.811482 -0.351973 0.725773 -0.173568 -0.589926 0.366370 0.109781 2.011817 -0.396783 1.580364 -0.798759 0.217268 -0.284490 0.265076 1.243897 0.879201 -0.745608 -1.605196 0.350053 2.223792 -1.542900 2.210301 -1.674034 -1.363763 -0.593047 0.885817 -0.042235 1.478303 -1.560879 -0.739590 -0.286940 -0.412409 -1.672175 -0.020134 0.313163 -2.062939 0.177769 -0.722927 -0.000522 0.174985 -1.613783 0.686197 0.613835 -1.048488 0.485377 0.415282 0.029359 1.234391 1.854460 0.486143 0.421598 -0.675877 0.667070 -0.173235 -1.303283 -1.870199 0.803093 1.135123 -1.918488 -0.835221 -0.105555 1.246694 -2.009781 2.136456 0.547841 
1874 1.662362 -0.683572 0.863194 2.673568 3.315414 0.396823 0.640705 0.979631 0.819581 0.205790 -0.367981 0.516886 0.268374 -0.418321 0.956167 0.789451 0.055599 -1.616745 1.462121 -0.969239 -3.095417 0.538757 -1.014611 0.458310 1.472454 -0.891262 -1.142649 -0.816334 -1.253186 1.056522 0.858424 0.144093 1.827245 0.659976 1.206744 0.819669 -0.129951 1.100379 1.883570 -0.405775 0.295569 -0.394437 1.138199 0.126707 -0.691798 -0.825753 0.254045 -0.536289 1.840045 1.096571 -0.017120 -0.027534 -0.384122 -1.920655 0.512852 -1.194136 -0.571962 0.805191 0.694370 -0.637651 -0.110250 0.984245 -0.800032 -0.928497 -1.795153 -0.309234 0.149285 0.088615 -0.162052 2.483848 0.984413 -0.710496 1.487261 0.823399 1.088310 -2.203041 -0.445297 -0.001637 0.267814 1.072118 -1.018492 -0.029461 0.761118 -1.165983 1.438249 -0.839246 0.393990 0.727724 0.987684 0.798445 1.050476 0.322104 -1.638544 0.843216 -1.757914 -2.850939 1.378853 -0.820062 0.279044 0.256862 
3738 0.191337 0.539295 0.529734 0.577360 -0.784473 2.021707 -0.990025 -0.272399 0.898023 -0.935043 -1.584071 -1.074145 -0.708061 1.303940 2.774240 -2.700642 -2.194373 0.383448 -1.518401 -2.694041 1.807292 0.559243 -2.223887 0.455545 0.043658 0.464919 0.036530 -1.406114 -0.751948 -1.355591 -1.099367 -0.681159 1.331881 1.116509 0.936255 -0.270713 1.726150 -1.461323 -1.188986 1.128631 -0.325909 -0.946361 -1.417348 2.193987 0.101533 -2.485191 -1.208401 1.563180 -0.997881 1.469050 -1.646431 -0.013378 0.311551 1.116685 2.135821 0.184054 0.884776 0.620007 0.177553 2.185790 1.461849 -0.738907 0.841272 0.755711 1.077232 0.866715 -0.048515 -0.166229 -2.002150 0.801730 -0.512187 1.400414 -0.365887 0.940174 1.924582 2.337784 -0.095937 -0.065608 1.645910 1.418699 1.444777 0.187434 0.367312 1.448246 -2.391335 -2.147754 1.095893 -1.357205 1.000675 1.822570 0.042469 -0.241199 0.672713 1.349460 0.516735 0.074111 -0.257230 1.083725 1.398950 0.969958 
2576 -1.631929 0.362656 -0.355093 -0.795895 -2.726489 0.072599 0.956086 0.679537 2.814027 -0.921087 0.688743 -0.197385 -2.535366 -0.676471 1.871869 -2.419559 0.451232 -0.260689 -1.083331 -1.142574 2.311532 -1.637648 -0.139566 0.377818 -2.103045 -0.824974 1.874259 -1.622512 1.973286 -0.995775 -1.263841 0.089840 -0.773092 -0.057746 0.593589 0.996997 -0.733406 0.722514 -0.562974 -1.902082 -0.084909 0.578995 1.205626 0.632504 -1.399047 -0.882590 -1.255294 -0.308822 0.055934 1.051260 0.930111 1.330028 -0.946206 0.420919 -1.508915 -0.122980 -0.477836 0.243616 0.211919 -0.304866 0.353587 -1.069670 2.518912 2.197010 0.513515 1.221228 -1.838844 -0.784693 -1.720479 -1.613077 -4.432027 2.312052 1.790294 -0.222764 -0.289109 0.106075 2.361978 -1.002471 -0.717670 -0.976497 -0.103458 -1.714245 -0.655209 1.667441 -1.778862 -1.891774 -2.712920 -0.692745 -1.978233 -0.120457 0.189991 0.259847 -2.634948 -1.386484 -0.319716 0.213219 0.843334 -2.018262 -0.719321 3.576842 
3112 2.212967 -1.230821 -2.300103 4.242560 2.838883 1.032217 0.978317 1.225909 1.227160 0.037298 -0.399303 0.742931 -2.243218 0.973654 0.086829 0.546453 0.897348 0.427731 -0.683192 0.509465 -0.666449 -1.093622 0.250401 -0.576082 0.469705 -0.135806 0.571453 -2.452394 0.736763 -0.056987 -0.341471 -0.692026 1.209316 -0.323978 0.602423 -1.476307 -0.375620 1.884888 2.449421 1.389931 -0.586369 0.020246 1.083860 0.331929 0.511573 -1.041047 -0.077566 -1.224339 0.850594 -0.893123 0.306349 0.156651 -1.054803 -1.012849 2.249181 -0.769192 2.188484 0.917118 -0.074788 0.930509 -0.538511 -0.327439 0.866451 -0.804359 -1.362435 -0.597820 1.055765 -1.142734 0.412939 -0.100029 3.042359 1.707671 2.314228 -0.785104 -0.025217 -1.298914 -0.542123 2.459840 0.711580 0.117480 0.287193 1.035852 0.073516 0.846076 0.576736 -0.100948 1.921340 -0.410576 -1.763661 0.830939 0.421207 -1.921959 -2.137579 -0.595340 -0.550367 0.701618 -1.323201 1.381886 1.599795 -2.156353 
578 1.984012 1.007849 -0.062932 0.649487 -0.876867 0.157101 -0.729356 2.395885 0.157638 -1.705779 0.200926 -0.267091 0.044340 0.235455 -0.789667 0.004969 0.282781 -0.325500 2.009350 1.590450 -1.113937 0.262144 1.934782 0.615890 -0.501734 1.693931 -0.977086 -0.866818 -0.423604 2.131431 0.712939 -1.660199 1.181448 -2.920377 -1.293526 -1.005737 2.052791 -0.185336 1.114740 0.583762 -1.017412 -1.165241 0.027899 -0.663317 -0.487290 0.946687 1.466204 -2.017498 0.317019 1.082257 -0.225003 1.448878 1.197785 -1.240845 0.242453 0.255881 0.152970 0.076001 -0.111904 0.399112 0.129202 1.068232 1.360593 1.716227 0.246690 0.437418 0.787218 -0.021457 -0.788003 0.600697 0.701164 -0.633177 0.850060 -1.572367 -2.398798 1.638709 -1.890318 0.442721 2.004537 1.822027 1.729688 2.229932 -1.458509 -0.682425 1.623645 -1.031009 0.310628 0.920603 -0.341069 0.794972 0.990679 -0.277249 0.169668 -1.622637 -2.663583 0.130466 -0.521937 1.494873 0.187659 -0.176627 
2877 1.258902 2.665936 0.820668 3.776372 2.624843 0.101059 -0.629202 1.829497 0.991144 -0.895521 0.273556 -0.528155 -0.516120 -0.713770 -1.014574 0.109100 0.556541 1.335579 3.263599 0.700974 -0.737037 -0.134292 -0.089817 -1.083759 1.705350 -0.911564 -0.939321 0.887139 -0.660512 -1.141658 0.341421 -0.059448 2.279145 0.410360 2.132496 -1.729897 0.563026 1.232268 2.560458 -0.436799 0.503837 0.641982 2.086934 1.292253 -0.882443 -0.743281 -0.293696 -0.193648 1.129777 -0.198194 -0.463664 -0.126310 -0.127050 -0.827081 1.006705 -0.587748 1.754051 1.572999 -1.284621 1.809543 -1.527532 -0.900836 -1.852585 0.270296 0.362880 -0.386234 2.821164 -0.124277 -0.981579 0.133905 2.305624 -0.132296 1.149077 0.927937 1.586763 -0.092585 0.381171 1.846959 0.523415 0.313353 1.972261 -0.336418 -2.976706 0.131317 1.591781 0.136247 1.829176 1.265968 -0.320479 0.954655 -0.476279 2.062926 0.162396 -1.045293 -0.102255 -1.468387 0.441622 -0.197221 2.843596 -1.310267 
3975 1.164190 -0.173079 -1.389753 0.724713 1.060835 -0.660201 -0.536643 -0.003997 1.455973 -0.239482 0.392915 -1.417487 1.509548 1.460951 -0.707652 -0.222362 -2.315858 -0.637124 2.072429 0.643134 -0.547243 -0.547580 1.732597 0.847282 -1.213638 0.528322 0.782563 -0.388879 -1.689241 0.999692 0.790112 -0.775403 1.272958 -0.957960 -0.253998 -0.874055 0.662255 -1.692528 0.417236 1.009797 1.159338 0.929943 -0.430278 0.685532 -0.454617 0.557673 0.076154 0.646752 0.516493 2.403574 0.473444 0.858345 0.581323 0.655793 0.524284 0.944385 0.373059 0.094092 1.020114 0.189022 0.264611 0.555322 -1.499745 1.409394 -1.678959 0.547796 1.243053 0.651693 -0.569928 1.758344 2.483877 -1.202434 0.162887 -1.641346 -2.092586 -1.349575 -1.438884 -0.707557 0.242275 -0.021565 1.677835 0.627137 -0.721545 -0.699173 1.814919 -0.688684 0.851756 1.130274 0.484901 1.880618 -0.859851 -1.271530 0.166391 0.976161 -2.746027 -1.031853 0.593599 -0.480271 2.041146 -1.131416 
3036 -0.134227 0.511532 0.091185 1.263953 1.412641 0.354171 0.084233 -1.342854 -1.193384 -0.725788 -2.290626 -0.987334 -0.094614 1.598304 2.094327 0.079927 0.411863 -2.062153 0.569835 -0.982303 0.327371 0.691069 0.456535 -0.339003 -1.457129 -2.939739 0.030955 0.339114 0.182581 0.995650 -0.027274 -1.740254 -0.920292 0.120102 0.039411 0.706469 0.148185 0.502956 -1.032838 0.224154 -0.318024 -1.420387 -0.876852 -0.599538 0.009057 1.327194 0.856297 -1.087499 -0.550911 2.275975 0.389950 0.875074 -0.827446 3.588724 -0.697031 -0.638169 0.621845 2.294364 0.925952 0.055632 -0.159517 -0.524477 0.787046 -0.547391 -1.147009 0.290058 2.266574 -1.517056 -0.737843 -0.602740 1.987021 -2.419032 2.155020 0.080190 0.993134 -1.037706 -0.522110 1.098407 0.708463 -0.254195 -1.956439 -1.295510 -1.016606 -2.206452 2.049454 0.531001 1.145257 0.928375 2.081130 -0.164837 -0.211947 0.730910 1.566994 0.888524 3.360888 -0.991224 0.218487 -3.270705 -2.014001 -0.053542 
1256 -0.597774 -0.273212 1.758491 -0.237522 0.285178 1.051507 0.817340 -0.990043 0.382790 -0.412064 -2.190412 -2.589589 -1.199795 1.650550 0.774445 -0.473652 1.132244 -0.651343 -0.689372 1.056306 1.137189 -0.683816 -0.301836 0.033611 -0.403568 -0.790901 0.141891 -1.359205 -0.645625 -2.132041 -1.356506 -0.955874 -1.150690 1.341746 1.051855 -0.167836 -1.842890 0.510789 0.262928 0.192037 -1.413871 2.082835 -1.553325 -1.101823 0.238170 0.115065 -0.374073 -1.066664 -0.091355 1.470787 -0.294165 0.865720 -0.449253 -0.273460 -2.590374 0.775830 -1.570242 1.553290 1.385699 -0.894796 -1.638828 0.006867 1.284585 0.615700 0.558158 -0.489774 0.005320 -0.098973 0.013521 -2.287668 -0.698903 -0.171333 0.502920 0.572036 -0.538138 1.039468 -0.871385 3.086952 0.557320 -0.444197 -0.442961 -0.361889 -1.207396 -0.983839 -0.539417 0.485343 2.886057 -0.021776 0.219538 -0.941298 2.271853 -1.022767 -0.461783 1.457171 1.500586 0.122780 1.911417 -1.063927 -2.097521 -2.208794 
617 -0.681873 0.505974 1.965522 1.334852 1.758610 -1.498318 0.460692 2.065076 1.179015 -0.385673 0.398442 0.813246 1.856483 0.155752 1.940208 3.654085 -0.678347 -2.320358 0.230147 0.562094 0.338567 0.885357 0.330284 0.158974 -0.147201 0.112499 0.517113 -1.587238 0.598439 0.442139 0.720208 0.790662 0.669828 -0.549168 -0.133701 -1.546430 -1.743628 1.527578 2.374866 -1.021875 -2.190441 -0.571959 -0.367341 -1.760404 -0.006560 -0.379439 0.705456 -2.047065 0.400074 0.811265 -0.075859 -3.118260 0.045247 -1.465258 -0.937775 -0.816113 -0.565227 -1.115841 1.283168 0.340502 0.666763 0.443609 1.804337 -1.355138 -0.641545 -0.568038 0.206645 0.984442 -2.387152 -0.876525 -1.265558 -0.064400 1.094868 -1.534241 -2.664768 -0.928546 0.459524 -2.278558 3.386103 -0.674484 -1.297292 2.230454 -0.078524 -0.630650 1.233748 -1.393931 0.944846 1.684082 -0.545490 0.519244 0.056243 -1.025993 0.307701 1.926344 0.863947 0.640940 1.677313 -1.139879 -0.529605 0.012058 
6356 0.861660 -0.310590 0.131154 1.781127 -0.103229 0.687983 1.309650 -2.043825 1.867391 1.194060 1.096557 0.487119 -0.627150 0.370782 0.965917 0.090260 -0.638916 0.396460 -1.727641 0.890628 2.612824 2.009652 -0.431532 -2.173548 0.861023 -1.840277 -0.212962 0.136608 0.510051 0.865789 2.501662 0.222807 0.947076 -0.587156 -0.400715 -0.050852 -1.682213 0.648754 -0.352073 -0.614833 1.486881 1.486679 -1.700022 0.743451 -0.446494 -1.571366 -0.146870 0.624909 -0.220640 -0.795107 -0.723767 0.627856 -0.734084 -0.097929 -0.927896 2.570464 0.078888 -0.795104 -1.451780 -0.072038 0.065178 -0.598752 0.345361 -2.496363 -1.047482 -0.558309 1.370265 0.480879 -0.397783 -0.227040 0.881149 -0.271391 1.397114 1.507599 -3.584700 -0.727703 0.013390 2.333076 0.995776 3.019561 0.595804 -0.873603 0.811197 -1.192153 0.285196 -1.815059 0.038355 0.072955 0.032726 0.986428 3.472646 -0.161826 0.316230 1.014628 3.246260 -2.172748 2.144247 0.356356 -1.690165 -0.718745 
791 -0.204377 -0.597465 0.483504 1.580871 0.450951 -1.801796 0.691332 1.919492 0.000585 -0.578036 -0.849438 1.421981 1.383407 -2.207158 0.989025 1.674594 1.646566 -0.524673 -2.523892 -1.611028 0.911632 -0.250322 -1.804982 0.345385 1.727968 2.241784 1.915693 1.214855 2.581213 0.391567 -2.994381 -0.313776 0.127227 0.557116 0.245328 -0.980197 2.373340 2.935353 4.550914 -1.163701 -0.119065 -1.249710 0.174759 -2.104712 1.201702 -0.144148 0.004345 -0.927763 -1.553689 -0.213532 -1.474230 -2.947172 3.920721 2.908431 -1.218807 -1.128950 -2.563105 0.070477 2.916901 0.290122 -1.427576 3.606529 0.487453 1.990464 0.332840 1.673834 2.022968 0.429423 -2.089293 -1.796776 -2.830616 0.767375 -0.124300 -1.771028 0.464933 0.366245 -0.129562 -0.924214 0.151140 3.143500 0.393987 1.035195 -1.945934 0.453180 -1.182641 -1.961062 -1.662069 -0.245067 -1.461125 0.825441 0.450520 -0.364382 -2.309923 -2.389078 -0.271296 1.356577 -1.333863 -0.375182 -2.014727 -1.256975 
4347 -0.432433 -2.142938 1.247187 -1.116369 0.573055 0.061442 -0.985577 -0.619932 0.877141 -0.990901 0.795713 0.938613 0.200460 0.841785 1.631713 0.673970 0.553277 -0.581564 0.977086 0.168341 -1.299334 -1.711647 1.107553 -2.835247 0.357280 0.653338 -2.322604 -1.054976 -2.327276 -1.185444 0.303588 0.369412 -0.230319 0.519834 -0.690807 -0.643415 0.388499 -1.910941 1.719796 -0.371284 0.253969 0.265608 1.003309 -1.159680 0.991253 -0.657165 -1.625977 1.255377 0.623212 -1.326136 0.331335 1.345918 0.678918 -1.352514 1.409590 0.112833 2.828408 -0.328632 -1.057133 -0.962092 0.123584 0.524930 0.918988 -2.006950 -0.614319 1.157681 -0.934072 0.277921 0.381358 0.218758 -0.280607 -1.033166 1.176731 2.890232 -2.282527 -1.418442 0.605598 -0.177583 0.921198 1.790965 1.790210 -0.914545 -0.247518 1.214934 2.039436 -2.211752 0.972086 1.224539 0.197119 0.252441 -0.175725 0.517835 0.520549 2.338338 2.096612 -0.331184 1.170142 0.299228 -0.178630 1.351057 
988 1.369773 1.718519 -0.263937 2.502816 0.237614 -2.124278 -0.618630 1.449638 -0.314422 -0.857849 1.041920 -1.822900 -0.599309 0.193661 1.943993 0.024936 -1.138045 0.494825 -1.836181 -2.668284 1.232497 0.111639 -0.722605 1.072166 -0.582500 2.542015 0.384486 0.890149 -1.471990 0.827740 -2.301440 -0.698941 0.627832 1.142908 0.537494 -0.653847 1.042720 1.123813 1.674123 -0.105153 -0.681086 0.199836 -0.995773 0.564999 -0.805226 0.239090 0.610403 0.796607 -1.992732 0.571186 -1.384554 -0.973227 -1.204479 1.134944 -2.028454 0.691646 -1.092083 1.662565 0.186511 0.157604 0.474597 -0.794999 1.143745 0.949959 -0.383751 -1.063204 0.855091 0.591970 -2.810849 -3.149756 -1.930227 1.160243 -0.097974 -1.391593 2.543386 0.459112 1.681592 -0.876799 -1.148926 0.505059 -1.658483 1.097088 0.145467 1.198758 -1.965432 -2.030909 -0.412068 -1.276585 -0.390889 1.466501 0.213572 -0.130296 -0.883357 0.935286 -3.485314 -0.461588 -1.728214 0.483227 -1.596030 -0.956622 
3066 2.900221 -0.770771 1.333776 0.208002 1.561968 -0.434220 -1.906624 -0.273118 -0.730946 -1.669648 1.133067 0.069248 -0.445550 0.424380 1.419718 2.185558 -1.633976 0.388720 0.768208 0.044810 0.766668 -2.157148 -0.948427 2.108420 0.920898 0.227295 -0.365139 0.628641 2.562067 0.783548 -0.793735 2.361887 -0.613914 1.812371 -0.102340 0.840443 1.197447 -1.392971 -1.191651 -0.329742 -0.630474 -0.378295 0.426434 -0.304020 -0.464212 0.142592 0.994371 -0.333367 0.251223 -0.875901 -1.973653 0.842470 -0.640570 -0.736898 -1.298313 0.390197 -0.862325 -1.275689 -0.274061 0.607509 -0.277009 -0.034951 -0.303445 -0.729596 1.764423 1.839595 -1.214759 -0.537344 3.594121 0.678040 -0.868311 0.047890 -1.842425 1.222144 -0.718372 0.614188 -2.375802 -1.597766 0.726045 -2.484308 0.536863 -1.560221 0.057480 -1.263549 1.244056 1.811761 -1.357289 1.952127 1.829907 1.489570 -2.030346 1.125430 -1.501515 -1.020417 -1.967321 1.133847 -0.674483 3.796473 -1.187118 -1.246917 
4000 0.172132 -1.702220 -1.322516 -0.102765 0.439747 -0.363761 1.397241 1.424596 -1.014247 0.114166 0.765436 0.786659 -0.313771 -0.422791 3.313056 -0.984570 -0.995709 2.818049 1.648622 1.025198 0.648179 -0.351021 -0.047733 1.441570 0.458546 1.174781 1.432005 0.471085 1.453252 1.601322 -0.469701 0.977491 0.901611 -0.749871 1.397767 2.432707 1.304253 -0.213115 -0.760858 0.161452 1.045670 -0.668115 -0.790399 0.213008 0.524249 0.575076 -1.575888 0.334848 0.277886 0.158966 0.799748 3.138802 0.465228 -0.822815 0.074382 -0.323192 1.355945 -0.269708 0.935764 0.589429 0.309930 -0.752518 -1.050526 -0.185259 2.736351 1.536343 -2.058710 0.217681 1.132092 -0.412717 1.375601 -0.448871 -4.062848 -0.515991 -0.873835 0.489598 -1.289665 -1.239497 -0.012555 -2.187600 1.040611 0.249748 -1.276527 1.764290 2.023780 1.170197 0.470597 1.981799 1.854484 2.142169 -0.778370 -0.623999 -0.849590 0.618538 -1.094807 0.429341 0.251712 2.107018 0.302933 -1.671418 
1143 -1.713820 0.616992 1.086884 1.709572 0.168203 0.781660 -0.826740 -1.315864 -1.137461 0.693620 -1.944556 -0.276368 0.412626 -1.132748 -0.387889 2.167896 0.147533 -1.856947 -0.325301 -1.548878 0.784755 0.224810 -0.785929 0.203878 1.768825 -1.039415 1.333501 0.471920 -1.484511 -1.823923 -1.622788 -0.498117 0.828167 0.379147 -0.292846 -0.883184 -2.470695 2.575346 -0.621367 0.234481 1.290671 0.893418 -0.598602 -1.875293 0.244593 2.849610 -0.208111 -0.996909 -1.648634 0.325468 1.685010 0.113683 0.549947 1.682685 -1.727250 -2.319985 -2.728271 -3.178182 2.052392 -0.382493 -1.696753 0.095618 0.736096 1.942911 2.855868 0.626819 0.163983 1.050929 -2.090426 -0.285967 -0.419772 0.099374 0.506295 -1.873820 1.509841 0.066639 -1.223291 1.011934 1.057713 -1.125703 1.738245 0.575828 -2.522739 -0.436360 1.878701 -0.224380 -1.198652 0.184826 0.515957 1.693739 1.787045 -2.053204 -2.607054 0.850637 0.140771 -0.398319 -0.302977 -2.173149 -1.308821 -2.250590 
1876 0.690611 1.158237 1.381148 0.892811 -0.038471 -1.438433 0.333260 1.512360 0.631258 0.408169 1.727320 -0.369440 3.124583 0.332048 -0.585548 0.516605 -1.299638 -2.790737 0.483260 -0.064504 -1.409714 1.943537 -2.003481 -0.354684 0.477303 0.207073 1.590254 -1.166405 -1.531594 -0.342542 -0.981317 -0.857107 0.908350 -1.527247 -0.672666 -1.221512 -0.215869 -0.719852 0.680171 -1.385749 -0.831137 0.485185 0.527116 0.498331 -0.026713 -1.972836 -0.308343 0.432332 2.045557 0.070170 0.149204 -2.032461 0.023587 -2.483617 -0.403164 -0.020856 1.050599 -0.078859 -0.733004 -1.652174 1.150574 0.575434 -0.668724 -0.327349 -0.787915 2.065608 -0.499587 -0.031584 0.162859 -0.330551 1.501926 1.483404 0.630013 1.149854 -0.911961 -0.218706 0.808578 -1.168928 2.135302 1.515573 -1.028326 1.371887 -0.024046 -1.051387 0.737784 -1.269382 0.696775 0.480074 -0.511918 -1.661690 1.031946 -0.941878 1.403545 2.310754 0.055967 1.049990 0.925465 1.578424 2.002454 1.139423 
