2108 20
</s> 0.020013 0.022097 -0.019151 -0.016390 0.006833 0.015105 0.004704 0.001057 -0.018018 0.011092 -0.021782 0.006248 -0.003757 -0.004786 -0.016579 -0.009411 0.012897 0.015127 0.014845 0.007987 
583 -0.463461 -1.675531 -1.005287 0.029731 1.214717 -0.695617 -0.303113 0.611842 -0.416849 -0.352822 -0.247803 -0.845298 -0.427680 -0.125183 0.521218 0.202763 0.689683 0.343875 0.097261 -0.548856 
597 0.516371 -0.939504 0.509997 0.904616 0.497240 -0.976500 -1.083603 0.572740 0.025884 0.220942 -0.206417 0.698215 0.185661 -0.165809 -0.357711 0.792445 0.548309 0.530968 0.049407 -0.787642 
764 -1.015396 -1.106401 -0.764324 1.137578 0.837564 0.129348 1.142899 1.050227 -0.294316 0.022565 -0.634519 -1.061501 1.260066 0.461668 0.677995 0.095475 0.998166 -0.049791 -0.025156 -0.907253 
820 -1.568128 0.067670 0.103342 1.895323 0.816448 -0.267219 0.412569 0.285785 0.220242 1.103831 -0.939900 -1.321793 0.332191 0.973879 0.292120 -0.486856 0.390067 1.608474 -0.668082 -0.592608 
859 -0.818650 -1.005561 -0.922068 1.863599 0.668185 -0.615757 -0.604147 0.300051 -1.316507 -0.055476 0.707270 -0.775902 -0.993123 -0.413399 0.847811 -0.221412 0.434606 0.880886 -0.467960 -0.220256 
1985 -0.279374 -2.229912 -0.803660 -0.669799 0.066822 -0.880578 1.764292 1.142459 -0.882641 -0.823551 -0.166969 -1.254115 1.037487 0.533051 0.026488 0.172130 0.558888 -1.217276 0.526138 -0.511041 
564 -0.926557 0.410707 0.506550 0.081299 1.279059 -0.731199 -0.659850 -0.467058 1.160057 1.636651 -1.323749 -1.350240 -1.081616 0.821382 0.267371 -0.157846 -0.588638 0.658346 -2.808318 -0.684920 
782 -0.564908 -1.561014 -0.632350 1.069085 0.237615 1.123003 2.081878 0.730325 -0.577196 0.111893 -0.629136 -1.559881 1.533312 -0.359930 1.047707 -0.162384 1.021293 -0.562156 -0.786631 -0.594324 
756 0.245143 -0.893169 -0.331360 2.148038 0.624460 -0.003767 1.878511 0.625701 -0.331243 0.076352 -0.935859 -0.683561 2.094666 -0.223782 -0.559110 1.115028 0.476206 -0.836137 0.007385 -1.178118 
1428 -0.964822 -2.723754 -1.059641 -0.409865 0.315066 0.522584 1.783724 1.045245 -0.504714 -0.941803 -0.259223 -1.454097 -0.141691 -0.037372 1.165999 -1.367103 0.865703 -0.720803 -0.028139 0.453621 
3559 -0.944374 -0.487167 -0.826621 0.617990 0.314684 1.418866 1.006891 1.484627 -0.862297 -0.725581 -0.115932 -1.130091 -1.311039 -1.541945 1.208900 -0.654630 1.031844 -0.359883 -0.909705 -0.360407 
3237 0.444748 -0.770402 -0.709994 0.990352 0.349383 0.395961 -0.579268 1.110404 -0.947691 -1.389011 -0.664220 -0.684095 -1.142317 -1.855904 -0.245834 0.704464 -0.109953 0.382662 -0.101173 -1.007414 
985 1.256253 -2.717697 -1.307869 1.392818 0.077989 0.334516 0.014526 0.122051 -1.378056 0.167630 -0.431388 -1.065218 -0.518212 -1.665594 1.476482 -0.375202 1.102455 -0.596738 0.011454 -1.291087 
561 -0.755233 0.296180 0.674234 1.877949 0.998471 0.108340 -0.753979 -0.733438 1.947153 1.148544 -2.153215 -1.842888 -0.719513 0.808506 -0.132342 0.036957 -0.931372 1.449693 -3.377385 -0.402966 
792 -2.338680 0.317585 0.228235 1.385237 1.158106 0.231136 0.724930 -0.498813 0.602192 2.286507 -0.496916 0.225535 1.248948 0.939590 -1.645458 1.140352 0.246580 -0.068875 -0.923780 -0.076305 
684 -0.399384 -0.033496 0.825441 1.220343 -0.139586 -1.593156 -0.405833 -0.517341 0.392568 -0.035617 0.000452 1.006049 0.386809 0.785185 -2.813100 1.691389 -0.315951 -1.506181 0.541604 -0.273967 
734 0.573877 -0.332538 1.363448 0.759118 0.558692 -1.138799 0.770055 1.413113 -0.063449 -0.244164 0.134984 1.034904 1.528363 0.222866 -2.953340 0.228635 0.653854 -0.176915 0.022197 -0.712389 
2564 -1.234130 -0.640377 -0.768702 1.022450 -0.274096 0.246547 -0.592764 0.985762 -0.522989 -0.246901 1.666444 -0.591346 -0.610542 -0.503337 0.864706 -0.857017 0.064960 0.544524 -0.841985 0.320250 
3227 -1.287141 0.831543 0.171687 -0.069817 -0.487182 -0.421017 0.859114 1.650460 0.270959 0.823416 -0.395829 -0.848889 0.984040 0.839161 -1.078045 0.962939 0.082599 -0.588166 -0.985920 -0.835341 
1587 -1.788936 0.349529 0.313292 -0.229124 0.170044 1.374779 0.646106 0.112399 0.634498 1.096026 -0.358465 1.100278 0.671497 1.049152 -1.639922 0.974750 0.126159 -0.802816 -1.443478 0.837583 
878 1.655823 -1.389766 -2.088660 -1.258916 1.206733 -0.164289 -1.866314 0.664224 -0.472188 0.192179 2.216288 -0.564164 0.329527 1.668058 0.959650 -1.315171 -0.155786 0.657733 2.187590 0.460676 
1595 -0.167482 -0.083791 -2.688719 -2.208674 0.985106 1.549123 -0.074615 1.247028 -0.416949 0.198915 1.358619 -0.473322 1.697259 3.912890 0.589330 -0.817336 0.353622 0.449764 1.425402 -0.000422 
784 -1.678001 -0.629128 0.804539 3.871552 0.583444 -0.976945 -0.187790 1.128315 0.957085 1.544551 -1.338681 0.361128 2.121088 0.507187 -0.960276 1.189669 0.638367 0.441762 0.498426 -1.418760 
809 -1.253518 -0.257478 -0.161494 -0.343687 1.805573 -0.295651 0.585779 -0.150712 1.253148 0.621458 -0.626035 -1.908484 0.551890 1.937292 0.185541 -0.078089 0.327358 0.602646 -3.106318 0.074045 
571 0.414087 -0.756325 -0.687170 2.870403 0.381909 0.021493 -1.073580 0.482912 0.061464 1.118690 -0.601959 -1.500000 0.141091 -2.227764 -0.151203 1.350022 -0.953235 1.459452 0.298196 -1.067618 
706 0.521309 -0.069816 0.811339 0.245968 0.938295 0.189441 -1.330041 0.611771 1.647609 0.707970 0.256946 0.652597 3.571948 3.646029 -0.672161 0.916656 1.934480 0.803655 1.070931 -1.149320 
679 0.647586 -4.073370 -0.253460 0.018828 0.541501 -1.288953 1.411090 -1.217281 -1.900210 -0.032278 -0.180109 -1.243285 1.923982 -0.316018 -0.973780 0.174017 0.279332 -1.505493 2.450035 -0.631189 
1859 -0.903493 -0.243786 -0.466948 1.545534 -1.428173 -0.199059 2.456600 0.248172 -1.845891 -0.217642 0.850671 -0.444999 1.181677 0.748543 1.001127 -0.343938 -1.893388 -1.054543 -0.041004 -0.782192 
858 0.321573 -1.880717 -2.315614 1.166363 2.153955 -0.164917 -2.549890 0.272259 -0.076803 0.695888 1.883568 -0.982268 0.119205 1.804062 2.043327 -0.795057 1.420574 1.814027 0.902826 0.456251 
1462 -0.385932 1.436286 1.247352 0.133608 -0.486019 -0.420895 1.682745 -0.265417 2.252125 1.727667 -1.389863 -0.710113 0.245289 2.111738 0.083284 0.850461 -1.969999 -1.406155 -3.027649 0.029633 
1927 -0.230901 -1.655030 -0.399615 2.025596 1.118511 -1.619155 -0.832459 0.138231 -1.621327 -0.510733 1.621342 0.359355 -0.856456 -1.640572 1.314370 -0.491252 -2.839050 0.846204 -0.819707 -0.114190 
643 0.502691 -0.954437 2.071462 1.891209 -0.119097 -1.332349 0.960910 1.305172 0.573613 -0.102761 -0.518039 2.757535 2.592371 0.926834 -1.969486 1.383809 0.800438 0.141180 0.172428 -1.390522 
1919 0.286537 0.266857 0.536600 1.100145 0.504629 -0.967222 -2.218127 0.167352 -0.224975 2.622221 -1.373197 -0.663970 -0.996007 -0.149224 -0.689532 -0.013767 -1.294160 0.991011 -2.526288 -1.438913 
702 -0.956542 0.515762 2.479115 0.505038 1.393529 1.540236 0.635044 -2.461219 -0.809225 2.121657 -0.354939 -0.499762 -0.525081 -0.151607 -1.107584 1.993767 -0.859859 0.896061 -1.008208 2.578264 
786 0.402961 -1.441887 -1.577859 -0.495796 0.579863 1.695417 0.308415 1.583621 0.442639 0.466971 1.033743 -1.746824 3.231124 1.204494 0.228121 -0.369539 0.731053 0.262489 1.595305 0.588868 
743 0.093679 1.120627 2.848993 2.239356 1.177048 -1.427503 0.352328 0.844492 0.628368 0.564523 -0.279696 1.151851 1.330277 -0.037663 -0.613283 1.695700 0.921897 -1.737717 1.821633 -1.222372 
3399 -0.041390 0.845907 0.534920 2.422265 -0.426491 2.171270 1.629220 1.432959 0.088767 0.168423 -1.291482 1.025572 0.414095 -1.957697 -0.051377 -0.346251 -1.094573 -1.784314 0.778502 -1.161626 
620 0.932688 -0.769327 0.845745 2.000289 0.381124 -1.278880 -1.979115 0.767618 -0.207740 0.633575 -1.437721 1.383376 -1.159450 -0.183554 -1.650564 1.711290 0.517897 0.099858 0.868879 -0.165443 
3187 -3.136552 0.424089 0.479630 2.145566 -0.439078 0.627504 0.630925 0.566089 -3.075836 0.037118 0.269309 0.118307 -0.856286 0.883205 1.931217 -1.505827 -1.323172 1.314016 -0.285122 -0.758734 
3904 1.429199 1.496377 0.538666 -0.900247 1.543724 0.240494 -0.745768 1.704357 2.001427 -0.035594 0.993322 1.276052 0.116863 1.855793 -0.128942 -0.387731 0.838080 -1.335381 3.518949 0.646923 
4451 -0.274100 -0.990382 -0.205189 -1.240309 -1.739137 0.035590 3.443781 1.944013 -1.572511 -0.673240 0.427373 -0.670140 -0.234022 -0.772258 -0.213402 -0.313426 0.086129 -2.994036 1.236712 0.283890 
824 -1.254853 1.264965 0.330051 1.716914 1.791709 0.463267 -0.969161 -1.042454 2.296549 1.222552 -0.907225 -1.932778 0.790386 2.490947 -0.718295 -0.466087 -1.163827 1.682418 -2.748617 -0.095789 
5525 1.310783 0.283272 1.395826 0.163335 0.749596 -1.249292 -1.332805 1.527210 -1.194853 -1.167951 0.720677 1.301824 -0.811982 0.150460 -3.098432 -0.047163 0.419993 0.199234 -0.298400 -0.410025 
3464 -0.240257 -0.661197 -0.978080 1.639530 -0.508666 2.202666 0.743465 1.028934 0.483750 -1.592259 -0.571666 -1.225464 -0.822478 -2.437850 0.121896 -0.183661 0.213489 -0.028584 -0.810574 -0.979239 
664 1.470843 1.392065 1.091554 -0.159047 0.140234 -1.656392 -0.571019 -1.173345 -0.761871 1.986402 0.960701 0.372826 -0.631192 -0.258729 -2.831625 1.985231 -1.953748 -1.284711 -0.921546 0.138159 
3556 0.021326 1.471258 1.608044 -0.696428 1.256610 1.037033 0.020979 -0.592733 2.122431 2.185363 -2.369646 -0.450910 -1.514810 0.313166 -0.144492 -0.925385 -1.701138 0.657124 -3.737961 -0.958804 
3606 -2.405188 1.412604 0.695815 0.676063 -0.872098 0.248048 1.382047 1.560384 -0.601075 0.744031 -0.414483 -2.055706 -0.679437 1.089456 -0.110634 -0.755686 -0.522519 3.408794 -0.410169 -0.537149 
2314 1.453926 0.573152 3.170179 2.546114 0.874598 -0.026243 0.568299 0.595114 0.766552 0.308620 -0.781041 0.907495 -0.107014 -0.376631 -0.430749 -1.285461 1.059940 -2.249809 1.515922 -0.008259 
573 -2.075559 -0.294468 1.491414 1.335235 0.172876 0.924044 0.092711 0.715190 1.420334 1.907743 -1.657643 -0.354950 1.543181 0.941508 -0.294693 -0.361069 -1.578526 0.356401 -1.783115 1.350222 
1996 -1.140413 -3.458992 0.182144 0.518858 -1.887029 1.807611 2.013850 1.332076 -0.445120 -0.773722 -1.080287 -1.084004 1.904955 -0.981670 0.595481 -2.458996 -0.510220 -1.278054 -0.135336 -0.190718 
567 0.255384 -1.822565 -2.695478 -0.637569 1.157588 0.776879 -2.559817 0.257622 -0.157929 -1.232162 1.523216 -2.021361 -0.858970 1.916395 2.042762 -1.368880 -0.075574 2.175835 2.143651 0.716821 
4180 -0.049381 1.671764 -0.174815 0.247752 -0.269834 2.011773 1.932856 1.660784 -0.566163 -0.953220 0.521721 -1.012326 1.089054 -1.024223 -1.430012 1.380178 -0.314666 -1.579079 0.627291 -0.231674 
690 -0.561729 -1.279976 -1.864591 2.002294 0.701855 -0.500392 2.329693 1.052422 -0.291973 -0.489941 1.722077 0.845724 2.119334 1.019304 0.192427 -1.492240 -2.406021 -0.413674 1.442947 -0.154187 
1202 2.567791 -1.694585 -1.506996 0.043429 0.403677 -0.240708 -2.097535 0.174012 -1.217299 -0.341757 2.431033 -0.944848 -0.355430 0.265702 1.475204 -0.729854 -0.610360 -0.635202 2.302751 1.285087 
2042 0.216823 -1.254415 2.247466 1.391975 1.414292 -0.675239 -1.092536 0.173864 -0.244878 -1.799754 -0.195971 1.608562 -0.301658 -0.537179 -3.643725 -1.010214 0.518256 2.246472 -0.188727 -1.302329 
630 0.129847 -0.011063 2.669147 3.261172 -0.033748 -0.349187 -3.210830 0.199142 0.283439 1.349960 -0.540047 1.592840 -0.110640 -1.545881 -0.877270 1.117538 1.078251 0.856665 0.504842 -2.128719 
6760 -0.778597 0.741374 1.022272 -1.227024 -0.000132 -0.676409 -2.015824 -0.210283 1.275639 2.003433 -0.298619 -0.809749 -2.718431 -1.345094 -0.225117 0.468402 -3.156710 0.060407 -2.806115 0.414535 
2886 -0.050887 0.507534 1.598177 0.026389 0.134646 0.387956 -2.811951 -2.532357 1.527003 0.261358 -3.059673 -2.948202 -2.179479 0.672736 -0.431958 -0.022509 -2.311410 2.332974 -3.310842 -2.117501 
2072 -0.785031 -0.152844 -0.600805 1.171640 0.355738 -1.270524 2.852752 0.662335 -0.993835 -1.403771 2.394113 0.616587 1.871569 0.385669 -0.221454 -0.431020 -2.827110 -1.118087 -0.455470 -1.313711 
1101 -0.202322 0.075878 2.096088 2.139482 0.075126 -0.897858 -0.368930 1.196888 1.301884 0.697708 0.037016 0.829868 -0.148114 -1.890189 -0.009955 0.556054 0.638380 -0.346696 0.930410 -0.802620 
984 -0.065359 -1.783351 -2.156061 -0.097685 1.984215 0.652284 -1.575797 0.316071 0.016825 -1.615165 2.134003 -0.910509 -0.316496 0.469750 1.992913 -2.422996 -1.508850 1.404962 0.796396 0.420095 
2939 0.005169 -4.090710 -0.930264 0.188054 -0.744826 0.769068 0.709310 0.367891 -1.524019 -0.520729 -0.041114 -1.439464 -0.882644 -1.135076 0.467797 -1.978363 0.958916 1.458646 -0.793353 1.070956 
1529 -2.300271 -1.109771 1.351084 3.100895 -0.474884 -0.193455 -1.015616 -0.374119 0.032778 0.063841 -2.687775 0.334261 1.609744 2.053463 -2.707683 2.259378 -0.958722 -0.359384 0.804561 -0.057258 
3459 1.879550 -3.117815 -0.492186 -0.198747 -1.123131 1.250927 1.803397 -0.699568 -0.725311 -2.068650 -0.000774 -0.887808 -0.930879 -0.944991 -1.033412 -2.112552 0.762952 -1.244014 0.144064 0.667520 
4165 2.886106 0.075490 0.853879 -0.530393 -0.724739 -1.755925 0.925079 0.361949 0.678083 0.913417 -1.698902 0.579717 -2.327811 0.050584 -1.195735 -0.093038 -3.578001 0.057768 -3.074271 -0.137630 
3179 -1.773544 -2.537866 -0.425873 0.587113 -1.777546 1.593647 3.079968 1.519892 0.781761 -2.401489 -1.178743 -0.836535 1.149803 0.056210 -0.032399 -1.877030 -0.063143 -1.491470 0.216669 -0.086473 
1120 0.476684 -3.992378 0.056226 0.220569 -0.604592 -0.958129 2.038152 1.172303 -0.898132 -1.292765 -1.757658 -2.090790 0.747086 0.020966 1.166884 0.283878 -0.435651 -0.772202 -0.101300 0.402633 
3313 -2.106545 -0.804187 3.561955 1.300223 -0.215315 0.456298 -2.126292 1.192734 0.214522 -0.636825 -0.739179 1.865426 0.627172 0.312963 0.523638 0.775242 1.556317 1.951983 -1.857683 -1.361066 
3740 -1.527007 0.859954 2.609420 1.125390 -1.120654 2.587271 0.357537 1.455046 2.287443 -0.728681 0.014186 1.908860 1.267420 0.367728 0.368055 0.591829 1.618067 1.713305 -1.810224 -0.668904 
2057 -0.067334 -3.908390 0.055786 3.110221 0.157342 -0.612204 -0.159072 -0.813455 -2.025037 1.245217 0.205674 -0.983462 2.639222 -0.870518 1.520101 -0.428679 -0.722186 -2.360045 -0.132821 -0.595521 
2151 2.408256 -0.887851 2.006243 0.944262 0.443862 -0.452080 -0.255188 1.043426 -0.706425 -0.423229 0.347996 3.143866 1.491156 0.657565 -3.532119 -0.386405 -0.056145 -0.468996 0.102850 0.528704 
3097 1.523849 0.931023 1.175464 0.285310 -0.857938 -1.254750 -0.342431 -0.272155 1.485647 0.951227 -1.933620 -0.530828 -4.364669 -0.507620 -0.958287 -0.682751 -2.000196 -0.618968 -3.303475 -0.354184 
916 0.842576 -0.743304 2.286999 2.343543 -0.177043 -1.323765 -0.010005 0.740687 -0.197138 -0.006241 -0.613497 2.364116 1.907448 0.766089 -0.055952 1.248402 0.695033 0.296728 -0.287080 -2.285569 
2611 0.923326 -2.475695 -2.214827 -0.185190 1.174389 0.893583 -2.456393 0.433568 -1.038098 0.339538 1.562909 -0.341657 -1.008626 1.113590 2.683156 -2.014529 0.603238 1.807841 0.409371 1.008911 
759 -1.223162 -0.213450 2.737182 -0.084771 -0.413072 -0.579984 0.525274 1.567689 0.288675 -0.709885 -0.910279 1.055185 2.174476 2.179730 -0.550344 2.897871 3.284765 0.421648 -0.600207 -2.297917 
3337 -1.475081 -0.490430 -0.793616 1.197759 0.335495 -0.338017 0.867986 0.251884 -1.367707 -1.375127 1.809905 -0.422518 -2.108937 -2.052948 1.539693 -1.595538 -2.376507 0.707822 -1.507452 -0.749943 
2206 -0.958014 0.301092 -1.551732 -0.508067 -0.502603 0.878466 0.537184 0.227309 -2.086038 0.496389 1.397467 -0.620554 0.446810 3.290451 1.636168 -1.309482 -2.042032 1.024220 1.667747 0.695680 
3569 0.842575 0.737723 -0.637019 0.986580 -1.131253 2.711210 0.018135 0.086356 0.709465 0.550421 0.061707 -0.261619 1.744192 1.891748 -0.846470 -1.982118 -0.705703 0.003800 1.318179 0.134291 
657 4.247047 -3.499664 -1.034508 1.640190 -0.790425 1.173038 -1.236106 -0.203339 -0.380643 0.078676 0.957871 -0.147017 2.410393 -1.830158 -0.666830 -0.508772 0.068222 0.128918 2.223758 -0.875576 
3855 -2.833407 1.762013 1.544847 0.288214 -0.198917 1.477049 1.814208 1.724229 0.488555 0.705452 -0.587554 -0.972619 1.216792 1.228754 -0.616960 -0.062430 -0.875118 -1.073847 -2.307001 1.208966 
898 1.262084 0.870211 1.023319 0.673175 1.103292 -1.888682 -0.651323 -1.789086 -0.440542 2.360227 0.117812 0.949793 -0.859660 -0.095966 -2.340370 2.749209 -1.353126 -0.280051 0.011234 0.134111 
8012 -2.387578 1.213527 3.027944 -2.583214 0.131483 1.434367 -0.440664 -1.161184 -2.565249 1.142414 0.663976 -1.010083 0.043267 0.816404 -2.208864 2.656423 -1.882073 -1.585410 0.646366 2.522316 
815 -1.398888 -0.110797 -1.719363 -0.998302 2.184772 0.836723 -1.772691 -0.440493 3.124282 1.836245 1.201694 -1.334043 0.860141 3.439807 0.713342 -1.592464 0.804520 1.523158 -0.226557 0.474028 
3168 -0.829973 -3.025428 0.035156 -0.125075 -0.215928 -0.213618 0.843921 1.107704 -0.605211 -0.019045 0.796764 -1.020618 -1.941706 -3.093684 1.000148 -1.798771 0.842526 -0.044322 0.249451 0.980449 
3027 1.292045 -0.385671 3.010918 0.935104 -1.639317 0.016810 -1.273000 1.046021 -1.115870 -0.128079 0.113167 2.268279 -0.805106 -0.084258 -0.583909 1.785698 2.636293 1.856516 0.028546 -0.678334 
1874 0.530739 -0.223556 0.240854 2.597327 -1.960013 0.414044 0.906939 0.931905 -1.955436 -0.790937 1.184407 -0.948058 0.715558 -0.419015 0.833369 -0.923695 -0.315466 -1.509419 -0.722235 -0.799338 
3738 -0.322965 1.099739 -1.612571 -2.103417 0.141623 1.952938 1.039585 1.374637 -0.062470 -0.726973 2.071423 -0.626898 1.661186 2.829504 -0.059229 -1.620489 -0.716948 -0.472212 0.837093 0.421669 
2576 2.300562 -2.022998 0.062663 -1.021961 -0.085361 -1.408898 -2.878606 0.615204 0.131396 0.574165 1.290263 2.481483 0.872513 2.743718 -0.283969 -0.226359 1.005482 1.223933 1.259361 -0.421141 
3112 -1.852630 0.323538 0.586188 2.395377 0.082844 -0.187471 -0.087771 -0.768795 -4.097181 -2.478732 1.991032 -1.134389 -2.102848 0.576536 1.705539 -1.341066 -1.111307 2.012229 0.382879 -1.098322 
578 -0.796149 0.345134 0.160601 2.140226 -0.680098 -0.672769 0.842522 1.134219 -0.178473 1.662274 -1.018239 -1.723533 -1.809787 -0.315736 1.189086 -1.574155 -2.018561 3.438322 0.088867 -0.325720 
2877 -2.527311 1.036928 0.027150 2.581829 -1.305146 1.030744 2.183437 0.531594 -3.189267 -0.686853 0.586005 -1.384572 0.529802 1.710772 1.052622 -0.964441 -1.718730 -0.839579 -0.201686 -0.029256 
3975 0.938611 1.274351 0.240186 1.316447 -2.088357 0.064952 0.872827 1.240331 -0.904267 0.639050 -0.060544 -1.245566 -0.533093 0.160735 -1.316690 -1.446202 -1.589674 -0.134879 -0.045703 -0.201481 
3036 0.071120 -3.398291 -0.906342 0.313803 -0.207079 -0.652921 0.098220 1.305487 -1.644919 -0.472741 0.551280 -0.641745 -2.948057 -2.690835 0.463950 -2.450243 0.733587 -1.011184 0.111564 0.483854 
1256 0.715539 -3.225855 -1.885437 -1.667874 0.927809 -0.206497 0.032751 -0.292179 -0.759629 -1.061050 -0.076919 -0.856130 -2.410654 -0.561109 0.371476 -0.590443 0.258832 0.488588 0.900635 0.767112 
617 1.037095 -1.769179 -1.345672 2.454274 1.280812 1.655180 0.285724 -0.082292 -0.618024 0.999827 -1.209547 -1.208518 0.228371 -3.138811 1.483483 -0.875080 -0.723414 0.988117 0.369891 -2.538681 
6356 -0.212008 -0.595071 -1.883955 -0.292279 1.176566 0.570098 -0.134252 1.532075 -0.733475 -1.697951 0.349889 -1.874343 -3.878955 -1.739526 2.272756 0.619914 2.203308 0.425468 -1.061535 -0.888426 
791 -0.906779 -2.821867 -0.857838 1.971267 3.039820 -1.715252 -0.222977 -0.922393 0.376969 3.361035 1.125143 -3.316394 4.005070 1.645908 1.400918 -0.323385 1.731155 1.751615 1.726013 -1.281205 
4347 -0.794007 1.867675 0.835547 0.494305 0.266348 1.238801 1.584746 3.076705 -0.692787 -0.512881 -0.882820 -0.296010 0.092428 -1.294016 0.191390 1.935729 0.450872 -1.629727 0.678635 -1.207026 
988 1.605712 -0.519247 -2.938356 0.445256 0.861597 -0.304248 -0.915518 0.028695 0.686638 1.259725 1.806553 -0.363998 2.302216 3.593697 -0.027213 -1.567694 -0.670209 -0.496300 1.155870 -0.958621 
3066 -0.091533 2.429382 2.832886 -0.587754 0.395948 0.514821 0.943801 -0.855859 0.978463 1.584418 0.237353 -1.239737 -0.650724 1.030980 1.062431 -0.892785 -1.999998 -0.577338 -5.359554 -0.038051 
4000 0.535303 2.011224 1.079995 0.912224 0.210898 -0.020413 0.723869 -0.185382 1.870879 0.881308 -1.838220 -3.269276 -0.523250 1.596775 -1.109478 0.148425 -2.509733 -0.268014 -3.105623 0.495775 
1143 0.707562 -5.816668 -0.222491 0.859506 1.060314 -0.591106 0.241289 -1.158032 -1.337691 0.808993 -0.927797 -2.284439 1.146455 0.002042 0.653921 -0.680836 0.192901 1.356891 0.030879 1.634392 
1876 1.006705 1.063748 -0.508976 1.139554 -0.419028 3.779349 1.702482 1.415010 -0.505381 -0.259033 -0.086329 -1.371333 2.078501 -1.530061 0.075831 0.396224 -0.929214 -0.530420 -0.111618 -0.731748 
7244 -1.180329 -0.210837 -3.122861 -3.363435 1.929767 1.694985 0.694875 2.231929 -0.702710 0.607993 2.670578 -0.588129 0.258438 1.950900 1.934381 -1.704009 0.131150 0.706444 0.619744 0.734090 
1157 -0.425703 -1.764613 -2.572170 0.517077 1.748233 1.029084 -0.840658 1.872954 -0.177407 0.368056 1.896641 -1.754685 0.042599 0.235915 2.086251 -3.764692 0.415898 -1.268154 -1.374478 -0.054621 
4697 -1.180288 0.064925 0.392935 0.256268 -0.238656 0.345257 -0.294312 0.446309 -2.892755 -1.424547 2.232790 -1.443171 -0.298161 -0.788729 0.212452 -1.761047 -0.585932 -4.817543 -0.281953 -1.567463 
587 -2.164742 -0.724539 1.028659 0.995184 0.540722 1.714295 -0.262794 -2.703684 0.753545 1.988062 -0.675455 1.210590 -0.848105 -0.056782 -2.017825 1.383252 0.621060 1.507655 -1.920203 0.775371 
546 -1.751944 -1.358902 -0.034524 -0.837218 1.362149 -0.332798 -0.308903 0.596514 1.740719 -0.536542 0.598305 -2.026070 1.707384 1.297021 -0.712909 0.356791 2.173248 -0.123954 -1.925014 -0.200191 
4789 2.072097 -2.205694 -0.263800 -0.566626 -1.086579 0.443162 2.330806 0.560266 -1.914194 -1.142977 -1.311382 -1.385736 0.008354 0.352832 -1.501335 -1.807978 0.460556 -1.010288 1.825060 -0.193653 
3087 1.051067 -0.578142 -1.016750 2.945600 -0.972555 -0.069290 -0.738097 -0.101463 -1.617494 -0.928717 2.688952 -0.566683 -0.940419 0.722048 1.347241 -1.372845 -0.338216 0.291774 0.688639 0.620297 
5536 2.094492 0.307671 3.111485 0.199472 1.202050 -0.956415 0.155511 2.005862 0.847434 0.499494 -1.249779 2.820637 -2.200158 -0.190379 -0.498663 -0.094390 0.536493 -1.717947 3.881992 1.442791 
5229 2.937037 0.453629 -1.422913 -2.907722 0.177108 0.388244 -0.516270 -0.377380 3.161925 1.388056 -1.911249 1.038968 -0.718646 5.268035 -0.815365 -0.320068 -1.573024 -0.695750 -0.588730 -0.290639 
2740 2.878567 -0.193947 -2.952456 0.564219 -0.019036 -0.243420 -2.739187 -0.419432 0.016604 1.927781 1.155113 0.031318 -0.082151 2.356314 0.486325 -0.616747 -2.458014 0.160363 -0.071813 -0.454048 
1375 -1.473687 0.025106 -1.667322 0.761594 0.198986 2.227920 -0.760032 1.654254 0.822802 0.436828 1.426357 -0.258481 1.649153 2.227625 0.460266 -2.170353 0.275801 0.456772 0.171130 0.709975 
1235 1.655930 -1.250076 -0.390923 1.833334 0.478943 1.031193 -0.673639 1.451334 -1.966715 -1.304769 -0.581753 -1.481865 -0.987442 -2.204756 2.568671 0.828971 -0.165308 -0.197996 -0.656775 -0.641285 
2892 0.628673 -0.236798 -0.578814 2.579110 0.281997 2.206476 -1.542595 0.690269 -0.952959 -2.145493 -0.368590 -2.374636 -0.739671 -2.488737 1.246776 1.651117 -0.819820 1.740903 -0.634401 -1.120913 
1309 -1.012845 -0.253198 -1.965820 -0.993741 0.684232 2.691026 0.199280 1.167894 1.566284 -0.497887 1.189566 -0.451026 1.489529 3.384667 2.105959 -1.381605 0.063026 1.275645 0.353355 1.404377 
6812 0.852219 0.513078 -3.827628 -2.255023 0.996979 0.013976 -2.022630 2.542387 -0.613770 0.371165 2.284256 1.221901 -2.397786 1.598285 1.173138 0.373718 -0.452460 0.493902 1.982341 -0.091703 
2945 -1.232605 -0.682220 3.046738 1.170594 0.390040 -1.042238 -3.167311 1.328093 1.144745 -1.229704 0.137037 1.861013 -0.398788 -1.611974 -0.044624 0.855082 -0.396948 2.057684 -1.111017 -1.757506 
5620 -1.444704 1.047486 -3.359935 -1.045559 1.168227 1.242673 -0.713171 1.939504 -1.631233 -0.857034 1.570826 -1.184011 -2.891537 2.702304 1.944230 -1.359725 -0.813199 2.031918 0.522344 1.088817 
6289 1.549999 -0.859180 -0.880087 -0.237629 -0.520817 -0.877209 1.335025 1.918579 -1.797197 -0.829976 -0.082918 -0.566310 -3.368956 -2.036206 -0.848878 -1.065834 0.928080 -2.168419 0.916675 -0.442032 
7441 -2.246113 1.853513 0.919900 -1.924145 1.272032 1.758791 0.480705 -1.434382 -0.184582 1.927794 0.419714 -2.205095 -2.750182 -1.457346 -0.819423 3.096706 0.032883 0.028841 -0.079810 1.559126 
1854 -0.958387 -0.917705 -0.705167 3.254379 -0.838143 -0.670478 1.118484 -0.834511 -2.612635 2.241438 1.533812 -1.249034 1.251379 0.014920 2.048360 -0.235504 -0.905142 -0.121681 -0.008919 -1.232991 
895 0.707510 -1.297339 1.952439 1.132167 2.212122 -1.921203 -1.421180 1.477139 0.776592 0.016075 0.450401 2.000548 -1.632551 -3.709313 -0.174238 0.875649 -0.994316 -0.059207 0.248610 0.532411 
6958 -0.959090 2.878059 0.407100 1.017197 0.110126 -0.016046 -0.688992 -1.114490 2.828282 -0.128482 -0.765372 -3.127789 -3.795574 0.286722 0.128967 1.277569 -1.983582 1.315084 -4.603684 -0.584056 
5226 1.293464 0.587412 -2.281091 -1.488005 -0.047091 -0.093602 1.503769 1.312393 -2.519961 -2.227207 2.150336 1.063346 0.084122 4.389356 1.460357 -0.416504 -0.245902 -0.678378 2.519074 -1.550008 
5482 -3.292732 -0.828126 2.016632 -1.904833 -0.110651 -2.514100 -1.192999 0.929391 1.482518 -0.608700 -0.350252 0.987962 -1.536690 2.181446 -3.341086 -1.772736 -1.424521 -1.999731 1.183640 -0.645400 
4050 -1.518529 0.767546 0.554333 0.541416 0.189565 0.996615 2.791997 1.187253 -1.110533 -1.639041 3.083856 0.019051 1.704407 -0.085952 1.366028 -2.294129 -3.023030 0.353464 -0.210437 0.115165 
3053 0.049734 -0.478566 3.126403 3.114469 0.934468 1.156101 -0.857780 1.273120 0.779216 0.579843 -2.707668 1.129566 -0.087710 -1.922424 0.666307 -0.958222 0.473480 0.177183 0.474391 -0.946342 
909 0.094302 -0.849891 0.674957 -0.096372 2.168409 -0.089059 -1.530927 0.956016 1.856396 1.474966 0.841928 1.204922 4.251646 2.824741 -0.976669 -0.457372 0.348873 1.562093 2.607413 -0.565854 
757 -0.139787 0.534814 1.723174 0.961860 -0.513384 0.658310 -0.381282 0.647288 1.631590 0.171544 0.782329 1.631070 3.276141 2.233716 -1.108545 0.949881 0.952145 0.087546 0.379230 -0.533505 
6365 0.498517 0.480383 0.484925 0.871410 0.631797 1.496202 -1.025630 2.101847 -2.011238 -0.147545 -0.682001 1.722868 -2.029032 -3.782573 0.031717 0.535833 -0.960967 -1.014313 2.106032 -1.889033 
3841 1.899192 -1.854323 -1.708892 -0.865834 -1.017536 0.982465 0.303215 0.028133 -1.060107 -1.037845 2.318220 -1.650895 1.642089 2.546041 -0.334557 -3.471211 0.388415 0.027351 1.476810 -0.215394 
864 -1.469059 0.138193 1.204483 0.538862 1.130084 -1.077968 -1.899386 -0.438632 0.231175 -1.333122 0.929458 0.543928 -0.429850 -0.862999 -2.055456 3.575173 -2.064404 -0.814102 0.058970 0.755611 
4951 1.453372 -3.645745 -0.131068 0.630316 -1.750186 -1.179254 2.227291 -1.060104 -0.621797 -1.858075 -0.074044 0.532474 -0.329266 -0.326060 -0.334085 0.262673 -0.267653 -2.880644 2.985984 0.240953 
4335 1.534268 1.156924 0.881803 -0.991692 -1.550685 -1.250387 2.563447 -0.907016 1.406840 1.469844 -1.037311 -1.896262 -0.417291 2.242347 -1.799263 0.228148 -2.812231 -3.043149 -2.760470 0.404639 
6879 -0.655786 0.398905 -0.165665 2.243987 1.779694 1.386577 0.356823 2.460930 -0.884194 -0.420803 -1.160549 1.687108 -2.249238 -2.921202 0.347673 0.613686 0.298381 -0.086782 2.116071 -1.184469 
3261 -0.936371 0.165081 -1.311137 -0.510844 -0.608059 1.390120 -0.420903 2.711947 -0.308463 0.664492 0.214372 -1.846797 -0.729541 2.898609 0.724557 -2.314853 -0.012434 5.217162 0.192029 0.508245 
2738 3.759946 -2.628759 -0.750082 1.191653 -1.154978 0.036237 1.240944 -1.126748 -1.451179 -0.979782 0.864093 0.383693 -1.032245 -2.348354 -0.269602 0.956244 1.110039 -1.629223 -0.194389 -0.526553 
3986 0.214375 3.166205 -0.133995 -2.698690 2.779937 1.217889 -0.578009 -0.554145 3.118006 2.066592 -1.279543 -0.857056 -0.177863 4.530533 0.992539 -0.991153 -2.355639 -0.800954 -0.630371 -0.824606 
662 1.649322 -2.472930 0.802645 0.251443 -0.226309 -2.708886 -1.672167 -1.033368 1.343146 1.315779 1.560071 1.192902 1.866997 1.509756 -1.315924 0.262442 0.633817 -0.630667 0.902338 -0.053160 
3885 1.096669 1.002237 0.805609 0.684883 -1.184240 -0.824118 1.427511 -0.598252 2.564369 2.149005 -0.846040 -1.485338 -0.287933 1.652948 -1.011747 -0.903119 -2.002805 -2.568016 -2.641160 0.286332 
3146 0.433629 -0.391060 0.242720 3.149016 0.793130 2.614965 -0.745221 1.046750 -0.528038 0.142851 -1.896330 0.534057 -1.664495 -4.153154 1.874618 0.696325 -0.991364 -0.212574 -0.135303 -1.266176 
5552 0.071576 1.463965 -0.290895 0.606720 -0.848470 -0.989910 -1.180569 2.054087 -1.024670 0.932322 -0.397435 -1.653345 -3.363463 -0.390098 0.704099 0.101750 -1.436718 0.525270 -1.257686 -0.229100 
7132 -1.995775 2.006343 -0.150018 -0.454435 0.016576 -1.062589 1.960433 1.679745 0.326975 0.802866 0.107937 -1.218645 -2.924225 1.302398 -0.428688 -0.012978 1.541270 2.206174 -1.153888 -0.690088 
3219 1.976514 0.638814 1.326387 1.988037 -0.395856 -0.341686 -1.755443 -1.702302 2.116433 1.442531 -1.708480 -0.971517 -3.530044 -0.547874 -0.471670 -0.928960 -2.063984 1.382737 -3.059821 -0.126975 
659 2.334221 -1.266006 1.303911 1.191599 -0.299040 -3.018893 -1.709665 -0.218272 0.807712 0.807101 1.245995 2.072382 1.870213 1.108950 -2.794520 1.649524 1.032966 -0.321807 1.570057 -1.461985 
4464 -4.157340 -0.975010 2.577787 -1.592986 -0.048176 0.023333 -1.259963 -0.954005 -1.378571 -1.096671 -1.039341 1.457433 -0.466576 1.328126 -2.634590 -0.371540 -0.758705 -3.264021 0.285729 -2.285787 
1419 -0.067036 0.909536 0.872489 0.946921 0.990835 0.341755 -1.908683 0.689982 -1.445092 4.422868 -2.605378 -2.593505 -0.211672 1.318719 -1.115464 -1.205436 0.415702 -1.049317 -0.195434 -1.239165 
9944 -1.515323 -0.000916 -0.312074 0.368107 1.158398 -1.259032 -1.294111 0.526834 0.766832 -2.402566 -1.211073 0.633509 -2.388956 0.077405 -1.529978 3.535206 -0.593253 0.013633 -0.785743 -1.366279 
7784 -1.911799 0.482934 3.356208 -3.692891 2.503161 0.897868 0.947686 -1.433244 -1.384540 0.984763 -0.484977 -0.674342 -1.501368 0.312235 -1.280591 2.243251 -0.672862 1.796990 -0.157439 2.250088 
618 0.320804 -1.173160 -0.375789 -1.307062 0.112105 -0.672237 -1.549589 0.560698 0.101477 -0.449910 0.618806 -1.245401 -0.310454 1.558030 -1.975954 0.590338 2.186721 -0.437416 -1.446859 0.226190 
539 0.620708 -1.643951 0.446990 -0.754538 0.644614 -1.435326 0.863565 0.794166 0.357823 0.546726 0.459441 -0.078336 1.184804 1.581919 -0.087774 0.557450 0.535494 -0.231462 -1.618189 1.466685 
9786 -1.836702 0.429030 -2.147234 0.580759 0.618995 -1.734381 -1.141135 0.989449 -0.785983 -1.809172 2.215360 -1.160028 -3.235022 -0.733998 1.706463 0.783774 -2.138694 0.571591 -1.627021 -1.698365 
6140 3.522066 -0.073635 -2.660961 0.338167 0.236300 1.447419 -1.624150 1.226442 -1.255017 -0.215128 1.622351 -0.156641 -1.057819 -2.003077 -1.989273 0.331489 -0.390535 -1.698817 2.918494 -0.122308 
691 0.382349 -2.781602 -0.915787 -0.294717 -0.311517 -0.532541 2.265476 -0.745740 1.036350 1.603850 1.663337 -1.354825 2.121104 -0.175437 0.401573 -3.104365 1.286633 -0.650413 3.121912 -2.732507 
4897 2.779771 -0.594880 1.816080 0.406322 -1.870853 0.562111 -0.178093 1.062710 0.170951 -0.301279 0.058911 2.109655 0.352935 0.063258 -1.027419 2.207211 1.847925 1.280095 -1.568831 -0.555030 
4408 -0.632879 1.420061 -0.171899 1.236316 -1.769162 1.158690 1.874534 1.951146 0.870259 0.218217 0.475842 -0.300998 0.832445 0.200894 -0.690830 0.036120 -0.648519 -0.320215 0.212483 0.205758 
3915 -4.061711 -0.586911 0.054810 -0.997499 -0.011386 0.352662 -1.486481 0.661721 2.180871 -0.867253 -0.303025 0.861796 -0.769835 1.100419 -2.506312 -1.290390 -1.094715 -2.855756 -1.489600 -1.867837 
6190 1.233806 0.708748 -0.949774 -0.908211 0.325880 1.849676 2.987767 0.993195 -0.933252 -1.499350 1.249624 0.160387 -1.889651 -0.919159 1.430486 1.808552 1.110461 -1.651098 -0.258052 0.629874 
4685 3.068760 0.852982 1.723795 -1.939873 -1.638861 -1.647852 1.145143 -1.090343 0.101809 0.138774 -0.353423 -0.800170 -0.688667 1.849130 -0.957947 -1.070050 -3.548240 -2.597343 -3.142589 -1.550987 
2534 2.102870 -4.484349 -0.343748 2.157781 -1.322201 -1.210835 -1.319511 -2.105757 -1.394004 2.539702 1.884170 -0.492525 3.295788 0.589424 1.953353 -2.396309 -1.164886 -0.643446 2.288326 -1.484504 
7408 -4.300565 -1.468137 -2.493582 -1.717445 2.533022 -0.072818 0.955245 2.307065 -1.098424 -1.126767 -0.502854 -1.823090 -3.847273 -1.034784 1.568857 -0.202113 1.349426 -0.031591 -1.544998 -0.981837 
1969 0.478311 -0.413937 0.935467 -1.335357 0.362909 -0.626034 1.614583 -0.518657 0.728195 1.392628 -2.219615 0.382348 0.870060 1.569612 -0.416267 -0.782065 -1.937764 -1.858419 -3.982267 -3.111077 
5362 2.201251 -1.767608 -1.916906 -0.014443 -0.091454 0.367727 -1.046523 0.160542 -1.182680 -0.604724 2.477917 -1.177174 -1.489215 1.869142 -0.333249 -2.684030 1.490754 0.384812 0.030808 2.206675 
6566 -1.022107 0.104948 -0.460999 -1.023524 -1.525114 -1.486499 -2.108662 1.998000 0.905876 1.873070 -0.459746 -1.174323 -2.215904 -1.546444 -2.732695 1.129225 -0.104846 0.693058 -0.743937 -2.986511 
580 -1.805610 0.838130 1.716777 0.253651 1.156434 0.092006 -0.830750 -0.221031 0.699276 3.551475 -0.342457 -1.801028 -0.609610 -1.455982 -0.552633 -0.306143 -2.322707 0.638429 -2.262517 1.102794 
6180 2.684204 -0.089557 -3.340758 -0.945998 1.304558 1.587252 -1.516795 2.202078 -0.429837 -0.876222 1.647068 0.211640 -1.612414 -0.883037 0.367647 0.498910 -0.462239 0.754788 2.208919 0.497075 
4912 2.445253 -0.271274 -1.481014 0.877544 -0.073760 0.229429 2.670918 2.352776 -1.390352 -0.397337 -0.384873 0.862324 -0.873110 -1.368486 -1.607547 -0.401418 0.102665 -3.159816 0.476898 -0.968745 
2644 0.489566 -0.127255 -2.162091 -2.286988 2.255333 0.601554 -2.464185 -1.158841 2.077043 0.129945 0.760895 0.712871 -1.418852 2.404956 -0.334814 0.928389 -0.880752 1.306906 0.244122 0.697042 
1133 2.280790 -2.196170 2.348207 -0.637063 -1.538535 -1.396165 -2.008475 1.169616 0.524529 -1.685407 -0.261645 2.575582 -1.902783 -1.099010 -0.679288 2.425483 2.543023 0.601894 -0.698832 -1.473603 
2652 0.646753 -1.712703 -1.411381 1.009845 -1.039377 -0.204507 -1.938401 -0.608456 -0.522385 -0.886085 3.370308 -1.408109 -1.613432 -0.796540 1.605033 -1.021158 -0.643796 0.150327 0.993005 1.118023 
3305 -2.029504 -0.466143 -0.425048 0.587742 0.726160 -0.028743 -0.352110 1.901210 -3.145469 -1.115012 3.459627 -1.429952 -0.352277 -0.709417 0.813711 -0.601954 0.961685 -1.468236 -1.590453 0.058847 
3241 -0.353605 -4.461063 0.183432 1.114928 -1.216618 0.931360 0.267170 -0.520811 -0.878929 0.713321 -1.169695 -1.067891 0.099360 -1.549252 1.005979 -1.902842 0.291923 1.129969 -0.321281 0.431569 
3433 -2.479391 -4.550652 0.607976 1.442375 -1.224294 0.822163 0.220187 0.618914 -0.585073 -2.040284 -0.663410 -2.757888 -0.499245 -2.322054 1.760089 -2.742257 0.669992 0.319266 0.110077 -0.692887 
1478 -1.240632 -2.266021 -1.079364 2.894184 1.529486 1.217118 1.179541 0.271836 -0.309162 0.331944 1.499951 0.579904 1.258627 0.410207 2.993649 -3.457741 -1.341160 2.824836 1.013921 0.926860 
3909 0.167648 -1.133322 -1.653660 -0.006153 -0.103946 2.131001 0.153725 0.824142 -0.611644 -0.995290 1.215549 -1.759112 1.188066 1.772511 0.446234 -4.289940 -0.809225 -2.944664 -0.309992 0.379213 
4076 -0.483640 1.490125 2.571166 -1.431386 0.118599 0.098639 1.327132 0.657755 1.819143 0.273371 -2.378987 -0.496936 -3.173439 0.887987 -0.396593 -1.072312 -1.856699 0.294816 -3.122141 1.417740 
718 1.158241 -0.474315 2.011808 3.160275 1.996826 -1.900881 1.718001 0.102219 -0.503650 0.234085 0.903838 3.182505 2.257555 1.153156 -3.671941 0.155238 1.376833 1.365126 0.301056 -1.710418 
7154 -0.726320 1.761248 2.199191 -0.139485 1.915971 -0.229553 -1.028340 2.326381 1.504693 0.900274 0.741055 0.757338 -2.212486 -0.413630 0.702619 -0.972708 1.469917 -0.973642 2.475487 0.640955 
1390 -0.434532 -2.131241 -0.794751 4.952956 0.032427 -0.287615 -0.770463 -0.777686 0.351553 2.233537 0.431971 -1.271152 2.881726 -0.628237 1.540755 1.173748 -1.335158 0.791559 1.252161 -0.758406 
2083 0.384091 -0.272066 1.265518 3.266973 1.185898 2.313786 -0.869092 0.354733 -0.480150 0.097414 -1.729332 -0.264416 0.508789 -2.343871 0.393810 -0.220689 0.209916 0.080080 1.092454 -1.576741 
7863 -0.792763 3.597106 1.347361 0.306833 -0.080064 0.117081 0.989967 0.319433 1.827656 -0.778672 -0.156088 -1.457829 -1.116093 2.539421 0.335149 1.307362 -1.987934 -1.130465 -4.007943 0.146457 
4570 2.203905 0.325138 0.241603 1.352912 -0.076301 2.224875 1.727174 -0.008930 -0.525349 -1.127487 -0.623042 -0.118263 1.046723 -2.546375 -1.370118 0.605010 -1.059280 -3.306298 1.757792 -1.756891 
701 0.971351 -1.730953 3.448533 2.446994 2.824671 -1.910146 -0.990190 -2.241257 -0.212547 0.020942 0.350204 1.750525 3.137059 0.922325 -2.795392 -0.308038 1.177817 0.733746 1.091745 -2.598232 
2349 1.316873 -3.686861 1.853004 0.876805 0.258344 -2.063738 -2.105510 0.152938 -0.349612 -0.805714 0.345962 1.888102 0.324025 -1.171991 -2.498085 -0.953425 0.281313 1.127218 0.200697 -0.423061 
7954 -0.451387 1.410549 0.526559 0.053034 0.304564 -1.563109 -0.091796 1.477978 0.324212 -0.330024 0.329515 0.999516 -0.907987 0.905469 -3.122431 2.757695 -0.372600 -2.118040 0.319947 1.016579 
3932 -2.036248 -3.044584 -0.203248 -1.653850 -0.543690 1.214790 1.696086 0.159275 -0.464487 -2.495854 -0.916175 -2.201697 0.261560 0.421290 0.447307 -0.280755 0.762641 0.083922 -0.692229 -0.086624 
4331 2.715460 0.575660 0.314937 1.972817 -0.262298 2.153198 1.993334 0.218397 -0.089263 -0.854317 0.178759 -1.354162 0.763822 -2.475512 -2.449885 -0.190902 -0.905017 -1.606968 1.534733 0.173405 
1925 -1.170736 -1.403223 0.333273 0.521717 -0.328381 -0.485943 -3.279798 -0.531416 0.308027 -1.414784 0.498776 0.431568 -0.775141 -0.142062 -1.695248 0.514636 -1.108223 0.956762 -0.805475 -0.308098 
7041 -1.694219 -3.044444 -2.234449 -1.076178 1.778736 0.091909 0.007534 0.735622 -1.512209 -1.495832 -0.508300 -0.943653 -4.715374 -1.273134 0.719074 -0.835942 2.579606 0.482866 -1.260267 0.107216 
5172 1.150937 0.376038 -2.960096 -0.441223 0.195286 0.930816 -1.758491 0.570877 -1.183421 -1.262151 2.340672 0.120063 -1.970004 1.758398 -0.064763 -1.885242 -1.014202 1.072235 2.544975 0.075946 
3326 -2.178435 0.753702 -0.082608 2.297632 -1.625207 1.600208 -0.235004 -0.312337 -0.891108 -1.344229 2.887785 -2.851052 -0.556479 -0.293876 3.193293 -0.998212 -0.661653 -0.429724 -1.618302 -0.380038 
830 -0.046215 0.216239 1.219404 2.413257 2.783713 0.203658 0.381809 -3.739562 3.234105 1.589690 -2.064150 -2.456844 1.313024 2.758477 -0.265934 -0.255862 -1.560951 2.698537 -3.100562 -1.002687 
1856 -2.951919 -0.460313 -1.337901 4.444915 -1.653081 -0.213567 2.090091 -0.556748 -0.638249 1.324085 0.854367 -0.898247 1.850967 1.805912 1.915012 0.358429 -1.175764 -0.114195 0.249581 -1.454925 
9272 0.520911 0.864803 -4.020787 -2.181407 2.102607 -0.315282 -2.648669 1.518058 0.361968 -1.915666 2.579463 -0.517188 -1.458038 2.716548 0.705855 0.249586 -0.333257 1.150442 -0.039646 -2.256719 
7948 -1.528942 2.147156 -2.256376 -1.423517 2.429377 4.191359 -0.689804 3.766801 0.654809 -0.334792 0.540370 -0.370717 0.346973 0.461521 1.263318 0.403479 -0.095285 0.097737 0.590000 0.368148 
3290 0.366801 1.491126 0.219006 -0.306566 -1.347244 0.735440 1.368332 0.456861 0.731390 1.674199 1.159535 -1.241171 -1.746879 0.675944 -0.029334 -2.606649 -0.341974 3.422241 -0.745557 -0.014932 
5129 1.309433 2.721794 -0.041817 0.568552 -0.791261 -0.847805 2.152014 0.713157 -1.264308 1.828758 0.411701 -1.040500 -3.457395 0.787772 -1.157182 -1.878735 -0.395929 1.279642 -0.223949 -0.476325 
1980 1.163333 -1.201423 2.930310 -0.735176 -0.505038 0.498333 0.292801 -4.757900 -1.318548 2.359086 -0.305776 1.537284 -1.636274 1.512611 0.305786 3.057594 -0.161541 1.197153 0.717387 1.921223 
3126 0.546500 -0.445154 0.905167 -0.918344 -0.657985 0.986925 -1.195890 -1.783042 -1.665572 1.503510 -0.068476 -0.591883 -2.206665 -1.223005 -0.800625 2.174845 -1.233015 2.002507 -1.290210 1.181023 
1451 -0.144356 -4.010089 -0.372089 1.769587 0.658517 0.106938 2.611594 -1.912724 0.808859 -0.141235 -0.828135 -1.968011 1.773051 0.052152 0.902247 0.422432 0.723167 0.012671 1.447826 1.012232 
553 -0.695211 -0.262715 1.679001 1.769654 3.951981 -1.748006 1.454018 -3.506402 1.850168 2.986350 -1.439078 -2.559957 1.486802 1.800855 0.577481 -0.103033 0.497395 1.978965 -3.031666 -2.444711 
5122 3.216282 1.035124 2.309221 1.242731 -0.501722 -1.560861 -0.737053 1.300005 -1.094701 -1.999990 1.391927 2.019955 -0.028703 0.660168 -3.689802 -0.036874 -0.416214 -1.371623 -0.801218 -1.026863 
3589 -0.342273 0.876729 0.068943 3.280555 -2.078579 1.239565 0.318482 0.679043 1.104305 -0.565585 -1.213294 1.616930 0.886823 2.291729 -2.970569 1.306502 -0.748103 -2.018288 1.078357 0.636234 
4695 3.462100 2.141235 1.298622 -1.956231 -0.155059 0.857901 0.208669 -0.631468 0.296485 1.305652 -1.260816 0.320273 0.094235 4.519094 -1.131597 -0.391559 -1.523518 -1.413264 -1.090896 0.629488 
9041 -2.343012 2.027170 -3.317935 -3.047483 0.671906 3.339654 1.176496 2.671338 -0.580429 -0.017092 2.544632 -1.174734 -0.078574 2.647211 0.116502 -1.439168 0.532604 -0.260059 0.703488 0.842784 
977 -0.806351 0.135342 -0.323318 2.838420 2.648981 -1.453486 -0.421846 -0.420508 -0.320636 3.185095 -0.822064 -1.953372 -0.625126 1.755342 0.820824 -1.034725 -0.869433 5.244335 1.671736 -0.016803 
6975 -3.670045 0.906918 -0.536745 -0.475267 0.874419 0.586533 -0.076652 0.889614 -0.591843 1.867691 0.205073 1.237704 -3.532300 -2.272903 -1.726256 1.567129 -0.237454 0.483501 -2.997048 -0.397044 
832 -1.725125 -2.639961 -2.094706 3.347859 0.470924 1.712752 -0.774209 -1.046219 -0.113343 0.287340 1.926497 -2.571879 2.385010 2.464811 2.383600 -2.541332 1.166414 2.795693 0.244941 -0.072790 
10047 -0.616796 1.137504 1.958626 -0.334913 3.121439 -2.877795 -1.352152 2.896684 2.091262 -1.853902 -0.767693 -1.008692 -2.882826 -0.971981 0.443142 0.593662 -0.476546 0.065718 0.954298 -1.426903 
843 -0.475791 2.758219 2.440266 -3.088197 1.214156 -0.352778 0.636844 -0.528374 -0.847433 0.840775 0.272707 -0.683684 -0.642645 0.981713 -1.630066 4.261446 -2.242037 0.714923 1.169026 0.926087 
800 -0.530397 -2.301338 -0.695015 -1.740579 0.635293 -0.074588 0.522624 0.057394 1.026292 -1.482370 1.467170 -1.238154 1.020770 2.217176 -0.675069 -0.154716 1.496729 1.415404 -2.984299 0.940791 
870 -0.543896 -3.022145 -1.686681 2.344867 2.800970 0.271824 -1.640528 -0.071681 -0.507466 1.822742 1.164428 -1.327865 0.807344 0.386971 2.689766 -1.925130 1.914695 2.062274 0.154277 0.264306 
1475 -1.787996 -4.078454 -0.663193 2.586840 1.197041 -0.328060 0.956829 -0.948254 0.076410 2.887064 -2.275647 -2.191163 1.873655 -0.165956 1.291459 0.063603 0.387136 0.301046 1.344675 -0.420993 
6474 -1.441281 0.371079 -0.145565 -0.814106 1.213156 -0.082637 0.776385 -0.592323 -0.088827 3.034144 1.112051 3.304117 -2.171694 -1.174422 -3.994797 -0.634682 -1.439327 -0.280832 -0.842766 0.136860 
631 0.815074 -0.967216 1.071740 2.870603 0.679443 -0.544248 -1.108602 -2.441046 3.162654 1.707827 1.138769 -1.261234 0.838419 -0.730080 -0.982101 -1.814201 2.374490 0.482204 3.046596 -1.855354 
5076 2.643298 -0.498436 -3.569921 0.246732 0.441499 1.306876 -1.370593 1.412575 -1.146697 0.082364 0.734149 0.733832 -2.019783 1.205867 0.159254 -2.068761 -0.613680 1.107658 0.499704 0.280915 
1065 -0.191808 -1.005533 1.088146 0.083541 1.589440 -0.412583 -2.890146 2.341044 0.486615 -0.417540 1.349357 1.158923 0.659609 0.281282 -1.686382 -1.326816 -0.038298 3.565276 1.039199 0.247174 
1964 0.017926 -2.018482 0.388468 1.404814 -0.873174 0.481930 3.591597 -0.436158 -1.717275 -1.295909 1.577218 0.461763 1.778008 -0.085521 0.406494 -1.350129 -1.994212 0.292325 -0.294142 1.070491 
4271 0.135187 1.164317 -2.124630 -2.294440 0.767842 2.734695 2.480681 0.895584 0.762652 -1.181450 2.100278 -1.566343 1.573742 1.705159 1.506038 -0.493875 1.035712 -1.622844 1.176365 -0.614031 
4806 1.010274 2.021830 2.206796 -1.354416 0.051309 -0.298869 -1.504094 0.956779 1.275909 1.973597 -0.494775 -1.719703 0.209285 -0.822531 -2.182356 0.874713 -3.828056 -0.773069 0.024350 0.199812 
3863 -0.966618 1.769132 1.763138 -0.863898 -1.618737 3.039205 0.696995 -1.273097 1.886272 0.887884 -1.906021 -1.428549 -0.536873 1.798752 -0.677222 -0.328700 -1.042699 0.397955 -5.196112 -0.467411 
3865 2.399161 -2.417232 0.650220 -0.223840 -2.131678 0.593592 2.828755 -0.181807 -1.516746 -1.565375 0.347226 -1.256263 0.694474 0.450253 -0.811521 -2.918110 0.379342 -1.407197 -0.049138 0.426603 
1304 2.022896 1.242042 -1.186570 0.323384 2.266576 -0.332086 -1.257794 -0.742773 1.123000 3.016599 0.569294 0.532342 -3.016586 2.201303 1.348941 -1.496186 -0.772976 0.562058 -3.937776 0.213159 
8742 1.674259 -2.299545 -1.770631 -1.624811 0.283016 -3.372620 2.448908 0.226234 -0.688916 -2.147669 1.397188 0.221420 -1.680280 -1.268199 -0.988345 3.017759 -0.417083 -3.550256 1.394115 -1.030855 
7317 -3.855191 1.724795 -1.738376 1.540946 -0.017195 -0.017987 0.278158 1.616161 -1.464924 -0.412488 2.102413 -1.147074 -2.417260 0.688155 2.307006 -0.071102 -0.397966 -1.041500 -0.710103 -0.699597 
3650 -1.565775 0.098182 2.557647 0.213753 1.202678 2.654288 -4.355177 1.212750 2.196425 -0.698781 0.821340 0.625120 2.594485 1.113628 1.589654 0.339964 0.521330 1.222365 -0.490866 -0.077513 
7705 -2.672071 -0.732039 -0.947813 -0.488731 0.511485 0.914259 3.065991 2.285340 -0.588278 0.035431 0.966113 0.051604 -1.248253 -1.649885 0.231880 -0.331843 1.746714 -1.538706 0.278230 0.732930 
3550 0.585408 -1.089499 -1.841946 0.822055 0.679642 2.799374 -0.449078 1.074257 0.555036 -1.403905 0.983741 -1.256591 -0.684121 -0.002275 2.138661 -1.331419 2.231306 1.034695 1.022526 0.673083 
3446 -0.300846 -2.248647 -1.473873 1.782071 0.097452 2.864210 -1.128413 -0.057743 0.742021 -0.196524 0.465692 -1.386289 1.139361 1.093651 2.171339 -4.668684 -0.051110 1.457843 -0.900067 -0.418569 
7386 -2.889986 1.193619 -0.425163 -0.629188 -1.350332 -0.583269 -1.678488 3.280439 -0.749300 2.444735 0.493384 -1.254844 -0.798327 -0.682241 -0.274654 2.845766 0.362548 -0.397445 -0.611762 -2.528007 
839 -0.889934 -0.350998 0.225967 -0.935646 1.763662 -1.389226 0.204914 -0.141917 0.987931 1.242650 -0.564179 -2.085227 -2.404902 0.555692 -0.101317 -1.135104 0.113593 1.553548 -3.462749 0.516225 
7206 -1.251817 1.459296 -1.064170 1.558988 0.441281 0.313467 1.444957 1.522275 -3.161079 0.259575 3.240274 0.437103 -1.002731 -0.037066 0.024333 -0.118156 1.387032 -1.559928 0.528261 0.144065 
2863 -0.818819 -1.570294 2.620821 1.640051 -0.314116 -0.781190 -3.729715 1.643588 -0.668839 -0.011495 -0.883939 1.878577 -0.920110 0.519856 0.202995 0.485244 1.812459 2.610792 -0.108076 -0.538704 
7227 -2.208851 0.490198 -2.639362 -1.987898 1.668549 1.701730 0.933020 3.247471 -1.359580 -0.345230 2.530636 0.452996 -0.628154 1.914789 2.451538 -1.584542 -1.211508 -0.187404 -1.467692 1.670555 
893 -1.493623 0.142443 0.539603 0.280065 2.916396 -1.351972 -0.442523 -2.123312 -0.196842 2.931021 0.058995 1.121711 -0.280645 -0.743236 -1.127392 2.308597 -2.496942 0.019899 -1.466209 -0.750645 
6215 3.669018 1.306929 1.652322 -3.274186 0.074145 -0.148630 -2.026141 -2.807390 0.888474 1.660814 0.030710 1.190335 -2.834630 2.971192 -1.554931 -2.876352 -0.258056 -1.138019 -1.084259 -1.796806 
3777 -1.310241 -0.600071 0.605512 2.216775 -1.539008 1.062924 3.294802 0.660888 -0.869370 0.612626 -1.766944 -0.670932 -0.491861 1.205459 -0.081791 -1.020980 0.929070 3.706419 -2.057533 -0.277986 
3257 1.310001 0.736338 -1.690519 -0.101399 0.910121 0.358516 -1.298318 1.346109 0.504633 0.376103 0.219925 -0.742801 -2.593655 1.420479 1.527405 -0.957679 -1.314938 2.913718 0.318748 1.577342 
2902 3.306657 -4.442161 0.143398 1.385864 -1.403202 -0.625260 -1.373849 -1.447750 -2.179669 1.742878 2.433867 -0.005212 2.053412 -1.013781 2.586049 -0.938489 -0.997850 0.003312 0.673178 0.117325 
4156 -1.651291 1.371515 -0.242686 0.399502 -0.075534 3.130399 1.661233 3.376868 1.891641 1.214923 -0.431549 1.077211 0.918960 -1.187552 0.572611 -0.781066 -0.724101 -0.388003 1.859615 0.041191 
2846 1.606669 -2.437804 0.684803 3.643817 -1.593821 0.289579 -0.805151 0.195605 -0.028371 1.686928 -1.790021 0.210638 0.090800 -3.744336 0.783733 0.808317 -2.613053 -0.097796 0.985189 -0.299093 
785 0.229880 -5.256346 -0.787180 1.304661 0.197761 -1.779431 2.956082 -2.086869 0.604468 1.718189 -1.075452 -3.609792 4.609520 0.610420 0.568461 0.940892 -1.040776 -0.382476 1.120129 -1.339351 
5103 2.160537 1.156379 -1.153247 1.412766 -1.071944 -0.360927 1.330075 1.641742 -0.208133 -0.541517 1.259419 0.796290 -0.561676 0.012992 -0.990531 1.286379 -0.576854 -1.226680 1.069450 0.126693 
10322 -1.370045 -3.609583 -2.720636 -3.016654 1.697992 -2.335067 -1.315472 1.238811 -0.819752 -3.195504 -0.037302 -1.114067 -2.636861 0.162210 0.497674 1.619451 0.344658 -1.179998 -0.335076 -2.508299 
5046 4.188033 0.152327 -2.292990 -0.335777 0.773482 3.106522 1.451392 0.561039 -1.427464 -1.092692 -0.240642 -0.555208 1.850032 1.073072 -1.454921 -0.844994 -1.497010 -1.376137 1.786533 -0.057896 
4420 -1.413853 1.812840 -0.130516 -0.549531 -2.439723 1.075149 -1.045924 1.878800 -0.056259 2.205626 0.909042 0.784823 0.822498 0.533925 -1.084497 2.368387 -1.222574 -0.953705 -0.275600 -1.114549 
875 0.551361 -0.848913 0.193530 -1.674818 1.847256 -0.802376 -1.778441 0.084478 0.231191 -1.148173 0.490944 -1.885506 -0.896781 1.282759 -2.024139 0.924693 2.261069 -0.451004 -0.777279 0.918562 
5660 2.046482 0.136666 0.704704 0.523894 -1.264173 -2.350025 -1.280907 0.909123 -0.164467 -1.194343 -0.030441 3.582435 -3.249595 0.020221 -2.681347 2.409438 -0.142026 -1.219328 1.178403 -0.470376 
8148 0.155886 1.922697 -2.106607 -0.402423 0.496026 2.010793 3.672497 1.396288 -1.466663 -2.242699 1.342440 -0.094166 0.772417 -1.015724 -2.314784 4.415116 0.217638 -1.768691 0.133264 -1.979161 
4386 0.936686 1.345240 -0.703581 0.951316 -2.078308 1.073832 4.134315 0.978834 -0.135767 1.902255 -0.406009 -0.054791 -0.131397 2.060895 -1.192453 -1.967371 -0.714860 1.609228 -0.667040 -0.489989 
10400 -0.767604 0.033049 -2.804352 -1.428269 1.311269 0.755507 -2.476537 1.457976 1.554533 -1.303091 1.974667 -0.874686 0.172676 2.207856 1.709779 1.760399 0.366113 1.164471 -1.083153 -0.931577 
6936 -1.368534 1.036824 -1.592346 -4.432669 1.943553 1.431491 -2.274181 0.636085 1.889646 1.236874 0.390846 -0.341458 -0.376621 2.942537 1.391238 1.976028 -0.575588 1.411443 0.928925 0.194278 
2126 0.708867 -2.809481 -0.499226 -1.040588 -2.012837 0.948687 2.389973 1.444646 -0.345899 0.405213 -2.456494 -0.943314 1.574055 0.541135 -0.266958 -2.149847 -0.378032 -1.067322 0.846268 -1.136795 
823 -1.902250 -1.100820 2.490186 2.599165 -0.781432 -0.468145 -0.724092 2.124113 2.401035 -0.051101 -2.001692 1.067164 1.631152 -0.026006 0.160208 1.306438 -0.039091 2.075507 1.045283 -1.010833 
4881 1.951416 1.207968 0.895400 -0.843233 0.082659 0.896607 -1.219136 1.090470 -0.031141 -0.349671 2.100629 0.714812 1.930121 1.903518 -4.583972 -1.670549 0.291725 -0.151500 2.366146 0.240255 
4085 2.381929 1.016016 -0.405061 -0.910787 -1.134499 1.395580 1.571775 -0.169738 0.305715 -0.468145 1.678426 -1.503211 -0.343099 -0.410485 -0.118634 -3.192224 0.486793 -0.991254 1.058992 -2.199595 
4046 -0.717073 -0.070643 2.040727 -0.745480 -1.017195 2.883460 -1.899980 2.098169 3.946206 0.456656 1.463189 1.729091 2.803712 2.668976 0.683102 -0.951260 1.517937 0.588352 -0.021007 1.519076 
10499 -3.008352 -1.175576 -2.285047 -1.848462 3.227642 -1.372134 0.806698 0.326481 -0.563694 -3.008438 -1.159099 -3.072584 -3.935561 -0.082619 0.936617 0.830240 -0.683872 -0.917692 -0.667695 -1.699692 
557 1.806366 -0.434004 -0.277759 -1.866806 3.215460 0.200966 -1.952551 -0.901080 2.306633 1.258090 0.018525 -1.568069 0.441163 2.178339 2.383708 -1.614186 0.039130 2.851845 -0.001919 -1.155033 
7120 -1.998983 0.828101 -1.926685 -1.911312 1.182060 1.516406 1.089406 0.292176 -2.551703 -1.925979 2.207239 0.509815 -2.858921 1.844684 2.615050 -1.440505 -0.102907 2.249959 0.917168 -1.268093 
681 2.469375 -1.518350 -0.413672 0.473332 1.039391 0.773715 -3.178423 0.533398 1.210805 0.316113 -0.072106 1.991870 0.521143 0.588987 -1.534222 0.231160 1.034323 1.719311 2.654306 -0.034313 
3690 0.220237 -0.394110 -1.571450 1.747183 -1.253209 3.414971 1.003368 -0.099305 -0.799184 0.994035 1.257750 -0.835668 2.377344 2.200392 0.863055 -4.964186 -1.522335 0.766309 1.258412 -0.266460 
5381 1.745079 -0.834798 0.596210 1.484652 -1.278881 2.376984 1.415473 -1.398305 -2.229174 -0.522219 -0.307483 -2.340442 -0.493641 -2.464699 -0.943505 -0.392599 2.792412 -1.501660 1.297164 -1.864114 
622 -2.767142 -0.720311 0.670193 1.635577 2.331934 0.032356 -0.617993 -2.755672 0.096823 3.005568 0.096057 1.735181 0.453246 -0.729571 -2.193846 2.605333 -1.658157 1.812780 -0.771612 0.135066 
700 -0.843589 -0.439787 -0.053879 0.025103 -2.673782 -1.379408 -1.731963 1.930927 -0.666116 2.480771 -0.277816 -3.096835 1.331527 1.102951 -2.145468 1.669383 0.396776 1.029307 0.141863 -2.524434 
3584 -0.895242 -1.516643 -0.267956 2.297154 -1.725715 3.766514 0.548308 0.016189 -0.630403 -1.853293 1.216510 -1.159565 1.111670 1.038157 2.038550 -3.503522 0.289642 -0.060872 -1.687650 0.746934 
8256 1.564683 1.529905 -0.536286 -1.240260 -0.859239 0.044421 2.208011 2.134185 -2.570683 -0.490152 0.985035 0.640435 0.019530 -1.157974 -1.583200 3.873509 -0.807140 -2.746859 0.454522 -0.902735 
1445 -1.222099 0.350833 -0.459934 2.021159 0.196544 -1.023000 -1.921969 1.916461 1.037865 -0.141444 -0.763432 0.029343 -2.470006 -1.285881 -1.207623 1.073629 -0.283656 0.388572 1.055634 -0.939044 
7258 -1.788934 2.283119 1.406425 0.311463 -0.019507 0.425288 1.248362 0.213306 1.088714 1.121282 -2.142223 -0.733286 -2.986932 0.927059 0.026749 -0.788951 -0.998715 0.799569 -2.309395 -0.094089 
2793 1.759168 -0.310470 1.577928 0.561607 0.801481 -0.717653 -1.381190 0.918256 0.107382 -1.483035 0.653739 1.313281 -2.416905 -2.003156 0.337867 0.441505 0.000937 -1.505245 1.053409 0.790982 
4494 -0.776042 -0.806103 -1.187992 -0.428772 -0.423677 2.210312 -0.715493 -2.095622 1.512288 3.163709 0.779655 2.481692 2.046188 2.248742 -2.156825 1.058409 -0.789346 -2.112940 2.314983 1.011412 
8295 1.318168 0.160523 2.029205 0.763087 2.735623 -2.195471 -1.907735 1.506840 -0.401164 -2.320938 0.509352 1.252336 -1.984787 -3.347880 0.225038 3.006474 -1.163547 -1.083215 1.847837 -1.302211 
790 -0.565437 -3.539511 0.264973 0.998879 3.104614 -1.563692 1.261036 -1.233656 0.281675 0.359905 -0.845928 -4.561937 2.826506 -0.434204 0.010204 0.246148 0.844941 0.294692 2.270674 -0.998155 
5192 0.156593 1.374067 -1.793126 0.922699 -0.792701 -0.866117 0.328397 1.430237 -0.707802 -0.567699 4.108592 -0.032149 0.845314 1.911047 0.332354 0.026757 -0.436755 -2.541544 0.874461 -0.945526 
9438 0.328896 0.909779 0.991884 -1.072790 1.836902 -2.215688 -1.034771 1.773040 1.258463 -1.459929 1.368462 0.612858 -2.132226 -0.575380 -0.390282 1.127275 0.562307 -2.071130 1.981398 -0.712022 
3859 -0.620029 -0.718178 3.227385 1.566330 -0.771084 2.920013 0.172842 0.509926 1.321848 -0.526596 -0.689912 1.893818 4.333668 3.103146 0.077070 0.309731 1.539146 1.073402 -1.513664 -0.034887 
7366 -0.255336 1.383493 -0.281581 -0.203186 0.144327 -0.171662 1.990214 2.745928 -0.569589 -0.421289 0.959072 0.922965 0.478058 -1.573858 -1.226852 3.619551 -1.482383 0.433120 1.164601 -0.240852 
1553 0.892307 0.850091 -0.251817 -1.200912 -0.159392 1.712838 -0.346390 -0.691999 0.361898 0.417937 1.177069 0.727439 1.255433 3.622769 -1.364770 0.325799 -1.667293 0.440999 1.608779 2.713179 
4706 -0.825731 2.019177 -1.131836 -2.182815 0.412778 2.551380 0.335168 -0.507199 1.237270 1.479184 0.988155 2.777257 -0.015152 1.952105 -2.174983 -0.141826 -1.507745 -0.962494 1.551495 0.211992 
601 0.783733 -5.501789 -1.317737 -0.200844 2.062520 -0.374474 -1.403720 -1.369096 0.122411 2.710175 -0.152224 -1.681586 1.870321 -1.263762 1.082051 -0.201155 0.714334 2.020767 -0.224430 -0.118580 
6863 -0.111728 0.569595 -2.213117 0.619181 -1.350665 0.542830 0.472060 -1.592833 -3.342249 -2.094136 3.040404 1.842507 -5.058004 1.325074 1.684210 -2.198977 -0.751381 1.835054 4.051387 -1.478196 
3470 0.121127 1.437924 -1.421282 2.059126 0.780329 1.213696 -1.677326 -0.383248 -0.919121 -0.801317 2.957165 -2.108979 -2.497199 0.189939 2.100692 -1.387293 -1.431532 -0.082184 1.357280 2.122453 
2935 -0.432006 1.445742 -0.003272 0.672836 -0.841361 -2.549973 1.497890 1.176559 -1.510645 1.856156 1.579039 -1.171519 -1.957757 1.755628 -1.716625 -1.214844 -1.694561 2.994563 0.835152 0.641696 
707 0.236097 -1.224130 0.477338 -1.511081 1.639059 1.161557 -3.953574 -2.196526 1.371108 3.166373 0.356553 -0.598161 -0.537493 1.333885 -0.818306 -0.605536 1.292709 2.817808 0.716672 1.205301 
3727 1.501810 1.251190 2.918746 1.520951 0.679040 0.706773 1.930803 -0.270503 3.043579 2.787315 -0.935376 0.068369 0.912685 0.821032 0.252034 -1.417282 -0.995352 -0.996135 -4.591048 0.544316 
8455 0.159462 1.227737 2.113952 -1.220821 -0.081949 -1.266566 0.534259 1.308422 -1.498358 -2.512158 0.633103 0.419594 0.330997 1.889456 -4.632936 0.029780 0.254498 -0.909825 -1.854868 -2.244976 
2713 1.152112 -0.392622 2.810614 1.057027 2.241208 -0.159076 -3.247542 0.909995 -1.955577 -0.582825 0.340030 0.880803 0.737949 -0.963151 -2.671807 1.196962 0.060363 2.775808 0.465012 -0.139759 
4345 2.187821 -0.008948 -0.502832 2.232176 -2.246639 1.554967 2.068777 1.033146 -0.901165 1.169931 -0.251878 0.814816 0.570605 -1.786439 -1.168111 1.103785 -0.326030 -0.010400 1.815950 -0.506882 
5527 2.034740 0.536882 -2.327339 0.983281 0.002813 0.714052 -1.873484 0.034898 1.274488 0.085208 0.268365 1.722475 -0.788000 3.528048 -2.792182 -1.325214 -1.049408 -0.676291 2.602271 0.652347 
9969 -1.919738 -2.184655 -1.778272 -3.129428 1.674997 -1.250794 0.362171 2.142341 -0.583825 -3.279755 0.245521 -1.397753 -2.058014 -1.501477 0.500592 1.438145 -1.062359 -0.307848 -1.090020 -2.001788 
8496 1.378316 -1.392548 -2.105921 -2.514283 0.108990 -2.082238 -0.119101 1.837156 -1.903311 -0.787012 4.020831 0.539525 0.333148 1.485902 0.402228 1.473488 -0.146134 -1.739221 2.965413 0.588274 
1184 0.408837 -4.687464 1.973108 0.142703 1.285290 -0.956532 0.906509 -2.541559 -1.682324 0.049017 -2.318516 -4.941573 -0.146551 -0.444350 2.003687 -0.357332 0.716432 0.521334 0.614878 0.552238 
3295 1.390110 -2.044539 -2.283517 0.408594 0.663606 3.136386 -0.893419 0.567828 -0.083646 -0.350743 1.803819 -1.430738 -2.265990 -2.922125 2.841923 -1.275576 2.174290 0.641047 -1.405639 0.765307 
853 -0.813563 0.575551 -1.193511 3.579041 -1.273123 -0.955559 0.829705 0.283306 -0.816258 3.725165 -0.320033 -1.475003 -0.864299 0.264887 2.642324 0.947206 -0.997459 1.128245 0.488654 -1.590045 
9775 -3.044327 -0.357306 0.629502 -1.636562 2.676797 -1.286942 -1.289789 0.281453 -0.601959 -0.927612 -0.177264 1.666182 -1.777508 -1.124819 -2.679429 2.854311 -0.786569 -0.522052 -1.881022 -1.172311 
5184 2.473792 1.114049 0.173970 0.151786 -0.561475 1.887980 -1.715617 -0.905122 2.854636 0.594286 -1.775548 -1.788890 0.270881 3.774702 -3.332880 -2.581203 -1.593045 -0.177060 -1.279498 -0.133232 
3070 0.528458 -0.236917 3.253458 1.979530 -2.107533 0.736918 1.453607 1.938969 0.696760 -0.368654 -0.581604 -0.116165 2.081828 -1.562367 -0.532031 -0.920083 -0.071530 -1.316113 0.448809 -0.323007 
4364 2.022888 1.199449 1.773829 1.230883 1.435245 -0.588890 0.441355 0.216472 0.519921 -0.188315 1.837237 1.674284 -1.364002 -1.077448 -1.176468 0.699896 0.501356 -1.311785 1.653367 1.561124 
4182 0.777637 -1.358601 1.736574 0.435664 -1.677583 3.235001 -1.332697 0.134985 2.780620 -0.831599 0.429353 2.152192 3.496306 3.874246 -1.542412 -1.417927 3.034578 -0.434493 0.534970 -0.383937 
547 -2.060828 -1.234278 -0.464759 -1.533983 1.583464 -0.605903 0.005442 1.596390 1.409198 -0.651021 0.382805 -2.781546 1.310382 2.988256 0.241990 0.667609 2.800453 0.460799 -1.977597 0.152502 
4510 1.385746 -1.103529 -1.649436 1.638488 -1.227011 0.925742 0.472125 0.323540 -0.006163 -0.575322 1.645704 -0.379900 0.892971 1.488316 -0.787509 -3.009188 -0.412535 -1.557021 0.934922 0.749446 
2854 2.593623 -0.671750 1.960584 -0.042097 0.733947 2.170951 -0.348918 -5.497934 -1.702357 4.441815 -0.723461 1.716094 -0.499085 2.007170 0.253813 2.535585 -0.105324 2.024623 1.018014 0.673021 
993 1.962891 -1.145974 0.752367 0.640477 0.525251 2.501549 -3.339080 -0.078801 0.692614 0.625809 -0.736356 1.995703 0.785353 0.383555 -0.327828 1.536128 1.818801 2.059374 -0.306894 -0.342368 
1575 -0.921208 -2.032087 0.489926 1.933388 -0.146148 1.335977 0.979598 -0.540102 -0.592827 0.815890 1.621117 -1.810768 4.696722 2.183906 1.085808 -1.373802 1.046471 0.778789 0.415088 0.589998 
554 -3.381901 -0.088084 2.943147 2.181076 0.940990 1.048219 -0.945709 0.894860 1.277356 1.434164 -1.735697 -0.306496 -0.465540 -0.527495 -0.652081 -0.601482 -0.716360 1.522507 -3.100776 2.290069 
5953 3.436173 -3.249990 -2.293093 -0.639500 -0.068938 0.570578 1.488168 -0.688735 -1.317497 -1.667168 -0.016054 0.299495 -1.880396 -0.132491 -2.511046 -3.514393 0.323243 -1.115041 1.642901 -0.217378 
7657 -1.459778 1.953599 1.881565 -1.399826 0.855886 1.669799 -1.817270 2.299553 1.653805 -0.267175 2.286987 3.123769 1.272997 2.325873 0.652751 1.716325 1.820678 0.700922 1.312467 0.087495 
5132 0.771038 1.485333 2.119504 -1.282415 -1.041015 2.026996 -0.737221 1.943858 -0.633524 -0.486547 0.174620 2.306571 1.684048 3.748395 -1.799529 1.059700 2.910275 -0.688668 2.744230 0.127820 
4025 -1.349459 1.651619 0.354088 -1.584914 2.874915 1.059684 3.170039 -0.957153 -1.211849 -1.120778 3.189174 0.475291 -0.811248 -0.085539 2.507917 -1.563153 -0.735508 0.026572 -1.574780 -1.066939 
4012 -0.300900 0.138843 1.846284 -0.257245 -1.466428 1.722433 0.526515 0.214666 2.535222 -0.350779 1.298241 3.489766 1.750921 2.950972 0.687970 -0.753317 1.851398 0.337846 -0.665656 -1.020424 
829 -1.660317 -1.237378 -1.205925 -1.154080 0.849571 -0.733441 -0.763228 1.174120 0.830463 -1.136975 0.640889 -2.982819 -1.157541 0.644068 0.140469 0.004156 1.180610 1.872453 -3.409774 -0.012736 
8587 0.291897 0.762183 -3.353220 -0.700264 0.155303 -0.558920 2.251407 1.252940 -1.325305 0.705186 3.546298 1.057117 -0.482954 2.657943 0.880348 0.860556 -0.082835 -0.342147 2.208318 0.867780 
716 1.019721 -4.170155 -1.570701 2.452469 1.174432 -1.867159 2.914865 -0.426638 -0.695617 -0.459925 -0.517365 -1.763344 1.761910 -0.316670 -1.569255 0.040660 0.882014 -0.503410 2.500289 -0.860218 
3391 1.352836 0.666745 0.393415 0.769542 -2.358035 -0.760643 0.415017 1.454726 -0.816467 2.022028 -0.850163 -0.556774 2.183882 1.506412 -3.096548 0.535509 -1.310953 -1.223655 -0.277413 -1.813035 
5097 2.557808 -0.959299 1.331210 -0.262100 -1.904828 2.849005 -1.782050 -0.618995 1.064519 -1.516466 1.108102 1.888211 1.697636 3.399700 -0.989206 -1.696512 2.282735 1.980442 1.435927 -0.812775 
2160 -0.513629 -0.560065 -1.703089 -0.492164 0.652977 -0.652996 2.198453 0.584722 -1.144827 1.191397 1.891100 0.372148 1.677091 2.134201 0.858568 -1.521868 -1.773211 -0.232682 2.155192 -0.080727 
3086 3.007212 -1.141837 0.808405 -0.975412 -1.837751 0.911654 -2.994820 1.034869 0.420479 -0.269989 1.092386 2.415823 -0.571966 -0.556199 -0.364840 -0.210583 -0.642781 1.188713 0.819195 0.469074 
6363 -1.576569 1.054526 -1.584762 2.430889 -2.194961 0.564485 0.706057 -0.348947 -3.781265 0.342903 2.901475 -0.540987 -2.682531 -0.285755 1.070772 -0.994347 -1.390535 -0.554931 -0.777241 -0.970862 
3924 -2.693155 -1.487296 4.549790 1.337686 -1.315282 2.615355 -0.693958 -1.001000 3.235739 -1.355003 0.240818 2.151049 3.843577 2.001417 0.959699 -1.236357 1.831823 -0.451844 -0.593887 -1.108892 
5663 4.133693 0.492409 0.515102 -1.134585 -0.958774 -0.803070 -1.457031 -1.487105 1.534460 1.073614 0.754801 1.502431 -2.385096 2.590588 -2.278814 -2.004603 -1.242704 0.572850 -2.327501 0.049323 
8545 2.720301 0.497099 -3.831454 -5.085135 1.349046 1.127700 1.562755 1.454511 0.269871 -0.999205 2.741740 1.703778 -0.375230 1.794612 0.535864 2.701991 0.995347 -1.900020 2.123809 -0.938706 
4325 -0.348774 0.087305 2.018702 2.702941 -0.766706 3.112318 1.404568 0.732759 1.626426 -0.822806 -2.348258 1.569592 1.552667 -2.133928 0.516095 0.041347 -1.276085 -1.728701 3.070455 -1.766916 
584 -0.476474 -1.376626 -0.464341 -2.343956 0.794505 0.183640 -1.380138 0.622438 0.861311 -1.281173 0.904136 -1.791804 -0.527290 0.485603 -1.714790 -0.098255 1.058723 0.901958 -1.198629 0.423621 
2931 2.605337 -0.149700 -0.290063 0.289869 2.188570 -1.318751 -3.330626 -3.693782 0.942217 1.671496 -0.457851 0.037838 -0.715294 3.580541 1.455095 0.929590 -1.320837 -0.912342 -2.614457 -1.940267 
8960 -1.538013 1.745797 3.671847 -4.675050 2.217260 1.244144 -1.264515 -2.236110 -0.560838 0.729845 0.744940 -0.023340 0.139618 0.183436 -0.118331 2.948100 -3.279658 -0.092482 3.035941 0.341876 
3922 0.549464 1.115558 0.884870 1.210950 -1.641245 0.361099 3.160254 0.435787 -0.039695 1.966685 -0.678775 -0.255760 -0.486088 1.845038 0.106193 -1.971371 -1.486246 2.469945 -0.685700 0.339240 
4078 -0.098895 0.909353 -1.203723 -2.328616 0.759538 1.576740 0.207943 0.177908 2.485935 0.094220 0.804817 0.626873 0.637524 2.592995 0.246001 1.262636 -1.026716 -0.580567 1.497553 1.641352 
2993 1.447610 -5.472568 -1.305390 1.410105 -1.252799 0.802834 -3.390025 -1.130454 -0.651758 1.671608 2.781042 0.646315 0.628456 -0.594821 2.969060 -2.874619 0.289548 1.205571 -0.251022 0.598611 
4993 -0.062521 0.689711 -2.213618 -0.599793 -1.853058 2.065731 1.073733 1.095655 -2.544607 -0.124073 2.782800 0.136727 0.475566 2.487105 -0.394882 -1.947517 0.052533 -2.047698 2.118428 0.542254 
2263 0.045721 -3.062128 -0.620811 1.826678 1.209373 0.258723 0.216429 -1.287610 -1.466011 1.547375 1.349766 0.442324 3.658519 0.805330 2.602077 -1.766807 -2.622288 1.759776 1.489272 -1.304271 
5947 1.687654 0.499561 2.460369 1.703406 0.997160 -0.279051 -0.567047 1.610133 -0.400880 -0.225534 -0.496080 2.023688 -2.328744 -2.013726 0.797481 1.005718 -1.010743 -2.721469 1.609422 1.744406 
8224 1.270140 1.469915 -2.072935 -2.882250 1.706751 3.011812 1.985951 0.918616 -0.552947 -0.112907 3.071722 -2.184264 1.412411 0.708095 1.921636 -0.991202 2.438282 -1.657335 -0.153378 -2.432688 
5518 0.253935 2.230872 -0.381804 0.190565 -0.688018 1.064733 1.480980 0.281426 0.052124 2.730813 0.560183 0.738668 -3.304497 0.004662 -0.003147 -1.303521 -0.816545 3.625813 0.677125 -0.119859 
4098 -1.489218 1.463219 1.273267 -0.549441 1.335840 2.251872 -0.942984 2.313066 1.658341 -0.173478 1.309130 3.488478 2.070300 2.194196 0.675379 2.277952 3.376244 1.193135 1.053422 -1.869933 
8722 1.355422 0.434870 0.101809 -3.011854 1.496107 -0.210462 -3.092753 1.036656 0.580990 -2.757816 1.170958 0.779469 -0.382821 1.755103 -1.447590 1.811028 -0.742039 1.458410 2.665846 -0.234377 
1182 2.956064 -5.759640 0.148158 1.419028 0.456147 -2.105843 0.049458 -1.833326 -1.740883 -0.806738 -1.768169 -0.943678 -2.020217 -2.053495 -0.311837 0.265762 -1.201474 -1.392353 0.283498 1.637016 
10680 -3.238447 0.515877 -0.667620 -1.857618 1.707788 0.706713 1.109913 2.947556 -1.118734 -2.231359 -0.045123 -2.062287 -1.007540 -0.294085 1.507585 0.578111 -0.444138 -1.221843 -0.880920 -0.567981 
687 1.547541 -2.531004 -1.743668 -0.408519 0.312407 -0.516602 1.015678 1.175519 -1.725545 0.097853 -0.671095 1.061661 1.043236 1.544134 -1.869024 -1.535615 -0.997157 -1.827626 3.205286 0.306240 
8161 -0.543353 -1.533106 -1.069874 -3.326679 1.278072 -1.243624 4.811445 1.563868 -0.693389 0.266167 0.796761 -1.240852 -0.198877 -0.331029 -1.022572 0.422219 0.693395 -2.597075 0.595849 0.917747 
3051 -0.894150 -2.544761 0.501708 4.140876 0.250468 -0.656270 0.478774 -0.855303 -0.689268 0.260175 1.462819 0.806334 0.932866 -0.964742 4.496403 -2.760012 -4.079075 2.345577 0.122645 -1.454614 
1580 0.108180 -1.803520 -0.129494 -1.237370 -0.964384 0.395488 -2.742821 -2.398619 -1.111964 2.864380 2.226783 -1.247992 -1.345268 -0.664061 -1.380177 -0.158501 -0.221326 1.456956 0.814463 1.634048 
7094 -2.359179 0.130118 2.226347 -3.499170 0.300743 2.710772 -1.834429 -0.908848 -0.157745 2.783546 -0.157429 0.056451 -1.747507 -2.382383 0.613857 3.534757 -1.138366 2.564201 2.572786 0.283239 
6861 0.388761 -0.355072 0.110286 0.978222 0.503352 0.073461 0.173502 1.338718 -4.259435 0.525839 2.627743 0.739349 -1.439195 -2.030221 0.919137 -2.309664 0.763771 -2.803442 -0.785607 -1.422760 
733 0.899663 -3.706652 -1.412684 -1.971689 -0.044546 -1.754638 2.694807 -0.879560 -0.426915 0.337184 -0.092233 -1.867990 2.258168 0.456696 -1.247338 0.287421 -1.372530 -2.339838 2.121395 -1.038817 
5208 2.884567 -0.437615 -3.242104 0.937012 -1.818582 -0.134286 -1.243887 1.103574 -1.995634 0.482410 1.683200 0.456215 -2.526149 1.072596 -1.063551 -2.122516 -0.391298 0.201525 1.821022 -0.073153 
7602 -0.419196 0.611446 -0.563668 -2.657529 0.584145 2.851432 1.111636 2.154649 -0.494390 -0.168113 2.770294 0.632536 1.436057 -0.439384 1.327278 -0.216992 0.955124 -1.740144 0.643894 0.558153 
4666 3.687579 -2.219065 -0.017532 -1.159728 -1.741734 -0.726246 3.929657 0.649168 1.279022 -1.642196 0.086719 -0.850375 -0.937165 0.199094 0.905955 -0.105484 0.193970 -2.533571 2.029700 1.633633 
2030 -0.944323 -2.565730 -1.778860 -0.329247 -1.573171 -2.220109 -1.226701 0.943121 0.222816 3.067147 -1.154807 -1.780540 0.677986 0.499869 -1.452483 1.805291 -1.269050 0.697275 -0.304747 -2.100280 
10425 -1.586781 1.850666 1.950298 -1.919526 2.084248 -1.276894 0.214767 -0.363131 3.357862 0.047157 -2.746593 -2.276389 -0.936866 2.476781 1.788154 1.479693 -3.901275 1.043329 -2.656170 -1.250353 
3410 -2.007064 -1.883006 0.785645 3.619278 -1.890503 1.102576 -0.406552 -1.589997 -1.076399 0.366997 2.224754 -1.106974 0.605102 -0.522926 3.485725 -3.111097 -0.494835 0.975342 -2.668993 -1.309460 
10804 -0.795787 0.460652 -2.067501 -2.714026 1.707688 1.258382 0.900962 1.202325 1.738448 -1.656773 1.558197 1.145746 0.509556 1.339235 1.568215 0.482296 -2.224096 -1.032238 0.462605 -0.250421 
3068 1.372126 0.873845 0.969515 1.135883 -1.508823 -0.329147 1.086220 0.357489 0.219590 -0.976747 1.772916 0.464388 1.234919 1.468950 -3.409928 -1.845121 0.190336 -0.365476 -0.313627 -0.561167 
6785 0.334163 0.984284 2.197831 0.335150 -0.242696 -1.004480 -2.025065 3.285867 -0.301817 -1.719412 -0.223061 3.043717 -2.797317 -0.701018 0.157009 0.590308 1.184843 1.770373 -0.708079 -3.032449 
3110 -1.228784 -2.321460 2.808726 1.216818 -0.348817 1.072062 -3.979625 0.635190 0.359698 -0.508753 -0.940329 1.114666 1.082555 0.679250 2.419371 0.093199 1.227344 3.226971 -1.206919 -1.722017 
4236 -0.821469 0.346310 0.695013 -0.314971 -2.006460 -0.210333 0.770822 2.560077 -0.685807 2.444475 -0.802017 -0.951602 0.926892 0.410652 -2.003621 1.304694 1.282703 -0.064917 -0.590490 -1.421646 
5762 0.917548 0.319276 2.777378 -2.220758 -2.940020 2.728170 -1.231918 -2.285698 -2.644083 2.674152 -0.441996 0.275615 -2.103989 -0.484211 -3.039014 0.275307 -1.141769 1.815671 1.749126 0.908658 
4393 -0.421879 -3.215472 0.035225 -1.942597 -1.604112 0.190215 3.816438 -0.066664 -2.424628 -3.993609 0.207482 -2.722230 0.537903 1.004586 -0.657909 1.061446 -0.744083 -1.230920 0.563444 1.292922 
2201 -0.752471 0.173450 2.709237 1.427795 0.974154 -1.492619 1.331623 -4.936025 -1.573364 2.996855 1.907637 2.142401 -0.138893 2.410778 0.383132 2.160128 0.229170 0.528387 -0.887160 -0.817455 
7046 -1.530630 1.474528 -0.230118 -1.213097 -1.904390 -0.246481 -2.192126 2.006788 0.295227 1.730604 -0.859521 -1.422016 -3.319123 -0.790590 -1.348281 2.322245 -0.340004 0.560105 -1.863919 -1.929894 
8869 1.867152 1.167862 -0.508416 -4.372268 1.112671 -0.593884 -1.822351 2.663605 1.944915 -3.088140 1.814369 2.590225 0.475552 3.742640 -0.569615 3.680996 1.005047 -0.259188 2.485931 -1.182699 
6426 -0.144042 1.249659 1.160644 1.163248 -0.008167 -0.570523 -2.056906 1.037108 0.625254 -0.887474 0.825590 1.854897 -2.755000 -1.106905 -1.824640 1.404260 -0.105480 -0.775720 -0.441967 0.058459 
5145 2.959527 0.049189 0.378316 1.468556 -0.381812 1.499701 1.957814 -0.080802 -1.265130 -2.177422 -0.367223 1.863525 -1.344192 -2.501233 -1.154721 0.683526 0.299596 -2.836697 1.860453 -1.620532 
3299 -1.137053 0.800361 -1.596574 -0.097421 -0.078395 2.824446 -3.932269 1.939615 1.594188 0.153376 0.129850 0.554337 -1.630268 1.739915 -1.713049 -2.555403 0.179486 2.707438 2.270835 0.039604 
4610 0.901468 0.166441 -0.860292 0.521354 -0.697619 2.436576 2.858705 1.343734 -0.437646 -2.144405 -0.195208 -0.442592 0.602768 -0.254592 -0.681929 2.266739 0.161601 -0.271080 1.196495 0.938581 
8300 1.154964 3.143113 1.867627 -2.641960 -1.398224 -1.092466 0.739130 -0.058445 0.925263 0.780625 1.007292 -1.443576 -2.489942 0.052560 -0.846004 1.464153 -2.047013 -3.166475 -3.788615 -0.647260 
4586 2.986514 1.950452 -0.338358 -0.055054 0.329403 2.463610 -0.331706 -0.535957 3.313602 3.234285 -0.170245 -0.052138 3.532743 4.981669 -1.025346 -2.165726 -2.449077 -1.845026 -0.930761 -0.063101 
2958 0.627304 -1.507997 -0.852051 2.568812 -1.494275 -0.481412 -0.306847 -0.155497 -0.716137 2.779513 0.008796 0.241552 -0.033949 0.699782 0.952577 -1.962972 -2.503258 4.242676 0.958397 0.181917 
627 -0.443852 -4.055631 2.833905 0.963280 1.046597 -1.347074 -1.248441 -0.906271 0.148890 1.078290 -0.544027 1.363372 3.107171 -0.919742 1.024753 2.101523 1.398579 2.844731 -1.720042 -2.992998 
6448 1.214815 0.511773 -3.274903 0.251536 1.989038 3.626931 -1.290083 1.552136 -1.333618 -1.465947 0.836284 -0.586795 -3.411214 -4.223247 -0.573818 1.509762 -0.793705 2.281224 -1.047169 -1.625525 
5142 1.999949 0.707744 3.167593 1.427400 -1.586801 0.700317 -0.654356 0.877627 0.090739 -1.067380 0.762924 2.392428 0.127296 0.257632 -1.233101 1.306484 2.255966 -0.409524 0.777638 0.077293 
2260 -2.291007 -1.364243 2.674995 -0.906807 1.242335 -1.447730 0.769386 -6.492449 -1.424853 1.199703 3.066363 1.731943 -1.825382 3.143075 0.645614 1.717309 0.188331 -0.779018 -0.870255 1.033359 
6753 0.432012 0.774319 -0.799280 0.821353 0.028578 -1.558529 0.375921 1.770882 -0.252765 0.757784 1.883038 -0.935221 -1.804853 -3.573843 -0.602194 3.416559 -0.482064 0.582524 1.473797 -1.029563 
2100 -0.796512 -3.993702 -1.418037 2.985487 -0.651446 0.083804 0.672847 -0.770689 0.467140 1.645004 -1.796442 -1.806706 2.045863 1.390639 1.318375 -0.721198 0.110022 -1.639795 2.660688 -0.459822 
7891 -1.143160 1.465886 -1.379859 -0.156091 -0.101984 1.296119 3.394830 1.895066 -0.918890 -2.001113 1.193299 -0.906497 -0.764104 -0.746374 1.022548 2.757798 1.817656 -2.008022 -0.617623 -1.655971 
3205 2.248321 -6.495143 1.419677 1.303124 -1.628144 -0.921521 -1.736887 -2.086410 0.188337 -0.607492 -1.107745 -2.087749 -1.074924 -1.594825 3.850132 -0.303564 -0.818976 -1.392051 -0.431513 1.038582 
2135 0.683334 -1.667269 -1.554143 3.215980 -2.124455 -0.512991 -0.096592 -1.599175 0.228083 2.348168 -0.275750 -3.561637 1.220688 1.918280 1.328588 -0.405034 -1.703654 -0.680363 2.205691 0.483395 
5071 -1.409961 0.282590 0.295801 -4.571459 -0.250962 2.472573 0.284268 -0.465565 0.557173 2.395342 0.073532 0.965434 -1.061649 1.868287 0.347976 -0.187478 -0.341782 1.996984 0.523437 1.729583 
7554 -1.990686 2.258978 2.906360 0.493349 3.350671 0.475923 0.434643 1.780889 1.633159 2.713213 -0.331169 1.223423 -2.045672 -0.302727 2.095846 -0.885675 1.804772 -0.558356 2.057986 0.559807 
9348 0.679982 -1.181914 -2.294911 -1.213045 0.994409 -0.292333 0.863529 0.315102 -0.208992 -3.207942 0.745656 0.291924 -3.368291 -0.509515 1.581070 2.583034 -0.385227 0.593822 -2.408526 -0.528140 
4995 2.687174 0.966269 1.473915 0.899595 -2.821580 0.475963 -0.124343 1.288890 -1.272660 2.243126 -1.948956 -0.059357 -1.099310 -0.154034 -1.801305 -1.556874 -0.533083 -1.522378 -0.557397 -1.125392 
592 1.258218 -3.263840 -0.133353 -1.485802 2.004552 -2.119502 -0.837238 0.652643 1.767961 -0.651258 0.307800 -1.206285 0.858714 0.763011 -0.424943 0.791989 1.385313 -0.200651 -2.961867 -0.147524 
9330 -2.031302 1.586221 -0.585403 0.928502 0.650832 0.460236 1.393060 1.541213 -0.522087 -3.026910 2.556840 -0.420154 0.948277 0.205411 1.965606 1.028697 -1.811226 -2.644668 -1.617572 -1.980044 
6779 -0.489444 -0.401501 -0.431811 1.230785 0.435692 -0.111666 0.605936 1.149282 -3.654482 0.163976 0.699083 -0.770028 -2.283250 -1.536577 0.642896 -2.293363 -1.691135 -3.339024 -1.741472 -0.148760 
7471 -1.683701 -0.398979 -1.504384 -2.148606 0.871872 -1.455179 0.978951 2.713001 -0.096862 -1.575625 0.479621 -1.149150 -0.971533 0.339591 0.285169 0.395333 -0.388964 -2.912287 0.655058 -0.734586 
4262 1.188860 -1.541654 -1.979629 2.880494 -1.026670 -0.015093 0.743458 1.047094 -3.061181 -2.460082 0.030419 1.163554 -0.267534 3.715015 -0.275980 -2.737693 -1.093082 0.073899 2.131675 -0.544879 
7523 -0.229740 1.829767 1.337789 -1.443972 1.325269 1.936385 -2.446536 2.195233 0.960793 0.317858 3.723031 3.187043 -2.333543 0.283652 0.429495 -0.309020 4.312942 1.897542 0.774255 0.541098 
7220 1.710534 2.255461 0.890426 -2.011477 0.712056 1.374293 -0.826007 0.682295 2.424683 0.769350 -0.091273 0.645659 -0.896763 2.294143 -0.119275 -0.758034 -0.582602 0.044802 -1.983511 0.474650 
10256 -0.963897 0.843596 -0.626652 0.050917 -1.088914 -0.884631 -0.241480 2.240805 0.902606 0.518890 -0.131014 -1.543172 -1.109579 -1.301311 2.047277 0.944826 -3.228057 -0.036193 -0.134618 -2.231291 
6280 -1.006094 -0.886201 2.302535 -1.849929 -0.107123 1.604316 -2.903877 -1.885468 0.764656 -1.247503 -1.603043 2.220791 -1.681340 0.680656 -3.439429 -3.114647 -1.996747 -1.104520 2.819649 -2.027658 
8651 0.637629 -1.859187 -1.135696 -2.503952 1.519714 -2.585943 2.789855 0.991014 -1.541248 -1.712242 1.512558 2.206226 0.304267 1.456112 -0.572422 2.765450 0.465512 -4.443626 2.421206 0.081294 
12282 0.381989 0.763141 -0.521441 -1.457189 1.006426 0.492167 -0.752872 2.051985 -1.120754 -2.796216 -0.196935 -1.673294 -2.176891 -0.091537 3.836077 1.346440 -0.284106 -0.299567 -1.428126 -2.758050 
2495 -0.172538 -5.200361 3.465516 1.383821 -0.070359 -3.089067 -2.541176 -0.765680 -1.378045 0.762728 -0.926792 2.243510 2.533473 -0.303456 0.260577 2.284164 1.553733 -0.834331 0.463849 -2.412559 
1422 -2.240641 -2.417878 -0.591783 3.588545 3.354408 -0.820646 1.333305 -1.651803 -0.380668 -1.064644 1.522107 -1.314618 1.349116 0.211790 1.697233 -3.522522 -2.702998 2.498308 -0.079325 -1.378908 
2226 -0.889880 -0.834800 -2.325781 2.267028 -4.264863 -0.538886 1.294262 0.578854 -2.728517 1.050248 1.767301 -0.052691 1.968838 2.777194 0.682761 0.515925 -1.395064 -0.601066 1.798061 -2.736163 
9278 0.204564 1.823848 3.137056 -2.999022 2.323140 -0.834600 -0.488825 -2.064163 -1.906432 0.970812 1.131463 0.871929 -2.046929 -0.248505 -1.373714 4.288246 -1.589215 -0.398065 1.632908 1.031265 
1170 -0.825058 0.414753 -0.788010 -0.489822 0.783526 1.979229 -1.816385 0.501444 2.988969 0.832975 0.096424 -0.630025 -0.932674 2.646034 0.516775 -3.818225 -1.650698 1.573166 -1.977433 1.453206 
648 3.251410 -1.706452 0.212059 -2.030400 0.536145 -2.934526 -1.561968 -0.525355 0.776985 0.767919 1.538687 -0.415838 -0.884795 -0.103579 -1.097003 0.571415 0.077522 -1.070613 -0.887483 0.256909 
6751 1.808080 -0.043385 -1.151082 -0.441260 1.202715 1.846386 -0.154372 1.390501 -0.335040 -1.153889 0.135844 -0.295508 -0.202919 -1.650127 1.781832 1.828522 0.774049 -1.966794 -0.119461 -2.429707 
4065 -1.493228 1.292942 1.511841 -1.962873 0.499367 2.802827 0.679809 0.353169 0.537466 2.051664 1.217370 0.321266 1.512138 1.230454 0.327965 0.925820 -0.836463 -0.185541 1.432678 3.485342 
750 -1.143945 -1.178083 1.609181 2.302354 0.170953 -0.526261 -1.861574 -0.540560 1.428210 -0.876383 -1.289002 0.902607 -0.380980 2.117102 -0.424184 3.049210 -0.888029 -0.694383 0.985507 2.638210 
10357 1.413795 1.809254 2.871756 -0.759705 2.514607 -1.278727 -0.690821 3.484560 2.887638 -1.963711 -2.066612 -0.160314 -1.699316 -0.985021 1.057031 1.643792 -0.302635 1.130068 0.561033 -2.380673 
2997 -1.280798 -0.345238 -0.300621 0.748802 1.606866 1.235783 -3.126819 0.719609 0.456513 -0.345596 -1.274268 1.071042 0.833498 3.620355 -1.792163 1.020137 -1.020968 0.173600 2.348890 2.257522 
1383 -2.126088 -0.695623 1.751510 2.174569 0.146595 -0.903165 3.241448 -6.552708 1.342076 1.938431 0.602974 -0.565761 0.010997 2.943709 0.692766 3.668353 0.502924 1.377693 -2.178180 -0.672133 
7419 -1.255220 -2.340612 -1.121062 -3.353840 1.830105 1.683845 2.797197 0.549920 -0.500011 0.132616 2.468779 -0.448441 -1.995130 -1.124956 1.645803 -2.087437 1.271565 -1.935085 0.162776 3.230553 
6131 1.898695 0.735362 2.412786 2.469720 -1.904314 0.482334 -0.206348 1.406205 0.218533 -0.452041 0.879524 0.326443 -2.340529 -3.530534 -0.534232 -0.740712 1.501106 -0.908632 2.239059 -0.418694 
3709 -0.579250 1.953713 2.968916 1.748170 1.364097 3.436625 0.289455 -4.520651 -0.478639 1.971131 1.292697 -0.716284 0.113863 1.117263 -0.139709 0.081079 -0.417450 3.600941 -0.786663 1.133564 
10906 -2.299233 1.807835 -2.298083 -3.807776 2.525658 3.443647 -0.108293 1.222687 1.110345 -2.752377 2.515785 -2.329361 -1.473226 0.398834 3.735031 1.624571 1.964909 -0.429573 1.458389 -1.508208 
3045 1.231403 -6.836696 0.275198 0.358070 -1.516082 -0.558902 -0.896503 -1.687187 -2.261200 -0.046035 -1.800230 -0.666604 -0.329966 -2.575132 1.580948 0.328114 -2.505228 -1.071724 -0.805399 0.370691 
6973 -0.975975 0.375389 -3.253109 -1.218436 1.092559 1.258030 -1.475261 1.037678 -1.174618 -0.100356 3.078668 -0.715570 -1.338359 1.250707 1.636499 -1.563749 -1.317155 0.695883 0.380810 0.264946 
8172 -0.634233 2.233045 2.166794 -2.976287 0.858829 0.141339 -0.104785 -1.293756 -0.228500 0.963268 1.697350 -1.545694 -0.923404 0.202827 -0.804531 1.829961 -1.708251 0.323986 1.242376 1.315607 
1563 0.813637 -2.439568 -0.409024 1.284681 1.321582 -0.404220 0.415356 -1.228603 0.436817 2.679611 -0.094210 -2.262686 4.878351 1.228995 1.262085 0.311135 0.182921 -0.511394 1.543273 -1.442432 
6766 2.514781 1.575971 0.241501 -1.183041 -0.060005 1.185403 -2.854410 -1.122730 0.632941 -1.263185 -0.813238 -0.028992 -3.951127 3.834387 -3.036403 -2.774385 0.334702 2.080739 -2.094006 -0.462764 
838 -1.398980 -0.785017 -0.087020 -0.946834 1.880499 -1.118713 -0.637940 0.513882 0.805099 0.102079 0.749090 -2.630246 -0.861517 -0.050610 -0.907471 -0.200616 0.562412 1.856645 -2.684353 0.779592 
3397 -2.375305 0.921634 3.951131 1.304846 -0.659146 1.262984 1.571631 2.832007 2.017641 0.266551 -0.662930 1.907279 1.448333 -0.972326 2.093541 1.413251 0.490622 0.763658 -2.265197 -0.671839 
3944 -0.094792 0.426236 -1.069683 -0.529473 -1.335005 -0.275215 -0.822346 -0.523116 3.082463 0.612957 2.179088 -0.668005 -2.817081 0.927057 0.041749 -2.520871 1.261937 1.980167 -0.545396 -0.658614 
7201 -2.350507 -0.311361 1.104326 -0.668871 -1.580564 -0.753739 -1.194005 1.895886 0.665072 -1.157333 -0.884672 1.394665 -2.300635 -0.210342 -3.093149 1.728286 -1.697458 0.590864 0.912184 0.509892 
3407 1.801684 -1.951386 -0.791023 -0.204776 0.519706 4.478859 -0.353147 2.178699 -0.746257 -1.243849 0.623004 -0.980799 1.660798 1.013983 2.745432 -3.359636 0.451706 0.379350 -0.501421 1.454112 
6682 0.682648 0.087461 2.564847 -2.617604 -0.592841 0.656222 -2.960560 -2.970172 -1.298892 2.205895 -1.095683 -0.855174 -3.541980 -0.803415 -0.933008 4.437871 -1.156652 -0.044160 1.132067 0.796699 
3193 0.168736 2.444809 0.861492 2.532285 -1.080535 -0.137871 -2.478000 1.251674 -0.998607 1.894012 0.118552 -2.703049 -1.850657 0.582102 1.508321 1.103405 -1.179100 2.106833 -0.686280 0.363588 
2204 3.354506 -0.399452 -0.800351 -1.096301 -0.142589 -0.882156 -0.275398 -1.602414 2.215199 2.784641 0.442175 0.779036 0.754181 3.783895 -2.695765 -1.567348 -1.342093 -0.305372 -2.607741 -0.750591 
7412 -1.066768 2.227882 0.654228 -3.020943 0.284862 1.773439 -0.639270 0.201773 0.423179 0.507318 0.210623 0.018081 -2.319069 2.316133 0.072798 -0.031321 -0.487923 -1.668549 -3.616698 1.204012 
2875 3.277982 0.845299 -2.586938 -1.946161 0.977607 -1.649652 -0.099143 1.175224 2.261957 -0.508162 2.060802 1.896400 0.052646 3.037377 -0.842229 1.922664 0.302083 0.381627 2.989018 -1.701986 
3307 2.133875 1.448803 0.282527 -0.744196 0.598847 0.761027 -2.556853 0.306180 1.158683 2.991065 -0.731234 0.421719 -1.644470 0.106393 -0.562890 0.253826 -3.624233 1.055748 -0.291686 1.449065 
4553 2.553115 2.498114 3.904076 2.993731 -1.328382 0.919961 0.103367 1.051876 1.546034 -1.053329 -0.903102 -0.947683 0.246791 -0.968680 -1.544293 0.601610 1.163400 -1.519901 4.097102 -1.168330 
645 2.567482 -2.226055 -0.698269 -2.296437 0.484867 -2.518397 -1.659187 0.770125 -0.368680 -0.855647 2.853957 -0.709639 -0.118727 0.455086 -1.527233 1.137323 0.425438 -0.114529 -1.368991 0.873240 
10417 -0.707526 -0.161104 -2.926886 -0.943556 1.532956 1.670881 0.753807 0.693760 0.260907 -1.700556 -1.035988 -1.665187 -2.688994 -0.935364 3.072117 2.440171 0.039058 -0.875057 -2.815347 -2.380401 
1971 1.523597 1.287299 1.915526 -2.016245 2.504889 0.263479 -0.511025 -1.505022 0.815206 0.863487 -0.416983 -0.063100 -0.102192 4.020509 0.608475 -2.067709 -1.133373 -2.330376 -2.513899 0.396046 
8776 0.445447 -1.389827 0.297617 -3.114060 0.439973 -2.816005 2.276844 0.050440 -2.374136 -3.291466 2.519707 0.321599 -0.611215 1.165902 -0.697455 2.379709 1.322281 -3.347431 3.309471 -0.962071 
7700 -1.769541 4.215199 1.327516 0.769310 1.538613 0.258989 0.976126 2.608166 1.683917 1.451310 0.893709 -0.030076 -1.924854 0.554832 0.195680 -0.244450 0.674599 -1.792545 2.814821 0.620975 
972 -1.755704 -0.774379 0.692545 -0.501887 0.454201 -0.324525 -0.985191 0.004864 0.179719 0.991008 0.257845 -1.318040 -1.058633 -0.429464 1.016692 0.563639 0.569449 0.370876 -2.855619 0.839437 
3099 2.346655 -6.036972 0.680555 0.003225 -1.075552 -0.119864 -1.856271 -2.570062 0.929016 -0.080453 -0.936480 -1.083101 1.359108 -0.925468 1.156796 -0.721425 -0.712748 -0.841118 0.878420 -0.584746 
7122 0.933067 1.085532 0.860663 -0.873682 0.254506 1.872257 -1.001480 2.198781 2.794948 1.227920 4.192602 3.698281 -0.261924 -0.668702 -0.404872 0.095180 2.841597 4.047014 0.502813 -0.427899 
1339 -0.355632 0.544328 -0.551265 -0.859026 1.358378 0.300345 -2.085304 1.509118 0.993855 2.563703 1.399143 -0.555670 -0.785324 0.934960 0.605221 -1.407544 -0.350861 -0.073568 -1.103438 2.135289 
5186 0.709442 0.010608 -1.766209 1.380209 -1.873387 -0.915058 1.653654 -0.184281 -3.784100 -0.803493 2.138462 -0.361125 -1.166395 1.374360 -0.726625 -1.063828 -0.935829 -1.513793 -0.792565 -0.935089 
4367 0.456660 1.445493 0.598037 -0.059339 -1.590057 0.007078 -1.436738 0.665929 -1.083138 3.263732 -2.001847 -0.372079 -2.781520 -1.002948 0.156247 0.923983 -0.899330 0.467963 -1.194316 -2.457692 
6472 1.744293 -0.822878 -0.057577 2.113818 -0.925988 1.881229 -3.360142 0.028182 2.562280 -1.025946 1.618322 4.170872 -1.336616 2.076051 0.238742 -0.126813 1.945125 2.103912 2.381147 0.894053 
6881 1.838385 2.037111 1.044943 0.308655 0.459324 1.521332 -3.670244 -0.363805 2.297654 0.606666 3.567628 2.663055 -1.826197 0.527944 0.677709 0.477789 2.921347 1.968000 -0.840190 -1.134848 
3148 2.250300 0.556189 1.472655 0.648684 1.224797 -0.979830 -2.764615 -2.267351 1.619096 4.617452 0.174131 -0.343040 1.141196 1.925866 1.310241 -2.085948 -1.870315 0.551295 -2.647243 -3.366452 
5723 4.797084 0.546684 2.175413 0.544858 -1.913146 3.329491 -3.408959 0.207826 -0.068575 -1.591118 0.251776 2.551202 -0.172072 2.813059 -1.055109 -0.927882 2.395125 2.578000 2.933764 -0.922197 
6631 -1.681982 0.479133 2.089481 0.104250 0.491236 -0.145186 -2.439163 1.542441 1.146274 -0.331034 0.442567 1.776262 -2.975537 -1.341013 -0.191872 1.435022 2.464798 1.181815 0.135711 -0.315176 
8026 0.240811 0.540806 -0.121083 -4.812435 0.998968 1.034638 -0.726177 0.378812 1.490050 0.027247 1.329738 0.509629 -0.010762 2.701562 0.114039 1.800356 -0.473268 0.452402 1.219074 2.206855 
673 2.354507 -3.369514 1.696687 2.636457 -0.179404 -2.275270 -2.470186 -0.334564 0.056857 1.788621 -0.178455 1.396637 1.299034 -2.049006 0.367373 1.470632 -0.677887 -0.686490 2.534687 -0.146016 
8822 2.706494 2.431174 -1.830134 -0.691485 0.404121 -1.140724 0.916365 1.857330 -1.738924 1.820736 2.274224 0.791776 -0.387593 1.839724 1.238652 1.683877 -2.183657 -1.274857 1.375843 0.407143 
1229 0.437248 1.254021 1.785264 2.137630 0.469716 0.594303 -2.073707 3.652644 1.496884 -0.127954 -1.621469 0.419207 -1.071511 0.074198 0.438183 0.573930 0.030485 1.074406 3.664056 1.042216 
7933 -0.455517 3.213222 -1.158258 -2.321669 1.832180 0.330791 -1.880831 1.910799 0.942500 0.772821 0.118072 -1.735207 -2.172477 2.307953 -0.236068 1.521283 -0.633331 -0.869916 0.662566 1.131177 
635 1.124172 -1.871240 2.886371 2.811174 -2.266373 -2.797143 -1.590242 -0.292567 -0.188256 0.989771 -0.859055 3.081333 -0.779613 0.024036 -1.417371 0.596154 0.044526 -0.162198 1.333051 -0.693193 
3988 2.171379 2.316151 1.586464 2.292231 -1.578455 -0.612263 4.578677 0.829374 1.200610 1.799157 0.398738 -0.022171 0.855924 1.114222 -2.112544 -1.503002 -2.781037 0.929741 0.950495 1.111298 
4221 -0.130115 -2.766639 -0.949919 -1.929550 -0.382028 4.456802 -0.569097 0.289682 0.140935 -0.207157 0.112065 -2.708157 2.772513 1.319040 2.173909 -4.868896 0.617008 1.112517 2.362418 -1.062620 
6815 -0.837809 -0.874838 -0.949081 -0.319431 0.552341 1.368973 0.384852 0.079206 -1.832229 -1.136720 0.002228 -1.628775 -5.118035 -2.660562 0.180833 -1.760359 1.015525 0.173172 1.728069 0.656576 
723 -0.133013 -1.391522 1.281591 -0.870554 0.442475 0.048215 -1.340058 2.098819 -1.019119 0.079711 0.517039 1.489689 3.321053 0.128111 -2.215415 2.117446 0.366711 -1.500318 0.863560 -0.010518 
6236 2.238270 0.410060 1.473648 -3.587500 0.088779 2.298026 -0.162558 -5.076993 -1.625798 1.726466 -0.611627 0.404178 -3.512928 3.776939 -2.264161 0.665801 0.867864 2.366874 3.725665 1.521275 
2286 1.287848 -1.924137 -1.418044 2.596943 -1.939851 0.518688 -1.256571 -3.562716 1.794813 1.946962 2.639435 -2.649549 -0.911952 -2.292857 1.080668 -1.103365 1.107795 3.213449 1.802144 -2.657362 
7499 -0.928389 1.172025 1.314163 -3.175438 -0.115898 2.439560 0.016375 0.521778 0.126625 1.092583 -0.149253 -0.202456 -0.396717 -0.186278 -0.116185 2.868671 -1.115422 2.062518 -1.026607 0.967292 
7263 -1.181958 -1.609340 -1.718732 -0.958417 1.868157 0.944365 1.132617 -0.206844 0.218108 -0.559060 -0.204606 -0.977132 -3.992886 -0.703039 0.200777 -1.402390 1.195820 -0.497101 2.219490 2.148144 
794 -0.539529 0.559833 2.326411 -0.364692 2.168589 0.600852 0.758978 0.676195 1.211062 -0.035099 0.185280 -2.153759 2.464330 0.453476 -1.354551 1.347496 1.227493 0.153242 -1.524629 1.284814 
4576 -1.111087 -2.871020 0.362684 -1.121654 0.005569 1.134099 2.089752 1.483364 -0.781683 0.319490 -2.206572 -0.664049 2.018915 0.491386 0.104174 -2.996341 0.041644 -0.544550 1.164171 -1.021329 
4371 1.474500 2.117639 0.826037 0.979934 0.803284 0.063693 -0.546703 1.793840 -0.202017 -1.416725 2.720215 2.855909 1.320662 2.522232 -2.841146 -0.576399 0.692212 0.827602 3.575565 -0.609772 
3579 0.255547 -1.062650 1.317587 0.233351 0.813713 2.662913 -0.853329 -5.204431 -1.269910 1.991962 0.879879 -0.047647 -1.344711 1.055786 -0.373966 -0.973767 0.094657 5.095439 -0.515850 0.748276 
7887 0.852351 0.274509 -0.709151 -3.102744 0.595681 0.981447 -1.742488 0.067576 2.165009 -1.518986 2.126299 2.704301 0.829583 2.579125 -1.063285 0.185404 -1.361495 -2.391505 1.609526 0.199668 
8871 1.048193 0.727707 0.144087 -1.443246 0.086940 -2.095819 -0.514371 2.600818 0.012558 -1.712373 2.018129 2.748200 0.418016 1.014809 -2.775669 3.788875 2.628119 -1.260736 -0.104533 -3.535231 
6187 -0.180042 0.089602 -3.119698 1.637442 0.248205 -0.008395 -3.106654 0.016223 -1.041275 -0.851183 2.926066 0.445379 -2.387300 1.103836 0.653270 -0.626548 -0.345640 -0.774937 1.397039 -0.364592 
5674 3.880458 -0.293436 0.339820 0.186984 -1.607924 1.294311 -2.580729 0.711903 2.127878 0.095431 0.479405 3.807745 0.820133 1.308334 -2.548928 0.332533 0.955217 -0.731347 2.198627 -1.131050 
5448 2.747840 -0.136676 -1.501466 -0.558719 1.738655 0.441152 -1.649476 1.276061 -1.951921 -2.247811 1.872312 2.608529 1.192717 1.988428 -0.185296 -0.419406 -1.559222 -3.042173 1.055503 -1.104123 
3174 -1.859706 -1.405908 0.807217 4.065382 -1.444990 -0.319341 -1.323621 -1.472997 -3.562649 2.326728 1.768646 0.030864 1.311178 0.109692 2.528363 -1.793032 -3.573539 3.575825 1.047037 -1.679498 
7751 -0.429633 3.243210 0.555151 -3.383773 0.437358 2.146443 -0.333028 1.996294 3.636472 0.400730 0.436822 -0.635905 -1.138590 3.655807 -0.852540 -1.032908 0.231640 0.673672 -0.798255 2.070138 
4160 3.957927 -2.117816 -0.388603 -1.602718 -1.530027 0.529149 0.857816 -0.646687 0.221377 -1.752528 0.760727 -1.119491 -2.952130 0.437114 -0.835798 -0.816148 1.826117 -0.933002 2.037356 2.602929 
9154 -1.332136 -0.075615 1.758332 -4.155666 0.994737 0.332069 0.822751 -2.506806 0.747003 1.696107 -2.726034 -0.366569 -1.303946 2.170442 -0.859318 4.018935 -3.573199 1.371330 1.836935 1.772914 
2664 0.588086 -1.644650 4.279396 1.284822 -0.709944 -1.433428 -0.496349 -4.428710 -0.719558 2.978836 3.257258 3.888253 -1.204229 1.480256 1.079130 2.991501 2.060770 0.268460 -0.569190 2.061113 
1546 2.116907 -0.581152 0.923711 2.221981 1.066764 -0.597381 -1.244505 -2.116213 0.787199 1.393539 -1.827620 -1.854089 1.023615 2.091733 -1.203892 0.510003 -1.003548 1.358623 -3.085097 -0.840163 
7136 -2.923286 2.382538 1.165483 -1.234839 -0.685708 2.614447 1.181700 1.225132 1.273453 1.403500 -0.003433 2.313837 -0.735710 -1.365901 -2.259313 2.421681 -0.286167 -0.532146 -0.243902 -0.073508 
566 -0.414493 -2.007836 -0.564361 -1.415038 0.610415 -2.082022 -1.452293 2.754771 0.644893 -0.649494 1.603612 -0.292958 -0.686296 1.807611 0.156073 -1.661329 1.442102 0.781572 -1.160791 0.647412 
755 0.789477 -1.750614 -0.694873 -6.419125 1.925179 0.134760 -2.018550 1.327637 1.780601 0.750448 0.702421 0.020807 1.932795 3.293061 -0.286692 -1.122154 -0.336376 1.176501 2.141015 -0.738211 
2802 1.711950 -3.129125 2.159185 3.858380 -0.346951 2.095759 -1.775345 -2.917695 -0.084033 0.329583 -1.346581 -0.058700 1.587830 -3.245750 2.032450 0.509878 -0.638291 -2.084189 0.919578 -1.038244 
2860 0.652488 -0.748284 2.413436 3.643874 0.879622 1.725695 -3.164539 0.366608 0.282633 1.038546 -1.209578 0.864432 0.441769 -2.394299 1.096765 1.440856 0.279514 -0.171930 0.979093 0.440437 
3047 0.906066 -0.415770 2.571159 -0.558324 -1.668306 -0.323122 0.938716 -2.037045 3.385976 -0.496529 -0.618826 -1.044257 -0.449512 -0.929184 -1.249431 1.845384 -1.396914 -0.745544 -4.431826 -0.212300 
2171 -0.150264 -3.123345 -0.828621 5.070607 -0.994836 0.515623 -0.441448 -1.191445 1.966254 3.830392 -1.960190 -1.154089 2.615691 -2.832041 -1.004489 2.772380 -2.365815 2.100955 3.404255 -1.655860 
2914 -4.388402 -2.147513 -0.754422 0.149933 1.521510 1.644444 -1.264418 -2.666741 -0.342325 0.403322 0.508216 3.354409 -1.139776 0.578139 -2.944098 2.037098 0.436951 2.133909 -2.364017 -1.155561 
641 -0.046576 -1.443308 -1.665300 4.368815 0.307886 -2.281514 -1.443037 -0.273714 -0.542648 0.100801 -0.989688 2.582984 -2.277653 2.030620 -4.034676 0.956954 0.841447 -1.733068 0.648014 -0.813160 
2516 -0.195167 -0.245122 3.163428 -0.844624 2.709707 0.257654 1.530579 -5.824242 -1.563997 0.842767 1.881309 1.849057 -2.316265 1.003278 -0.944519 1.448335 3.255640 0.854351 0.790656 -0.301569 
6135 3.695380 0.822101 -0.273036 -0.017785 -0.039616 -0.108852 -0.842557 -0.601650 1.573796 -0.399982 -0.878035 -0.292569 -2.654800 3.022076 -2.411274 -2.823596 -0.069607 0.559568 -1.189442 -0.237906 
8928 0.410338 0.107365 -0.633265 1.508928 -0.402806 -2.408105 0.082287 1.436020 -2.646550 -1.018233 4.194847 0.267867 -0.743753 1.478126 1.716907 2.463820 1.299279 -1.172302 1.722322 0.687608 
2021 -3.295000 0.824808 3.725326 2.096316 1.028485 -0.810199 3.387300 -3.152701 -1.473484 2.952626 2.232393 2.034009 1.407457 1.788013 0.200015 1.749073 0.704972 0.615715 0.642413 -0.176812 
2975 0.905138 -3.442418 -0.136095 0.017800 -0.425140 -1.062159 0.407762 -2.824787 0.959085 2.345024 0.950660 -0.795662 -0.488304 -1.348228 2.856667 -1.735225 1.003354 -1.183654 1.934347 -2.106860 
8368 -0.591327 -1.135794 -1.208967 -2.664096 -0.670662 -1.965724 4.344906 1.775464 -0.448603 -0.682579 2.072033 1.256498 0.566419 0.641142 -0.759725 2.138369 -0.166850 -4.480719 1.643982 0.132151 
5115 2.987821 -1.626543 -2.507146 2.126565 -0.909451 1.365370 2.856430 2.086735 0.160809 0.399348 -0.895177 0.142893 0.526766 -1.038936 -1.805758 -0.083668 0.592986 -1.152469 1.641896 0.224175 
6522 0.287795 -0.701671 3.357416 -1.945340 1.087742 0.856138 -2.364757 -3.348489 -2.030400 1.398100 0.282196 0.328885 -2.033869 0.808310 -2.079115 2.107741 1.791571 0.440471 2.960278 2.063070 
6387 2.485709 -2.387873 -2.194556 -1.328574 0.380768 1.244462 1.059591 -0.464423 -1.787005 -0.137006 -0.023673 -0.577999 -2.136181 -1.545862 -1.766335 -1.609118 -0.026595 -1.168669 3.833658 0.996903 
9742 1.664245 -3.107548 -2.236200 -2.516848 0.200276 -2.124296 1.167318 1.066393 -1.200746 -3.936424 -0.190971 0.563146 -2.647972 -0.091741 0.336522 2.738272 -1.581181 -0.805722 0.999409 -0.475060 
6489 -0.270194 1.080665 -2.405985 -1.937510 -0.912876 1.760537 1.453053 2.467422 -0.367517 1.052405 2.511472 -0.740306 0.307005 1.360538 1.181401 -1.259478 -0.060077 -1.879602 1.083786 0.293267 
5442 -0.296116 -1.514560 -2.256042 -2.888250 -1.111008 -0.757100 2.530729 1.088598 0.980805 -1.084813 0.701550 -1.895017 -0.194482 0.608277 -0.036256 2.406097 -0.398204 -2.791835 2.502381 0.322843 
null -0.888632 -2.074564 1.093011 -0.258194 -1.724602 -0.538735 2.503363 0.850274 0.766684 -1.188030 0.205126 0.127494 0.803488 -1.522575 -1.072513 0.440573 -0.388016 -1.010701 0.063462 0.389091 
5737 0.248849 -0.083213 0.607848 0.529805 -2.845813 0.077558 -0.734252 -0.443067 0.948598 -0.859101 -1.589766 2.541892 -4.062867 0.349434 -3.202638 0.800588 -0.425998 -2.093025 1.891906 0.273236 
7980 1.213494 1.268509 0.614543 -2.604007 0.185544 -0.929422 1.222740 2.053651 0.553004 0.094084 3.622401 4.229423 1.737769 2.831837 -0.858076 2.102004 0.639855 0.445663 1.768050 -0.014621 
5585 4.048903 -2.569734 -3.053839 -1.119518 -0.418288 0.331146 0.620656 -0.059619 -0.808312 -1.130466 2.304386 -0.207059 -0.274881 2.503495 -0.890061 -2.599817 -0.217350 -1.946546 2.663875 2.161420 
5935 1.680160 1.795680 -0.980509 -1.220174 -0.013956 0.918717 -2.764207 1.835748 0.420006 2.007799 0.570739 -0.284232 -3.142477 0.559718 -1.754091 -3.076242 -1.550462 0.331522 -2.184675 0.693059 
4118 -0.175932 0.874469 -0.017291 1.837697 -1.225822 2.086267 2.875795 0.208307 -2.222124 -1.826924 1.059865 0.505986 1.094266 2.499326 2.847633 -2.559867 -2.433001 1.848285 0.533809 -1.040115 
544 -1.652749 -2.025390 0.221454 -2.184774 1.402735 0.433772 0.268136 -0.352429 0.332647 -0.439573 0.989017 -1.064191 2.396411 2.552534 -0.000581 1.217006 2.781381 -0.173945 -1.480448 0.586813 
4023 0.533273 1.179708 -0.820056 -1.144821 -1.364931 0.766441 -1.902564 0.029707 3.204576 1.349437 2.337486 -2.656431 -1.394285 -0.347411 -1.945214 -1.016391 1.593378 1.026733 2.480638 -0.768634 
6867 0.708422 2.437783 -0.142731 -1.673415 1.324178 2.981646 -1.492211 -0.202635 1.148895 -0.169373 -0.880139 -0.073019 -3.638954 2.202945 -0.321577 -1.934696 -0.580799 -0.844090 -3.096784 1.154268 
4671 0.817608 1.695952 0.767696 1.405742 -1.062408 0.076382 2.156093 0.318163 -0.159502 0.876265 0.416074 -0.239776 -1.573786 0.813187 -1.914193 -1.445611 1.282579 0.939752 -0.775069 0.055619 
8691 2.764919 2.453067 1.035101 0.837404 2.532657 -2.365499 1.130510 2.240120 1.072337 -0.819283 -0.471485 2.157690 -1.033921 0.353168 -1.464986 2.658684 -0.460948 -2.763781 1.901750 -1.025268 
4031 -1.720235 1.066454 -0.672420 -0.563236 2.021854 2.114808 1.946269 1.802517 1.031599 -0.870741 2.244438 -0.332538 0.435790 1.409182 2.435786 -2.780086 -0.479197 0.345598 -0.058685 1.677342 
543 -0.971529 -0.632869 -0.708170 -2.730667 0.979395 1.297899 -0.088018 -0.328047 1.265031 0.313423 -0.383972 -1.545392 0.743518 1.743693 -2.406601 -0.215679 2.191693 0.298734 -0.443144 -0.888873 
7501 -0.247938 0.695958 -2.308210 0.527786 1.096158 3.577781 -0.068277 3.468247 -0.221526 0.427693 2.764583 -0.109082 0.003842 -1.547830 -0.378913 -1.324131 2.307081 -0.870966 1.714529 0.875918 
8897 -1.593227 0.798780 -1.659583 0.554099 2.392619 0.785843 -0.938870 1.006827 -2.714623 -1.183136 1.795935 -0.681549 -1.099414 0.358405 -0.726661 -0.739307 0.333102 -3.270345 -1.117790 -1.530293 
5026 -1.488375 0.103497 1.882900 1.467144 -2.608443 -0.253435 0.348576 -0.116647 -0.226963 -1.048104 -1.206316 0.292393 -1.830882 0.479474 -5.291035 1.685648 -0.952589 -0.809747 3.050073 1.528160 
663 1.447659 -2.136229 -1.526822 2.717917 3.381738 -0.475504 -0.210790 -2.702142 2.373784 3.321190 0.404133 -0.232632 1.604234 -0.508984 -1.365201 1.870293 4.223145 1.099337 4.017881 -4.256330 
4908 0.441036 -0.465319 0.577452 2.575600 -2.663192 -0.166164 1.498517 -0.888873 -1.560591 -0.195307 3.316592 -1.252521 -0.292915 0.566599 1.623653 -2.098397 0.739232 -0.060967 0.527585 0.190531 
