2108 100
</s> 0.004003 0.004419 -0.003830 -0.003278 0.001367 0.003021 0.000941 0.000211 -0.003604 0.002218 -0.004356 0.001250 -0.000751 -0.000957 -0.003316 -0.001882 0.002579 0.003025 0.002969 0.001597 0.001545 -0.003803 -0.004096 0.004970 0.003801 0.003090 -0.000604 0.004016 -0.000495 0.000735 -0.000149 -0.002983 0.001312 -0.001337 -0.003825 0.004754 0.004379 -0.001095 -0.000226 0.000509 -0.003638 -0.004007 0.004555 0.000063 -0.002582 -0.003042 -0.003076 0.001697 0.000201 0.001331 -0.004214 -0.003808 -0.000130 0.001144 0.002550 -0.003170 0.004080 0.000927 0.001120 -0.000608 0.002986 -0.002288 -0.002097 0.002158 -0.000753 0.001031 0.001805 -0.004089 -0.001983 0.002914 0.004232 0.003932 -0.003047 -0.002108 -0.000909 0.002001 -0.003788 0.002998 0.002788 -0.001599 -0.001552 -0.002238 0.004229 0.003912 -0.001180 0.004215 0.004820 0.001815 0.004983 -0.003111 -0.001532 -0.002107 -0.002907 0.002815 0.001579 0.000425 -0.002194 0.001524 0.003059 0.000194 
583 -0.227384 -0.041782 1.171938 0.308800 -0.159912 -0.215197 -0.059243 0.144559 -0.969264 -0.694603 0.390236 -0.061654 -0.072772 -0.968086 0.688756 -0.286858 -0.475689 1.493530 -0.070353 -0.204649 0.410264 0.405053 -0.757904 -0.184246 -0.747157 -0.214738 0.034966 -0.493134 0.061487 -0.521919 -0.342077 -0.646136 -0.090848 -0.333271 0.345498 -0.099079 -0.358837 0.310905 1.147249 -1.102776 -0.868668 0.970897 -0.846298 -0.276626 -0.676517 0.581039 -0.122571 0.382012 -0.793096 0.399649 0.105215 -0.195983 0.801453 0.217059 -0.947646 0.500591 -0.633027 0.369568 0.313584 -0.499215 -1.186779 -0.307292 0.586726 -1.288576 0.967191 0.006552 -0.171994 0.958227 -0.668467 -0.155643 -0.215374 1.188889 1.430306 0.111051 0.109012 0.663943 -0.285459 0.173468 0.043976 0.300648 -0.282854 0.131632 0.161080 -1.041557 0.149674 -0.783299 0.149510 -0.562815 -0.575173 -0.438418 1.441085 -0.194793 -0.292340 -0.374029 1.454290 -0.218919 -0.078469 -0.378448 -0.028445 -0.558917 
597 -0.876688 -0.509940 0.591674 -0.090051 -0.808717 -0.377193 -0.256232 0.767968 0.253826 -0.650958 0.515644 0.299581 -0.499456 -0.589579 -0.021341 0.241777 -0.006065 1.911855 0.418578 0.204474 -0.314102 0.617370 0.217003 -0.983415 -0.693111 0.369812 0.070490 -0.216122 0.216751 -0.491879 -0.627140 -0.053522 0.381052 -0.439128 -0.537660 0.288959 -0.370582 -0.211523 0.617784 -0.868165 -0.097847 -0.101271 -0.235803 -0.614983 0.038923 0.213562 1.446400 -0.019875 0.143909 0.140878 0.864751 -0.226978 1.929050 0.585798 -0.301772 -0.421400 -0.027343 -0.154101 -0.222472 -0.751150 -0.494092 -0.186814 0.461098 -0.779859 0.578667 0.773023 -0.041550 0.232123 -0.218561 -0.173359 -0.822843 0.916028 -0.062146 -0.278781 -0.210294 -0.310370 0.415537 -0.519758 -0.034615 -0.122402 -0.449514 0.318283 -0.512640 0.240526 0.350367 -1.093619 0.557155 -0.674897 -0.926935 -0.869142 1.146596 0.295917 0.077601 -0.541210 -0.445863 -0.739556 -0.435348 -0.793458 0.046066 0.093723 
764 -0.081100 0.007379 1.119807 0.834023 -0.284414 -0.498328 -0.689475 0.494136 -0.424038 -0.806760 -0.286527 0.231448 0.385055 -1.138433 0.949717 0.395436 -0.412824 1.428818 0.253247 -0.106527 -0.470779 1.248037 -0.905276 -0.589581 -0.047693 -0.372234 0.157134 -0.533429 -0.210111 -0.167483 -0.573463 -0.625964 0.508902 -0.194862 -0.572435 -0.470697 0.141740 0.017497 1.175521 -0.540388 -0.986980 0.210459 -0.883885 -0.155336 -0.207200 1.058255 0.215503 0.318803 -0.370569 -0.112621 -0.340455 -0.289929 0.938742 -0.562853 -0.862614 0.138386 -0.389825 1.147942 0.150851 -1.235374 -0.933729 -0.363461 0.584922 -1.382267 0.513070 0.906568 0.363786 0.781531 -1.444096 0.237514 0.049891 0.630479 1.212972 -0.315017 -0.407021 0.526908 -0.028606 0.078850 0.176051 -0.230881 -0.415384 0.714789 -0.142462 -1.354806 0.336541 -1.336073 0.260310 -0.318941 -0.939586 -0.630032 0.853696 0.358747 0.095793 -0.427777 0.558684 -0.447399 0.692688 -0.506110 0.076824 -1.132416 
820 -0.069925 0.289507 -0.171766 0.046889 -0.446664 0.126921 -0.739850 1.452356 0.760084 -0.971857 0.755961 0.686345 0.471142 -0.000641 0.607712 0.479633 -0.678619 2.631992 1.007557 0.679317 -0.217978 0.137859 0.446092 -0.176452 -0.022841 0.115560 0.239261 -0.166183 0.466588 0.244249 -0.161269 0.165234 0.739781 -0.163023 -0.692771 -0.155572 0.214647 0.181067 1.586444 -0.244570 -0.562434 -0.369325 -0.160420 -0.239335 -0.245978 0.195806 0.728334 0.321142 -0.355204 1.133164 0.005329 0.125431 1.961381 0.499597 -0.613587 0.395567 0.284333 0.668518 0.179855 -0.981897 -0.268372 -0.606314 0.737632 -0.257266 0.399732 0.692294 0.502250 0.333749 -0.681442 0.100860 0.067618 0.815546 0.469453 -0.839067 -0.839519 0.627868 0.420045 -0.834230 0.415106 0.973705 0.320914 0.856521 -1.360885 0.167102 -0.009024 -1.534755 0.265566 0.377818 -0.937254 0.081572 0.468608 -0.470183 -0.292065 -0.803559 -1.309547 -0.501028 -1.148138 -0.321651 -0.240068 -0.532868 
859 0.644457 0.075265 0.223907 0.818407 0.322585 -0.105722 -1.038430 0.367405 -0.734409 -1.597514 0.355148 -0.037091 0.511613 -0.330058 0.027876 0.167519 0.047408 1.800832 0.325822 -0.561930 -0.487266 -0.035575 -0.066274 0.116729 0.651723 -0.463503 -0.150511 -0.558985 -0.772358 -0.047944 0.146373 0.048221 0.537378 0.822821 -0.039842 -0.160948 0.821027 0.346741 1.417955 -0.874508 -0.261592 0.237443 -0.170969 0.027890 0.101199 0.940521 0.313634 0.300775 -0.014305 0.146952 -0.943290 0.055117 1.283717 -0.439902 0.617568 0.289101 -0.545418 0.465848 -0.384209 -0.877155 -1.576230 -0.552982 0.171298 -0.272577 -0.071806 -0.043189 0.529975 -0.397554 -0.386561 -0.059818 0.343875 0.816401 1.511133 -0.258013 0.252391 -0.006023 0.118851 0.220612 0.380203 0.306504 -0.387500 0.461482 -0.393160 -1.061845 0.470443 -0.988428 0.386133 -0.693061 -0.796252 0.589955 1.180895 -0.149395 -0.063603 0.240535 -0.622494 -0.864403 0.179545 -0.833771 0.746807 -0.950858 
1985 1.323197 0.048794 0.952770 0.407219 0.552222 0.976317 -0.784768 -0.808465 -1.379733 -0.542893 -1.218325 0.155459 0.023129 0.736732 0.484136 -0.292114 -0.812760 1.346707 0.234486 -0.831978 0.555641 1.071843 -1.462333 0.187587 -0.788625 -0.745905 -0.754520 -0.770060 0.205602 -0.168011 -0.518484 -1.310979 -0.267004 -0.449471 0.497520 -0.947195 -0.230942 0.020206 0.446229 -0.873534 -0.868371 0.982896 -1.722625 -0.014282 -0.860459 1.467462 -0.726507 1.378826 -1.017201 0.508702 0.140531 0.407483 0.553142 -0.090442 -1.122262 1.217451 -0.402402 0.790313 -0.829809 -1.395251 -0.972120 0.182122 1.041633 -1.841451 1.059031 0.381900 -0.369194 1.332884 -0.363864 0.946716 -0.073146 1.481792 0.499124 -0.314948 0.990018 1.384779 -0.111072 1.133945 -0.256583 0.326407 -0.107430 0.818484 0.774710 -1.239748 0.432404 -0.022193 0.396897 -0.476530 0.662208 -0.883131 1.060435 -0.288297 -0.353126 -0.258451 1.875841 -1.375274 0.491929 -0.109193 0.371888 -1.383375 
564 0.019335 0.016272 0.064233 0.058063 0.005452 0.026442 0.063565 1.607914 0.940382 -1.365519 1.668019 0.843144 -0.472494 -0.257620 -0.223420 -0.067532 -0.815502 2.275125 0.084596 1.463234 1.181783 -0.876391 0.188265 0.463458 -0.007830 0.784427 0.437559 1.569001 1.424691 0.587151 0.831209 0.751210 -0.003323 0.268905 -0.875417 0.994765 0.323047 -0.631560 -0.498813 -0.250489 -0.923118 -1.032762 0.080241 -0.554752 -0.607122 0.322649 0.428283 -0.288334 -0.247607 -0.449255 -0.035971 1.887797 1.676726 0.695814 -0.900495 0.763751 0.171823 -0.223231 0.308382 0.094623 -0.316581 -0.841249 0.915682 -0.519632 1.184115 0.211497 -0.472257 -0.130623 1.077916 0.542564 0.777422 1.121636 -1.332813 -0.566501 -1.204300 0.778676 -0.116576 -1.434486 -0.720814 -0.611914 -0.203314 -0.484419 -0.970656 0.403689 0.009160 -0.085978 -0.959949 -0.458402 -0.301674 0.363698 0.716454 0.248625 -0.772041 -0.169256 -1.548840 -0.140279 -0.831164 -0.431653 -0.394658 -1.249272 
782 0.461820 -0.276970 1.086958 -0.009938 0.339243 -0.463656 -0.044966 0.437977 -0.504641 -1.282239 -0.157684 -0.274209 1.245073 -0.136850 0.658295 0.807765 -0.632161 1.711670 1.439319 -0.630401 -1.179741 0.780564 -1.476164 0.517754 -0.260017 -1.564464 1.045668 -0.449056 -0.412323 0.145079 -0.428327 -0.861129 0.171646 -0.179051 -0.301831 -0.232432 -0.124446 0.173742 1.252743 -1.140416 -1.106548 0.929813 -0.497834 -0.308681 -0.839847 1.024235 0.519247 0.221693 -0.316542 0.075180 0.108509 -0.881716 0.426335 -1.148017 -1.410979 -0.925516 -1.274409 0.228238 -1.361190 -1.174437 -0.841815 -0.678059 0.120234 -1.708057 0.302146 0.717531 0.179809 0.999187 0.335120 0.595364 0.932492 -0.163283 0.391988 -0.125112 0.017943 0.418407 0.028144 1.411868 0.067074 0.316878 -0.394271 0.478508 -0.129111 -1.542778 0.473116 -0.641579 -0.091065 -1.077780 -0.179945 0.446464 0.840568 -0.584368 -0.348556 -0.491292 2.444438 -0.516682 0.343369 0.419016 -0.507479 -2.018602 
756 0.272797 -0.790373 0.921924 0.619223 -0.069807 -0.515534 -0.059433 1.058434 0.004613 -0.192754 0.304463 0.666547 1.794924 -0.775637 0.030868 1.429050 -1.398202 2.013259 1.184689 0.091136 -0.992788 1.292811 -0.021793 -0.628554 0.317238 -0.170259 -0.392390 -0.320536 -0.457105 0.316089 -0.663753 -0.086657 0.044433 0.341371 -0.610295 -0.149650 -1.421041 -0.202820 1.247652 -1.102757 -0.374989 0.762280 -0.187545 -0.879474 -1.090910 0.889267 0.650665 0.235232 -0.445834 -0.769531 -0.153624 -1.173679 1.397375 -0.365354 -0.553391 -0.447428 -0.619760 1.233157 -0.599593 -0.997587 -1.178860 0.590175 0.809146 -2.121835 1.353669 2.248851 0.296492 0.761220 0.086744 0.410902 0.675247 -0.309758 -0.414385 -0.357755 0.246618 0.515116 0.110580 0.914140 0.690883 0.369758 0.770961 0.339458 0.166962 -0.601251 0.521105 -1.011685 -0.023814 -0.323571 -1.233428 -0.686988 1.983648 0.110813 0.097212 -0.475376 0.322544 -0.523964 -0.040125 0.391202 0.042607 -0.861742 
1428 1.208399 -0.667909 0.562420 -0.057741 0.104223 0.694178 -0.159361 -1.489093 -1.151460 -0.409172 -0.569929 -0.731593 -0.440382 0.194459 0.595067 0.436954 -1.270573 0.195761 0.101970 -0.254924 0.901652 1.012179 -1.720156 0.156493 -0.611354 -1.071130 -0.605029 -0.545056 -0.283689 -0.079445 -0.673175 -1.551757 -0.102998 0.404577 0.532404 -0.001659 0.543971 -0.395773 0.206385 -0.371322 -1.099841 1.690244 -1.865530 0.682181 -1.511876 0.563985 -1.642311 0.077831 -0.923431 1.445206 0.015884 0.601478 0.446321 0.034336 -0.062390 0.829225 -1.734265 0.294210 -0.185413 -1.020988 -0.701434 -0.397154 0.260264 -1.609355 0.526213 -0.715473 0.005663 1.428451 0.228574 0.915172 -0.342305 -0.038443 0.766332 -0.200784 1.470163 1.923610 -0.298765 1.369848 0.635436 -0.255513 -0.093385 0.359935 -0.119383 -1.658560 0.533144 0.383571 0.539658 0.026742 -0.654591 -0.911074 0.114811 -0.648452 -0.733707 -0.266145 2.335125 -0.683298 0.954926 -0.655479 0.383444 -1.980352 
3559 0.437411 -0.769025 0.653963 1.060441 0.875936 -0.410135 -0.807747 -0.242798 -1.596661 -1.403927 0.342691 -0.341684 0.346070 0.491068 0.237523 -0.011895 -0.914397 0.714990 -0.052853 -0.176216 -0.379919 1.691622 -1.237834 -1.454977 -0.832784 -1.699007 0.132715 -1.135564 0.289278 -0.777548 0.302597 -0.671593 0.359479 -0.530784 -1.449106 0.356521 -0.413956 -1.006760 -0.410100 0.997942 -0.452175 0.310845 -0.765215 0.179371 -0.812551 1.389404 0.149418 -1.459714 0.809178 0.516911 -0.392233 0.059866 -0.190058 -1.103874 0.546385 0.511696 0.022540 0.264154 -0.945806 -0.326505 -0.193696 -0.365241 0.145463 -1.442113 -0.845725 -0.396709 -0.233788 -0.211611 0.475501 -0.223296 1.189888 0.072787 0.611736 0.726343 0.574672 -0.133991 0.146027 1.094514 1.174164 -0.284533 -0.844064 0.471278 0.050259 -0.658474 0.365728 -0.433765 1.265075 0.727254 -0.599383 -0.326543 0.431154 0.324474 0.512798 -0.222886 1.920157 -0.990856 1.314102 0.360993 0.185532 -1.370410 
3237 -0.051308 0.113923 1.379457 0.883921 0.092936 -1.322872 -0.694271 0.310912 -0.326602 -0.764039 0.388860 0.173321 -0.815742 -0.471657 -0.315465 0.985526 -0.477725 1.788040 0.251829 0.714003 -0.744701 0.536519 -1.079929 -0.104147 0.450978 -1.263971 -0.306971 -0.015343 0.258224 0.973605 -0.550906 0.213186 0.765952 -0.060872 -0.443547 0.212435 -0.824363 -1.081713 0.112968 0.245367 -0.420360 0.596504 -1.216842 -1.580692 -0.626772 0.073180 0.017521 -0.320479 0.009131 0.177238 -0.236999 0.657887 0.021732 -0.830023 0.376661 1.034269 0.628383 -0.143984 -0.141200 -0.532366 0.154974 -0.364466 0.775526 -1.948513 -0.325875 0.874482 -0.429194 1.363765 0.012759 0.098213 1.106435 0.742488 -0.505280 0.327062 -0.023967 -0.210115 -0.698754 1.618133 0.292925 0.687540 0.700212 0.495887 0.121962 -0.244896 0.041052 -1.103039 2.314136 -0.517573 -0.756165 0.124400 0.871168 0.983804 0.232257 1.204585 1.063881 -1.054555 1.233443 -0.513275 0.635792 -0.061864 
985 0.885346 0.013067 0.629513 1.267433 0.861689 -1.012883 -0.133251 0.230833 -1.155634 -0.379447 -0.515002 -0.040672 1.407713 -0.376290 1.054248 2.130093 -0.391420 0.727057 1.248491 -0.102668 -0.414874 1.141852 -1.058492 0.148192 -1.202583 -1.476047 -0.010754 -1.080187 -1.048806 0.272206 0.865221 -1.020057 0.524253 -0.072280 -0.653216 -0.036618 -0.174476 -0.040700 0.287127 -1.170694 -0.607563 0.411085 -1.977156 -0.047693 -0.324342 1.755952 -0.671978 0.141154 -0.761798 0.447103 -0.488397 -1.236025 -0.172202 -1.413488 -1.447432 -0.044955 -1.682458 0.770410 -0.088464 -1.169234 -0.268994 -0.772154 1.012530 -0.993963 -0.001844 -0.157615 0.645194 1.901745 0.590534 -0.213917 0.850471 0.776715 -0.283075 0.288394 0.833624 -0.205007 0.020697 1.428171 -0.123252 0.936779 0.171425 1.226527 -0.204809 -1.560813 0.922467 -1.163623 0.967589 -0.646807 -0.325408 0.294614 0.395585 -0.403212 0.077930 -0.819167 2.243175 -0.962458 1.445474 -1.010543 -0.849929 -1.367217 
561 0.132422 -0.689569 -0.080733 -0.214779 -0.458925 0.089151 0.895308 2.652583 0.874717 -1.338800 1.212786 0.167423 0.103183 -0.173086 0.091512 0.162560 -0.443065 2.149309 0.970511 1.067695 0.879066 -0.995386 0.592688 0.202645 -0.998876 1.374659 1.290348 0.811366 0.147148 0.899387 -0.818383 1.725386 0.144218 1.018481 -0.134425 0.666422 -0.946557 0.015095 -0.394456 0.337608 0.130394 -2.104076 -0.225834 -0.136057 0.973799 0.163695 1.108404 -0.305422 0.601312 -0.401895 -0.112607 1.494387 1.842494 0.537729 -1.196206 0.537042 -0.190068 -0.167254 0.720499 0.026097 1.048586 -1.349316 1.060608 0.148071 0.480994 0.139851 -1.524540 -0.562204 1.398636 0.732921 1.499057 0.184306 -0.896994 -1.181502 -0.710606 0.910100 -0.782016 -1.277923 -0.702410 -0.011337 -0.033942 0.979644 -0.465556 1.146896 -0.250964 -1.298141 -2.050322 -0.597186 0.491486 0.172356 1.166765 0.048945 -0.983597 -1.077632 -0.764389 0.012434 -1.034526 -0.058415 -0.331153 -0.234040 
792 -1.135795 0.189576 -0.445879 -1.572169 -1.229252 -1.215232 -0.822643 0.987058 -0.149408 -0.680445 0.500513 -0.618396 0.701010 0.535344 -0.812040 -0.429999 -1.600644 1.741830 1.138113 1.758700 0.203788 -1.094288 -0.402822 -0.462790 -0.785593 -0.271274 -0.619076 -0.159000 0.919952 0.589500 0.637416 0.446914 0.609090 1.201918 -1.247752 -0.911718 -1.348047 -0.092816 1.191041 -0.300492 -0.290939 -1.288052 1.066896 -0.474155 0.286838 0.105810 0.244248 0.446957 -1.627261 -0.754425 0.999197 -0.293890 2.205011 0.709358 -0.112900 0.733967 0.341423 0.962648 0.076990 0.324314 -0.067094 0.494875 1.589784 -1.282779 1.334023 0.630463 -0.003580 -0.110433 -0.425131 -0.251172 0.482463 -0.050145 -0.158540 -0.610749 -0.574865 1.003473 0.462590 -0.191025 -0.982362 0.629011 0.463050 0.630070 -1.579739 0.645787 1.287761 -1.569852 -1.076036 0.163318 -0.835576 -1.064774 1.157347 0.690690 -0.900297 -1.031032 -1.801536 0.822297 -1.350850 -0.916422 -0.587284 -0.261316 
684 -0.626742 -0.740674 -0.285128 -0.376148 -1.224560 -1.047608 -1.597878 -0.855277 0.719336 -0.592047 0.142322 -0.176306 0.850443 0.481789 -0.757426 -0.634513 -0.636330 2.935887 0.147540 1.873305 -0.664138 -0.018749 0.258192 -0.301221 -0.496310 0.591251 -0.083110 -0.563120 -0.056448 0.016586 0.635919 1.958631 0.468092 1.331813 -1.192814 -0.577646 -0.709849 -0.464410 0.511386 -0.256201 -0.028192 -0.198827 0.934066 0.619660 0.570941 0.201097 -0.019513 0.432585 -0.847724 -1.195744 1.337364 0.618118 1.156601 0.560520 0.185200 0.279675 0.885089 -0.778134 0.307703 -1.182717 -1.053820 0.016323 0.445106 -0.898800 0.731655 1.014879 -0.197020 -0.255150 -0.768603 1.594904 -1.184606 0.089872 -0.230468 0.054716 0.228969 -2.041187 -0.225539 0.423559 -0.443232 -0.226687 0.444276 0.022370 -0.337949 1.065724 0.181635 -0.863556 0.082675 0.109566 -0.258118 -0.345161 0.479367 -0.579487 0.627807 -0.465640 -0.909360 -1.211385 -1.064514 0.102135 -0.434100 0.488759 
734 -0.580287 -1.685698 -0.993675 -0.234404 -2.263495 -2.599725 -0.898586 -0.564572 -0.017370 -1.179358 -0.310689 -0.149966 -0.687612 -0.218997 -0.352107 -1.409305 -0.422522 1.839756 1.516241 0.687291 -0.137590 0.270227 0.556906 -1.096052 -0.233464 0.713515 -1.108707 0.245666 1.424809 -0.047434 -0.149352 0.468285 1.361144 -0.384576 -0.281662 -0.287398 -0.305656 -1.535318 0.386822 0.582743 -0.007612 1.312351 0.711576 -0.055871 0.405310 -0.203740 0.557696 1.011124 0.400907 1.337093 0.192363 0.567985 2.158237 -0.164110 -0.568937 -1.024154 -0.353648 -0.214288 -0.457792 -1.404681 -1.346406 0.190750 -0.380474 -1.287873 0.056315 2.057225 0.066119 -0.283241 0.644509 -0.345044 0.371724 -1.083473 0.003162 -0.743106 -0.118227 -1.427648 -0.644201 -0.201420 -1.002268 -0.701857 0.473045 0.216008 0.107088 0.424152 -0.524084 -0.935190 -0.921490 -0.823767 -0.497168 -0.758662 1.226976 0.325765 -0.370674 0.334773 -0.607253 -1.787349 -0.942511 -1.188138 0.009041 -0.147369 
2564 0.847937 0.490188 -0.930191 0.863170 0.804324 -0.043891 -1.253521 0.428280 -0.052544 -1.487386 0.553476 -0.765384 0.450990 0.929368 -0.118409 -0.742595 -0.291775 0.753713 0.560355 -0.503074 0.589771 -0.181141 -0.401992 1.082890 -0.734619 0.518877 0.475254 -0.447522 -1.624451 -0.699061 1.066038 -0.236286 0.729564 0.331670 0.091088 0.245582 0.136468 0.029728 0.913808 -0.031954 0.598783 -0.346024 0.938954 0.632756 0.426242 1.138041 -0.027171 -0.613936 0.442633 1.927841 -0.372779 0.212186 0.242317 -0.416771 1.669211 0.483709 -0.653255 -0.147888 -0.678966 0.095034 -0.340640 0.801571 -0.079128 -0.271825 -0.828781 -0.149443 -0.353783 -0.047483 -0.665161 -0.243221 0.877732 0.339204 0.617245 0.917268 1.412644 0.342100 -0.097372 -0.197155 1.025401 0.003707 -0.330271 0.594918 0.358002 -1.861906 -0.104054 -1.145749 0.785305 -0.380853 -0.363348 0.507742 0.151330 -0.037789 0.896870 0.580993 0.818917 -1.810878 -0.280470 -1.299548 0.851543 -0.638593 
3227 0.275069 -0.522630 1.125374 -0.093744 -1.134064 -1.279264 -0.049085 -1.188722 1.017485 -2.108591 1.086216 -0.406092 -0.402042 -0.357928 0.510101 -0.856073 -0.579183 2.013822 -0.408392 0.588541 0.278843 -0.097254 0.053048 -1.522935 0.210244 0.393588 -0.087776 -0.627830 0.697589 0.207628 0.312840 1.394590 -0.562790 -0.066760 -0.468930 0.613495 -0.514708 -1.158187 0.526051 -0.105894 0.899825 -0.561621 0.230522 0.012352 -0.652839 0.339074 0.020339 0.582655 0.576560 0.400995 0.413834 1.313644 1.695562 0.481181 -0.046938 1.303506 1.360281 0.048264 -0.548175 0.723224 -0.399777 -0.359979 1.110580 -0.271634 0.114882 1.040256 -0.463812 0.556395 -0.717262 0.080590 0.211263 0.009336 -0.539600 0.353757 -0.308358 0.479615 -0.183792 -1.017795 0.392272 -0.619726 0.894151 -0.089144 0.177159 0.323705 -0.637802 -0.682099 -0.175608 -1.029354 -0.250291 1.852050 0.865058 0.076286 -0.860086 -0.195325 0.019944 -1.297680 -0.024467 0.183722 -0.002349 -1.141719 
1587 -0.745110 -0.878377 -0.021340 -0.332942 -1.236707 -0.157761 -0.197860 0.027895 0.614333 0.775327 0.939776 -0.192204 -0.765195 1.061130 -0.936449 -1.001227 -2.138508 -0.205873 -0.072672 0.290888 0.267523 0.586535 -0.208173 0.432121 -0.620159 0.337238 -0.469730 -1.289225 1.660718 -0.960137 0.649762 0.460730 0.141593 0.395030 -1.200690 -0.362253 -0.995825 0.440375 -0.856078 -0.068949 0.134048 -1.121146 0.846356 -0.475570 0.373595 -0.563456 0.168690 -0.159712 -0.507773 0.058709 0.441142 0.149888 2.014344 0.672962 0.580871 0.018124 1.141673 0.483522 -0.720682 -0.500089 1.176861 -0.432751 -0.178695 -0.447263 0.072152 0.165094 -0.557632 0.185346 -0.185274 0.914926 1.024605 -0.731542 -0.037101 1.169446 0.347349 -0.082109 -0.577269 0.195049 -0.578701 -1.949027 0.335742 0.565469 -1.612325 0.798536 -0.628854 -1.132682 -1.523916 0.385756 0.157110 -0.296405 0.175644 0.819906 0.820229 -0.482058 -0.483600 -0.663927 -1.327786 -0.793720 -0.805603 0.127374 
878 0.286764 1.543111 1.531640 0.312178 0.049340 0.834367 -0.560588 -0.159096 -0.440931 1.227453 0.641197 -0.722804 -0.266473 0.865820 1.453588 -0.523421 -1.226354 -2.182667 -1.730917 -1.076294 2.730748 0.311975 -1.559845 3.067702 -0.568910 0.429243 -0.125431 0.281937 -0.931936 -1.895400 0.485614 0.014531 0.626020 -0.292371 1.104595 -0.539287 1.165421 -0.393150 0.765146 0.517377 -0.572775 0.857118 -2.703819 -0.849060 -0.817138 0.666929 -0.708918 -0.087728 -0.350386 0.425331 0.265850 -0.722298 -0.390361 0.681364 -0.456824 -1.094860 -2.345513 0.580786 0.157247 1.065734 -0.148614 0.182900 0.247130 0.237602 1.626500 -0.823376 0.353381 0.888206 -3.138620 -1.921425 -0.661884 2.216103 1.211455 -0.570833 0.259229 1.114665 1.088125 -0.397358 -0.600921 0.492421 -0.228415 -0.936689 1.632806 -2.761346 -1.231383 -2.176671 -0.268927 -0.212781 -1.900600 -1.714115 -0.113230 -0.061333 -1.014536 0.438214 -0.770136 0.518758 0.017053 -0.729737 0.319691 -0.456236 
1595 0.292759 0.941492 0.008886 1.172698 -0.909587 2.049711 -1.724733 0.558160 0.831315 0.826983 1.232428 0.732144 -1.638651 -0.072244 1.433738 -1.435606 -2.743009 -3.657886 -1.857574 -2.155104 0.664528 -0.648577 -2.436464 0.692486 0.434567 0.763659 1.036166 0.192462 -0.167926 -1.120672 0.794798 0.674865 -0.594010 0.271653 1.718629 -1.699726 -0.171387 0.531622 1.521221 1.364033 -0.715477 0.746672 -2.683307 0.985237 -1.424371 0.174069 -0.413614 1.444246 -0.549326 0.013893 -0.959876 -0.905823 -0.363551 1.818943 0.098041 0.057368 -0.954018 0.291838 0.765815 0.936524 1.337908 -0.211876 0.297256 -0.843696 0.794218 -1.511769 -0.305069 0.811874 -2.580604 -2.691224 -0.642993 1.430229 1.662271 1.071889 0.531819 1.134159 0.412569 -0.920403 0.693820 1.883913 -1.793508 -0.031697 1.266542 -1.314462 0.163448 -1.705928 0.492961 -0.096661 -1.454797 -0.323032 0.207389 1.464565 -0.393326 -0.072454 0.263089 -0.759448 0.043765 -0.766888 -0.361638 -0.318918 
784 -1.928913 -1.249791 0.313552 -1.961984 -0.937854 -0.699921 -0.909698 0.698388 -0.190649 -0.296810 0.531275 0.124559 2.213465 -0.927897 -0.155711 0.873536 0.441614 3.954228 2.298410 1.654334 -0.727469 0.758615 0.389184 -0.873652 -1.808912 0.728856 1.228797 -0.408350 0.361941 0.235936 -0.324948 0.411850 0.310923 -0.540432 -0.792997 0.000491 -1.759550 0.024279 2.829076 -0.804484 0.288580 -0.322566 0.350680 1.039249 1.146749 -0.492502 1.724098 -0.362224 -0.644478 0.628154 0.443719 -0.966038 2.446507 -0.780381 -1.574299 -1.336431 0.075594 0.863736 -0.802672 0.902248 -0.687312 1.032588 0.567353 -1.461767 1.525723 1.901655 0.157516 -0.474524 -1.629182 0.222482 -1.499720 0.675414 0.094072 -1.375154 -2.333185 0.120172 1.268312 0.088083 0.033997 0.621293 -0.181491 -0.101946 -0.977641 0.749728 0.296284 -1.969650 0.810831 -0.645761 -1.424783 -1.288048 -0.005763 1.152137 0.613287 -0.656854 -1.315862 -1.375880 -2.185567 -0.764814 1.186150 -0.628366 
809 -1.489182 0.008454 -1.066462 0.494817 -0.904738 0.690073 0.086808 1.072758 1.318679 -1.961686 0.970495 0.179633 -0.841684 -0.762025 1.186114 -0.640749 -2.287186 2.585205 -0.348353 -0.420043 1.400825 -0.864908 -1.118024 0.668898 -0.379299 0.247070 -0.013171 0.231847 0.749677 0.094690 -0.687163 0.066871 -0.142455 -0.298734 -0.330909 -0.211021 0.189044 -0.078923 1.010426 0.324179 -0.514109 -1.015193 -1.381212 0.076217 -0.290925 0.724654 0.030020 0.259244 -0.496631 -0.857673 -0.062539 1.339215 0.050943 0.444753 -1.158351 1.340087 -0.354446 0.361711 1.099712 -0.140363 -1.637124 -1.001313 0.527980 -0.680015 1.498835 -0.100834 -1.546079 0.229913 0.278251 -0.593491 0.754010 1.082575 0.067895 -1.482445 0.011223 0.819015 -0.369498 -1.026326 -0.960722 -0.307155 0.262155 -0.696101 -1.463653 0.704191 0.341487 -0.718804 -1.909149 0.047922 1.103840 0.402389 2.521416 0.645812 -1.258615 0.004370 -0.041313 0.077565 0.006879 0.335837 -0.129549 -1.346306 
571 -0.350738 -0.649871 1.515031 -1.491710 0.176282 -1.679553 -0.827784 3.199205 -0.308187 -0.258309 -0.295217 0.096867 2.019451 -1.189152 -0.127296 1.690843 -0.986759 1.818493 0.226401 1.065538 -1.634405 1.211424 -0.003076 -0.130621 0.396244 0.733914 0.258397 -0.063515 -0.593872 0.635489 -0.778438 1.183295 0.633017 0.190660 0.197221 0.343645 -2.473680 -0.343902 1.347565 -1.332103 -1.133580 -0.654789 0.206805 -1.064231 -0.055033 1.543357 -0.250394 -0.108236 1.257331 1.313822 -0.382938 0.247002 1.924673 -0.040155 -0.828901 -1.325854 0.246357 -1.052900 0.101448 -0.130097 -0.536855 -0.250857 0.105301 -0.329621 -0.609690 1.129869 -0.128362 1.611707 -0.630138 -0.505068 1.040740 -0.116948 -0.066859 -0.834728 -1.395306 -1.581114 0.514576 -0.023203 0.359751 1.374218 0.031794 0.390594 -0.533074 -0.077184 0.278222 -1.213872 1.825686 -0.409185 0.115563 -0.230388 1.047326 0.856726 1.058831 -0.667931 0.223048 -0.577331 -0.870141 0.385373 0.696452 -0.686392 
706 -1.152691 1.068870 -0.351961 -0.104168 -3.167861 0.629184 -0.469416 0.808394 2.703226 0.162092 -0.005874 -0.022675 -0.869866 -0.562476 -0.554408 -0.017443 -0.252487 1.452589 -0.313583 0.366570 1.976066 0.703621 -1.134067 0.006414 -0.270555 0.867590 -1.343954 2.316973 -0.127177 -1.744914 -0.320235 1.878929 -1.016798 -1.485945 1.495412 -0.451664 -0.873135 -0.118826 1.884206 -0.357897 0.370835 -0.974647 -0.997731 -1.262046 -0.504545 0.842375 1.948055 0.312640 -0.040169 -0.534212 0.760686 -0.319050 1.303217 0.790809 -1.600375 -1.949282 -0.403601 -0.408617 -0.269430 0.104650 0.803272 -0.302615 0.696832 -0.488238 0.582721 0.850430 0.921830 0.496327 -1.901389 -2.208469 -3.947830 1.255772 1.436252 0.796743 -0.336263 1.049359 2.725037 -2.268089 -0.666890 -0.057594 0.249497 0.294451 -0.057372 1.759356 -2.112494 -2.007551 -2.463136 -1.030745 -2.941620 -2.388715 -0.814506 0.307718 0.151912 -1.407307 -0.480845 0.177096 0.410460 -0.644652 0.536645 0.321680 
679 0.888940 -0.807080 0.961087 0.816156 0.422512 -0.587474 -0.933307 -0.955457 -2.510136 -0.009464 -2.939354 -0.009146 0.861251 0.024234 0.894997 0.895795 -1.136143 1.364806 0.710343 0.566483 0.076335 0.637786 -0.774510 1.076232 -1.724349 -1.679737 0.638470 -0.009171 1.530391 -0.287884 0.236535 -1.919806 -0.677260 -1.225706 0.339184 -0.377835 -0.800337 0.952549 0.931911 -4.067645 -0.801863 0.848430 -2.023345 -0.678701 -1.020681 0.649883 -0.320174 0.755944 -2.553792 0.516669 -0.284397 -0.432832 -0.352504 0.336712 -1.777534 0.666592 -2.781678 0.266821 0.648980 -1.983432 -2.830554 0.651076 0.604951 -0.666978 1.352886 0.930381 1.002412 1.693149 -0.392165 -0.020082 0.268960 -0.136001 2.431911 -1.740781 1.473656 -0.139625 -0.509126 0.423510 1.609501 -0.552648 0.958819 -0.040978 0.534679 -1.975672 0.287684 0.185481 0.425428 -0.259903 0.860103 -1.746104 0.969841 -1.718432 0.241744 -0.763166 1.288843 0.478172 0.364249 -1.163075 -0.348251 -1.267058 
1859 0.946977 -1.603213 0.888564 1.393709 0.558584 0.318508 -0.537495 0.558055 -1.958107 -1.429173 -0.470511 -0.634119 0.724941 1.235016 0.387607 -0.200385 -0.565781 0.943418 0.689006 -0.482799 -0.952429 0.554224 -0.399273 -0.885379 0.255857 -1.964114 1.088837 0.173149 -2.706507 0.988694 -0.742288 -0.452003 1.083248 1.146918 -0.102681 -0.674396 0.554736 -0.269815 0.684720 0.588215 -1.144911 -0.444142 0.754000 -1.282711 0.309019 0.620563 -1.411884 0.263712 -0.212912 -1.167109 0.775839 0.820412 -0.395518 -0.897739 1.131504 0.787384 -0.590139 0.778396 -2.012756 -0.700588 -2.067463 -0.309366 -1.266634 0.445883 -0.511535 0.560019 0.143333 -0.595039 -1.463727 0.948443 1.326751 0.960531 1.020256 -0.540612 0.812457 0.286193 -0.479424 -0.184784 1.918094 0.275292 1.059319 -0.511287 -0.574886 -1.288880 1.266853 -0.001154 0.779432 -0.563356 0.335978 1.988255 0.174663 -0.714283 0.254767 1.583576 -1.336672 -1.056036 1.496188 -0.534245 -0.407657 -1.790453 
858 1.245683 0.763143 2.228121 -0.209979 -0.880533 0.589790 -1.582412 0.488531 0.763605 0.662238 1.872194 0.082253 1.237168 -1.234089 1.112013 -0.692318 -0.389873 -0.614680 -1.487676 -1.775140 2.221527 0.404585 -2.365214 2.935999 0.468684 -0.317403 0.218603 1.841217 -0.292119 -1.556204 -1.269429 0.280211 -1.462257 0.351596 1.356107 0.107183 0.598517 0.873201 3.300468 0.042657 -0.278351 0.863043 -0.836012 -0.831743 -0.292937 1.502603 0.018750 1.034261 0.437942 -1.717135 -0.190001 -0.854882 1.157867 0.349069 0.177070 -0.376058 -3.378513 0.523884 1.153803 1.083411 -0.666200 -0.758636 -0.143902 0.031863 1.074957 0.395942 2.016803 -0.374112 -2.103734 -2.706409 -1.770745 1.260399 2.036427 -0.235986 0.851628 1.499538 1.166934 0.248128 -0.486167 1.585135 -1.301822 -0.368492 0.013016 -1.196710 -1.041876 -2.427803 -0.467917 -0.480798 -1.855145 0.027796 1.050191 -0.196677 -1.355061 -0.560771 -0.140223 -0.488030 0.205967 -0.988631 -0.629300 -0.052316 
1462 0.934785 -0.746970 -0.077473 -0.613403 0.475903 -1.166083 1.106754 -0.172495 2.375877 0.043876 1.025688 0.264512 0.002932 0.175390 1.235403 -0.649965 -0.509439 0.757653 1.362890 2.536134 0.702564 -0.756587 -0.295753 0.997534 1.128062 2.370681 1.057824 0.289265 0.789659 1.725164 0.041828 0.633880 1.106719 0.004496 -0.654307 0.582535 0.041233 -1.269976 0.067403 0.181090 -0.421328 -1.898659 1.185239 0.658214 -1.110127 -0.976516 -1.036249 -1.275614 1.054694 -2.111432 -0.467603 3.944116 0.137829 1.454043 -1.101517 -0.017740 0.230516 -0.657130 0.386896 -0.019303 1.267842 -0.050214 -0.003509 -0.451158 0.027935 0.202362 -0.474815 -0.473090 1.879920 0.678272 1.356139 -0.677084 -2.803038 -0.351173 -0.834594 -0.859964 -0.894541 -2.443907 0.113543 -1.458606 -0.213049 0.033723 -1.494859 0.208919 1.408305 -0.172037 -1.969059 1.021803 1.617143 0.829861 0.278657 0.693422 -2.094886 -0.132885 -1.541545 1.598622 -0.569411 -0.179533 -1.961016 -1.854907 
1927 0.929589 0.299969 1.446308 0.923137 1.831716 -0.231853 -1.189627 1.080187 -2.096869 -0.399197 1.069893 1.378210 -0.357123 -0.410474 -0.371755 -2.092300 0.510626 -0.201303 0.180530 -1.223366 0.490989 -1.786897 -0.132524 -0.723732 0.091374 -0.761010 -0.517624 -0.955521 -1.925240 1.231343 -0.289394 -1.863610 0.799822 0.445452 -0.499161 -0.495088 -0.882623 -0.576153 2.587078 -0.874489 -1.215889 -0.672103 0.512243 -1.335272 0.597441 0.197623 0.217599 -1.690804 1.643701 1.658118 -1.210708 -1.494755 0.048426 -0.306142 1.519787 -0.393097 -1.218077 0.844105 -0.723235 -0.770633 -0.203155 0.472835 -0.004969 -1.425229 0.227321 -0.514478 -0.321786 -0.334388 -0.112271 -0.311625 1.255345 -1.253187 1.132179 -0.642436 0.910657 -2.037526 0.616793 -0.843867 -1.494094 0.358053 -0.080871 -1.074306 -2.449544 -1.866541 0.758059 -0.089121 1.268538 -0.414002 1.581055 0.227569 1.031235 -0.786371 -0.655209 0.184949 -1.463158 -2.016934 -1.548209 -0.802466 0.858364 -2.708109 
643 -2.145722 -0.234501 -1.056119 -1.104220 -3.006357 -1.139507 -1.140203 -0.449419 0.740042 -1.361050 -0.081988 -1.173830 0.645950 -0.315081 -1.608912 -0.071353 0.585711 2.627432 0.945035 1.498677 -1.065129 0.475811 0.027026 -2.498162 -1.815173 0.157621 -0.208169 0.752806 1.642633 0.507137 -0.776067 0.372445 2.308235 -0.205775 -1.341239 -0.956242 0.057026 -0.632429 1.493566 0.225079 0.269767 0.031291 0.458309 -0.280066 1.274492 0.207651 2.004086 0.673736 1.207440 -0.628764 1.718870 0.018674 0.630468 -0.327945 0.506464 -0.765350 0.196096 0.015020 -1.735739 -0.669178 -1.435976 0.656056 -0.257864 -0.409624 2.092297 2.688843 0.619429 1.249487 0.176090 1.514629 -2.762343 0.518804 -0.301793 0.307257 0.020037 -1.536449 0.916257 -1.039810 -0.108575 -0.921148 0.815041 -0.696605 -1.042260 0.930001 0.795789 -0.565942 0.549432 0.084270 -1.567894 -1.229688 -0.301235 0.409506 1.146637 -1.820421 -0.233232 -0.064869 -1.277383 0.522978 0.413182 0.008946 
1919 -0.713221 -0.690398 -0.104004 -0.484236 -1.556265 -0.520140 0.711187 2.492201 0.841079 -0.941911 1.514263 -0.111806 -0.234425 0.703829 -0.484932 -0.595169 -0.561687 2.386262 1.153133 2.210228 0.011279 -0.004940 0.082280 0.676285 0.647691 0.766472 1.361716 0.648695 0.676698 0.937757 1.150176 1.170888 -0.288574 0.399585 -1.316101 0.842719 0.130597 -0.379992 0.302365 -1.427926 -0.574268 -1.448922 -0.514927 -0.697641 -0.509329 0.658567 0.749302 -0.058267 -1.104286 0.783138 0.283532 0.108904 0.622365 0.036052 -0.911186 1.332406 0.582228 -0.610516 1.013781 1.303166 -0.735192 -0.452662 0.900872 -0.224556 -0.297100 0.162978 -0.943844 0.042609 0.865109 -0.102135 0.782579 0.668057 -0.880098 -1.142560 -1.795842 0.395128 -2.020688 -2.965657 -1.224720 -1.059846 0.455704 0.622503 -0.960608 0.623817 0.254233 -0.307975 0.642554 0.434928 0.549016 0.978356 0.135020 1.345346 -0.581008 -0.705899 -2.764903 -1.877242 -1.734373 -0.342439 0.936805 0.413832 
702 -1.884307 -1.572305 -0.596640 -1.947252 0.523659 -0.183582 -0.307354 -0.573260 -0.233338 0.553129 -0.133842 -0.286901 0.530724 -0.030571 -0.375109 0.497653 -1.220708 0.061535 1.520447 0.287661 0.621413 -1.467731 0.372556 1.130037 1.699374 -0.114276 0.703578 -0.758703 0.339168 -1.246609 0.681837 1.039865 -0.607224 2.933099 -1.429849 -2.287367 -1.578575 1.237345 -1.346509 0.423676 -0.561266 -2.321173 1.170758 -1.481967 0.752855 -0.837235 1.640480 -0.167830 -1.133241 -0.037750 2.723778 0.384869 -0.589512 0.329622 0.061339 0.159083 1.191342 0.899399 -0.990204 -1.120967 0.239027 1.069958 -1.788900 0.095255 1.262465 -0.118062 1.327346 -0.243070 3.176167 0.778135 2.652941 -0.020043 -1.615515 -0.110652 -0.712799 0.322480 -1.608927 -1.307015 -0.277239 -0.687436 0.456747 -0.932463 -2.332223 1.891992 0.831200 -1.952821 1.447181 -0.007192 -0.259672 0.115410 0.605493 0.179369 -1.001047 -1.022713 -1.157158 0.810073 -0.114745 0.552001 -1.710786 1.240163 
786 1.390033 0.965261 2.193871 1.060936 -2.395571 -1.897570 0.112080 -0.790896 0.070330 -0.584369 0.874048 -1.946266 1.010755 -1.071288 0.179275 -0.289528 -1.583424 -0.302876 -1.609062 -0.300820 1.733599 1.038469 -1.579835 2.555629 0.530139 0.489425 0.373687 0.142031 -1.849316 -0.648534 -1.516547 -0.830018 -0.843389 -0.941149 0.324990 -1.236493 0.354183 0.304442 1.703014 -0.167798 0.086042 1.474374 -2.164252 -0.898605 -1.287126 0.024661 0.572348 1.417760 0.130335 0.206271 1.300282 -1.461829 1.412639 0.212022 -0.796022 -1.466551 -2.075531 -0.133018 0.189388 1.443276 1.200305 0.841194 -0.187122 -0.819629 1.152724 -0.608452 0.735080 1.218773 -1.697083 -0.623049 -1.040225 -0.600017 1.093232 -0.808326 1.052073 0.976175 0.476209 -0.454167 1.277007 0.527412 -1.162068 0.469650 0.207917 -1.027421 -0.128565 -1.598694 -1.213023 -0.047367 -0.574668 -1.637950 0.624397 -0.411922 -0.124077 -0.225222 3.022518 0.146684 -0.309821 -0.381269 1.056473 0.154693 
743 -1.376033 -2.661103 -0.226841 -0.097250 0.216447 -1.062831 -1.339424 -1.109348 -0.690398 -1.191276 -0.569565 0.487292 0.372547 -0.321362 -2.033278 -0.390193 0.152259 1.571171 0.925336 1.695728 -0.557482 0.048362 1.020909 -0.730793 -1.158340 1.759013 -1.171037 -1.616945 -0.495516 1.215746 0.832367 0.675927 -0.275665 -0.112964 -0.221211 0.916784 -0.937457 -1.702275 0.677870 -1.393431 -0.884604 1.205259 1.435605 -0.820400 1.287971 0.414957 2.417493 0.192595 0.182777 0.592224 -0.115452 0.656030 2.219862 0.757773 0.006251 -0.170813 1.120615 -1.445738 -0.386584 0.491316 0.277506 -0.041482 0.761680 -0.032547 0.466320 2.999658 0.575809 -0.884262 -1.050424 1.404611 -1.777226 -0.182404 0.490674 -0.082502 -1.239753 -1.107183 1.389930 -0.329796 -0.693903 1.329608 0.873281 -0.475458 -1.224650 1.391505 1.095541 -1.721596 -0.128126 -0.647570 -2.121893 -2.247895 1.339278 -0.882961 -0.065173 -1.319029 -0.456782 2.075465 -0.571694 1.262445 1.053238 1.297275 
3399 -1.152517 -1.777480 1.111986 1.683354 1.242822 -0.063780 -0.509081 1.203545 -1.531518 -0.871035 -0.769449 -0.456871 2.286894 -0.154074 -0.936343 0.375791 -0.641167 -1.651273 2.010768 0.857320 -1.793070 2.054102 1.386878 -2.331746 -0.428463 -0.667400 1.840234 -0.165947 -0.962096 0.848694 -0.974066 0.295777 0.029492 -0.132265 -0.505290 0.024252 -1.091582 -3.002570 -0.816626 -0.386603 0.857989 0.386864 0.692803 -0.384925 0.879418 0.350839 0.639362 -0.641151 -0.147977 1.648368 -0.180072 -0.675051 0.775144 -1.456407 0.062967 -0.683118 1.691109 0.217635 -0.727354 0.124479 1.356539 -0.353520 1.566233 -1.876551 0.018097 1.110351 0.794773 -0.081086 -1.062388 -0.438198 1.264185 -1.186209 -2.467369 0.116181 1.128688 -1.168601 0.598291 1.211779 1.732324 -0.290124 -0.461519 0.812029 -0.638099 -0.193751 1.695205 0.287539 -0.264892 0.497373 -0.684524 0.266762 -0.446945 0.219200 0.043928 0.976231 0.843528 -0.355035 -0.581829 0.287598 0.019202 0.258095 
620 -0.714168 -0.311999 0.044848 -0.290948 -1.869984 -2.471107 -1.194999 0.216878 -0.743522 -0.292827 1.179164 -0.454982 0.738445 -0.408189 -0.368678 0.024983 0.553638 2.944174 1.110990 1.405977 -0.749799 0.292516 1.133880 -1.540604 -1.806210 0.126855 -0.216341 -0.597156 -0.020341 -0.738983 0.630616 0.123602 -0.890933 1.132232 -0.681729 1.204485 -0.096932 0.213976 1.171539 -0.705867 -0.270548 -1.404173 0.741158 0.334245 0.543101 -0.547515 1.345620 1.190792 0.223719 0.636470 0.958675 1.169242 1.860417 0.194245 -0.890210 -0.094420 1.098513 -1.274855 -0.655674 -0.704558 -0.583296 -0.461997 -0.780400 -0.996881 0.749419 0.060475 -1.773820 0.092407 0.242365 -0.327480 -1.052722 -0.776204 -0.301107 0.547384 -0.838952 -0.952933 0.634396 1.016488 -1.828766 0.004721 -0.205449 0.010022 -0.273163 0.693104 1.013955 -0.933482 1.744922 -0.486642 -1.197324 -2.508274 0.218415 -0.107775 -0.865713 0.055073 -1.713378 -0.770083 -0.267651 -0.559739 0.686085 0.882412 
3187 -0.228699 -0.511002 1.321124 1.598171 -0.720115 0.641837 0.362301 2.373664 -0.023733 -1.248379 0.719417 0.081400 -0.549841 -0.641064 -0.091535 -0.415718 0.183558 0.156150 0.964200 -0.244720 -0.640410 -0.642324 0.229012 -0.417851 -0.018375 -1.142588 0.053901 -2.000821 -1.206217 0.515413 -0.528323 -0.135573 0.467512 1.133253 -0.820864 -1.120384 1.815352 -0.182845 1.555585 0.608953 -0.576702 -1.133062 1.942402 0.797327 0.842160 0.280901 0.426747 0.814668 0.691963 1.411346 -1.032410 0.684190 0.495104 -1.318609 1.951799 1.139830 1.775463 1.099095 -0.885050 -0.254113 -1.347923 0.559711 -0.409843 1.156524 -0.895309 0.182735 2.486988 -0.331022 0.743104 0.893329 1.684287 0.830024 0.846865 0.801996 0.061923 1.463178 0.286131 0.440646 1.748804 1.762965 0.725587 0.821006 -1.352958 -0.797152 2.067584 0.784231 1.811562 -0.797600 -0.902727 0.021247 -0.360299 -0.320373 -0.865562 0.025833 -2.250694 -0.891393 -2.197090 -0.952268 1.213519 -2.080465 
3904 -0.384155 1.013654 0.652870 0.760356 -1.609643 0.189567 -2.307891 -1.037610 0.768974 -0.751320 -0.568415 -1.040949 -0.141047 -0.016970 0.888143 -2.044374 0.542703 -3.732339 -1.643330 -0.027202 0.091607 -0.331680 0.564488 -0.828142 -0.198047 0.755023 -2.362750 -0.604778 -1.057487 0.045072 1.460682 -0.249939 1.094916 -0.790025 1.382039 0.003590 1.121132 -1.674317 0.590229 1.175998 -0.226041 0.997142 -1.635490 -0.928290 -1.068926 -0.630129 0.772669 0.710670 -0.802270 0.865109 0.167254 -0.043219 0.153213 1.102600 0.614789 -1.351662 0.443953 0.262028 1.113681 2.695744 0.765649 -0.226369 -1.942638 1.216011 -0.023242 0.254603 -1.485369 0.461770 -1.176898 -0.612339 -2.031056 0.476434 -0.375621 1.132287 -0.520856 0.292686 2.815605 0.473763 -1.081009 -1.250833 -0.849040 2.056163 0.598887 2.113087 -2.047720 -2.758191 -0.301079 0.255151 -1.612179 -1.353333 -1.130307 1.852280 1.410367 -0.536040 0.447788 -1.008164 -1.579452 0.177050 0.685128 2.198491 
4451 0.671452 -1.601321 -1.786384 1.296413 1.691702 -1.038231 -0.508643 -1.694715 -1.344406 -0.216273 -0.581160 -1.002185 -1.118397 0.451911 1.299069 -1.231014 -1.689631 -0.298044 0.453157 0.593978 -0.199429 2.283850 1.499614 -0.254920 -0.724069 -1.248804 -0.836118 -1.197153 -0.909360 0.463243 -0.584439 -1.803692 -0.336488 1.536961 1.677232 1.308879 1.084515 -0.452818 -1.504568 -0.651494 -1.396265 1.654156 -1.424477 0.802356 -1.576225 0.336376 -0.818862 -0.605079 -1.618541 0.738404 2.267068 0.383249 -0.359925 -1.621389 0.312253 1.512480 -0.050728 0.413657 -2.006130 -1.327846 0.563436 0.310281 1.204231 -0.369727 0.041158 0.086949 -0.344426 -0.524288 0.934025 1.240597 1.954580 -1.189630 0.470339 -0.828742 2.424610 0.113802 -1.287717 1.268704 0.855078 -0.594583 1.225191 -0.360149 0.570970 -1.457330 1.499387 0.431238 1.054888 0.260534 1.779856 -0.338629 -0.391519 1.371762 1.868340 1.621988 1.837658 -1.479100 0.405553 0.646356 -0.687899 -0.544030 
824 -0.155511 -0.499096 0.638051 -2.147346 -0.141868 -0.812993 -1.363881 3.086934 2.366862 -2.226012 1.374086 -0.424206 -0.044318 0.976314 0.319079 0.257372 -1.478197 1.542226 0.529332 2.275047 2.323193 0.804185 0.166147 1.784727 -1.692227 -0.101352 1.604407 1.101957 0.298490 -0.430726 -1.583229 1.014535 -0.628239 -0.068587 -1.228048 0.759419 -0.606344 0.322731 0.623454 0.575712 -0.261452 -1.140700 -0.413595 0.710318 -0.819328 -0.515039 1.669028 0.491175 0.246155 -0.784319 -0.244821 0.600106 0.997786 0.625673 -1.448667 0.407282 0.915317 -0.286449 2.199727 0.637022 1.557868 -0.825994 0.333977 0.076964 1.505331 -1.179202 -0.819320 -0.944264 1.123230 -0.451001 -0.416984 -0.040796 -0.363491 -0.571425 0.147880 1.244072 0.695852 -2.714339 -0.584107 0.498872 0.405532 0.135336 -1.597320 1.743064 -0.674563 -0.580062 -2.130181 -0.491625 0.406706 0.330840 -0.693066 -1.038867 -0.164431 -1.691201 -2.374008 -1.276054 -2.473253 0.685766 -0.979207 -0.047581 
5525 -0.539263 -0.587476 -1.229057 0.524436 -0.742967 -0.857717 -0.454425 -0.459063 -0.680140 0.555793 -0.545598 0.032531 -1.707708 0.308337 0.815248 -2.362182 0.342996 1.179194 -0.552875 0.993210 0.782404 -0.503587 0.038123 -1.874416 -0.958683 -0.349217 -1.626782 -2.109630 0.543369 -0.441064 -1.756320 0.599581 0.765975 0.221088 0.265381 -1.122994 0.350787 0.304069 -0.859094 -0.499712 1.782585 -0.600692 0.502194 1.034944 0.552138 -1.191920 0.700875 -0.968501 0.726981 2.204532 1.376082 1.120770 -0.137022 1.117170 0.737777 0.113638 1.747002 -0.816509 0.041475 -0.480391 -0.533386 0.860293 -0.058409 -0.563697 -0.032715 1.501533 -0.891060 0.192855 -0.879012 1.066454 -1.808598 0.044139 -1.177114 0.346736 -0.682296 -1.704932 -1.059052 -0.802003 -0.796485 1.116531 0.151420 -1.160874 -0.399514 2.671331 0.147258 -1.435788 -0.880116 0.762052 -1.988327 0.019601 2.553026 1.136663 0.669667 0.613012 -0.059255 -1.632184 0.406751 -0.913119 1.516105 -0.241443 
3464 1.525484 0.417051 -0.249522 1.130774 1.291011 -1.362541 0.029323 1.057188 1.118574 -0.972049 0.147211 -0.439953 1.570859 -0.570587 -2.146668 1.827776 -0.407817 -0.264779 0.491504 0.558710 -1.050719 1.001153 -0.397836 0.414814 0.266057 -1.572581 -1.128982 0.016003 -0.919814 1.135649 0.534339 0.616933 1.468665 -0.156415 0.073625 0.116001 -1.422058 -1.694084 -0.407769 0.660448 -1.054726 -0.849992 -0.756527 -0.193679 0.770141 0.045173 -0.061704 -1.153543 0.742291 1.106890 -0.089070 0.256478 1.014328 -1.673297 -0.391354 0.754179 0.097295 -0.400986 -0.950214 -1.171916 0.162402 -1.409938 0.034282 -2.870704 -0.725182 0.639834 0.586026 1.176347 0.817656 0.836489 1.100650 -0.340614 -0.284025 1.431341 0.700986 -0.157104 0.040390 1.143036 1.849493 -0.454761 0.308952 0.153731 0.379721 -1.032678 0.260795 1.384076 1.473491 1.252562 -0.532929 -1.577145 1.266871 0.415248 1.373535 0.747081 2.024588 -2.066653 1.486022 0.374819 -0.050811 -0.805972 
664 0.101718 -0.909363 -1.125449 -0.156999 0.402775 -0.691703 0.582916 -0.075737 0.134851 -1.382044 0.063850 -0.105953 -0.129790 0.924347 -0.826367 0.175199 0.296870 0.505141 -1.956693 2.084142 -0.736148 0.066738 0.606435 2.406248 -0.198957 0.809331 -1.085786 -0.532997 1.513053 0.236482 0.689845 2.305443 -0.783395 -0.453570 -2.169962 -0.412755 -1.253869 0.696426 -1.580822 -1.658918 -0.533719 -1.575869 2.152484 -0.309066 -0.244926 -0.654677 -0.532905 -1.005206 0.608007 -0.383105 0.436085 1.726075 1.016604 -0.642860 0.241200 0.258788 0.482144 0.107972 -0.740938 0.508222 0.144697 2.619968 0.859143 -1.458312 1.185625 0.373618 -0.784586 -0.504041 1.379169 1.415356 2.071341 -0.266643 -1.761623 -0.149221 -1.762428 -1.993505 -0.510930 -0.565790 -1.829273 -0.291930 0.135785 -0.418143 0.805526 2.001246 -0.214949 -1.815895 0.434144 0.479236 1.433639 0.999044 1.120991 -1.122004 -1.075583 -1.313438 -2.167440 -0.608642 -2.409416 0.269852 -1.231444 -0.947683 
3556 -0.705312 0.142594 -0.377976 -0.298550 0.066591 0.725398 0.239992 2.228207 2.440197 -0.119707 0.679449 0.667052 -1.227480 -1.005298 0.111414 0.231532 -1.268907 -0.148150 0.381969 1.779373 1.722461 -0.399161 -1.101600 0.314402 0.349609 2.341841 1.101259 1.287382 0.832447 0.985643 -0.219432 -0.313594 -0.162336 0.625554 -0.963024 0.494691 0.231803 -0.871741 -0.673434 -0.932804 -0.415034 -1.757168 1.790623 0.344306 0.212081 -1.274108 -1.436105 -0.350735 0.698219 0.364557 -0.446335 1.867059 -0.082639 0.332447 -1.377532 1.393888 0.014358 -1.069336 0.050674 1.746023 1.304750 -0.519108 0.233738 0.596820 1.026498 0.378531 -0.265787 -1.485828 2.398182 1.394203 1.641935 -0.220876 -2.872107 -0.869638 -1.785455 -0.784007 -1.570735 -1.999632 -1.557497 -0.934017 1.103530 -0.076933 -1.696604 1.191385 -0.337470 1.299251 -1.145498 1.003065 0.389705 0.265583 0.273636 0.049739 0.798169 -0.701624 -1.493484 0.700122 -0.252989 1.343843 -1.946700 0.731356 
3606 0.274351 0.173790 -1.259436 -0.057200 -2.360399 -0.004281 -0.362761 -0.073157 1.661415 -0.501527 0.928882 0.207254 0.645950 1.251091 -0.412390 -1.942421 -1.204882 1.465984 -0.026338 -1.140071 -2.519269 -1.500786 -0.082487 -0.859878 0.480245 -0.818641 1.315635 -0.497663 0.493023 -0.265263 0.903659 -0.806870 -0.533971 -0.126084 -0.964919 -1.102149 0.308371 -0.433131 1.484276 1.241016 -0.685377 -0.594283 -1.097575 -1.056657 -0.609990 -0.062923 0.424841 -1.147630 -1.486281 3.584023 -0.272152 1.677858 1.833697 -0.732389 0.937054 1.233400 2.574269 1.343214 -0.859924 0.186234 0.852890 -1.087559 1.067521 0.686606 -0.137129 0.342102 0.167310 0.747078 0.888381 0.492564 1.367353 2.268694 0.282252 -0.327634 -1.157153 0.135224 -1.532824 -0.395776 1.783673 2.100693 -1.002075 1.799515 0.158763 1.132321 0.415912 -1.012201 0.835828 0.461708 -0.287495 0.858879 0.258287 -0.771985 0.051975 -0.633713 -1.763487 0.359579 -0.890627 -0.372754 -0.070077 -0.644766 
2314 -0.754860 -0.449300 0.680540 1.758721 -1.145171 -0.690676 -2.257401 0.160305 -1.648556 -1.450058 -0.927116 -0.696447 2.751045 -1.479815 0.725621 -0.341131 -1.112040 -0.913831 2.309075 -0.311781 -0.101725 1.602585 0.114925 -1.895571 -1.243537 0.714709 -1.790784 -1.060192 -1.180350 1.930935 0.205552 -0.032264 0.357602 -0.015031 -0.233946 1.085815 -0.132079 -0.984292 1.168437 -1.227240 0.151774 -0.025346 1.366534 -0.256247 1.300655 1.309420 1.328836 -0.056399 1.074198 2.033140 0.098058 0.539887 0.784783 0.504235 0.079465 -1.495939 1.534552 0.616841 0.181542 -1.478345 0.712243 -0.438824 -1.387842 -0.954263 -0.356363 0.298793 0.829709 -0.604286 0.836610 0.962170 0.742936 0.495532 -1.167406 -1.045442 0.644697 1.221050 0.565479 0.464228 -0.793072 -0.458020 1.352777 0.990154 0.333993 3.040225 1.262622 -0.014617 0.004364 -1.559072 -1.630996 -1.805505 0.312320 -1.549269 0.162064 0.020824 -0.829366 -1.150757 0.176101 -0.240305 -0.098653 1.807937 
573 -0.688972 -0.367906 -1.285933 0.674851 -0.499360 -2.225053 0.646542 2.786561 0.377781 -0.810423 0.199183 -1.287310 0.233053 -0.020104 -0.150659 0.167922 -0.001345 1.408571 1.779255 -0.036445 0.991706 0.763152 0.001649 1.261950 -1.521608 0.736980 -0.114211 0.339399 0.292307 -0.100597 -0.181354 0.675794 -0.253880 0.544091 -0.416766 0.308199 0.003939 0.278160 0.619273 0.517748 0.529566 -2.223854 1.195728 0.829101 -0.359296 1.324953 1.626331 0.598858 -0.888518 0.991320 0.759997 1.810607 1.197672 1.274934 -0.135307 -0.125401 0.074551 -2.000333 -0.527736 -0.600445 0.419799 -0.337623 0.816778 0.613553 -0.477880 1.081323 -0.704607 0.862049 0.620964 1.868028 0.799778 -1.328964 -1.476601 -0.928518 -1.116913 0.638738 0.659366 -1.562303 0.746516 -0.846043 0.100547 1.796876 -1.051547 0.417558 -0.247837 -1.248170 -2.166735 2.273006 -0.914123 0.629217 0.461459 -1.233498 -0.342410 -0.116594 -1.466051 -1.708471 -3.103813 -1.255460 -1.584318 0.589990 
1996 0.466064 0.525296 0.493951 0.014261 0.537381 -0.688999 -0.399961 -0.148632 -1.125617 -1.149730 -0.784063 -0.872741 0.541948 -1.442767 0.044871 1.469390 -0.467110 -1.118883 2.656878 -0.409170 -0.920507 2.085614 0.057618 2.364635 -2.362189 -0.975605 1.078527 -0.820587 0.922300 0.229348 -0.228009 -2.950664 0.766734 -0.431151 0.527882 -0.734218 -2.262005 -0.865760 -0.433832 0.088899 -0.445832 -0.731958 -1.053716 2.383271 -1.749484 0.699451 1.221176 -1.143405 -0.849726 2.005677 1.132660 0.313374 -0.460887 -0.631515 -1.416386 0.137453 -1.478894 1.770230 -2.384989 -1.832752 -0.346995 -0.374668 -0.456262 -0.947003 0.578386 -1.248579 -0.788959 1.019816 0.511296 1.019771 0.769037 -1.041582 0.558726 -0.557372 3.203559 0.548541 -2.434339 1.495111 1.637181 -0.379544 1.352538 -0.958223 1.504305 -1.961616 2.023627 0.694049 0.038594 0.065821 0.675808 -0.445426 0.219138 -1.103005 0.378791 1.361085 0.133268 -1.843825 0.769087 -0.373589 -0.398178 -2.010312 
567 0.215855 1.239989 1.064983 1.050586 -1.139085 1.241779 -0.917314 0.345825 -0.140951 1.013684 1.583961 -0.192131 -0.651119 2.178573 1.030118 0.235555 0.081171 0.117611 -1.350242 -1.541472 1.769008 -0.465288 -2.874145 3.501233 -0.420981 0.356212 0.704436 -0.489412 -1.670178 -2.189094 0.331348 -0.658037 1.693805 -1.031732 1.805282 -0.564347 -0.469425 1.017760 0.854001 -1.328651 -0.544582 2.402261 -3.869580 -0.917664 0.103068 1.158440 -0.694471 1.614981 -0.828484 -0.722356 0.662843 -1.109129 -0.264758 0.310045 1.617059 0.115753 -0.993893 1.302496 1.190482 3.750598 -0.462441 -0.037500 0.539359 0.276059 2.250460 -1.490458 0.684427 2.297355 -1.715977 -1.339695 -1.736286 1.003028 0.673113 1.636619 -0.220243 3.366490 1.572091 -0.312527 0.623000 3.472363 -1.694041 -0.522663 0.716622 -1.370762 -1.087265 -0.539632 1.310344 -0.441546 -1.058380 -1.021885 -0.474341 -1.172489 -1.535295 -0.194397 0.901281 -0.730163 -0.960286 -0.638137 0.543939 -1.155070 
4180 0.962427 -0.705590 0.886683 0.359073 0.860133 -2.925198 -0.784495 -0.579880 1.551180 -0.388380 1.142286 -0.362669 0.874217 1.622332 -1.142271 1.606480 -0.665039 -0.330503 0.282322 0.318796 -1.070154 1.453083 -0.203533 -1.865260 0.268907 -2.263522 -0.099048 -0.060771 0.266596 -0.098726 0.496156 0.771003 1.105836 -0.194508 1.289805 -0.798953 0.757096 -1.741036 -1.390398 0.755243 1.207734 0.713975 -1.010799 -1.194607 0.792605 -0.936230 -1.416736 0.666424 0.229080 0.025631 -0.147482 0.530674 -0.208216 -1.652398 1.809462 0.481091 2.064384 -1.190743 0.088949 0.143826 0.197096 0.519970 1.253850 -1.316779 0.191555 2.036798 -0.560262 -0.136397 -0.473920 -0.531730 1.542504 -1.595091 -0.645208 -0.190676 -0.255064 -1.512292 -1.376458 0.326165 1.548970 0.112309 -0.885687 0.415853 0.750731 -0.206252 0.991532 -1.123657 0.753769 -0.974852 0.768783 0.154197 -0.376669 0.698361 0.922319 1.016768 1.803961 -0.705842 0.236774 1.851984 -0.939109 0.467910 
690 1.583277 0.481351 1.795267 0.841927 -0.643853 -0.475527 -0.383565 -0.112041 -0.932428 -0.630912 -1.117271 -1.737584 -0.053637 -1.258885 -0.280788 -0.546657 -1.071974 -0.932040 0.251253 -1.065939 -0.293968 1.470255 -0.967365 1.252002 -0.335340 0.053356 -0.005252 -0.174777 -1.760777 -0.789248 -1.390356 1.308285 1.930200 0.548508 0.852155 -0.478468 2.026706 -1.226874 2.450999 1.429664 0.495906 0.169978 1.132894 0.528991 1.258809 -0.223802 0.474299 -0.878848 -1.533758 -0.409583 -1.022158 -0.129616 -1.080981 0.207613 0.436793 -1.632128 -1.667743 1.523388 0.658405 -1.714098 -0.087487 0.864521 0.140634 1.284618 1.221834 0.260211 -0.951363 0.388791 -3.262110 -1.117357 1.020675 -0.008766 0.907517 -1.071385 1.658067 -0.105052 0.028064 0.320321 2.421061 2.299781 0.373304 0.219392 -0.904515 -2.816148 3.264483 -0.636420 1.032641 -0.355008 0.288063 -0.883370 2.005529 -1.767523 -2.217171 0.095358 -1.207882 -1.548697 -1.023991 -0.162622 0.101777 -0.650142 
1202 2.416432 -0.226162 1.123158 0.243881 0.999737 -0.259252 0.554269 0.086915 -1.538085 0.346502 0.546927 0.266891 2.018660 0.667500 2.995404 -0.649505 -0.007182 -1.195384 0.383092 -2.148479 1.625323 -0.534609 -0.995479 2.580182 -0.831655 -0.555330 0.029131 0.891634 -2.884586 0.737390 1.269191 -1.215169 0.892422 -0.579449 2.091972 -0.577446 -0.298650 0.402856 0.052880 -0.188894 0.047022 -0.440589 -0.872363 0.391201 0.059970 1.755852 -1.403426 1.076837 -0.712033 -0.313529 1.022525 -1.522810 -0.897402 0.609495 3.348863 -0.491679 -3.053465 -0.074420 0.013785 -0.031925 -0.794366 0.579098 -0.353065 0.777546 0.611347 -0.057473 -0.824536 -0.464590 -2.244265 -1.157283 -1.201704 0.970882 1.123951 1.655964 0.240448 0.367024 0.658927 0.803105 1.127693 1.361094 -1.004941 -1.255118 -0.913066 -1.034733 -1.011892 -1.707369 1.116456 -0.211088 -1.455575 -0.315811 1.247753 -1.022786 -0.424838 0.279860 0.932667 -0.111178 0.942521 -0.118654 1.127436 -0.235431 
2042 0.145172 1.050768 -1.320928 -1.117304 -1.363605 -1.167497 -0.904789 -1.225408 0.739461 1.341856 1.003978 -0.831296 -0.513034 1.051679 0.653763 -1.405174 2.429328 1.914516 1.076296 2.392204 0.737851 -0.388162 -0.577219 -2.855196 -0.324381 0.351162 -0.909091 -0.772185 1.822424 -1.565680 -0.833822 0.877853 0.536267 -0.073045 -1.970064 -1.795005 -0.105900 0.260925 -1.518881 -0.775731 0.183495 0.666565 0.636371 0.257530 1.192495 0.330671 1.924577 -1.389181 -0.561202 2.659143 -0.205955 2.047574 1.256787 1.192724 0.217865 -0.826715 0.275572 0.262591 0.555160 -2.689263 -0.033179 -0.590788 -0.107600 -1.359606 -0.556945 1.744284 -0.419022 -2.463865 1.710041 0.203184 -1.914795 -0.453078 -0.664473 -0.727285 -0.193619 -1.213733 2.124873 -0.442512 0.273001 0.386749 -1.414636 -0.074864 -0.391934 -0.520297 -0.441479 -0.546461 -0.024459 -1.815292 -2.413910 -0.401137 1.239534 0.132934 -0.166575 -1.387797 -0.877164 -1.736509 -1.056356 -0.947223 1.578155 -0.265461 
630 -0.606677 -1.630852 -1.624156 -1.207582 -0.369737 -1.270124 -0.741512 0.432529 -0.011132 0.471786 0.645512 1.229965 1.696854 -0.612989 -1.814437 1.354041 1.430037 1.238725 1.257365 1.342351 -2.007109 -0.218236 0.103346 -2.746142 -1.228412 1.078050 -1.508679 -0.687093 0.813177 0.963893 -0.351296 0.933692 -0.435161 -0.687339 -0.345691 1.927469 -0.668872 0.656999 1.412414 0.451497 0.044652 -1.339878 0.250635 0.830262 1.360911 1.698902 3.561985 0.108919 -0.380596 1.850113 0.354681 -0.661780 0.811863 -1.733210 -0.206377 -2.078976 1.480516 -2.847049 -0.267017 -0.753833 1.299507 -1.531868 1.045518 -1.371145 0.435989 3.149077 0.086284 0.184658 -0.376869 0.076847 -1.428113 0.634996 -1.301449 -0.321370 -0.947304 -1.735375 2.227285 -0.737483 0.179035 -0.229125 0.030716 -1.120950 -0.107876 1.480468 0.450271 -0.949544 1.378197 0.317315 -2.682165 -0.890596 -0.023948 0.429765 0.015261 -0.347235 -2.869514 -0.269445 -1.265375 -2.060834 0.039872 1.790619 
6760 1.195041 -1.041358 -0.310679 0.674879 0.232527 -0.709646 1.651370 -0.965445 0.828098 -0.070320 3.816912 0.856389 0.467593 0.407673 -0.281864 -0.544334 0.118109 0.665643 -0.669359 1.597266 1.470317 -2.165271 0.212472 0.640690 -0.029592 1.288427 -1.301753 1.926163 -0.444468 0.260822 0.287488 1.777173 0.164996 0.104566 0.911855 -0.247005 -0.479017 0.822076 -1.151352 0.033184 -1.477652 -1.151247 0.953789 0.447955 1.066176 1.822338 -1.377680 -1.914488 -0.437819 -0.218234 -0.492358 1.756936 0.761603 -0.306568 -0.043507 0.726480 0.633520 -0.176290 0.588182 0.494143 -0.396726 -0.064428 1.123587 2.180259 -0.234248 -2.711940 -1.577281 0.513809 1.612272 -0.024427 2.156708 0.125213 -2.125937 0.630121 -1.995711 -1.831493 -1.525603 -0.817718 -0.890876 -1.198178 0.542090 -0.316181 -0.687677 2.858923 1.742604 1.526669 -0.846516 -0.814539 2.785700 1.880293 0.610482 -0.074888 0.967946 -0.663205 -0.199278 -2.460005 -0.983392 1.308124 -2.143258 -0.423731 
2886 -1.074059 0.937807 0.534395 -0.785935 -0.623281 0.323273 -0.316916 3.839116 2.451026 -0.291679 3.014438 -1.763337 -0.967240 -0.392755 0.496019 -2.145366 -0.363488 1.496539 -1.812107 0.791446 2.109196 -0.752093 0.632699 0.630850 -0.790417 2.350444 -0.366562 0.896241 0.503140 2.745108 -0.266420 1.803204 -0.660499 -0.740511 -0.780021 0.284200 1.302263 -0.825392 -1.867648 -0.443397 1.385225 -1.330568 -1.476285 -0.277098 -0.691231 1.047791 -0.090506 -0.572168 -0.663481 -1.571265 0.596773 1.279259 1.057091 -0.404354 -0.377836 0.668652 1.249831 -1.896266 1.124124 -0.298909 1.772240 -2.782688 0.364909 0.065001 0.419957 -0.218173 -1.370780 -2.202968 4.092704 1.192035 2.295731 -0.439372 -1.136504 -0.888355 -0.609443 0.505581 -0.541749 -1.429676 -1.913342 0.663218 0.513694 1.091573 -1.134801 0.888039 0.114078 -0.919480 -2.363096 -0.378033 1.400716 2.005534 0.238297 -1.423011 -0.746011 -0.186274 -2.086753 1.104852 -0.767027 0.466578 0.313828 -1.498363 
2072 2.133570 -1.417218 1.567579 2.353867 0.081504 0.529790 -0.257957 -0.049332 -1.126161 0.069972 0.349063 0.424923 -0.725412 0.671418 -0.400035 -2.343239 0.186990 1.249607 -0.227664 -3.366452 -0.869147 0.892813 1.055856 0.243796 0.679172 -0.518025 1.319774 -1.423080 -0.551743 0.418210 -0.357307 0.900482 2.047442 1.093497 0.769966 -0.313475 1.025359 -0.457348 1.684000 0.464926 -1.918663 -0.390481 2.388941 0.671920 0.962221 -0.397768 -2.493194 -0.578558 -0.269857 -0.075160 -1.438033 -0.015118 -1.041865 0.434973 1.585363 -0.574633 0.877858 1.784946 -0.706686 -0.395145 0.155487 0.147108 0.396284 -0.577942 -0.239398 1.743819 -0.862450 1.315275 0.739584 0.470852 0.124650 -1.335523 0.295259 -2.102802 1.265232 -1.279286 0.022084 0.467713 0.745755 0.452229 3.042998 0.969070 -1.112510 -2.707940 -0.062595 0.020366 0.080122 -1.017535 -0.210570 -0.891995 -0.226503 1.303321 -0.428858 0.356547 -0.751815 0.002119 -0.701554 0.385500 0.416863 -1.977148 
1101 -2.208587 -3.363759 -0.248775 1.315413 -0.025615 -1.014244 -1.079997 1.352404 0.553828 1.639405 0.069883 0.398307 1.914632 -1.000481 -0.492525 0.052310 0.598160 2.463936 0.560174 0.788965 -1.607169 1.398565 0.001735 -1.138031 -1.776463 -0.246973 -1.166587 -0.951609 -0.401070 0.913211 -0.100933 0.485339 0.181690 -1.072579 0.820115 0.145221 -0.258428 -2.258643 0.457728 -1.438876 -1.106751 -0.256123 1.113493 0.606048 0.503057 -0.438722 2.841361 0.682722 1.577459 1.592416 0.478209 0.187117 1.511723 -1.205570 0.438971 -2.111142 0.380914 -0.862603 -0.384882 -0.319801 -0.908474 0.411522 0.310116 0.746644 0.356609 0.457257 -1.269319 -1.371932 -0.507968 1.322359 -0.235245 -1.647564 -0.730914 -0.017255 -0.417212 -0.675416 0.780842 0.266070 -0.638646 -0.819934 0.425631 1.832350 -0.100828 1.567632 1.292452 -1.386118 1.605918 -0.295500 0.410095 -0.474012 0.202357 0.229157 1.408631 0.181422 -0.415659 -0.098894 -0.151154 -2.631488 -0.982939 -0.145924 
984 2.290343 0.388560 0.059743 -0.891780 0.440578 -0.075733 -0.382428 -0.013243 -0.965091 -0.703981 1.208465 0.307437 0.681022 0.192757 0.016522 -0.449573 -1.234178 -1.592095 -1.890115 -2.846800 2.297108 2.184725 -0.632579 2.394387 -0.556110 1.545375 -0.172970 -0.266384 -1.820862 -1.348884 0.003056 -0.487202 2.309025 0.119442 2.313616 -0.946628 0.107010 0.049051 2.061652 -0.451404 -2.462492 0.434939 -2.073691 0.260341 1.099456 0.425492 0.033555 1.832661 -1.372546 0.896930 -0.151663 -0.289488 -2.786445 0.107501 -0.117200 -1.218566 -2.555451 1.527183 0.579924 1.249591 0.165309 -0.531518 1.557911 0.126972 1.141436 -2.039118 -1.107914 0.264508 -0.930254 -2.344814 -0.413642 1.060471 0.777212 0.122403 0.174788 0.265980 1.510154 0.866859 1.336132 1.219104 -0.122377 -1.700193 -1.522707 -1.212582 0.684162 -1.778586 0.963645 0.221937 -2.323431 -0.080024 -0.669710 -0.140949 -0.201244 0.074396 1.191085 -0.761436 0.471745 -1.080727 0.410572 -0.478525 
2939 0.178498 -0.350641 0.831217 -1.211704 -0.859940 1.180491 0.350203 0.190612 -1.088344 -1.527869 0.201313 -0.551303 -2.309802 -0.336405 0.753352 -0.170831 -1.333491 0.179633 1.996960 -1.519201 0.948063 1.341430 -1.621294 0.695724 -0.551470 -1.886384 -1.374681 -0.185976 -0.834581 0.636323 0.842092 -1.081766 0.108934 0.502545 -0.274234 -0.200761 -1.739562 2.557344 -0.093696 -0.620443 1.174921 0.237487 -2.412139 -0.300442 -0.560891 1.947338 -1.310477 -0.573219 -1.199406 1.856510 -0.457202 -0.786845 -0.053820 0.938062 -1.108816 0.892148 -1.249887 -0.225840 -0.314145 -0.634158 -1.289935 0.372985 -0.975412 -1.103143 0.556492 -0.204026 0.238408 2.531217 1.040936 -0.707298 -0.614731 0.784625 2.724029 -1.215675 0.471914 1.348710 -1.289194 2.816019 2.262077 -1.180849 1.697988 0.124266 -0.175795 -2.208785 1.736058 0.486273 1.063808 0.726879 0.232610 0.182665 1.440143 -2.704005 -1.718224 1.631245 1.930121 -1.068805 1.485461 -0.837382 0.445076 -1.484461 
1529 -1.147731 -0.501751 -0.663728 -2.081012 -1.135832 -1.337982 -0.509036 1.383646 0.716733 1.074903 -0.450875 -0.175502 1.073563 0.011132 -1.314979 -0.360794 -1.037719 3.094741 0.541387 1.119587 -0.200483 -0.373736 1.252500 -2.518791 -1.921353 -1.452545 1.768963 -0.534955 0.953201 1.503383 0.523050 1.686647 -0.664967 1.517276 -0.701013 0.532949 -1.112668 0.901231 1.043748 0.487271 0.566329 -0.815624 1.309189 -0.044177 -1.164643 0.079714 2.523849 -0.100416 -1.438444 0.169309 0.695658 2.480216 0.278128 0.391466 -1.120177 1.010580 -0.452943 0.035883 -1.160362 -1.081715 -0.152706 0.679129 -0.494565 -0.462538 1.271677 1.282967 0.218535 1.631965 -1.823738 1.450806 -0.663439 -0.123715 -0.541323 -0.208198 -0.270575 -1.723277 -0.015785 -0.028480 -1.310884 0.978590 0.198553 0.931650 -0.810654 1.214423 0.142520 -1.491194 -0.994274 0.869182 -0.379953 -0.980691 -0.317683 -1.207676 0.350319 -0.363503 -0.780523 -1.078028 -3.457362 -2.026913 0.781504 0.490518 
3459 -0.455407 1.270127 0.120947 -0.872126 0.295825 -0.290585 1.203461 -1.307928 -2.308696 -0.538598 -2.680823 -0.893244 0.067494 -0.375194 1.116860 0.606097 1.777686 -2.146088 0.162058 1.537742 -0.115510 2.382568 0.795258 2.267228 -1.105542 -0.799396 1.479215 -3.190200 0.813459 1.372724 -0.349247 -0.588603 -1.297733 0.562867 1.069984 -1.058061 0.063861 -0.151575 0.249963 0.133795 1.244497 1.077190 -0.595999 0.805379 -0.408035 2.021641 -0.290838 0.929950 0.004764 1.600756 -0.180759 0.997046 -1.114652 -0.202204 -1.205500 1.350574 -2.024896 1.481363 -1.480455 -0.035837 0.855079 -0.461802 0.093457 -1.408658 0.403207 0.131872 0.002693 0.835422 0.198985 0.945228 0.562836 -0.742074 0.991886 0.003050 1.762721 1.141927 -1.480586 3.492178 1.048086 -0.912374 0.798364 -1.410300 0.473784 -0.327022 0.538365 1.809130 0.710021 0.612525 0.038642 -0.235117 2.091721 -0.339780 -0.239970 0.189776 1.334744 -0.736897 2.573042 -1.172482 1.331095 -2.081792 
4165 0.835779 -0.045060 -0.943979 1.700778 -0.421460 -2.056436 1.787918 -1.290696 1.315478 0.111753 1.705244 -0.686052 0.356169 0.045357 0.035994 -0.949567 -0.893657 0.509824 0.420559 1.115561 1.572014 -1.636134 1.502760 0.843340 0.032333 1.885695 1.478777 1.849501 1.132927 0.463737 -0.375238 1.327645 -0.001962 -0.045270 -0.365738 1.178498 0.545440 -0.060550 -2.299968 -2.991479 -1.052834 -1.059323 1.455327 -1.170563 0.206391 -2.016581 -0.927736 -0.698071 0.607167 -0.974706 -2.107502 0.988715 -0.935389 -0.926193 -0.896723 -0.411497 -0.552846 -1.188613 0.943225 0.638240 1.215722 -0.952272 0.036627 0.665124 1.102221 -0.508868 -0.932492 0.072327 1.836447 -0.689906 1.940071 0.929972 -2.666454 -1.621363 -0.243454 -1.849309 -3.366074 -0.367875 -0.392089 -0.972242 0.356699 1.198747 -0.764923 0.547921 -0.468832 1.128929 0.317581 3.392505 1.946957 0.856830 0.151703 -0.054450 -1.684060 -1.147233 -1.172910 -0.919486 0.499093 1.198391 -0.356209 -2.297017 
3179 0.271913 -0.152248 0.389515 -0.085684 0.283723 0.710142 1.978497 -2.175523 -1.639158 -1.833800 -1.832726 -1.404649 0.650624 0.756290 -0.604977 -0.196293 -1.159396 -0.569851 0.126221 -1.427363 -1.958720 1.921940 -1.081455 0.503089 -1.440931 -1.553545 0.410349 -0.102227 0.570922 0.848481 -0.850595 -1.972785 2.155681 1.324954 2.458547 0.156546 0.120202 0.014203 -0.716602 0.155713 -1.436686 0.227948 0.171385 0.775546 -2.698354 0.891798 0.352477 -0.840652 0.086407 0.636184 2.026090 1.174439 -0.643030 -0.004842 -1.027994 2.862321 0.037187 3.591285 -1.027444 -0.138766 0.466258 -0.578917 0.845392 -1.122522 0.919233 0.595712 0.961079 0.743663 -1.360557 1.589489 0.751876 -3.038405 1.094939 1.039413 0.270628 -0.065503 -1.472557 2.130371 0.867546 -1.990860 1.298414 2.460521 0.597758 -1.210049 1.233736 1.968290 -0.038335 -0.526800 -0.281846 -1.040930 0.934973 -1.310198 -0.174095 -0.091220 1.356183 -0.268488 0.552498 -1.045110 0.044871 -0.912987 
1120 0.185715 -1.229547 0.023137 0.320466 0.154297 -0.489817 1.410960 -1.154759 -2.724099 0.577669 -2.419082 -0.522651 0.346969 0.190350 -0.536067 1.198932 0.969623 2.034434 1.323201 -0.482890 1.351596 1.480442 -0.611240 0.538754 -0.866413 -0.216276 -0.344106 -1.700482 -0.066626 -0.540712 -1.367775 -2.591442 -0.706055 0.311128 0.889588 -2.106724 -1.525764 0.709752 0.600188 -0.132595 -1.665483 0.467083 -2.189988 -0.522507 -2.055633 2.214930 -0.801977 0.641219 -1.574838 0.548107 -0.436794 0.845414 -0.090215 -0.251961 -1.712675 1.407233 -0.817577 0.528003 -1.102696 -1.617018 -1.060047 0.096180 -1.021598 0.160629 0.272743 0.545382 0.388252 2.353369 0.812449 1.381607 -0.681948 -0.362009 1.399376 -1.450547 1.728449 1.457956 -0.704287 1.063979 0.493174 -0.625864 0.034836 0.151063 -1.188455 -2.237978 0.340989 2.679739 0.794665 -0.225845 1.215988 0.192739 -0.197033 -2.071563 -0.905370 1.180191 1.712549 -0.560423 3.143857 0.025510 0.044013 -1.420256 
3313 -2.035796 -1.650761 -1.107161 -1.835258 -1.888937 -1.012573 -1.842936 1.237870 1.979581 -1.254801 0.137932 -0.616018 -4.123713 0.647840 -2.756067 -0.829765 1.571868 2.781179 -0.554101 1.344604 -0.773100 -0.167603 0.706240 -2.636145 -0.834769 -0.653482 0.317699 1.564187 0.655562 -0.135829 -2.179702 0.477476 -0.043547 0.034772 -0.751320 -1.039003 -0.810976 -0.062018 1.662399 -2.424476 1.074422 -0.953434 0.954090 -1.198028 0.503583 1.398230 1.510344 -0.715894 0.857490 1.337063 -0.350956 -0.615763 0.034196 -0.830839 0.641878 -3.586317 -0.088766 0.456529 -1.373260 -2.076762 1.617421 -1.727443 -0.074369 0.259430 -0.928830 0.238430 0.339490 0.117583 0.493169 -0.021118 -2.262917 1.478311 0.255297 1.999010 -0.478683 0.645042 0.817985 0.098532 0.548559 -1.741381 1.155077 -0.718601 0.612984 0.892321 -0.829671 1.415595 -1.342018 0.448885 -1.778166 -0.981323 1.041848 1.711094 -0.802494 -1.675385 0.282042 -0.203294 -1.352283 -0.217215 1.881504 1.702913 
3740 -2.833130 -0.488803 -1.212630 -0.892085 -2.289950 -0.698668 1.665681 0.333820 1.072950 0.251485 1.200834 -1.223944 0.439430 -0.962422 -0.565870 0.609290 0.950150 1.324331 0.054536 0.086147 0.816616 2.349719 -0.107294 -1.373546 -0.089027 -1.040191 -0.780780 0.833517 1.633532 -1.602772 -0.739659 0.352302 -0.300137 -1.444888 0.974018 -0.727456 0.474119 -1.954324 0.352130 0.846421 1.925065 -0.352461 1.051052 -0.932398 -0.124554 0.244107 2.658126 -0.780871 1.124275 1.075080 0.659240 0.555354 1.311895 -1.055607 1.644224 -1.096150 0.971331 -0.402235 -2.622258 -0.509054 2.326827 0.334197 0.304043 0.073722 -2.253877 0.254310 -0.334125 -1.413517 0.629542 -0.689288 -2.381245 -0.033513 -1.187243 1.768001 0.824729 0.019294 -1.259005 0.294405 0.442640 -1.854047 1.156288 0.298178 -0.248104 0.892661 0.300851 0.026194 -1.434383 0.964143 -1.436002 -0.929655 -0.101832 1.281098 1.045484 -0.878415 -1.021414 -0.519177 -1.717917 -0.398534 1.823909 0.821918 
2057 -0.873424 -1.036057 2.222594 1.119222 2.259484 0.083494 0.392613 1.686182 -1.727056 -1.542513 0.404869 -1.265362 1.489799 -0.788074 0.605178 1.323854 1.149599 1.625394 2.539676 -1.399092 1.296916 2.292397 0.007620 -0.147490 0.049518 2.142542 -0.136544 -1.900619 -0.501571 0.751725 0.045154 -1.597245 -0.181849 -0.261762 -1.256692 0.688722 -0.364799 1.670909 1.749665 -2.080116 0.505404 -1.774130 1.431729 -1.319489 0.589644 1.525058 -0.311123 -1.364627 -0.582947 0.341880 -2.060202 -0.655865 0.680706 -0.197009 -0.542850 -0.018264 -4.082255 2.387981 -2.461491 -1.471606 -3.305977 -1.788434 0.469917 0.088247 0.681220 0.638979 1.447637 1.768425 -1.771501 0.757766 -0.010398 -0.345572 -0.342134 -1.742041 1.752328 -1.272092 -0.449420 -0.321339 0.387793 0.416809 0.427752 -0.400404 -0.979457 -2.750382 0.160972 -1.813293 -0.556623 -3.053728 -0.329679 -0.630381 -0.287270 -2.918091 -0.720128 -0.333795 1.107913 -1.358802 -0.539166 -0.903372 -0.136079 0.174100 
2151 -0.481176 0.012862 -1.165104 0.391012 -2.654058 -0.979695 -0.001032 0.939236 -0.733609 0.570593 0.067001 -2.086075 -1.021174 0.486968 -1.048887 -1.390590 -0.489425 -0.491207 1.440302 0.980003 -0.076336 0.003938 -1.004440 -0.060181 -0.894249 0.554636 -0.344005 0.646669 -0.864857 0.241659 -0.320729 0.706199 -0.009161 0.455459 -0.656622 0.378889 -0.064029 -0.227787 0.662822 -0.521001 1.235804 -0.871273 3.495779 1.064157 -0.127774 -0.918752 2.068612 -0.935292 0.568652 2.096260 0.723304 -1.034325 1.375135 1.206801 0.281075 -0.344235 -0.912879 0.394038 -0.039634 -0.418652 1.461939 -0.338323 -1.937589 0.562689 2.103652 1.674614 -0.734003 0.407588 0.232817 1.219367 -0.900448 -2.185508 -1.439118 -1.806232 1.113820 -2.781998 0.961080 -0.819640 -0.483833 0.295789 -0.099344 -1.539929 0.612221 1.333405 -1.053943 0.019768 -1.154154 -0.719950 -1.119106 -1.185016 -1.004432 1.173868 0.823136 -0.413542 0.270900 -0.811011 0.476757 -1.008607 1.344491 0.808341 
3097 0.647281 -0.804113 -1.456726 0.878217 1.063395 1.100691 1.446642 0.756436 -0.569248 -0.307875 0.490330 -0.541781 -1.855157 0.340185 0.385748 0.393909 -2.331028 2.267244 1.830518 1.046906 1.418307 -0.945071 1.928800 0.125601 0.970750 2.399650 0.088990 2.069783 1.952139 1.354890 -0.019923 1.513874 0.472103 -0.863447 -1.327804 2.333135 -0.877912 -0.739322 -0.916516 -1.280153 -0.480372 -1.331742 -0.563863 1.963956 0.952864 0.537864 -0.580021 -0.794174 1.184566 -0.702516 -1.488076 3.636960 -1.597991 0.325516 0.399748 0.267937 -0.680333 -0.869555 0.291426 0.247468 -0.016382 -2.247891 -0.106148 1.665995 -0.139917 -0.438228 -0.365649 0.263013 1.486603 0.265440 0.908059 -1.113692 -3.527449 0.305470 -2.664847 -1.119612 -0.803618 0.410949 -1.065656 -1.262532 0.964718 0.602915 -0.164380 0.305033 1.316821 1.947531 -1.203585 0.554079 1.525044 1.677409 0.029767 0.245479 -0.224344 0.788943 -1.692890 0.091726 0.285367 1.923785 -0.823415 0.344597 
916 -1.819692 -1.528795 -1.632793 -0.420365 -0.749264 -1.083394 -2.273118 0.790827 0.201148 -0.423767 0.097087 0.242596 -0.230869 -0.583474 -1.352306 -1.633617 0.574042 1.952819 2.408016 1.371381 -1.951669 0.348073 -0.406902 -2.769428 -0.069385 0.152630 1.223530 0.420632 1.616856 -0.055235 -1.296647 0.515928 1.087098 0.583134 -0.386154 0.925358 0.373653 -1.234033 1.672173 -0.342122 -0.047947 -0.824916 0.615579 -0.145936 1.297158 0.493873 1.936844 -1.175501 1.849704 1.012114 1.779310 -1.257348 0.030994 0.730591 -1.395085 -0.062456 0.399615 -0.332971 -1.649814 -0.244154 0.026345 0.110604 0.339296 -1.403792 -0.058343 2.482535 -1.512062 -0.127938 0.767754 -0.140085 -2.127806 0.743815 -0.653622 0.518069 -0.315714 -0.047682 1.107472 -0.852607 -1.573268 0.762051 0.986492 -0.556375 0.213912 0.802501 0.866448 -1.468157 0.477549 -1.263780 -0.365898 -0.694633 0.247288 -0.357353 -1.671152 -1.871680 -0.556428 0.453330 1.254990 -0.265891 1.112879 -0.652937 
2611 1.456696 0.156016 2.702788 1.419973 0.057969 0.883785 -0.551644 0.320960 -0.919004 2.028056 -0.412005 -0.474331 0.293356 0.173771 2.816122 -0.613833 -0.537998 -1.322446 -1.122312 -1.616242 0.599840 -0.621156 -1.472617 2.636577 -0.521604 -0.057215 0.682243 0.899426 -3.176107 -2.030703 -0.300376 0.970791 -1.211022 -0.277453 0.575906 0.884988 -0.575408 2.353420 1.704399 -0.507100 0.032495 0.763269 -2.895597 -0.487984 -0.771200 -1.890021 2.258262 1.355231 0.202557 1.973514 1.741811 -2.250426 -0.468784 1.538795 0.927302 -1.153679 -2.731399 1.781086 1.372321 1.300188 0.038608 -0.033266 1.496866 0.513311 -1.936689 -1.250029 0.305024 -0.328327 -2.548182 -3.001318 -0.865962 0.392007 -1.105114 0.819248 0.375864 1.853835 0.075889 0.579933 0.888900 -1.539438 -1.856745 -0.379539 0.842693 -1.430319 0.182265 -1.783502 -0.432630 -0.886368 -1.938930 0.963203 -0.607696 -2.534003 -0.881656 -1.005747 0.649815 -0.188849 -1.274204 -2.634981 -0.252306 -1.954494 
759 -3.560828 -0.992940 -1.352207 -0.878916 -0.389427 1.306765 -0.075424 -1.783762 1.453721 -0.466453 2.261054 1.419078 -3.325356 0.000193 -0.461067 -0.210277 0.740209 2.872975 -0.852388 -0.255479 -0.505795 -0.340579 -0.217383 -1.737255 1.775404 -0.927778 -0.778703 0.905221 1.142689 -1.352891 -0.453330 -0.572682 0.863052 -1.388846 -1.127676 0.530062 -0.647174 -2.559003 1.143135 -1.329237 1.673007 -0.648122 0.835848 -1.204547 0.742003 1.025157 0.758986 1.174710 -0.402132 0.275819 1.825688 1.643872 0.182125 -2.086035 -3.256184 -1.147636 1.363740 -0.335860 -1.811568 -2.830236 -0.971832 -0.130367 2.095703 -2.497013 -0.069470 1.202106 -1.476426 -0.792887 0.328782 0.084106 -3.228552 1.436733 0.425522 1.491775 -0.211296 -0.342659 0.234957 -0.159992 0.664527 0.195019 2.833692 0.123612 0.629233 2.927290 -1.087224 -1.610861 -0.323787 -1.318819 -1.272110 0.500429 -0.331344 0.762554 -0.394827 -1.722657 -1.216500 -0.454008 0.823101 -0.686970 2.230217 2.082803 
3337 3.013465 -0.423170 1.184639 2.964479 1.865021 1.444366 -0.982576 0.149380 -0.439230 -1.603472 -0.080588 -1.068266 0.452246 -1.763528 -1.568604 -0.368838 1.115657 1.947642 -1.030795 -0.609763 -1.283107 -1.217559 -2.336997 -0.078748 0.225521 -2.145056 1.768637 0.043165 -2.303490 -1.234918 1.057458 -1.971486 -0.041874 0.958212 -0.395811 1.268290 0.318427 -0.048515 1.091062 0.287843 -1.242518 -0.441559 2.326434 0.955848 0.911637 -0.517633 -0.226196 -1.036150 0.073359 0.391133 -1.270116 -0.023111 -2.326172 0.553095 -0.425844 -0.017376 0.861069 0.674771 -1.035379 -2.202040 0.202858 0.375971 0.695704 -0.387576 -0.118593 -0.765384 -2.055480 -0.740555 -0.555283 0.404104 2.101578 0.359476 0.798278 0.351495 0.326205 -1.298913 0.062704 2.173641 2.212255 -0.303523 0.991247 -0.218182 -0.566154 -1.453068 1.101445 0.939052 0.121018 -0.468966 -0.299122 1.859588 -0.898584 -0.819470 0.317680 0.733425 0.356625 -1.855421 -0.487886 -0.102604 1.787889 -0.052637 
2206 1.545985 0.141686 -0.436844 0.771265 -0.524512 1.908364 -0.194348 1.347285 1.706455 0.224853 0.360941 0.642756 -0.392371 1.118469 0.820223 -0.993950 -0.569280 -2.653807 -1.316398 -1.353826 -0.252944 0.409194 -1.223916 1.785647 1.372170 1.185207 1.379836 -0.429815 -1.637940 -1.800103 1.144233 -0.151056 1.934930 0.017460 0.078945 0.144656 0.614528 -0.868194 2.521678 1.369028 -1.420007 0.128820 -0.019918 0.923260 1.019779 -1.405862 -0.719769 1.676888 -1.847793 0.605583 -0.600311 0.456769 -0.011145 -0.183430 0.529508 -0.101282 0.911497 -0.807827 0.467871 0.875315 0.698666 -0.971343 -0.149531 2.143775 1.950493 -2.194140 3.115559 -1.588867 -2.475545 -0.695115 -0.420578 2.291957 0.644100 0.097267 1.530045 1.700343 -0.482850 -0.253470 2.161934 2.851890 -0.958023 -0.190128 -0.256251 -1.586219 -0.309090 -1.770241 2.188302 0.190353 -0.325539 -1.275514 -0.237012 -1.666738 -0.672714 0.757765 -1.143363 -0.221759 -1.279379 -0.924492 1.199838 -2.027871 
3569 0.018901 3.242899 1.268724 -0.150384 0.303191 -0.206351 -0.635483 1.312277 1.883600 -1.488800 -2.388648 -2.048155 -0.793080 1.199626 -0.084836 2.342886 -0.868607 -2.104460 1.382751 -0.468322 0.246871 -0.290995 -1.161224 0.268625 -0.066124 -0.533802 -0.926687 -0.710893 0.136347 0.608413 0.448984 0.739285 0.347868 0.441256 2.254143 -0.407544 -0.311188 1.178741 0.014753 1.751491 0.315168 -1.184260 -1.490178 0.477228 0.343393 1.573652 2.286493 1.030854 1.344127 1.431534 -0.500250 0.285089 1.427075 -0.459516 -0.896396 0.119384 -1.255388 3.105248 1.747725 1.451082 2.809365 -1.903159 0.100469 1.063698 0.318766 0.443626 -0.425602 -0.968429 -4.031855 -0.743590 -0.867614 -1.790868 -1.522480 -0.919297 0.597711 0.050709 1.314140 -1.907493 1.289178 0.860328 -0.921652 -0.407468 0.927969 0.516645 1.947337 -1.409035 2.030109 2.271472 -0.623494 -0.028069 -1.279427 -0.752682 -0.467652 -0.440733 -0.909911 -1.422651 -1.398018 -1.764144 -0.530212 0.854800 
657 0.693626 0.974463 1.269966 1.488500 -2.287767 -0.472587 -0.968856 1.849952 -1.509398 -0.242314 0.884866 0.064888 2.759304 0.423003 -2.157093 0.069533 -0.480238 -1.413240 1.138531 -0.878976 -0.425123 0.363090 -0.569263 2.764521 -0.666423 0.049485 1.887520 -1.503387 -1.672428 1.891708 -2.356185 1.800260 -1.288009 -2.218925 1.501805 0.080161 -1.320139 1.663143 -0.396440 -0.509590 1.327635 1.023496 -1.596462 -1.740418 -1.476260 2.111469 -1.081883 0.473761 0.325014 -0.288670 1.826313 -1.895954 0.746534 -2.111456 -1.510532 -2.643767 -2.080740 0.791876 1.755817 0.382072 -1.070114 0.658169 -0.076126 -1.393460 0.754817 3.158673 1.128299 1.328321 0.723502 -0.987529 -0.874523 -0.860214 1.113540 -1.052617 0.727824 0.173719 0.029244 1.570777 1.556958 1.228864 -0.818719 0.361219 -0.029062 -0.917099 -0.314103 -1.941064 1.917572 0.355736 -1.398862 -1.173409 1.451488 -1.073626 2.080558 0.842918 1.380630 -1.213392 0.607692 -1.423121 0.557038 0.311578 
3855 -0.045736 -0.579680 -1.268986 0.996644 0.002461 -0.733992 0.317786 -1.816238 1.839392 -1.906881 0.527760 -0.598026 -0.912025 0.647549 0.008676 -1.202865 -1.667116 0.123947 0.161561 0.484606 -0.573102 -0.656698 -0.966877 -1.687070 2.623266 0.250419 -0.696932 -1.409663 1.134329 -1.073437 0.525857 0.690787 1.049963 1.755653 -2.014173 0.554575 -0.606296 -0.454884 0.274720 0.382205 -0.484212 -2.345855 -0.245785 0.647159 0.073848 0.075416 0.596196 0.715315 -0.328803 1.666293 0.146888 2.571310 -0.857959 -1.121950 -1.715815 0.442549 2.490504 -1.796097 -2.993594 -0.104353 0.913652 1.277122 0.970630 -0.164786 -0.594152 1.058676 -0.244551 0.142685 -1.609702 -0.643155 2.446851 -2.229602 -0.021212 -0.257383 -0.893670 -0.135588 -0.389557 -0.230015 0.074464 -1.468670 0.570957 0.187204 -0.104634 1.688859 0.044889 1.673144 -2.407588 0.729131 0.881961 0.009897 0.975045 -0.724431 1.081949 0.449550 -1.634563 -0.325308 -1.099562 -0.815602 -0.290304 -1.525957 
898 -0.630265 -2.128052 -1.560764 -0.185248 0.320892 -1.107253 0.086195 1.481523 -0.034981 1.161193 2.178229 -0.061882 1.248401 1.338380 -0.477059 -0.881057 -0.439555 1.447281 1.755556 2.818430 0.952526 0.014249 0.751985 0.191939 -1.101348 1.466641 -0.850524 -0.672407 0.883648 -0.815799 0.608230 0.058757 -2.056873 -1.899037 -1.760053 -2.526277 -2.351672 -0.017520 -1.083198 0.797276 -0.600961 -1.802141 1.982270 -0.930949 1.257896 0.381219 0.009789 -0.376001 -1.013731 -1.095458 -0.599802 -0.694946 0.516154 -0.102905 -0.601611 1.309005 1.703620 -1.372570 1.123394 0.266136 -1.042967 -0.232880 -0.497913 -1.510690 1.534843 1.000151 0.557315 0.153111 1.271692 0.456192 2.197082 0.132286 -0.716819 -2.007362 -0.642945 -0.193170 0.529921 -0.335689 -0.951987 -0.211494 0.177670 -0.686891 -1.383137 3.570156 2.230885 -0.640671 1.124756 0.264284 1.215571 -0.127610 0.308544 0.551013 0.451377 -2.268759 -1.643835 0.177729 -2.252840 -0.347970 0.410790 1.114724 
8012 -0.866217 -0.643577 -0.556703 -2.281597 0.742472 -1.364075 -0.744394 -0.656520 -0.561987 2.255419 -1.103591 -0.343302 -0.765782 0.692373 -1.443291 2.230900 -0.068219 -2.045872 -0.994182 0.289144 -1.750360 -2.230998 2.344364 1.158962 2.613134 1.090767 -0.759014 0.709017 -0.098576 -3.335581 -0.489976 0.172511 -0.863400 1.033999 -2.222018 -1.215331 0.488436 1.513321 -1.338796 0.393066 0.747212 -3.296400 1.153106 -0.121620 0.648049 -0.121245 0.655819 1.058038 -3.168948 0.036059 2.340836 0.142735 0.044362 2.626627 -0.651793 0.018372 1.952052 0.977259 0.800346 -0.057671 -1.535675 1.279520 -0.826632 -0.372779 0.200678 1.032563 1.683033 -0.789611 1.954181 0.222933 2.601590 -0.296032 0.304828 2.307916 -0.638374 0.071343 1.428523 0.087008 -1.820234 -1.048776 0.007305 0.586934 0.250723 2.450357 1.836862 -0.452900 -0.170505 -0.466374 2.258380 0.625239 0.489067 0.232941 1.718534 0.215968 -0.938930 -1.019070 -1.444286 1.654190 -1.951885 0.530768 
815 -1.169141 2.989971 -0.148948 -0.272845 -0.116935 -0.616159 -0.598363 0.667714 0.943417 0.070688 0.367304 -0.084838 0.442937 -2.326473 1.072250 -0.609220 -0.444675 0.616428 -3.146930 -1.049696 1.641286 0.866131 -2.339320 1.347593 -0.005458 2.922523 0.991267 1.729745 -0.796527 -2.284523 -0.681589 1.271860 -0.135124 -0.511541 1.014918 -2.653353 -0.129005 -0.384841 0.934215 2.087729 -2.031582 -0.473463 -1.943909 0.181328 -1.011267 0.303175 0.345143 -0.097460 -0.792122 0.187763 0.445559 0.024221 0.519833 1.811535 -1.030577 -1.593773 -1.022036 2.155138 2.820322 1.733002 0.746363 -0.836320 -0.212843 0.119277 -0.954445 -1.753773 0.486128 0.882944 -2.203164 -2.395463 -2.245479 2.082554 0.273132 0.678368 -0.962734 1.300249 1.196731 -2.986118 -1.285068 1.023944 -0.726490 -0.519185 -1.535960 -0.127056 -1.904831 -3.198855 -2.885022 -1.229259 -1.627538 -0.406887 0.710138 1.223241 -1.045640 -2.428202 -1.297246 -1.741057 -1.167591 -0.207633 -2.059260 0.118410 
3168 1.615578 -1.489245 -0.205827 0.333522 1.859114 0.408281 -1.144033 0.975864 -2.222944 0.404992 -2.709388 -0.595840 0.248516 0.234515 0.865622 1.270115 2.576532 2.179737 -0.828057 0.423614 1.627949 1.796279 -0.159674 1.215251 -0.086059 -1.897087 -1.035755 -0.963651 -1.139550 0.664423 0.179850 -3.161168 0.957979 -0.805369 0.536443 0.330343 1.279370 -0.769391 0.478982 -1.589814 0.179628 0.274589 -0.961506 1.527444 0.601136 0.927618 -1.258920 -0.327932 0.146131 2.597218 0.942506 0.998589 1.033671 1.393092 -0.331409 0.496734 -0.603704 0.190581 -1.415109 -1.657067 0.020461 0.635167 -0.230012 -0.450600 -0.893634 -1.263490 -0.596978 0.792085 1.571009 1.034463 0.699932 -1.206255 -0.586355 0.404623 0.123977 2.051318 -0.920826 0.710302 0.651849 -1.146674 0.460208 1.436770 -0.797949 -1.507457 0.242640 -0.406486 0.939269 0.551166 2.073031 -2.012515 0.880455 0.435089 -0.276228 -0.533481 2.641563 -1.428994 1.587305 -1.498680 -0.381929 -0.777633 
3027 -1.837214 -0.242416 -0.276276 -1.951696 -0.399873 -0.177573 -1.384620 -0.794305 2.024848 1.113716 2.138731 0.676372 -0.573888 1.005718 0.561285 1.008818 1.797929 0.254912 -0.827774 0.978993 -1.232721 0.348327 0.597755 -1.167030 0.135777 -1.881521 -0.343777 1.168404 0.406182 0.175143 -3.559010 0.509981 1.432232 -2.055431 0.386165 2.297391 -0.948342 0.840274 -0.408697 -0.534394 0.532754 -0.790549 2.679940 -0.359918 0.830554 0.012426 0.554983 -0.217518 0.009821 2.009886 0.561483 -0.221680 -0.496496 0.290538 1.733968 -0.895822 1.688747 -1.480188 -2.239687 -0.338808 1.528714 -0.221935 0.295750 -1.797168 -0.371701 -0.053193 -0.622237 -0.977785 0.050826 0.489575 -2.233410 0.134213 -0.810223 0.607129 -0.163869 -1.985795 0.023638 1.727864 -1.004020 0.123179 0.732296 -0.838215 -0.293447 1.306705 0.502209 -0.932522 -1.131093 0.219130 -1.414292 -0.058162 -0.450539 0.135037 1.553581 -2.382872 -0.647614 0.482454 0.587343 -1.387529 2.340870 0.822660 
1874 0.851168 -2.090214 1.097812 3.409234 2.128809 -0.788419 -0.156577 1.888411 1.786898 -1.514737 -1.142137 -0.856101 1.454449 0.939069 -0.728445 0.110018 -0.619350 0.266731 2.945375 -1.058388 -1.549073 -0.126319 0.524770 0.680853 1.073147 0.343610 -0.279852 -1.323025 -1.743218 1.036663 0.925134 0.459980 1.122842 0.475873 0.738099 -0.265793 0.608950 0.138868 1.158699 -1.452412 0.357816 -1.284143 0.759115 0.578335 -0.476760 0.655747 -0.286500 -0.082436 1.637473 1.592229 0.400394 0.125136 -0.611030 -2.053449 0.506504 -1.455415 -0.010376 1.564769 -0.432392 -1.295873 -2.063679 0.319771 1.301580 -0.704038 -1.583246 -0.335948 0.540035 -1.834017 0.510537 1.830074 0.596157 -0.067123 0.559620 0.536335 1.722591 -0.421140 -0.798669 1.002007 -0.208233 0.840040 -1.352711 0.099143 -0.060146 -2.310966 0.163214 -0.242632 -0.169378 -0.828670 0.329462 1.305138 -0.050011 -0.211140 -0.809770 1.167409 0.340963 -1.771343 1.824113 -0.731121 -0.231050 -0.651607 
3738 -0.290309 1.895404 1.063420 -0.729394 -1.064872 2.350084 -0.523649 0.119999 -0.089609 -1.568170 -1.038929 -0.835302 -0.771142 0.685478 1.638832 -0.577377 -1.592047 -2.264184 -1.752944 -2.620200 1.683866 -0.175964 -2.944335 0.971562 -0.384535 -0.037847 0.034875 -0.219086 -0.249738 -2.162590 0.579775 -1.222037 0.398426 0.417479 2.281107 0.392146 1.534548 -1.254097 -0.424478 2.533001 -0.741179 0.045670 -2.474466 1.013845 -1.347824 -1.753431 -0.676408 1.032837 -1.028263 0.738864 0.041239 -0.102407 -0.636352 2.081917 2.286872 0.477928 -0.242930 1.184872 0.032565 0.952667 2.298243 1.463553 0.396886 0.079762 1.174553 -0.914476 0.470076 -1.214721 -2.374467 0.554011 -0.377710 -0.379725 -0.061570 2.525578 1.954746 0.049219 0.553500 -2.267819 2.150423 1.410599 0.252588 -0.325887 0.148358 0.446859 0.794435 -2.026628 1.422684 -0.809649 0.650697 0.364825 -1.370090 1.442476 -0.966866 1.577460 -0.081051 -1.925049 -0.267547 1.636430 1.261590 1.520994 
2576 -1.293458 0.791488 -0.840138 -0.196565 -3.026020 -0.875391 -0.080709 0.976648 0.458359 -1.361371 1.038723 -0.664927 -4.504236 0.140996 2.674651 -1.238336 0.670519 -0.824318 -2.304889 -0.620817 -0.065203 0.137082 -1.304844 1.332463 -2.421257 -1.074235 0.224932 -1.236681 1.516766 -1.523552 -2.037498 -0.246493 -0.534708 0.345968 0.524160 0.212302 -0.365352 0.617751 1.558568 -1.893420 -0.293127 0.617613 -0.213357 -0.706365 -1.016062 -0.882421 1.693231 -0.093781 1.169853 -0.130954 2.477576 -0.243545 -0.143213 0.248880 -0.272555 -0.623011 -0.294520 -0.919279 0.089191 0.200399 0.114526 -1.971128 -0.045539 1.878080 2.418510 1.034467 -0.888021 0.357807 -1.495300 -3.370648 -3.935501 2.105710 1.132427 -0.023188 -0.832926 0.395693 2.639486 -0.201283 0.497303 -0.865398 -0.784622 -1.460054 -0.808027 -1.007309 -0.375262 -3.882264 -2.870559 -0.210194 -2.106134 -1.268900 -0.173112 0.486395 -0.901972 -0.259710 -1.298242 -0.114976 1.639207 -1.197994 -0.946808 2.968812 
3112 1.995924 -1.692568 -1.649192 3.147705 1.651098 1.061227 -0.184570 0.291511 0.952448 -0.778905 -0.167149 1.397538 -1.218951 -0.119538 -0.315526 0.167807 0.501314 1.884853 -0.232544 -0.120742 -1.246446 -1.371765 0.256474 -0.478754 0.934476 -0.081923 0.165019 -3.056884 -0.651529 -0.168967 -0.880744 -0.133195 1.549020 0.176015 1.597686 -1.452572 0.929964 0.324821 1.906772 1.046131 -1.633690 -0.626042 0.954170 0.722627 1.297463 -0.386290 -0.557228 -1.424889 0.177525 -0.315542 -0.494692 0.137964 -0.814368 -1.564945 2.838222 1.158257 0.198082 0.957691 -0.167338 1.416886 0.149808 0.141865 0.293609 -0.099820 -1.793724 -0.509333 1.280900 -2.447430 0.366377 -0.119830 2.475278 3.120346 2.558488 -0.059223 -0.128709 -0.008985 -0.172738 0.541143 1.369663 0.794024 0.616046 1.306832 0.069338 -0.488134 0.298399 -1.207101 1.955564 -1.996634 -2.034600 0.749260 0.748788 -2.326345 -1.658807 0.567500 -0.923198 -0.021624 -2.099818 -0.291642 2.721912 -1.904716 
578 1.224896 0.957909 -0.751057 0.523766 0.531788 0.188677 -0.906902 1.281121 0.217485 0.073658 2.300097 -0.717592 1.539321 -0.659502 -0.496141 0.162612 -0.729159 1.369620 1.211495 1.244592 -1.457056 -0.124785 2.411879 -0.070079 0.228413 0.734406 0.166016 -0.150461 -0.713603 1.656222 1.586216 -1.431648 1.812110 -2.115944 -1.543974 -0.741958 0.138202 -0.269897 2.342235 -0.297767 -2.144305 -0.681939 0.537089 -1.099760 -0.564168 0.201058 0.191599 -2.280120 0.222608 0.841865 0.318569 1.714326 0.555144 -0.415127 0.527637 0.939143 -1.589366 0.170752 0.048864 -0.013123 0.308641 0.839174 0.179982 2.028437 -0.313530 -1.143715 0.428370 0.857116 0.523845 0.894015 0.765376 -0.531848 0.682096 -0.381225 -1.848647 2.083219 -1.829259 -0.897298 1.947728 3.167238 0.934232 1.318400 -0.155226 0.030593 1.857809 -1.395963 0.827415 1.949450 0.802570 -0.290634 1.020198 -1.100023 0.706096 0.621916 -2.909798 -0.997993 -0.704376 0.308499 -0.269201 0.043482 
2877 1.201406 1.550518 0.283183 2.222325 3.357367 -0.476161 -0.304361 1.743282 0.007659 -2.362653 -0.153037 -1.852621 -0.164583 1.526577 -1.076353 -0.474543 0.805882 1.585283 2.321074 -0.423151 -0.931200 -1.082698 -0.206969 -0.710685 2.347295 -0.341637 1.219872 -0.747491 -2.499593 -0.678362 1.460229 -0.665906 1.043032 0.525782 1.220637 -2.199157 0.566954 0.767999 3.071541 -1.116971 0.348519 1.550108 1.945012 -0.028773 -1.082952 -0.922177 -1.214204 1.409802 0.402365 0.087031 -1.917285 1.414008 -0.558883 -1.495182 1.660582 1.401724 2.486341 1.060884 -2.551729 0.410193 -0.828542 0.532124 -1.350928 0.066983 -0.377866 -0.762025 3.068773 -0.904148 0.496733 0.666494 0.680288 1.246705 0.971103 0.378713 0.703907 0.003382 -0.586279 -0.231923 1.169855 0.306721 3.379783 -0.501079 -1.464788 -0.758703 1.881972 1.503167 1.365913 -0.392858 -0.277913 0.535570 -0.441848 0.248266 0.004543 -0.291342 0.371285 -0.367325 -0.545457 -0.568025 2.197468 -2.198904 
3975 1.409664 0.262245 -2.162465 0.832066 0.611072 -0.816597 0.399016 -0.307080 1.907317 -0.113957 0.675246 -1.076714 1.084064 0.646262 -0.304113 0.187782 -2.302756 -0.029976 1.255448 0.077335 0.266187 -0.563718 1.173973 0.088436 -1.044540 0.094606 2.054468 -0.246878 -1.483849 0.947584 1.703874 -0.876168 0.381610 -0.166826 -0.207887 -1.253521 0.493522 -1.775123 -0.117525 -0.021194 0.481278 1.358801 0.749603 -0.478850 -0.677639 1.509884 -0.932602 -0.308111 1.492269 3.128392 1.002703 1.843970 0.431538 -0.120223 -0.548367 1.689121 -0.762934 0.529572 0.819062 0.243526 1.241187 -0.703263 -1.162832 1.794841 -2.112858 0.366632 1.195798 0.381775 -0.486303 1.605407 2.894728 -1.286595 -0.378686 -1.230875 -0.435611 -1.220054 -0.880448 -0.295862 0.119514 0.154494 1.334024 -0.588419 -0.524026 1.172062 0.702002 -1.280756 1.212481 0.291122 -0.642385 1.069697 -0.113662 -1.328104 0.532634 2.631210 -2.114316 -1.176627 0.066604 -1.034659 0.964262 -0.272615 
3036 1.756916 -0.838645 0.736665 0.112299 1.780389 -0.207592 0.595473 -1.581060 -2.537367 -1.094187 -1.787766 -0.504980 -0.505498 1.272227 2.376016 -0.772472 -0.206917 -0.578013 0.996456 0.344081 0.667934 0.437980 -0.177613 0.641205 -1.780326 -2.392976 1.190629 -1.396432 -0.549349 1.064441 -0.455717 -2.059027 -0.635484 -1.375722 0.318974 1.251898 0.466837 0.259569 -0.480754 -0.579225 -0.555627 -0.374285 0.665425 1.189598 -0.576867 3.114876 0.265368 -0.409309 -0.139602 2.724035 -0.178979 1.094849 -0.272866 2.814331 -0.001176 0.343728 -0.669165 2.312236 -0.607735 -0.215242 -0.681348 -1.091036 0.626499 -0.991146 -1.860734 -0.547441 -0.014679 -0.333196 0.391073 -0.302661 -0.133247 -2.130222 1.459347 0.645519 1.631343 -0.548078 -0.706043 3.223176 0.134313 -0.256534 -0.597561 -1.366071 -0.514039 -2.256421 2.158171 1.255420 1.441018 0.370873 2.056426 -1.835157 0.836029 0.849701 0.536131 -0.808147 3.071916 -0.749505 -0.717904 -2.385949 -0.242482 -0.075316 
1256 -0.412023 0.795824 1.321969 -0.753235 1.205602 1.724605 0.151755 -1.137430 -2.091711 0.537251 -0.817509 0.004121 -1.376432 0.400655 1.643288 -0.498731 -1.005034 0.742247 -1.939939 1.395320 -0.429114 1.327970 -1.733770 1.571690 -1.525115 -0.836262 -0.630815 -1.270069 0.545089 -0.692313 -1.063527 -1.531675 -2.050202 1.516348 1.484250 0.140900 -0.671076 0.247492 0.584795 0.486459 -0.957257 1.464978 -1.670115 -0.655079 -0.576043 0.149863 -1.462980 -0.291952 0.681011 1.003590 -0.837017 -0.294389 -0.985872 0.973807 -1.362737 -0.412769 -1.296410 -0.455112 0.197540 -1.132503 -2.130370 0.020700 1.021706 0.968909 0.139010 0.614771 -0.904838 0.345160 -0.993606 -1.844603 -0.624153 0.436007 -0.296042 -0.837590 -0.162650 1.382055 -1.547172 2.462208 1.547749 -1.402384 -1.040933 0.502297 -0.273679 -1.364765 0.769856 1.701749 2.053635 -0.601256 -0.706697 -1.074450 1.690099 -1.651939 -0.362864 1.862335 1.357474 0.130969 1.572824 -1.116076 -0.827945 -2.281555 
617 1.204098 0.038381 2.709080 0.415198 1.451020 -1.130622 1.099854 1.781000 0.898897 -0.486380 0.551871 0.982813 3.020509 -0.195390 1.429149 3.533411 -1.359445 -0.015683 -0.068439 0.210424 -1.668833 1.648661 0.259813 1.641921 -0.685132 -1.721379 0.875260 -1.346599 -0.015679 1.699479 -0.012247 -0.195668 -0.239935 -1.123930 -0.286754 -0.416105 -1.214782 1.345486 -0.156271 -2.465069 -2.651887 -0.277172 0.443429 -1.259980 -0.265107 1.579602 0.976487 -0.705261 0.607893 -0.337656 0.247158 -2.716385 0.989003 -3.109393 -1.430600 0.557497 -0.484863 0.033964 1.139150 0.251324 -0.097835 -1.095022 0.916431 -1.893701 -0.075859 1.008704 -0.326493 -0.197209 -1.083978 0.569175 -1.039036 1.144667 0.211812 -1.575196 -1.291494 -1.337677 1.036347 -0.438206 3.141976 0.275240 -0.320063 1.949347 -0.592332 -2.139215 1.817694 -1.591373 0.491847 1.323796 -0.789071 0.026777 0.314728 -0.612796 0.888615 1.558563 2.731088 -0.571136 0.094733 -1.000726 -0.670091 -0.296015 
6356 1.296045 -0.827984 0.266311 1.310305 -0.365865 -0.069837 1.518453 -1.979273 -0.189383 1.085161 -1.052300 -0.929103 -0.728739 0.838405 -0.127200 0.319350 -1.629005 3.129711 -0.881834 -0.064622 1.452519 1.904938 -0.225397 -1.455434 0.477993 -1.879310 -0.316537 -0.731474 -0.424481 -0.128613 2.796509 -0.414121 0.190990 -0.034054 0.110908 0.836350 0.091863 0.245563 0.171494 -0.690768 0.020648 1.518865 -2.390497 1.186223 -0.235190 -1.691905 0.377002 0.613809 -0.147423 -0.362499 -2.083519 0.953451 -1.076599 -0.628110 0.121321 1.625776 -0.215871 -0.328297 -1.713783 0.625593 -0.358726 -2.037665 1.637763 -2.583472 -0.251553 -0.735049 -0.229896 -0.169357 1.222017 0.229859 0.263069 1.305192 1.843128 1.144568 -2.271122 0.703222 -0.282015 2.597085 -0.678210 2.412274 -0.444823 -0.504357 1.423064 0.352689 0.127695 -1.211707 1.325884 -1.135890 -0.476392 0.286444 2.747036 0.947486 0.301145 1.310901 3.631364 -0.980015 3.716448 0.573166 -1.581437 0.138335 
791 1.849662 0.602874 2.417292 1.495059 -0.279018 -0.686186 -0.303233 1.289880 0.047068 -0.037601 1.116883 2.128806 2.703399 -1.910226 1.266822 2.237485 0.441022 2.882257 -1.103238 -3.701480 0.937512 0.081784 -1.397263 0.404375 -0.255938 1.166804 1.460651 1.329596 -0.062618 -0.511924 -3.103555 -0.239351 -0.763544 -0.949622 0.564859 -0.411474 2.519140 1.366620 4.032130 -1.904865 -1.443400 -0.979892 -1.494356 -2.305608 -0.017071 -0.034158 1.747729 0.197573 -0.902150 -1.196968 -0.076225 -3.873093 4.110454 1.565137 -2.105059 -0.728340 -2.774587 0.469301 2.354559 1.100747 -3.133966 3.171958 -1.329242 0.036782 2.170969 1.075824 3.534212 0.080933 -1.675399 -1.817106 -0.830558 0.159234 1.485460 -2.142849 0.025207 0.405513 0.437845 -0.613092 0.057795 2.893821 1.043397 0.502550 -1.094164 -0.620672 0.323973 -1.678138 -1.136175 -0.113764 -0.095473 -1.875947 0.885856 0.189995 -2.484497 -1.175965 -0.777266 1.090983 -1.406112 -2.130237 -0.279896 -0.184231 
4347 -1.539530 -2.301223 1.564891 0.381524 0.718348 -0.183360 -1.811277 -1.692869 0.157163 -1.694264 -0.041731 -0.311796 -0.293976 0.896808 1.243311 0.316458 0.076906 0.811271 -0.613033 -0.438929 -2.842898 -0.116718 1.681930 -2.209822 0.071273 0.218808 -1.542676 -0.203044 -1.683473 0.328480 -0.600901 -0.397913 -0.029284 0.548069 -1.344958 0.194118 -0.490564 -2.699759 1.071809 -1.145229 0.020992 0.219453 0.305030 -0.511890 1.258569 -0.952968 -1.406682 1.361000 1.001511 0.173440 0.063597 1.800318 1.362992 -1.401709 1.212155 0.295244 1.376515 -0.522717 -0.608012 -0.453945 -0.075883 -0.076273 1.158789 -1.762466 0.070078 1.307057 -0.729897 -0.722116 0.234957 1.039354 0.642868 -0.236849 -0.443466 2.300436 -1.628370 -2.172867 -0.176468 1.119828 1.448382 0.382235 0.913922 -1.052866 -0.007559 1.625674 1.288128 -2.332334 0.926716 0.468290 -0.829035 0.386634 -1.263199 1.290692 1.166666 3.209591 2.828526 0.497342 0.634498 1.321810 -1.770685 0.585070 
988 1.263641 1.885394 0.736495 1.678739 -0.824429 -1.736148 -0.753926 0.983940 1.380475 -1.356922 0.678669 -1.522369 0.643813 0.518887 3.042259 -0.428148 -1.006460 0.215883 -1.035222 -1.404854 1.279042 0.428344 -1.019520 1.675766 -0.989602 2.874305 0.717685 1.996620 -1.731361 0.427711 -0.555283 1.143694 0.408943 0.520123 0.809841 -1.042282 1.021510 1.400657 1.033345 1.393096 -0.285433 0.129551 -1.634807 -0.541134 -0.423507 0.722460 1.076811 0.463004 -1.330259 -1.009710 0.502499 -2.161634 -0.945312 1.064633 -1.326439 1.390914 -1.789524 1.520706 -1.581205 1.072586 0.542233 1.263225 -0.185384 0.829789 0.722421 -1.343316 1.675771 -0.971675 -2.834974 -3.360614 -1.189399 0.250459 -0.505858 -0.752370 1.236118 0.813556 2.353176 -1.911757 -0.979228 1.305115 -2.938255 0.687615 -0.031250 -0.798023 -0.227647 -1.649953 0.456563 -0.880724 -0.211715 -1.526714 -0.146560 0.040635 -0.705827 0.694869 -2.506220 -0.878408 -2.397559 -0.969976 -0.549693 -1.043636 
3066 1.907437 -1.045790 1.379459 0.332723 0.733096 0.584542 -0.208474 -0.059573 0.744726 -1.556026 -0.374410 -0.557435 -0.144009 0.162174 0.718063 1.377931 -0.119556 0.795763 -0.026852 1.046576 2.126362 -2.902826 -0.971494 0.841023 0.970095 0.449185 0.581667 1.295093 3.604179 1.635893 -1.286534 0.427279 -0.313261 1.421019 -1.697098 1.393646 0.714983 -0.062605 -0.193799 -0.182252 1.173045 -1.261413 1.215629 0.037546 0.010356 0.178320 0.430335 -0.321417 -0.268411 -1.034058 -0.453476 1.468122 -1.362307 0.109398 -1.159077 0.243821 0.142543 -0.921849 1.053141 0.776845 -0.772917 -0.274697 0.465074 -0.121040 -0.133937 0.997766 -1.211701 -1.514490 1.946958 0.709336 1.269616 0.585396 -3.136488 -0.437133 -1.699990 -0.009978 -1.323573 -2.971205 0.326606 -1.909480 -0.547144 -0.686941 -1.921097 0.247456 0.069625 1.358932 -0.918316 2.560509 2.168634 2.179332 -1.469654 -1.324890 -2.309828 0.042441 -2.898401 1.426629 -0.629650 2.509334 -2.665639 -1.408635 
4000 -0.173500 -0.857376 -1.926274 -0.823165 0.891712 0.376672 1.639338 1.914397 0.673457 -1.228748 -0.013073 1.383072 -1.295697 -0.336677 2.699093 -1.431891 0.850610 1.503514 1.062755 0.698598 2.018800 -1.225908 0.004510 0.521675 1.052446 1.452523 2.425169 0.279197 2.298718 0.575586 0.083156 0.508667 1.011870 -1.551501 0.465333 1.525848 2.079257 0.375343 -0.734206 0.710684 1.326576 -1.481818 -0.942418 -0.802733 -0.338451 1.008013 -2.934444 0.615926 1.348455 -0.168991 1.021839 3.182472 0.837855 -0.509504 0.307790 0.967199 1.873021 -0.167568 0.989011 1.336276 0.851097 -1.043127 -0.855988 0.114535 0.519432 0.510770 -1.478026 0.472683 -0.831198 -0.223105 1.073357 -0.416906 -2.631330 -1.104448 -0.531112 0.445215 -1.063132 -2.842852 -1.019467 -0.362685 0.492111 0.930040 -1.984732 3.500350 0.691172 0.227226 -0.523875 0.764813 1.772456 2.080037 0.632235 -1.014655 -0.702614 0.337241 -0.830468 -0.667470 -0.850612 2.614985 -0.478123 -0.981952 
1143 -0.693019 0.023170 0.831050 1.301252 -0.110461 1.674115 -0.938607 -0.870886 -1.084713 0.620827 -1.711223 0.484085 0.397423 -2.871392 0.203981 2.983016 -0.856130 -0.579372 1.272511 -1.417494 1.824118 0.062629 -0.550497 0.606310 2.013667 -0.773296 0.769918 -0.135849 -1.984224 -0.567415 -1.641787 -1.111911 0.571752 -0.211875 -0.595466 0.393319 -2.154149 1.944056 -0.218431 -1.828635 0.395413 0.038551 -1.775313 -2.099614 -1.865121 2.856497 -0.988472 0.303786 -1.883463 0.631753 1.205036 -0.466897 0.402508 0.980272 -1.244742 -0.514034 -3.053151 -2.267396 1.094432 -0.536612 -2.079637 -0.881926 -0.956158 1.626970 3.593707 0.034018 0.173900 0.760146 -1.337293 -0.212953 -0.237188 -0.585180 2.007567 -0.682804 0.161787 0.722255 -0.765780 0.976654 1.507241 -1.702503 1.705907 0.158444 -1.645503 -1.531327 1.685658 -0.401144 -1.156959 -0.923988 0.770682 0.424892 2.658188 -1.519058 -1.075707 0.352755 1.637259 -1.357008 -0.318999 -2.271053 0.386775 -3.263733 
1876 0.237750 0.529089 2.290557 1.481281 -0.143490 -1.904188 0.017525 1.181462 1.010389 -0.111032 2.051502 -0.702264 2.841404 0.231924 -0.808873 0.635187 -2.103699 -1.159774 0.215903 0.547890 -2.676675 2.422059 -0.932958 -0.719962 1.838246 -0.996369 0.147823 -1.549336 -1.023515 1.015104 -0.017254 0.690242 0.557673 -0.934900 -0.624668 -1.753671 -1.551319 -1.006573 0.195904 -0.217129 0.088310 0.393046 -0.826733 0.326242 0.905992 -1.568846 0.005629 0.036171 1.099746 -0.141826 0.364733 -0.822207 0.120388 -2.185173 -0.154913 -1.143766 0.293774 0.197642 -0.824235 -0.953283 1.620706 2.165413 -1.078252 -0.864848 -1.293691 2.091831 -0.203682 -0.067770 -0.015452 -0.317018 2.416991 0.905493 -0.102318 0.169393 -0.553340 -0.316109 0.129834 -1.007045 0.345503 0.827957 -0.713569 0.026931 0.877175 -1.586153 1.600710 -0.619649 0.095076 1.903614 -0.352068 0.215432 1.371206 -0.383001 2.289791 2.385744 1.856909 -0.141811 0.507608 1.637148 2.023574 1.421083 
