2108 100
</s> 0.004003 0.004419 -0.003830 -0.003278 0.001367 0.003021 0.000941 0.000211 -0.003604 0.002218 -0.004356 0.001250 -0.000751 -0.000957 -0.003316 -0.001882 0.002579 0.003025 0.002969 0.001597 0.001545 -0.003803 -0.004096 0.004970 0.003801 0.003090 -0.000604 0.004016 -0.000495 0.000735 -0.000149 -0.002983 0.001312 -0.001337 -0.003825 0.004754 0.004379 -0.001095 -0.000226 0.000509 -0.003638 -0.004007 0.004555 0.000063 -0.002582 -0.003042 -0.003076 0.001697 0.000201 0.001331 -0.004214 -0.003808 -0.000130 0.001144 0.002550 -0.003170 0.004080 0.000927 0.001120 -0.000608 0.002986 -0.002288 -0.002097 0.002158 -0.000753 0.001031 0.001805 -0.004089 -0.001983 0.002914 0.004232 0.003932 -0.003047 -0.002108 -0.000909 0.002001 -0.003788 0.002998 0.002788 -0.001599 -0.001552 -0.002238 0.004229 0.003912 -0.001180 0.004215 0.004820 0.001815 0.004983 -0.003111 -0.001532 -0.002107 -0.002907 0.002815 0.001579 0.000425 -0.002194 0.001524 0.003059 0.000194 
583 -0.211010 -0.524743 0.308787 0.553040 -0.243885 -0.592224 -0.221939 -0.369033 -0.425852 -0.797847 -0.085326 -0.107302 -0.341243 0.392981 0.673741 -0.865655 0.023041 -0.082942 -0.185513 0.326016 0.353667 -0.084332 -0.481279 0.163788 0.145186 -0.284987 -0.088942 -0.294984 -0.054996 -0.032141 0.231998 0.228493 -0.047776 -0.648897 0.420901 0.210495 -0.509941 -0.023843 0.393719 -0.045939 -0.714576 -0.600537 0.161290 0.161874 -0.054679 0.732839 -0.161426 0.167881 0.106830 0.719860 0.050774 -0.304145 0.176088 0.455249 0.063473 0.422119 -0.159548 -0.213297 -0.342109 -1.028361 -0.524648 -0.043280 0.454894 -0.374259 0.307019 -0.546815 -0.441917 0.088418 0.434786 0.013931 0.015266 0.649902 -0.121082 0.179594 0.504214 0.213334 -0.806800 0.928605 0.030237 -0.236008 -0.325600 -0.260920 -0.687383 0.182364 0.112403 -0.415945 0.246950 -0.196212 0.168500 -0.096809 0.850255 -0.079590 0.162535 -0.340260 0.249867 -0.412502 0.337721 -0.148706 -0.352061 0.020705 
597 -0.625682 -0.368987 0.103666 0.569085 -0.396329 0.084964 0.011133 -0.201302 -0.138274 -0.429083 -0.123442 -0.370759 -0.049201 -0.129951 0.664294 0.135565 0.660715 0.151793 0.145542 0.807663 -0.266895 0.073787 -0.148953 0.060654 0.007139 0.467189 -0.091774 0.155151 0.183340 -0.169414 -0.510906 0.412143 -0.270980 -0.167798 0.174317 0.363230 -0.417438 0.003627 -0.040783 -0.392261 -0.023283 -0.567847 0.852523 0.076298 -0.048226 0.578967 0.709230 -0.148741 -0.375465 0.598452 -0.063852 -0.347966 0.769128 0.313119 0.516432 -0.310948 0.039733 -0.182779 -0.149889 -1.165446 -0.245719 0.161599 0.278758 -0.307730 -0.083489 -0.192954 -0.258952 0.595610 0.497526 -0.141873 -0.444967 0.295516 -0.551350 0.121563 0.165161 -0.795118 0.248335 0.296432 -0.197990 -0.590829 0.007333 0.348471 -0.357044 0.268109 0.304788 -0.367897 0.344142 -0.767967 0.335997 -0.333163 -0.059609 -0.120103 -0.190621 -0.323588 -0.384648 -0.649372 0.012392 -0.287927 -0.123403 0.752633 
764 -0.324496 -0.385845 -0.269138 0.062921 -0.137952 -0.469201 -1.110724 -0.015190 -0.497382 -1.245655 -0.007152 -0.246750 -0.230531 0.292399 0.606956 0.214391 -0.732924 -0.444738 -0.141427 -0.459999 0.043820 0.026431 -0.345242 0.273575 0.162345 -0.068654 0.479394 -0.366379 -0.119054 -0.361096 0.476256 -0.089054 0.637773 0.077091 0.423166 0.173066 -0.064009 0.003824 1.015881 0.071317 -0.239266 -1.004670 -0.043388 0.333382 -0.138138 1.077600 0.077438 -0.158386 0.011669 1.429097 -0.059156 0.196909 0.774999 -0.227033 -0.364246 0.136092 0.077914 0.691316 -0.582551 -0.519538 -0.659260 -0.034420 0.458693 0.065178 0.360318 -0.108406 -0.312602 0.834731 0.325362 0.366969 -0.001454 0.154877 0.335976 0.555200 0.211248 -0.034532 -0.361038 0.902603 0.088761 -0.150627 -0.033682 -0.218943 -0.456433 -0.137447 0.363365 -0.958640 0.280351 -0.944213 -0.433517 -0.478044 0.183076 -0.083073 0.004759 0.058148 0.214572 -0.444522 -0.185838 0.001288 0.057648 -0.689053 
820 -0.139816 -0.221847 -0.650927 0.257192 -0.149864 0.001313 -0.379543 0.643404 -0.156523 -0.784153 0.629151 0.267017 -0.263528 0.075015 -0.039237 0.031924 -0.394042 0.267613 0.620445 0.374866 0.461227 0.236345 0.012134 0.609054 -0.083471 0.827995 0.645762 -0.619884 -0.454517 -0.036862 0.218035 -0.127314 0.210954 0.270396 -0.308708 -0.063028 -0.074372 0.744582 1.042820 -0.102941 -0.635176 -0.943422 0.009489 0.102115 -0.208806 0.565076 0.240491 0.108008 -0.142402 1.117924 -0.480249 0.598177 0.519348 0.180667 0.362617 -0.130639 0.574109 0.094590 -0.582244 -0.434782 -1.142781 -0.503696 0.249965 0.383149 0.429369 0.020412 0.296045 0.705753 0.729705 0.159515 0.250206 -0.396747 0.305453 -0.140057 -0.491126 -0.425776 -0.647851 0.174406 0.205319 -0.070609 -0.104464 0.432251 -0.801898 0.357000 0.584489 -0.668001 0.569866 -0.395406 -0.415473 0.335933 0.132881 -0.166414 -0.044765 -0.515314 -0.663452 -1.024920 -0.802830 -0.184774 -0.407302 -0.154916 
859 0.023657 -0.036174 -0.418065 0.685535 0.054988 -0.090408 -0.525667 -0.158166 -0.912638 -1.174662 -0.444333 0.206118 -0.339262 0.583417 1.186533 -0.478282 0.342644 -0.572103 -0.110859 0.584219 0.470114 -0.385455 -0.063915 0.355819 0.374307 -0.004383 -0.239755 -0.699151 -0.632776 0.072147 0.380970 0.259524 0.015279 -0.506758 -0.019845 -0.102380 0.225828 0.587797 0.654833 -0.209159 0.100568 -0.373346 0.017777 -0.200930 0.169868 0.044500 0.470438 -0.412976 -0.290861 0.306954 -0.423095 0.155258 0.419475 0.367185 0.648594 -0.180005 -0.040217 -0.114275 -0.932046 -0.727291 -0.504512 -0.283005 -0.016714 0.430768 -0.703942 -0.686215 0.154119 -0.040243 0.594429 -0.349045 0.506055 0.493169 -0.057566 0.010298 0.670703 -0.361821 -0.471985 0.700337 0.645505 0.237688 -0.633382 -0.031299 -0.846320 -0.826489 1.005389 -0.411536 0.388533 -0.409379 0.141128 0.182437 0.836088 -0.120385 -0.049267 -0.442696 -0.028474 -0.399028 0.074289 -0.230257 -0.375489 -0.060135 
1985 0.453197 -0.560420 -0.026341 0.736999 -0.254948 0.452442 -0.559949 -1.198071 -0.183318 -0.029222 -0.811147 -0.538706 -0.509066 1.136596 -0.223622 -0.088589 -0.501443 -0.309129 -0.770364 -0.183307 -0.193242 0.239794 -0.787698 0.703448 -0.620406 -0.285230 -0.631526 -0.577604 0.036355 0.320267 0.509033 -0.251749 0.378855 -0.172881 1.149538 -0.233138 -0.853025 -0.438792 0.814161 -0.924806 0.444792 -1.248464 -0.143807 0.883370 -0.073979 1.225370 -0.579964 0.414370 0.229964 0.549736 0.690131 0.687929 0.332109 -0.019523 -0.570021 0.127002 0.146593 1.096346 -1.367192 -1.109408 -0.248097 0.273350 0.505027 -0.454929 0.907332 -0.098877 -0.000342 0.152052 0.225287 1.028843 -0.187412 0.719523 0.602875 0.369243 0.383459 -0.173410 -0.245759 0.519764 0.533491 0.302183 0.215455 -0.454609 -0.411530 -0.139197 -0.164333 -0.591953 -0.690458 -0.421482 -0.485603 -0.599348 -0.280245 -0.005714 0.174756 -0.481331 0.289182 0.625742 -0.098949 -0.380660 0.511854 -0.629874 
564 -0.081744 -0.075467 0.223931 0.583400 0.289251 0.147800 -0.139655 0.372221 0.005074 -1.059875 1.206624 0.429253 -0.296510 -0.871142 0.043918 0.382991 -0.200933 1.055095 0.374280 0.664434 0.808796 0.406586 -0.301466 1.042004 0.646820 0.901377 0.542736 0.253219 -0.432475 -0.294585 0.245038 -0.254469 -0.063300 0.462082 -1.202317 -0.146599 0.060057 0.707943 -0.323744 -0.106158 -0.720998 -0.292293 0.198404 -0.060570 -0.201677 0.321841 -0.245110 0.279815 -0.008824 -0.522502 -1.090705 1.607000 -0.232863 -0.111827 0.195140 0.450878 0.092234 -0.496784 -0.460057 -0.331229 -0.804431 -0.088503 1.069541 0.004050 0.159349 -0.372816 0.501513 0.194256 1.185743 -0.027697 0.919940 0.223848 -0.720296 0.288528 -0.213379 -0.305706 -0.301291 -0.592995 -0.581426 -0.647053 -0.314255 -0.153897 -0.333067 0.282156 1.182209 0.683966 0.042030 -0.045950 1.157303 0.604774 -0.169186 -0.438809 -0.056708 -0.338010 -0.567360 -1.062816 -0.454800 -0.088816 -0.730626 -0.286213 
782 -0.085940 -0.753266 -0.090914 0.357745 -0.171134 -0.043314 -0.386511 0.003777 0.063679 -0.992363 0.129803 -0.077095 -0.471002 0.726685 0.126456 0.518593 -1.506962 -0.996741 1.088061 -0.627072 -0.921721 0.220961 -0.177856 0.272301 -0.466566 -0.071796 0.304019 -0.876893 -0.197135 -0.082597 0.618928 -0.163438 0.730351 -0.143295 0.586282 0.799355 -0.393455 0.230030 0.585317 0.105750 -0.324786 -1.000594 -0.185125 -0.361923 0.225414 0.725596 -0.082821 -0.214846 0.351893 0.805778 0.790051 0.140176 0.264554 -0.544036 -1.184326 -0.553362 -0.479688 0.632315 -1.090590 -0.565123 -0.314982 -0.013474 0.409694 -0.679609 0.587032 -0.503653 0.250570 -0.002049 0.971484 0.649784 1.165613 -0.197064 0.935924 0.877847 0.422867 -0.156454 -0.623797 0.827952 -0.229037 -0.146140 -0.325736 0.199647 -0.042293 -0.901545 0.038385 -1.220884 -0.458748 -0.598765 -0.120664 -0.031024 0.365111 0.330337 0.369680 0.188992 0.650890 -0.415594 0.461222 -0.220922 -0.309030 -0.877101 
756 0.264136 -1.152594 -0.071631 0.481956 -0.048712 -0.359005 -0.235386 0.138072 -0.031715 -0.405463 0.394339 -0.301008 -0.273637 0.351362 -0.233425 0.540857 -0.779477 -1.269420 0.232575 0.257174 -0.918321 0.389162 0.673051 0.450935 -0.125699 0.108103 -0.209799 -0.088577 -0.173468 -0.416326 0.328083 0.391610 0.732133 0.059860 0.593726 0.416126 0.037773 -0.690512 0.905435 -0.660220 0.201152 -1.185869 1.085088 -0.069639 -1.165828 0.228927 0.021539 -0.811906 -0.005379 1.014416 0.599884 0.315099 1.229566 -0.071714 -0.371431 -0.376498 -0.159475 1.045927 -0.166542 -0.641399 -1.279040 -0.120421 0.846860 -1.191388 0.648797 0.704196 0.259115 0.556298 -0.083894 0.277073 0.048365 -0.522665 0.561627 0.725326 0.257512 -0.732481 0.579195 0.153273 0.328964 -0.284991 0.277645 0.014097 -0.388510 -0.192218 0.658080 -1.360426 -0.285869 -0.313507 -0.828258 -0.320194 0.612152 0.423107 0.237771 -0.413858 -0.065028 -0.833673 -0.201408 -0.314380 0.048489 -0.603207 
1428 0.070226 -0.630156 -0.715267 0.349923 -0.366261 0.770638 -0.098501 -0.583123 -0.773041 -0.771523 -0.526881 -0.209758 -0.571707 0.592081 -0.237635 -0.163719 -0.752100 -0.841785 -0.500035 -0.855743 0.277406 -0.248690 -1.249530 0.568404 0.145744 -0.581109 0.104251 -0.637700 -0.478458 0.037000 0.439597 -0.580667 0.375290 0.018604 0.522069 0.110939 -0.416256 -0.069369 0.460088 0.465466 -0.137645 -0.758018 -0.609120 1.041329 -0.014414 0.579944 -0.855368 -0.091199 0.453412 0.531355 0.217022 0.682524 -0.006112 0.483941 -0.685010 0.010329 -0.695514 0.424652 -0.825386 -0.730230 -0.196892 -0.853010 0.661028 -0.819441 -0.243129 -0.995439 0.318157 -0.014833 1.146604 0.827556 0.504633 -0.187623 0.381542 0.164662 1.275876 0.902924 -0.701197 1.002427 0.427922 -0.120929 0.001153 0.013332 -0.517401 -0.186722 -0.091118 -0.002172 -0.682672 0.099032 -0.362672 -0.687244 0.618340 -0.135152 0.280122 -0.360028 0.436710 0.387553 0.198188 -0.318891 0.380331 -1.099649 
3559 -0.102147 -0.257048 -0.974317 -0.294983 0.309883 -0.041129 -0.649023 0.018218 -1.083336 -1.417988 -0.659690 0.184133 0.115346 0.647204 0.536284 -0.082324 -0.874690 -1.206404 -0.326580 0.045097 -0.782253 0.128675 -0.746499 0.203165 -0.287038 0.054445 0.297121 -0.374468 -1.048735 -0.400720 0.157134 -0.382635 0.409003 0.360225 -0.321273 0.788443 -0.475872 -0.185529 -0.055403 0.662108 -0.340689 -0.604942 -0.410859 0.937534 -0.283255 0.451983 -0.225664 -0.628537 0.540188 0.118703 -0.859685 0.030898 -0.303061 0.061435 0.581238 0.340062 0.233008 -0.001921 -0.790197 -0.623636 -0.164862 -0.750691 0.568217 -0.713255 -0.791762 -0.197357 0.289061 0.524376 0.985967 0.548764 0.757965 0.281125 0.569282 0.898099 0.360268 0.654295 -0.389900 0.747517 0.426197 0.454319 -0.924540 -0.837143 -0.053772 -1.025762 -0.232280 0.186134 0.928702 0.578931 0.034032 -0.259528 0.348254 -0.214300 0.173780 0.702073 0.465160 0.739886 0.570874 -0.242733 -0.404104 -0.728225 
3237 -0.014143 -0.154670 -0.073503 0.654194 -0.490374 -0.857769 -0.206465 -0.826769 0.047035 -0.730695 -0.644431 0.248929 -0.103825 -0.102423 0.152668 0.355551 0.183100 -1.275933 0.100564 0.577197 -0.476081 -0.373782 0.107169 0.510030 -0.015407 0.303756 -0.469829 -0.660294 -0.239291 -0.075274 -0.275650 0.010052 -0.006058 0.056631 -0.403605 0.300998 -0.169353 -0.946286 0.050249 0.964148 -0.115362 -0.320410 -0.126588 -0.202253 0.664518 0.440901 -0.005549 -0.190559 0.139935 0.267271 -0.221951 -0.434531 0.314748 -0.067933 0.505316 0.495240 -0.378194 -0.077120 -0.573001 -1.813978 -0.773650 -0.418922 0.633597 -0.449622 -0.087348 -0.046249 -0.219974 -0.098414 0.982275 0.551118 0.097376 1.332630 -0.399094 0.235340 1.092192 -0.314140 -0.939744 0.347199 0.338816 0.305948 0.159631 -0.223291 0.676232 -0.813682 0.286854 -0.697103 0.439590 -0.005665 0.608858 0.379818 0.229509 -0.437650 0.384873 0.750269 0.096840 -1.135349 0.973110 -0.182874 0.358722 0.413916 
985 0.160263 0.281013 -0.170454 1.233866 -0.182737 -0.713511 -0.620427 -0.709658 -0.828586 -0.825780 -0.995783 0.516484 -0.086042 0.224489 0.617426 0.146384 -0.911592 -1.389698 0.722688 1.096909 -0.413446 0.464036 0.272627 0.372890 -1.082184 -0.786183 -0.728921 -0.839230 -0.771598 -0.072719 0.100840 -0.580934 0.659084 -0.321993 0.453969 0.153482 -0.580768 0.205977 -0.138202 0.070558 0.643131 -1.388704 -0.613437 0.375214 0.223576 0.647529 -0.494372 -0.235520 -0.567124 0.188667 0.489380 -0.617820 0.366995 -0.947536 -0.702896 -0.469090 -1.370275 0.136649 -0.606594 -0.728063 -0.211926 -0.928630 0.548209 -0.776080 -0.298440 -1.358519 0.216962 -0.192894 0.975294 -0.086732 1.021444 1.448959 0.009971 0.144583 0.955549 0.186312 0.093770 1.403195 -0.051708 0.416772 -0.579780 0.599980 -0.173603 -0.403819 0.788861 -0.111948 0.978047 -0.256477 -0.375500 -0.306663 0.503895 0.110623 0.334733 -0.613397 0.510235 0.140464 1.313542 -0.243991 0.118233 -0.309268 
561 -0.447290 -0.124749 -0.005530 0.279956 0.512627 -0.864986 0.050696 1.006274 -0.214223 -0.850904 1.529138 -0.952686 -0.739069 -0.762089 0.432478 0.332689 -0.236459 0.528931 0.817377 0.560170 0.339876 0.513493 0.283341 0.093808 0.237581 0.858860 0.198053 0.048075 0.014916 0.867187 -0.072177 1.013332 0.096250 0.899282 -1.086218 -0.195473 -0.327444 0.424777 -0.054315 0.107602 -0.077259 -1.397188 0.077595 0.044622 -0.025965 0.299922 -0.321057 -0.021428 0.169026 -0.208942 -0.773498 1.643120 0.168345 -0.873601 -0.053094 1.131357 0.521858 -1.400635 -0.736110 0.371588 -0.895149 0.518037 0.502910 0.159185 -0.286052 0.003056 -0.208789 0.688237 0.705548 -0.246403 1.570544 -0.391269 -0.273696 -0.346896 -0.818451 -0.116939 -0.759172 -0.422540 -0.411327 -1.079416 -0.142709 0.839294 0.043074 0.006556 1.358558 0.098677 -0.448038 0.123652 0.930333 0.331277 0.373017 -1.066595 -0.891567 -0.873328 -0.778441 -1.381221 -1.093598 -0.612331 -0.989709 0.189721 
792 -0.836670 0.074920 -1.025756 -0.062751 -0.537401 -0.368287 -1.290339 0.502973 -0.106353 -0.659801 0.688266 -0.879192 0.022804 -0.158552 -1.267639 0.982805 -0.632872 0.807492 0.226668 0.221059 0.320645 -0.135364 -0.492697 -0.024797 0.506927 0.656824 -0.312917 -0.249467 -0.103365 -0.192456 1.197452 0.282951 0.018150 1.042648 -0.682992 -0.343807 -0.193216 0.493071 0.597796 -1.113822 -0.308306 -1.243674 2.010646 0.133961 0.372223 0.351713 0.133396 0.526375 -0.462473 0.474848 0.069355 0.505915 0.787155 -0.464026 0.607690 0.284764 -0.208110 0.628757 0.283934 0.340582 -0.422909 0.714071 0.969647 0.102157 0.086856 0.308091 0.109771 0.381792 -0.374820 0.615157 0.449280 -0.658288 0.729180 0.113439 -0.412343 -0.424507 -0.200340 0.238857 -0.216661 -0.680639 -0.089053 0.241787 -0.930875 0.632635 0.810947 -1.355510 -0.179034 -0.171950 0.054009 -0.291424 -0.367048 -0.287937 -0.232595 -0.036007 -0.627595 -1.448503 -1.332164 -0.526551 0.521995 -0.302291 
684 -0.691646 -0.533496 -0.254302 -0.144877 0.613230 -0.599912 -0.833005 -0.013345 -0.470083 0.928926 -0.033520 -0.105817 0.485791 0.260053 -0.224425 0.111006 0.598338 0.987085 0.108608 1.410429 -0.670448 -0.583759 -0.200869 -0.181505 0.165890 0.038355 -0.943996 0.194055 0.159479 -0.238374 0.326339 1.324208 0.030517 0.724016 0.426059 -0.038015 0.134319 -0.016776 0.499075 -0.555229 0.728036 -0.634545 1.731015 1.194266 -0.933572 0.129665 0.217390 -0.248181 -0.542732 -0.118730 0.047858 -0.004696 0.728656 0.606630 -0.132866 -0.425299 -0.039475 0.828804 0.145016 -0.412028 -0.553592 0.916855 -0.705657 -0.220474 0.462899 0.092595 -0.150019 0.401013 -0.341106 1.487004 -0.979757 -0.476773 -0.128004 -0.687450 0.354553 -1.449796 0.488685 -0.746660 -0.811068 -0.920146 0.612521 0.518082 -0.002807 0.217311 -0.176084 -0.713165 0.231513 -0.792848 0.266285 -0.618921 -0.404690 -0.387917 0.142399 0.405728 -0.825682 -1.024617 -0.187216 -0.205202 -0.260708 0.345792 
734 0.053379 -1.268819 -0.110629 0.773162 -0.529542 -0.611983 -1.081981 0.191680 -0.384392 -0.141901 0.485058 -0.712717 -0.646885 -0.013801 -0.509563 0.240222 0.475510 0.706701 0.634898 0.521497 -0.602777 0.141465 -0.369255 -0.427470 -0.157530 0.050762 -0.877721 -0.488944 0.120613 -0.821456 -0.773914 -0.011289 0.072721 -0.330782 0.271502 0.553947 -0.431706 -0.262030 -0.505361 -0.384520 0.419784 0.420111 1.329319 1.269037 -0.497498 0.723921 0.211964 -0.591932 -0.079759 1.831753 0.426993 1.069114 1.000947 -0.113681 0.146787 -0.610329 -0.492249 0.669149 0.326825 -1.466936 0.101140 0.596262 -0.131037 -0.106561 -0.224276 1.074185 -0.094065 -0.288017 0.523739 -0.013567 -0.371378 -1.377738 0.321234 -0.152099 -0.578698 -1.080083 0.031687 -0.624782 -0.666266 -0.579505 0.149151 0.170307 -0.060539 0.096634 0.449578 -0.792442 -0.130217 -0.748129 -0.368038 -0.570624 -1.153380 0.974430 -0.657447 1.065903 -1.010103 -0.689045 -0.014575 -0.502482 -0.121744 0.038154 
2564 -0.807383 -1.062995 -0.649781 0.663792 0.485118 0.395934 -0.585376 0.152863 -0.035546 -0.828688 -0.180520 0.249498 -0.128877 0.387482 0.727765 -1.049630 0.175459 -0.320527 0.348739 -0.340368 -0.107991 0.025662 0.002290 0.519279 0.216225 0.627091 0.328902 -0.012670 -0.655998 0.178345 0.280180 0.469780 0.191412 0.550971 -0.310038 0.280613 -0.262443 0.738888 0.819115 0.676828 0.169334 0.035130 0.835517 0.718292 0.749383 0.242330 0.299522 -0.378261 0.861719 0.731918 -0.627258 -0.377353 -0.502358 -0.006736 0.368391 0.451441 -1.137506 0.027807 -1.335750 -0.605910 0.563577 -0.158342 0.316107 1.033389 -0.955849 -0.317939 0.433887 0.374106 0.329001 -0.831107 1.022786 0.619343 -0.380585 -0.021161 0.874879 0.463954 -1.025563 0.631112 0.646982 0.627599 0.020933 -0.063978 -0.587370 -0.455710 0.210247 -0.440998 0.763753 0.531674 -0.364268 0.582972 0.729654 -0.200318 0.501156 -0.004952 -0.007440 0.149675 0.299838 -0.892596 -0.431301 0.003401 
3227 -0.096673 -0.389846 -0.532305 -0.415877 -0.420929 -0.058455 -0.621190 -0.575660 0.043239 -1.423777 0.700564 -0.191913 0.004537 0.417049 -0.329754 0.056281 -0.592787 0.516753 0.399801 -0.574229 -0.118791 0.344695 -0.451582 0.176250 0.263277 0.703363 -0.590043 0.265875 -0.405904 -0.263523 0.716378 0.134695 1.128895 0.149300 -0.198267 1.188179 -0.218804 -0.596566 -0.339726 0.441769 -0.224121 -0.994220 0.509859 0.726068 -1.224691 0.710543 0.017396 0.221302 0.793344 0.605547 0.177631 0.482442 0.904089 0.813389 0.114177 0.461505 0.618629 0.316731 -1.148139 0.467155 -0.868166 0.129015 0.016396 -0.064848 -0.425403 0.159055 -0.075844 0.227245 -0.029284 0.450033 -0.192900 -0.354057 0.320600 -0.360216 -0.547042 -0.324253 0.300022 -1.124172 0.774083 -0.338404 0.517893 -0.092515 0.230268 0.034781 0.293107 -0.391004 -0.258629 0.107239 1.272366 0.713579 -0.444517 -0.244874 -0.482338 0.459735 -0.757517 -1.770181 -0.677214 0.199412 0.245278 -0.558465 
1587 -1.063546 -0.856419 -0.707290 -0.878861 -0.344928 0.002562 -0.510415 0.892835 -0.250505 0.782284 0.177226 0.125082 0.927895 0.686083 -0.856192 0.238284 -0.751880 0.683913 -0.532140 -0.362534 0.484441 -0.070359 -0.065894 1.006018 0.008333 0.805676 0.704467 -0.394291 1.029799 -1.077787 0.611499 -0.353252 0.203235 1.094096 -0.670252 0.635321 -1.030229 0.066795 -0.455900 0.028554 0.386468 -0.597484 1.398615 0.861995 0.231450 0.164551 -0.215977 0.240755 0.517733 0.089549 -0.326745 0.746658 1.004534 -0.390970 0.265542 0.445537 0.223238 1.099659 -0.673119 0.454981 0.323701 -0.772029 0.176684 0.250407 0.124241 0.431756 -0.382353 0.499017 -0.081461 -0.050295 0.780731 -0.835856 0.740402 0.720103 0.374652 -0.240277 -0.139976 -0.559141 0.041576 -1.270585 0.390177 0.462475 -0.145759 0.782365 0.018110 -0.626261 -0.067443 -0.151008 1.254098 -0.137356 -0.630375 -0.107174 -0.736552 0.665400 -0.589906 -0.136375 -1.029378 0.011479 0.429500 0.414151 
878 0.556127 -0.174928 0.178212 -0.028782 -0.716939 0.466354 -0.403652 -0.837228 -0.345550 0.848485 -0.178840 -0.664059 0.377249 0.267503 -0.148299 -0.405728 0.813659 0.503337 -1.223016 1.166850 1.497011 0.569121 -1.029541 0.933678 1.179735 0.189664 -0.168263 -0.165691 -0.783836 -0.025232 0.466981 -0.135788 0.351046 -1.083817 1.481864 0.222657 -0.251678 0.349988 0.862319 0.256060 -1.187433 0.162289 -0.568884 0.106204 -0.607163 -0.199138 0.339024 0.286145 1.332684 0.641699 -0.798835 -1.032334 -0.376322 0.167797 -0.429958 -0.631839 -2.713090 0.113103 0.108305 -0.534779 0.455286 0.926689 0.237540 0.854331 0.720575 -0.368437 -0.130083 -0.721114 0.610500 -0.879210 -0.140166 2.374631 -1.189168 0.123634 0.697035 0.062273 -0.299312 1.094804 1.135838 0.878298 -0.984928 0.112640 -1.268434 0.662418 -0.856607 -0.833957 -0.927220 -0.818793 -0.100422 -1.258585 0.152625 -0.793587 -1.001641 -1.158822 -0.166576 0.873911 0.375716 0.497270 0.455214 0.392291 
1595 -0.049161 -0.281397 -0.894225 0.248442 -0.746644 0.288006 -1.303699 -0.505690 0.834450 -0.056847 0.823281 -0.584677 -1.135040 1.895685 0.326127 -0.335641 -1.004446 0.112998 -1.743627 -1.063929 0.550782 -0.613685 -1.481126 -0.217362 1.327309 1.065316 1.504226 1.020443 -0.195913 -0.020288 1.628390 -0.548160 0.266817 -0.743421 1.621320 -0.327286 -0.898034 -0.030581 0.883955 0.719870 -1.006317 0.414792 -1.052629 0.199379 -0.321218 -0.407143 0.262730 0.381474 2.067607 0.241524 0.412628 0.731015 0.470955 0.310514 -1.566481 0.162417 -0.917394 -0.300878 0.337421 0.596608 0.669462 -0.490852 -0.331664 0.636861 1.251798 0.114502 -0.394863 0.729036 -0.421746 -0.031894 -0.583304 0.882581 -0.223811 0.538677 0.875021 0.542498 0.326498 0.793327 1.547792 0.884279 -1.025149 0.253226 -0.135770 1.825586 -0.639181 -0.758494 -0.167193 -0.477093 -0.291736 -0.514613 0.133937 -0.154996 -1.250569 -0.568711 -1.035346 0.407044 -1.289089 0.232606 0.728437 0.013558 
784 -0.576468 -1.316117 -0.209693 0.079829 -0.406796 -0.512530 -0.736343 0.588077 -1.293832 -0.294955 0.543771 0.000167 -0.297776 -0.081064 0.814018 1.093355 0.868517 0.026259 0.938960 0.529506 -0.384592 0.317740 -0.118080 -0.047824 -0.242733 0.666047 0.967022 -0.754184 0.964044 -0.180770 0.287418 0.162595 0.052848 0.381617 -0.514175 0.988860 -0.039512 -0.375049 1.209596 -0.098931 0.296733 -1.347030 1.779134 0.077788 0.214008 0.038801 0.499057 0.338928 -0.408266 1.057584 -0.136368 -0.432930 0.662097 -0.655780 -0.574042 -0.787705 0.765996 0.655808 -0.170109 -0.277486 -0.200949 -0.221996 0.041929 -0.554011 0.119990 0.319723 0.446829 1.062994 0.058366 0.111885 0.545541 -0.408199 0.537992 -0.724163 -0.753446 -0.442736 0.042414 0.212576 -1.036168 -0.580031 -0.041842 0.672836 -0.783849 0.392102 -0.200594 -1.389604 0.022408 -1.211082 -1.349664 -0.660342 0.953124 0.097909 -0.757727 0.092566 -0.907697 -3.655931 -0.775902 -1.025102 -0.255884 -1.008581 
809 -0.814685 0.101327 -1.083167 1.060665 0.400028 -0.374063 0.037911 -0.319849 0.045494 -1.157617 1.575075 -0.770360 -0.964953 -0.619261 0.668274 0.830535 -1.328771 1.389876 -0.725209 -0.180957 0.959560 0.776171 -0.680767 0.551652 -0.123183 0.321947 0.888428 -0.039050 0.116788 -0.695605 0.865364 0.562734 0.536915 0.873363 -0.404163 -0.184579 -0.494248 -0.594876 0.880342 0.311302 -0.890445 -1.138836 0.304265 0.042700 0.474041 0.914357 -0.320241 0.399178 0.619672 0.621696 -0.564369 2.089422 -0.051594 -0.311703 -0.410258 1.105980 -0.375983 0.124081 -0.281868 -0.085070 -1.219660 -0.445980 0.452091 0.447901 0.404108 -0.372767 -1.187282 0.388623 0.524188 0.617885 0.871337 -0.290967 0.441228 0.047807 -0.460187 -0.616175 -0.535998 -0.174842 -0.057895 -1.105927 -0.004320 -0.208341 -0.881349 0.340939 0.801853 0.422887 -0.514830 -0.640528 0.709809 0.766768 0.752977 -0.060547 -0.708075 -0.434572 -0.476839 0.128452 -0.823202 0.618757 -0.572629 -0.944919 
571 0.064386 -0.283876 0.436378 0.411481 -0.318122 -1.629101 -0.157965 1.536872 -0.620561 -1.084576 -0.708550 0.324373 0.882888 -1.068151 0.652683 0.299193 -0.227892 -0.677375 -0.164282 1.062891 -0.789191 0.754292 -0.068838 0.782355 -0.103439 0.369383 0.654742 -0.455181 -0.079005 0.280994 -0.713870 0.760135 -0.003134 0.187042 -0.746389 0.275579 -1.423204 0.572119 0.709206 -0.305472 -0.295073 0.075919 0.408782 -0.435053 -0.342202 -0.119675 0.373563 -0.292705 0.720281 0.022752 0.326463 -0.270560 0.487989 0.063795 -0.146181 -0.982909 0.010061 -0.439250 -0.468185 -0.979360 -1.219392 -0.669625 0.962677 -0.363255 -0.814112 0.000634 0.370474 1.261959 0.531335 0.292871 0.623737 0.205287 -1.213736 -0.653400 0.239983 -0.685335 -0.465187 0.928632 0.606094 0.856844 -0.374880 -0.094463 -0.438687 -0.060361 0.759962 -1.158749 1.349944 -0.449350 -0.143299 -0.085863 0.386139 -0.410832 0.099510 -0.071474 0.237741 -2.706762 0.050332 -0.251698 -1.123918 1.272623 
706 -1.837388 -0.090424 -0.009285 0.120007 -1.196878 -0.840097 -0.495366 -0.437434 0.254601 -0.175434 1.793616 -1.173846 -0.167278 0.917342 -0.788862 0.142626 0.020055 1.065375 -0.414715 1.617932 1.070512 0.752966 -0.445883 0.653905 0.597452 -0.386305 0.792629 2.111292 0.578891 -0.636481 0.570062 -0.233839 -0.166820 -0.300099 -0.073719 0.705527 -0.782540 -0.709206 0.776219 -0.238763 0.477980 -0.450203 1.053218 -0.036626 -0.226853 0.947510 1.659033 0.080117 0.378969 1.588991 -0.447702 0.371902 0.860944 -0.216241 -0.253147 -1.431948 -0.312340 -0.172930 0.040135 0.203643 0.570099 0.181475 0.161066 1.052207 1.112476 0.672476 -0.132792 1.272772 1.199354 0.062301 -1.059359 0.433053 -0.809496 -0.229464 -0.985199 0.133665 1.222707 0.239844 0.342696 0.456301 0.186515 0.749848 -0.872283 0.736303 -1.558602 -0.919604 -0.224630 -1.138850 -1.043370 -0.416268 -1.003600 -0.198122 -0.737897 -0.941463 -1.282868 -0.747385 -1.463066 0.173765 0.889967 -1.007627 
679 -0.679881 -0.563196 0.234955 1.517712 0.260303 0.538202 -1.389477 -0.170880 -0.409429 -0.343110 -0.811573 0.226727 -0.256569 0.655461 0.465436 -0.512056 -0.918549 -0.828002 0.109647 1.151336 0.115733 0.192965 0.294544 0.486080 -0.449672 -1.359423 -0.802470 -0.681511 0.891047 0.227042 0.902765 -0.644113 1.276446 -0.634491 0.649787 -0.126407 -2.384435 -0.410780 0.083590 -1.900055 0.227946 0.291827 0.612656 0.582718 -0.173340 0.705990 -0.264464 0.614030 -1.302790 0.704313 0.824552 -0.773511 -0.801551 0.503729 -1.256858 -0.378542 -1.253963 0.536509 1.010565 -1.338516 -1.614755 1.204354 0.840356 -0.703006 0.736696 0.304270 0.365379 0.153026 0.125128 1.012822 -0.965572 0.421995 0.241330 -0.982421 0.231472 0.380565 -0.364064 1.533645 0.802145 -0.858202 0.667957 -0.260090 0.050665 -0.188882 0.019991 -1.266262 -0.086820 -1.390563 -0.607244 -1.509174 0.715043 -1.152054 0.204408 -0.734992 1.023234 0.585489 0.118440 -0.262585 0.188437 -0.471349 
1859 0.502709 -0.463366 0.522736 1.150945 0.766398 0.398024 -0.701421 0.372725 -0.589545 -0.195347 -0.499401 -0.720429 0.290427 1.406611 0.355931 0.710609 -0.687394 -0.641333 -0.143070 -0.993764 -0.836629 -0.242050 -0.084382 -0.826500 -0.067920 -0.381206 0.062865 -0.355179 -1.044972 0.923214 -0.198579 -1.072098 1.332987 0.338243 1.466543 0.283698 0.000569 0.378806 1.248872 -0.445388 -0.648312 -0.306875 1.607138 -0.279961 -0.661743 -1.064245 -0.563777 -0.718136 -0.475596 0.237016 -0.163833 0.361616 0.193445 0.560407 0.003932 -0.314583 -0.469602 1.144947 -1.427185 0.505394 -1.052874 -0.042448 0.029836 0.254507 0.315645 0.059316 0.210076 -0.342984 -0.456602 1.323772 0.830585 0.429470 0.851165 0.142505 1.011315 0.152333 -0.507986 -0.461273 2.012887 0.200948 1.394385 -0.233912 -0.428364 -1.536249 0.029300 0.056643 0.728183 -1.075231 -0.798697 -0.397706 -0.981161 -0.104574 -0.239222 0.108631 -0.180643 0.174707 0.347848 -0.837896 0.235268 -2.101640 
858 -0.295611 -0.682103 -0.176135 0.480498 -0.503097 -0.082486 -0.372831 -0.079087 0.024319 -0.262877 0.765734 -0.205853 -0.020110 0.729890 1.507714 -1.447773 -0.155212 0.072951 -0.559496 0.362341 0.998556 0.368566 -2.101131 0.881266 2.010747 -0.966903 0.660694 0.244843 -0.938181 0.527841 0.806035 0.156786 -0.173912 -0.626994 0.837727 0.808047 -0.038804 1.142797 1.206117 0.301332 -1.407740 -1.202523 -0.783312 -0.985019 1.243159 0.406152 0.711472 -0.570448 1.117104 -0.238589 -0.892969 -0.262326 0.886667 -0.229404 -0.001007 -0.497808 -1.950992 -0.003896 0.365649 -1.198768 0.117110 -0.080636 -0.385375 0.846150 0.374478 0.054949 0.663349 -0.977066 1.497098 0.132846 -0.881056 1.916516 -0.840999 -0.020756 0.150588 0.501417 0.225001 1.735713 -0.094427 0.759111 -1.184103 0.035543 -0.931787 0.173166 -0.366708 -1.550359 0.010492 -0.592879 -0.071975 0.520118 1.435649 -0.081606 -0.712015 -1.096904 -0.900629 -0.763520 0.003784 -0.294909 0.063949 -0.042854 
1462 0.723513 0.129205 0.890485 -0.116430 0.233544 -0.879711 -0.161807 1.582226 0.177828 -0.259071 0.615804 0.413930 -0.166353 -0.704874 0.028966 1.116970 -0.209871 0.643641 0.336512 -0.652410 0.622095 -0.196600 -1.010394 0.055578 1.418851 0.371988 0.072165 1.260561 0.950226 -0.215321 0.161542 -0.037847 1.333409 0.860820 -0.659119 0.623027 -0.083074 -0.167081 0.059057 0.199680 -0.162422 -0.707878 1.305007 1.004516 -0.694359 0.174203 -0.555851 -0.221901 0.130734 -1.216708 -1.604099 2.713701 0.391349 -0.171932 -1.667628 0.847052 -0.291808 0.794576 -0.464621 1.115243 -0.535829 0.771159 0.482984 0.989426 0.129451 0.160903 0.137828 0.924349 0.928668 0.692303 0.191908 -2.122588 -0.034305 -0.236466 -0.503329 -0.812101 0.358507 -1.842198 -0.329289 -0.652114 1.130599 0.972448 -0.046884 -0.410861 1.360180 0.558417 -0.650324 0.140305 1.900149 0.156122 -0.968180 0.332674 0.032052 -0.681036 -0.086570 -0.392555 -1.471096 0.131572 0.380044 -0.624060 
1927 0.169967 -0.557970 0.595488 1.588037 0.017453 -0.018656 -0.111704 0.878853 -0.235684 -0.345472 -2.089198 0.725664 -0.108708 0.273686 0.594457 -1.157182 1.787878 -0.240099 0.036606 -0.960977 -0.346316 -0.699199 0.164905 0.176670 -0.030407 0.242258 -0.412464 -1.655063 -0.618489 0.850052 -0.424125 0.117769 0.011169 -0.666969 0.268306 -0.054941 -0.526872 -0.119171 1.180115 -0.595470 -1.113126 0.373868 0.359303 -0.188263 1.071495 -0.184620 0.221339 -1.517818 -0.013472 0.083257 -0.918511 -0.256672 -1.037381 -0.033807 1.140882 -0.847000 -1.352567 0.697925 -0.392051 -1.073671 0.117495 -0.143333 1.047675 -0.278646 -0.829658 0.359602 -0.508737 -0.252400 0.089351 -1.025686 1.221160 -0.100424 -0.685427 -0.362200 1.306051 -1.243650 -0.580556 -0.369397 0.610610 0.845249 -0.873151 -1.528515 -2.134534 -1.365541 1.026113 0.430576 1.274107 -1.253023 1.537657 0.291805 1.087022 -0.490060 0.276102 -0.792282 -0.082098 -0.451010 -0.794552 -1.140314 0.220920 0.086164 
643 -0.966028 -0.252174 -0.362310 -0.744046 -1.398761 0.387444 -0.560414 -0.175741 -0.404370 -0.587195 -0.014841 -0.820381 0.332352 -0.465601 -1.418350 1.306088 0.491673 0.828487 1.058565 0.613929 -1.630432 -0.319114 -0.188101 -1.411511 -0.910202 -0.317495 0.357159 0.067292 0.815987 -1.141547 -0.511129 0.471512 -0.051292 0.754967 0.409127 1.089294 0.531126 -0.690767 1.123377 -0.797063 0.349155 -0.117561 1.732705 0.873313 -0.251604 0.730916 1.144982 -0.458918 0.459825 1.505550 0.739793 -0.455292 0.733658 -0.448212 0.776706 -0.859070 -0.053424 -0.225057 -0.050850 -0.685943 0.248299 0.401904 -0.744169 -0.242486 1.043029 0.731782 0.615171 0.909887 0.262651 1.052507 -1.233331 -0.549614 0.112154 0.448226 -0.038824 -1.029538 0.690870 -1.481535 -0.941073 -1.588821 1.096784 0.287016 -0.773883 -0.216315 0.643719 -0.772448 0.006455 -1.579237 -0.892303 -1.122454 -0.741508 -0.070896 0.819474 -0.099281 -1.257312 -1.338328 -0.066220 -0.255506 0.073894 -0.481387 
1919 -0.598074 -0.051934 -0.710068 0.936808 -0.031906 -0.655528 0.291687 1.301820 -0.219178 -1.467480 1.106869 0.402665 -0.585192 -0.613727 1.448802 0.291876 0.612543 0.032204 0.981137 0.682602 -0.776927 1.094927 -0.285274 1.606950 0.056396 0.698865 0.195243 0.538671 0.082782 0.478231 0.282919 0.239378 0.263865 0.316587 -1.174776 -0.519912 0.153180 0.151184 -0.186486 -1.226703 -1.086912 0.195786 0.516416 0.067173 -0.699583 0.540444 -0.426490 0.557686 0.521615 -0.744895 -0.623631 0.158173 -1.060631 -0.575921 0.578149 0.150820 0.098677 -0.371651 0.553286 -0.657872 -1.311731 0.041878 1.648712 -0.233218 -0.536558 -0.500426 -0.198313 0.319088 -0.271418 -0.722905 0.195298 -0.088443 -0.698266 -0.700869 0.150525 -1.375769 -1.380589 -0.556880 -0.671545 -1.276221 0.033886 0.714546 -0.352239 0.350055 0.563685 0.518700 1.196831 -0.042269 0.814601 0.594835 -1.177248 -0.664672 -1.691213 0.054947 -0.612681 -1.649164 -0.499524 -0.135704 -0.934810 0.522622 
702 -1.154822 -0.113953 0.450266 -0.500396 0.641099 0.071974 0.077688 0.929712 0.389300 0.863130 0.943491 -0.433558 0.318930 -0.287513 -0.227221 1.668724 -0.492273 -0.539537 0.256918 -0.439324 -1.113159 -0.703153 0.296294 0.029069 1.326035 -0.602959 -0.066300 -1.603628 0.094290 -0.482745 -0.219250 1.155694 -0.448068 1.289675 -1.437860 -1.028750 -0.470337 1.802411 -1.072240 0.012931 0.709652 -0.746356 1.997004 -0.425743 0.180123 -0.238983 -0.364873 0.589168 -1.384997 -1.266803 0.899113 0.412092 -0.803508 -0.729610 0.917013 -0.139718 0.107037 0.911452 -0.249135 0.599918 -1.204747 0.805070 -0.429980 -0.866117 1.152964 -0.242724 1.142679 1.375221 0.568910 -0.340072 1.513511 -0.260486 0.640383 0.573938 -0.845004 0.662783 -0.031572 -1.733613 0.371298 -1.451825 -0.084281 -0.567176 -0.484723 -1.073728 0.137929 -0.940414 0.212109 0.058963 0.683399 0.383666 0.035501 -0.678704 -1.138359 -0.555049 -0.941009 -0.327517 -0.814384 -0.232754 -0.449314 0.277888 
786 -0.193389 -0.839549 0.293997 -0.330706 -0.589774 -0.552204 0.558963 -0.047611 -0.139986 -0.609491 0.643845 -1.787505 -0.197456 1.121168 0.296239 -0.561610 -1.285797 -0.831111 -0.887402 -0.511177 0.551165 0.514721 -1.811330 1.120344 1.150496 -0.256704 0.922734 -0.621179 -0.712286 -0.630092 0.461568 -0.214135 0.102435 -1.255484 0.884338 0.662994 -0.079156 -0.363049 1.510802 0.315637 -0.298820 -0.460254 0.104535 -0.156673 -0.143893 1.290264 0.659499 0.062904 1.656203 1.748329 -0.026175 -0.246646 0.911131 -0.786532 -1.582449 -1.158245 -1.428193 0.300397 0.314229 0.986759 0.343525 -0.284771 0.009455 -0.135456 1.061139 -0.540960 0.072954 0.558915 -0.207441 0.581434 -0.234699 0.209065 1.362634 -0.675244 0.461234 0.772565 -0.546584 0.311521 1.292948 0.045531 0.187138 0.704245 -0.893979 -0.290126 -0.381745 -1.305789 -1.480587 -0.660104 -0.618868 -1.057634 -0.331650 -0.305078 -0.241315 -0.190335 0.203960 -0.571328 -0.461882 -0.665795 0.765490 0.125707 
743 -0.789995 -1.741007 0.637785 0.045831 -0.674321 -0.751842 -0.721628 -0.782210 -1.797869 -0.441844 0.518128 -0.518198 1.073431 -0.143478 -1.920286 0.315918 1.394791 0.710453 1.051726 0.344005 -0.161075 0.655868 0.071186 -0.607326 -0.317434 1.030577 -0.716834 -0.396631 0.417248 -0.654710 0.872393 0.220597 0.001576 0.097820 -0.172326 -0.129430 -0.093725 -1.280939 0.605142 -0.972615 0.079989 0.420196 1.691822 -0.522842 -0.042696 0.230529 1.592629 -1.461371 -0.507377 1.072315 -0.217206 -0.125989 0.889854 1.257317 0.867629 -0.648362 0.056889 -0.113641 -0.603059 -0.004947 -1.351336 0.999770 -0.326782 -0.290597 0.262510 0.540485 0.233854 0.364037 0.462592 2.061343 -1.128861 -0.724218 0.639215 0.005470 -0.961092 -0.815316 0.488207 -0.422100 -0.611180 0.436393 0.612570 0.779985 -0.760523 0.417876 0.028890 -0.374466 -0.350359 -0.396270 -0.163235 -1.483189 0.257141 0.370742 0.087586 -0.047834 -0.131938 -1.494348 0.265231 -0.289397 -0.149496 1.071987 
3399 -1.060743 0.005561 0.173103 0.043326 1.195004 0.216553 -1.267073 0.705144 -0.894699 0.262758 -1.505649 -0.272672 1.230346 0.517811 -0.342258 0.384454 -1.434490 -2.169946 1.741575 -0.929713 -1.471246 0.953725 0.139580 -0.099207 -1.564494 0.609462 0.437677 -0.059713 -0.419213 0.519196 -0.666875 -0.182458 -0.268101 -0.063351 0.510155 -0.515508 0.021893 -2.046361 0.541258 0.701879 0.015856 0.209251 1.178513 0.364945 0.028000 0.171461 0.648709 -0.551001 0.148224 0.748707 -0.581285 0.518165 0.939392 -0.370708 -0.148591 -0.415013 0.650570 0.516963 -1.102546 0.733495 0.331771 -0.189760 1.438910 -0.895855 -0.323370 0.371273 0.562173 1.133510 -0.121441 0.458887 0.045380 -1.370278 0.047068 1.012684 0.327219 0.208413 0.806778 -0.304990 1.490731 -0.002564 -0.854161 0.203483 0.446761 -1.141487 0.187055 -0.112470 0.607200 0.157471 -0.222736 -0.549423 -0.037667 0.517810 -1.139266 0.737028 0.528633 -1.848742 0.284727 -0.200740 0.319645 -0.307455 
620 -0.459084 -0.160026 0.009041 -0.311023 -0.366038 -0.297225 -0.372753 -0.982203 -0.256748 0.214974 0.007838 -0.189525 0.342057 -0.118996 0.366411 0.334050 1.454104 -0.829169 0.723092 1.099424 -0.874396 -0.467132 0.438071 0.489039 -0.362399 -0.422615 -0.280783 -0.386863 0.753333 0.320573 -0.388835 -0.092175 -1.408509 -0.260937 -0.297678 0.845797 -0.017872 -0.344881 0.653787 -0.855149 0.400661 -0.768228 1.918746 0.864793 -0.836769 0.220602 1.296276 0.182553 -0.042541 0.146936 0.434443 -0.141742 0.323757 0.516308 0.673955 -0.307868 0.170947 -0.666025 0.566581 -2.178110 -0.602407 0.805730 -0.277552 -0.173662 0.034741 -0.134858 -0.710739 0.583003 -0.036472 -0.014635 0.050740 -0.463567 -0.696416 -0.564535 -1.092870 -1.004621 0.349250 0.802972 -1.408148 -0.026115 0.299204 0.307439 -1.448093 0.088590 0.862626 -0.262748 0.933026 0.273207 0.816805 -0.911015 -0.442414 -0.626006 -1.451054 0.593561 -1.139226 -1.535877 0.872250 -0.532510 0.050573 0.954339 
3187 -0.786859 0.082691 -1.288217 0.829362 -0.890728 0.162947 -0.175572 0.776422 -0.664030 -0.091986 -0.589011 0.882669 -1.336998 0.597843 0.758741 -0.352301 0.160924 -1.002568 0.667248 -1.320603 -0.070087 -0.964117 0.869272 -0.586614 0.168786 1.001242 0.576804 -0.989447 -2.155132 0.591516 -0.094248 -0.325717 0.439223 0.600179 0.125666 -0.423706 1.355877 0.474324 0.889405 0.017449 -1.993103 -0.321735 1.085481 -0.270408 -0.084593 -2.037288 0.694974 0.457667 0.260871 1.392630 0.100436 -0.082813 0.132446 -0.142842 1.114758 0.250109 1.099290 0.594349 -1.136883 0.212403 -0.897237 -0.711899 0.064852 1.508577 -1.032277 -0.285052 1.616272 0.363359 0.367193 0.618498 0.944069 0.264831 0.471897 0.138690 1.273705 -0.068401 0.147746 0.307202 0.088406 0.129569 -0.781967 -0.112858 -0.624516 -0.995505 2.268191 0.843499 0.794171 0.227448 -0.630693 0.762675 -0.037117 -1.102808 0.089828 0.160355 -0.572091 -0.717216 -1.274627 -0.363436 0.660814 -0.601217 
3904 -0.265419 0.364555 0.099678 -0.151723 -0.844034 -0.602385 -0.506970 -1.630344 -0.012982 0.149694 -0.060926 -1.373457 0.747254 0.657658 0.359900 -0.440473 0.688879 0.112488 -0.502861 0.595311 0.883699 -0.746214 0.159824 0.323345 0.683279 1.014277 -1.219069 0.668018 -0.452160 0.664370 0.701869 -0.806883 -0.695006 -1.227163 0.836081 0.849194 0.327354 -1.205714 0.626141 0.640536 0.206702 -0.137988 0.362042 0.429511 -0.664972 -0.319573 1.290744 0.141570 0.685189 0.584642 -0.294320 0.582756 0.818357 0.891197 0.095334 -0.070610 -0.303347 1.041820 0.893580 1.503223 1.628007 -0.108862 -1.808195 0.461598 0.630737 0.781326 -0.172008 0.214507 0.708688 0.113264 -0.635710 0.336211 -0.200568 0.990458 0.814552 1.295971 -0.447651 -0.878512 0.314062 0.086601 -0.570764 0.930428 -0.782422 1.806499 -2.256364 -0.977413 -0.369435 0.410415 -0.230315 -1.524527 -1.640758 0.993436 0.019557 1.237692 -0.896212 -0.277979 -1.127327 0.267649 1.153785 1.448379 
4451 0.162189 -1.205021 -1.058041 0.148938 1.724809 0.955595 -1.441519 -0.507804 -0.591199 0.306017 -0.809927 -0.712798 -1.203629 -0.344668 -0.793920 -0.422455 -1.401793 -2.582702 -0.124326 -0.257087 -0.989749 -0.760609 -0.088271 0.939988 -0.056364 -0.011669 0.067407 -0.488917 -0.928533 0.612279 0.127550 -0.697251 0.711780 0.306301 1.417219 0.951065 -0.506686 -1.010055 -1.040788 -0.639188 -0.023408 1.178928 0.173397 1.400719 0.051909 0.916062 -1.917651 -1.047037 0.371068 0.708578 1.818127 0.003040 -0.112604 0.852474 -0.243637 -0.088085 -0.146114 0.862394 -0.615591 -0.078758 0.043244 0.158080 1.796334 -0.294946 0.729813 -0.344504 0.584945 -1.141902 -0.851169 0.818715 0.306652 -0.248860 1.411445 0.191131 0.032243 0.114484 -0.446700 -0.690240 1.093352 -0.090420 1.119576 -0.089693 0.134200 -0.131023 0.076113 0.016867 -0.543145 -0.391528 0.065525 -1.112865 -0.718493 0.229345 0.507254 0.798377 0.161786 1.331021 0.860384 -0.549315 0.944426 -0.990520 
824 -0.418545 -0.206748 -0.175142 0.501316 0.791080 -0.123875 -0.163526 1.901216 0.248171 -0.913942 1.502082 -0.901329 -0.048399 -0.040223 0.352153 0.415213 -0.895709 0.650057 0.942020 0.670716 0.771582 0.858629 -0.843965 0.982037 -0.313594 0.295557 0.929314 -0.730668 0.326100 -0.306032 -0.109729 0.990658 0.425534 0.062263 -1.145535 0.118808 -0.567295 0.850851 1.202835 0.099140 -0.631762 -0.991644 0.080718 -0.053907 0.944305 0.419644 0.716049 0.988205 0.898715 -0.645235 -1.402404 1.569972 -0.418506 -0.732625 -0.302698 -0.023771 0.998630 -0.197788 0.368904 0.307511 -0.589401 0.381344 0.043854 0.973773 0.499592 -0.077141 0.588644 0.837849 0.511124 0.381373 1.186273 -1.455266 -0.123313 -1.230807 -0.464222 0.570542 -0.300573 -1.126205 -0.511338 -0.294028 -0.845161 0.515938 -0.964268 0.820361 0.263705 0.293388 -0.280843 0.548426 0.446121 1.230901 -0.812535 -2.168407 0.724196 -0.891434 -2.469348 -1.944700 -1.102421 0.800628 -0.518150 -0.380711 
5525 -0.505996 0.079617 -0.468465 0.267462 -0.177062 -0.282950 0.128501 -1.691749 -0.020738 0.545390 -0.883428 -0.857084 -0.800638 -0.800931 1.328746 -0.857026 0.775806 0.675581 -0.105013 0.862273 0.368049 -0.514181 0.326030 -1.505514 -0.188855 0.131718 -0.038831 -0.299923 1.095739 -0.852859 -1.183744 0.938202 -1.017011 -0.905919 -1.025262 0.051250 0.794852 -0.368991 -0.723927 -0.231164 0.069897 0.020836 1.293606 1.560130 0.316231 0.424647 1.617391 -0.409040 0.262335 1.121881 0.647289 0.207577 -0.695902 1.865820 1.239384 0.168615 -0.408386 0.691709 -0.743515 -0.815856 -0.243153 1.257309 -0.059160 -0.006506 -0.613757 0.865411 -1.150167 0.348948 0.276596 1.216450 0.133186 -0.379211 -0.574424 -0.319966 -0.832318 -1.888767 -0.245338 -1.677065 0.291111 0.070663 -0.285452 0.236899 0.633989 1.684824 -0.559003 0.720949 0.170059 -0.523742 -0.395357 -0.516762 0.593755 -0.138894 -1.224650 0.820672 -0.896225 -0.619665 0.712290 -0.093050 0.131688 1.281585 
3464 -0.062796 0.910519 -0.323735 0.687074 1.239711 -1.594027 0.001459 -0.450421 0.898359 -1.303025 -1.140061 0.145702 -0.118351 -0.326147 -1.219734 0.063357 -0.190967 -1.422264 0.027375 0.577424 -0.619176 0.066192 -0.494070 1.274621 -0.309486 0.726661 -0.360887 -0.688786 -1.060138 -0.435541 -0.229638 0.718288 1.501502 1.002641 -0.232390 0.108578 0.021935 -0.023023 -0.345306 0.518072 0.076158 -0.833852 -0.068290 0.901846 0.181860 0.433636 -0.364040 -1.368123 0.241010 0.813070 -0.588146 -0.128540 0.495970 -0.678057 -0.035332 0.966834 -0.025360 0.258470 -0.905837 -1.344447 0.444962 -1.342139 0.269966 -0.636167 -0.695144 -0.037399 1.124091 1.088965 0.786450 -0.172792 0.591557 0.145346 -0.253758 1.165971 0.490112 0.566167 -1.125341 0.064126 0.827104 0.598309 -0.377600 -0.198383 0.550600 -1.363530 1.472720 0.262169 0.573246 -0.061668 -0.273802 -0.833019 0.760816 -0.582437 0.479017 1.268739 0.697076 -0.588965 1.536220 -0.618767 0.088121 0.056229 
664 -0.162017 -0.420065 -0.032538 0.875923 -0.267074 -0.648955 0.491807 0.495526 -0.853996 0.710182 -0.908956 0.353141 0.064767 -0.637424 -0.267681 1.517498 0.733663 -0.530675 -1.321561 0.453198 0.136669 0.224345 0.367990 0.267782 -0.442412 1.097692 -0.881661 -0.196173 0.169538 -0.273546 -0.464576 1.356839 0.314422 -1.234953 -0.931431 -0.044150 0.617121 1.241227 -1.259880 -2.042559 -0.431978 -0.321278 1.959638 0.865996 0.025653 -0.733123 -0.245728 -0.457900 -0.130798 -1.033386 0.884813 0.663781 -0.199275 -0.461831 0.388851 -0.014166 -0.470966 0.891062 0.285687 0.394011 -0.695614 2.557703 -0.515711 -0.997027 0.329554 0.495687 0.251961 0.342659 0.026406 1.271205 -0.422283 0.387360 -0.820971 -1.065977 -1.085437 -1.802793 0.528773 -1.583087 -1.360424 -0.666478 0.129483 0.351335 1.095363 0.628655 0.416608 -0.899007 0.395921 0.162856 1.910598 0.531707 -1.142632 -0.105954 -0.153626 0.862397 -0.656677 0.050281 -0.276912 -0.143264 -0.245363 0.618474 
3556 -0.183823 0.044210 0.589275 -0.446527 0.704743 0.559656 0.728162 1.397808 1.192294 -0.809144 2.146607 0.160817 0.018857 -1.260625 -0.170703 0.685177 -0.541854 0.606615 1.149120 0.374785 0.457146 0.925025 -0.196271 0.124728 0.646462 1.523029 1.329817 0.595607 0.368392 0.465057 0.277332 -0.647769 0.241367 1.804822 -0.810732 0.784467 -0.784340 -0.826689 -1.199547 -0.038455 -0.666988 0.278982 0.251127 0.841117 0.381737 -0.199534 -1.281784 -0.095409 0.454584 -0.353861 -0.139185 1.401639 -0.722593 -0.942409 0.844681 1.015913 0.383012 -0.350054 1.437721 1.145058 -0.709973 0.682903 0.178474 -0.863411 0.275552 -0.058479 0.140426 0.692147 0.469435 0.599743 0.601214 -0.604832 -2.151051 -0.394364 -1.009472 -0.104120 -0.440368 -2.248127 -0.704523 -1.068951 -0.103507 0.232935 -0.456452 -0.453881 1.261499 1.555974 0.003084 0.972216 1.327164 0.743400 -0.231609 -0.563739 -0.204528 -0.688306 -0.846343 -0.279613 -1.106325 -0.588589 -0.424628 0.495580 
3606 0.082863 0.523552 -2.603011 0.420403 -1.037296 -0.306840 -0.557004 0.557438 0.083038 -0.365113 1.027742 0.861036 0.413647 -0.613681 -0.469236 -0.740738 -0.859970 0.158029 0.123427 -0.039061 -1.441547 -0.888875 -0.824447 0.265702 0.891389 0.981045 0.476365 -0.585344 -0.028318 -0.159857 0.136627 -0.363175 -0.328431 -0.201137 -0.461764 0.078891 0.620594 0.564500 0.671519 0.456941 -1.934381 -0.477635 -0.021341 0.025328 -0.544653 0.176230 -0.059799 -0.184946 -0.833754 1.547570 -0.537506 0.482922 -0.385589 -0.465117 0.093591 0.523279 1.547762 1.140234 -1.873216 0.387040 -1.185207 -1.478513 0.503750 1.370973 0.371225 -0.242640 0.142255 0.721577 1.095096 0.881341 0.982146 -0.549475 0.158379 -0.776797 -0.912585 0.108204 -1.457667 0.053858 1.445743 0.017959 -0.964351 0.186778 0.366196 0.320978 1.217378 -0.543199 0.727038 0.414912 1.547075 0.130425 -0.804024 -0.206327 -0.369998 -0.571009 -0.634238 -0.359626 -1.038190 -0.909395 -0.937363 0.008496 
2314 -0.267525 -0.302655 0.128696 1.371953 -0.045352 -0.016536 -1.576909 -0.311408 -1.851341 -0.644246 0.350084 -1.013893 1.629165 0.468574 -0.595984 0.102682 0.365053 -1.161184 2.293168 0.746024 -0.023418 -0.358493 1.010573 -0.479399 -1.192156 0.378299 0.105164 -0.303428 -0.512481 1.127586 -0.549087 -0.448358 -0.607363 0.512658 0.969589 1.021890 0.093731 -0.730500 0.618473 -1.415744 0.277969 -0.300582 1.500392 -0.091475 0.140019 0.273592 0.657362 -0.629767 0.515133 1.019459 0.124983 1.250438 1.884137 -0.139220 0.366552 -1.374076 1.046542 1.045749 0.616947 -0.307647 0.253673 0.357545 0.030200 -0.515788 -0.240244 0.223989 0.653829 1.603521 1.186202 0.603014 0.643865 -0.639331 -0.215712 -0.816421 0.738301 0.234510 0.141550 -0.579156 -0.736165 0.929407 0.753032 -0.144773 0.965012 1.308976 0.836445 0.654185 -0.074473 -0.233576 -0.625022 -1.171330 0.023116 0.800238 -1.673782 0.701732 -0.996388 0.086986 0.368823 0.318565 -0.106852 0.254474 
573 -0.694197 0.209263 -0.732185 0.148366 0.710301 -0.342470 -0.088242 0.966078 -0.246343 -0.250136 1.736253 0.330234 0.156954 -0.727941 -0.843643 0.086816 -0.410316 0.062630 1.698694 -0.264450 1.190065 0.098457 -0.564208 1.320552 -1.512843 0.221140 0.705526 -0.329252 -0.887220 -0.527097 -0.889942 -0.146903 0.337021 1.023034 0.605514 -0.621746 -0.567438 1.064131 -0.287640 0.525328 -0.581324 -1.512608 1.338079 1.402280 0.177780 1.521241 0.964516 -0.145489 -0.175821 0.439247 -0.374155 1.562600 0.176034 -0.842220 0.666114 0.816566 -0.483135 0.103084 -0.296158 0.301793 -0.544999 0.528822 1.466455 0.596252 -0.397006 0.654905 -0.327139 1.531125 0.230944 0.965017 1.252634 -0.837276 0.320497 -0.173232 -0.719477 0.213714 0.540087 -0.173391 -0.081090 -1.099646 1.360995 1.195552 -0.016335 0.551712 0.988721 -0.561764 -0.879387 1.125456 -0.784654 1.093132 -0.930592 0.246295 -0.858751 -0.139914 -1.158949 -1.127123 -1.303864 -0.689699 -1.603879 -0.149061 
1996 -0.530567 0.035938 0.594830 0.241858 -0.241076 -0.166746 -0.289186 0.578517 -0.171498 -0.126967 -0.597373 -0.472444 -0.272008 0.294783 -0.614792 0.446381 -0.150504 -2.170190 0.259946 -0.961573 -1.384073 -0.545799 0.022799 0.828682 -1.897894 0.379850 0.241929 -1.711132 0.055702 0.317091 0.280932 -1.514169 1.538532 0.197843 1.130740 0.866902 -1.108726 0.042635 -0.218732 -0.026683 0.013401 -0.536298 0.122519 1.319348 0.281051 0.478871 0.838884 -1.595601 -0.094241 0.608533 0.334442 0.730026 -0.730821 0.632851 -1.066463 -0.539412 -1.356970 0.877913 -0.550564 -0.093006 -0.116773 -1.405546 0.695546 -0.024858 0.637731 -0.256828 0.277478 0.803141 0.197656 0.518872 1.126485 -0.312533 0.571103 -0.193285 1.092154 1.473677 -1.462158 0.726351 0.853148 -0.976071 -0.309434 -0.827607 1.077245 -1.281456 0.318438 -1.269398 -0.526099 0.358000 -0.886502 -1.096241 0.199159 -0.859066 -1.366741 0.037744 0.151625 0.416930 -0.422953 -0.943126 -0.397769 -2.548020 
567 0.730110 0.096698 -1.358027 1.533982 0.237624 0.966982 0.618862 -1.028811 0.490381 0.667663 0.016129 -0.301217 -0.337641 1.039438 0.755114 -0.554370 0.022185 1.297847 -0.046394 0.435783 0.810354 -0.192583 -1.765396 1.723544 1.725266 0.097421 0.248241 -0.498810 -1.618958 0.036349 0.568462 1.137910 -0.055029 -1.793401 0.954025 -0.139363 0.316074 0.429537 1.376743 0.032288 -0.711658 -0.147719 -1.258175 0.270394 1.002908 0.041994 -0.350416 0.445390 1.452087 0.319848 -0.026135 -1.087771 -0.939237 -0.565796 0.732793 -0.321810 -2.467480 0.329820 0.595286 -0.188978 0.172629 -1.392034 -0.420792 0.317142 0.988193 -2.113232 -0.603931 0.486594 0.888327 -0.909809 0.407015 1.405247 -0.864611 0.282927 1.170435 1.752247 -0.312166 2.857092 0.739147 1.692879 -0.509784 -0.268366 -1.351219 0.840709 -0.274530 -0.247670 0.272058 0.453236 -0.313259 0.251988 0.339214 -1.908893 0.607103 -1.083762 -0.397256 -1.260436 0.534697 -0.123700 0.615525 0.192943 
4180 -0.199546 -0.638052 -0.613857 -0.061411 1.287914 -1.264470 -0.566409 -0.624335 0.186900 -0.137077 0.166153 0.352166 1.031237 1.304604 -0.665469 1.448317 -1.375969 -1.418956 0.055812 -0.371449 -0.682892 0.364141 -0.865077 -0.692108 0.785789 1.023862 -0.859023 -0.662782 0.174898 -1.362169 -0.011141 -0.228272 0.985669 0.291219 0.974785 0.538159 0.243319 -1.578144 -0.535523 1.395725 0.948912 0.388008 -0.230719 0.521609 -0.386886 -0.030096 -0.884210 0.538866 0.789887 0.415735 0.343572 -0.315639 0.124538 0.543269 0.326333 0.081818 0.258955 0.948552 -0.375537 -0.227121 0.019460 0.826354 0.826628 -0.008971 0.097098 1.398650 0.328147 0.986933 0.277351 0.393568 -0.009787 -1.158643 1.111023 0.364649 0.175390 -0.775135 0.314200 0.195907 1.920288 -0.301713 0.125151 1.066572 0.747078 -0.022035 0.328423 -1.008678 1.084214 -0.104472 1.010668 -1.404507 -1.076029 -0.288707 0.540827 1.049183 0.838280 -0.537664 0.895372 0.351734 0.583635 -0.627314 
690 0.411467 0.100409 0.511536 0.412453 -0.526720 0.334660 -0.616729 -0.410871 0.079833 0.111106 -1.361637 -2.080102 -1.548199 0.740649 -0.331816 -0.969978 -0.269681 -2.131184 0.702397 -2.095078 0.020488 0.057058 -0.545309 -0.694769 -0.262283 0.188749 -0.496219 -0.325794 -0.423082 -0.179154 -0.046105 1.038322 1.442485 -0.547688 1.708590 -0.308823 1.291753 -0.271286 1.157728 0.729192 -0.616647 -0.249668 0.875004 -0.391584 0.121883 -0.334745 -0.575796 -0.509733 -0.276912 0.961039 -1.058779 -0.144856 0.098824 0.830590 -0.585252 -0.523846 -1.188385 2.213012 0.318675 0.303695 -0.224687 0.106044 0.609192 1.224513 1.196205 1.021221 1.105707 0.969747 -0.421921 0.333689 -0.779422 0.059781 1.142910 -0.845162 1.300378 -0.325263 -0.337648 0.758714 0.574867 0.835629 1.274395 0.178622 -1.138229 -0.841939 -0.626150 -0.983530 0.239682 -1.282090 -0.051028 -1.981432 -0.054228 -0.585200 -1.431920 -0.399752 -0.535746 -0.219254 -0.943167 -0.117507 -1.291492 -0.707013 
1202 0.859147 -0.679259 -0.536674 0.684577 0.136669 0.176454 0.660455 -1.038638 0.803777 0.405157 -1.867900 -0.976234 1.685688 0.405711 2.026861 -1.147800 0.393119 -0.596646 0.910218 0.133096 0.697393 0.256514 -0.581984 -0.648185 1.013901 -0.497840 -0.038573 -0.281766 -1.227912 1.695393 1.434440 -0.056226 0.201860 -1.271403 1.751574 -0.037720 -0.554838 0.901080 0.887966 0.438111 0.153522 -0.721208 0.826044 0.600185 0.640854 -0.293024 0.096981 -0.088537 -0.349905 -0.014851 0.074856 -0.079031 -0.637120 1.034070 0.177253 -1.563539 -3.166030 -0.684763 -0.208370 0.500152 0.859151 -0.302760 0.473231 0.347166 0.397608 0.556356 -0.290101 -0.964056 -0.010529 -0.342283 -0.475916 2.077044 -0.592255 0.141123 0.255555 0.502260 -0.711608 0.953635 0.531636 0.548331 -0.745766 -0.334400 -1.557826 1.264042 -0.689571 -0.985618 0.581249 -1.229659 -0.855641 -0.429079 0.595661 -0.852450 0.504938 -1.040370 -0.482871 0.744237 1.586999 0.342195 0.160274 1.142453 
2042 -0.141662 0.510782 -0.596005 -0.797474 -0.194931 -0.148979 -1.202763 -0.990308 0.630110 1.148395 -0.740228 -0.218101 0.395233 -0.052625 0.440278 -1.059019 0.924759 0.204356 1.358477 0.349842 -0.781942 0.299707 -0.437251 -1.499185 0.855726 0.675101 0.014473 -0.841879 0.940763 -0.370781 -1.754741 0.951140 -0.579437 -1.414093 -2.532392 0.455007 -0.445630 -0.158604 -0.915255 0.620770 0.661651 0.308594 1.294791 1.017520 -1.188458 1.205601 1.855338 -0.443132 -0.365939 1.330960 -1.474540 0.194484 -0.125865 0.285032 0.696045 -0.910513 0.218689 -0.556171 -0.155055 -2.612919 0.028186 0.368181 0.477518 -0.336388 -1.015965 0.776841 0.211120 -0.427246 1.794910 -0.083412 0.300875 -0.183152 -1.056592 -0.944075 -0.283574 -1.045616 1.033901 0.131631 -1.323452 -1.194281 -0.435137 0.357277 -0.121132 -0.976786 0.053649 0.021551 -0.056891 -1.159617 -0.724750 0.348675 0.021312 -0.341812 0.011808 -0.919379 -1.480263 -0.696495 -1.698092 -0.286382 0.778283 0.741507 
630 -0.427023 -0.361018 -0.711911 -0.653301 0.749673 -0.731503 -1.153408 -0.810946 -1.045528 -0.600691 -0.296509 0.840275 1.187685 -0.769886 -0.378760 -0.104725 2.622855 -0.412838 1.524629 1.246896 -0.787548 0.050224 -0.122632 -0.427800 -0.347569 0.126807 0.079508 -0.067353 0.505561 0.178613 -0.961493 1.045929 -1.053861 -0.022621 -1.252557 -0.817404 0.400531 -0.136298 0.721128 -0.466697 -0.473398 -0.635244 1.259481 -0.345885 0.941068 0.700817 2.362449 -0.751451 -0.755924 0.383734 -0.759084 -0.977859 0.527509 -0.591952 -0.255699 -0.554856 1.340225 -2.008326 -0.238787 -1.294402 0.045115 -0.276893 0.496364 -0.721260 -1.190778 0.327758 0.472701 1.394868 0.656824 -0.971892 -0.508052 0.252526 -1.000806 -0.332618 0.032951 -1.282742 1.520876 -0.104638 -0.970999 0.104535 -0.113423 0.051481 -0.208061 1.353293 0.299304 -0.132003 0.146313 -0.401620 -0.572070 -0.672829 -0.365454 0.651854 -0.497802 0.111061 -1.634999 -1.740351 0.016833 -1.455403 -0.544104 0.994965 
6760 0.037389 1.116127 0.415477 1.021876 0.185294 -0.687474 0.570130 -0.062545 0.170079 0.514606 0.990991 1.050256 1.146269 -0.373728 0.676913 -1.039854 0.205081 -0.186115 -1.130144 -0.249333 0.094392 0.117071 -0.664625 0.110827 0.418826 1.295334 -0.230337 1.011614 -1.226194 0.731666 -0.505782 0.438587 0.058790 -0.467121 -0.654120 -0.378358 0.947747 1.053615 -1.157053 -0.004340 0.329732 -0.453421 0.654347 0.197197 0.502275 0.352196 -1.087327 0.308125 0.609700 -2.753456 -0.625875 0.599309 -0.655475 -0.698451 0.785845 0.598475 0.492409 -1.257568 -0.244933 0.211633 -0.403181 0.126535 -0.078962 -0.106157 -0.145086 -0.613369 0.025829 -0.455561 -0.642153 -0.690999 2.338060 -0.143264 -0.946062 -1.229077 0.072812 -0.866113 -0.618010 -0.728657 -0.753738 -1.991435 0.910463 -0.138178 0.272544 1.388075 2.535864 2.237571 0.935655 -0.096254 2.173111 0.597500 -0.717721 -0.318126 0.316712 0.059630 0.528369 -1.464808 0.246078 1.048792 -1.500883 0.479306 
2886 -0.471590 0.784153 0.230668 -0.084227 0.482815 -0.823625 0.675577 0.606305 0.292902 0.329976 1.489855 -1.153655 -0.040553 -2.236295 1.184673 -0.740557 -0.481444 0.889493 0.950932 0.939578 1.633490 0.477674 0.628677 0.433058 1.074189 1.616567 -0.785311 0.464498 0.327947 0.781491 0.050633 0.696245 0.600620 -0.880440 -1.781799 -0.004093 -0.123689 0.035695 1.014964 -0.781134 -1.112309 0.326871 -0.428246 -0.482325 -0.853240 0.519307 -0.638753 -0.958612 -0.541430 -2.016184 0.073017 1.904056 -0.728046 -0.871027 0.279638 0.984321 0.196148 -1.056994 0.202914 0.118653 -0.422596 -0.889594 0.892972 -0.768489 -1.025818 -0.026253 -0.431360 0.101191 1.774645 -0.365461 1.706033 0.340198 0.057497 -0.104538 0.479683 -0.095271 -0.368454 -0.798619 -1.540634 -0.352859 0.548669 0.349231 0.823402 -0.353072 2.183573 0.765367 -0.377650 1.306200 2.089020 1.933196 -1.597859 -0.900027 0.320851 -0.408729 -1.776163 -0.759920 -1.177757 0.008227 -1.272879 0.253965 
2072 1.160017 -2.156165 0.480396 0.721671 -0.494372 0.599207 -0.515852 -0.736575 -0.256601 0.081542 -0.131818 0.680995 -1.276338 0.887174 0.293683 -1.142737 -0.176718 -0.922534 0.212271 -1.305774 -0.348682 -0.574061 1.186130 0.164529 -0.374569 -0.287292 1.043840 0.124719 -0.357413 -0.036236 0.451027 0.652608 1.027364 1.453941 0.977104 0.273532 0.183594 -0.175200 1.746131 1.115588 -0.577192 -0.353560 1.379399 1.404186 0.185851 -0.631612 -1.723316 -0.650447 -0.238613 0.270359 0.040758 -0.200988 -0.663882 1.393214 0.508325 -0.358043 0.135544 1.157540 -0.788648 0.463293 0.248314 0.833988 -0.431941 -0.636025 0.477568 1.740076 -0.858051 -0.389934 0.799379 0.509123 -0.143327 -1.181775 0.293525 -0.560053 1.313087 -0.994262 -0.112881 -0.724714 0.954602 1.980960 0.603614 0.063134 -1.037383 -1.585475 0.352759 -0.443033 -0.425713 -0.516625 0.122423 -0.725415 -0.740376 0.665880 -0.683105 0.062589 -0.070754 -0.124640 -0.749436 -0.893343 1.285982 -0.949613 
1101 -0.968941 -1.982126 -0.304667 0.439496 -0.215204 -0.123959 -0.849419 0.230218 -1.186955 -0.114484 -0.483843 -0.563303 1.213839 -1.234229 0.582403 -0.177304 0.843099 -1.075692 0.077409 0.843967 -1.044008 0.386203 0.731636 0.081729 -1.438964 0.880800 0.113080 0.697317 -0.293506 -0.547884 -0.262353 -0.157285 -0.188745 0.155411 -0.415860 0.193539 0.462865 -1.533786 -0.696638 0.489835 0.105733 -1.441515 0.901006 -0.341552 1.093901 -0.441577 1.833534 -0.138011 -0.191121 0.870706 -0.073186 0.234263 0.151676 0.621291 1.447850 -1.594956 0.284025 -0.223726 0.015799 -0.709305 -0.850672 -0.057989 0.458483 -0.260029 -0.956879 0.126029 -0.182887 0.174439 0.729497 0.520427 0.704572 -0.880874 -0.161840 0.488918 0.156163 -0.174391 0.220726 0.000461 -0.443579 0.153270 0.894408 0.806756 -0.451784 0.443529 1.740631 -0.697969 0.074262 -0.557470 0.236530 -0.578277 -0.588057 0.550371 0.896391 -0.123632 -0.122065 -1.396836 -0.017939 -1.641210 -0.644964 -0.124062 
984 0.578420 -0.032047 -0.522429 0.765454 0.560026 -0.590837 0.317632 -0.650001 -0.483486 0.007856 -1.114141 -0.470185 -0.366764 0.797478 1.277287 -1.893559 0.111927 -0.521080 -0.250348 -0.262727 0.758432 0.360487 -0.740560 0.301532 0.861451 0.436767 1.246393 -0.643851 -1.738931 -0.457862 0.905729 0.024549 1.392092 -0.196577 0.876092 -0.019695 -1.306092 -0.201365 1.141686 0.997464 -0.883827 -0.650721 -0.083913 0.171898 1.193817 -0.261967 -0.245514 -0.137035 0.484457 -0.735156 -0.059397 0.018635 -0.787336 -0.552357 0.405286 0.431061 -1.600503 0.171737 1.210179 0.378783 1.646428 -0.763372 0.488101 0.223060 0.423429 -1.963373 0.292809 -0.471134 1.731636 -1.135798 1.167453 0.924225 -1.554359 -0.865942 0.084542 0.207803 -0.318780 2.333547 2.029946 1.485456 -0.042058 -0.668121 -2.122858 0.695135 -0.338018 -0.755594 0.150544 -0.476133 -2.085449 -1.363579 0.916340 -0.198389 0.437659 -0.786373 -1.124476 0.439318 -0.008213 0.937584 -0.421101 0.708516 
2939 -0.146803 0.937666 -0.328845 0.778147 -0.770433 -0.119846 0.083686 -0.483877 -0.269431 -0.594995 -0.572052 1.156509 -0.738365 -0.274735 -0.221869 -1.118220 -0.944877 -1.251200 1.000745 0.039200 0.798893 -0.576278 -1.119311 -0.496620 -0.571965 -0.929884 -1.195361 -1.679357 -0.717775 -0.116395 0.853099 0.152898 -0.500078 -0.260212 1.012315 0.064666 -1.850938 1.055002 -0.750568 -0.148924 -0.297513 -1.143935 0.057002 0.563201 1.060903 0.319607 0.064129 -1.011011 0.145860 1.001855 -0.159663 0.040053 0.320181 0.352316 -0.852397 -0.639645 -0.652301 0.499663 0.057747 -0.926788 0.324449 -1.316884 1.116094 0.043462 -0.425534 -0.878217 -0.586085 0.672089 1.623391 -0.943525 0.244575 1.807713 0.840303 0.149980 1.867762 0.849652 -2.429803 1.013654 0.765652 -1.261059 1.510747 -0.655046 -0.522448 -0.821790 0.356397 0.573422 0.618988 1.454007 -0.965982 0.495342 1.855607 -1.555599 -0.873514 -0.390283 1.714026 0.527748 1.640692 -0.946782 0.338483 -1.360286 
1529 -1.593579 -0.104105 0.290949 -0.618284 0.271935 0.219149 -0.635692 0.922793 -0.711897 1.466859 1.139623 0.164087 0.015844 -0.989678 -1.342069 0.254073 -0.746541 0.456468 0.704842 1.069507 0.313083 -0.002839 2.207706 -0.967086 -1.469719 -0.614331 0.531028 -0.828412 1.458162 0.480902 0.803623 0.357264 0.330162 0.329823 -0.633260 -0.177068 -0.380063 0.066416 -0.103210 0.504018 -0.791340 -0.277716 1.827338 -0.005065 -0.970937 1.205003 1.533035 0.315998 -0.281955 0.889804 0.115029 1.135207 -1.029861 -0.332051 0.166493 0.100711 0.118610 1.120853 -1.509743 -0.647085 -0.622168 0.921200 0.356764 -0.197134 0.627949 -1.032468 0.404504 1.450913 -1.287912 1.185122 -0.304969 -0.189270 -0.015018 -0.711415 0.128117 -1.651697 0.361107 0.432378 -0.429337 -0.652438 1.010303 0.160563 -0.716200 -0.489665 -0.147153 -1.444434 0.202724 -1.224563 -0.834273 -0.515553 -0.353726 -0.756614 -0.709754 0.847796 -1.093745 -3.366144 -0.916011 -0.536997 -0.488604 -0.205462 
3459 -1.267124 0.774376 1.082741 -0.863340 -0.511265 -0.371421 -0.225254 -1.487046 -0.918186 0.634668 -3.433306 -0.857693 -0.826011 0.366633 -0.649056 0.066009 -0.728010 -1.876968 0.676417 -0.033423 0.281087 0.298604 0.605822 0.474757 0.167358 -0.408994 -0.135528 -2.488391 0.596728 0.019963 0.554713 1.034328 0.884228 -0.590929 -0.503342 0.931553 -0.428647 0.262492 -0.266164 0.646503 0.140349 -0.623589 -0.233789 0.858481 0.214434 0.669642 -0.154536 -0.318843 0.254724 0.249656 1.101695 1.118378 -0.494691 0.263857 -1.818001 0.190132 -1.141369 1.232505 -1.374952 -0.588017 0.175514 -0.660900 0.868655 -0.575743 -0.025060 -0.445754 1.347722 -0.739958 -0.406717 0.179705 -1.378246 0.313891 0.140034 -0.900286 0.586131 0.233207 -0.888636 0.962286 0.370802 -0.148272 -0.709721 -0.411069 0.484321 -0.821244 -0.665799 0.874185 -0.046357 1.290249 -1.095072 -0.260310 1.541334 -0.549894 -0.460448 0.211409 -0.125383 0.961067 2.461713 -0.279501 -0.191007 -0.659939 
4165 0.745205 0.463758 0.555583 1.111139 0.494973 -1.106995 0.411310 -0.139581 0.234305 0.191572 -0.545939 0.599534 -0.534927 -1.549844 -0.476957 0.224789 0.150829 -0.044543 0.323459 0.384174 -0.015189 0.450516 0.977169 1.244824 1.002674 0.080260 0.908543 1.462208 0.330877 0.002837 -0.867369 0.017528 -0.054143 0.204014 -0.361856 1.191886 0.295812 -0.798056 -1.802580 -1.550947 -0.495793 0.526268 0.675634 1.555138 0.492560 -0.256409 -2.025085 -0.021529 0.010976 -1.480573 -0.881281 1.606750 0.359344 -1.217922 -0.484910 -0.486480 0.282447 -1.031650 1.131551 -0.305009 -1.234565 1.497740 -1.019144 0.052433 -0.147171 0.120093 -0.431833 -0.707323 0.009188 0.089091 -0.255673 -0.000044 -0.776339 -1.244903 0.293093 -2.059828 -1.451855 -1.327032 0.758308 -1.426286 -1.120354 1.935040 -0.206466 -1.227475 0.882116 0.921700 -0.088173 0.727049 2.308825 0.777197 -0.329078 0.507932 0.523372 -0.232452 -0.689887 -0.151463 0.331085 0.427125 -0.367839 -0.280904 
3179 -0.868265 -0.089804 -1.186057 -0.559127 0.039641 0.525509 -0.238762 -0.647234 -0.548086 -0.467500 -1.410803 -0.061167 0.884215 1.714003 -1.799491 0.097414 -1.881391 -1.451510 -0.426089 -1.631196 -0.631147 -1.259245 0.331368 0.605822 -0.286527 0.144819 -0.225873 0.139119 -0.466590 -0.094285 0.179113 0.744216 1.972389 0.590873 1.929521 0.559104 -1.111857 -0.189545 -0.276480 0.764879 -0.638355 -1.560628 0.293979 0.783654 -0.323995 1.711817 0.560587 -0.499034 -0.580297 0.738126 -0.270052 1.106563 -1.831696 0.133873 -0.880532 1.856689 0.144692 1.701577 -0.669370 0.476761 -0.341533 -0.797458 0.879388 0.178921 0.041284 0.670617 0.229405 0.369938 0.288491 -0.856936 -0.916558 -1.485561 1.477463 -0.142317 1.033899 0.447285 -2.268900 1.132718 0.264455 -0.576904 0.170275 -0.065023 1.284542 -1.073218 -0.555191 -0.262406 -0.840945 -0.956479 -0.957839 -0.657842 0.270703 0.326437 0.112972 0.351409 0.664084 -0.608182 1.280577 -1.103533 0.342622 -1.121376 
1120 0.229979 -1.456560 -0.014738 -0.364590 -0.976737 -0.459066 0.555666 -0.448812 -1.269933 0.468480 -1.249067 0.390570 -0.988173 -0.600247 -0.118302 0.789678 0.133259 -0.968721 0.371476 -0.856233 -0.566089 -0.602994 -1.786171 0.714545 -0.604075 -0.427599 -0.766702 -0.081073 -0.905592 -0.244165 -1.045133 -0.726661 1.062031 -0.280160 0.881152 0.509192 -1.085489 -0.406040 -0.231116 -0.998363 -0.391704 -1.458175 -0.149837 0.570527 -0.784853 1.579155 0.449764 -0.461150 -1.230313 0.543817 1.080609 -0.004855 -0.017717 -0.741907 -0.814999 0.046258 -0.703370 1.010817 -0.387378 -1.198568 -0.952866 -0.360123 0.416859 -0.716823 0.716001 -0.292499 -0.434175 -0.153837 -0.226202 1.289179 -0.378664 -0.209282 0.510342 -0.674590 1.336302 0.775306 -1.029726 0.820699 1.729049 -0.286459 -0.185164 -0.706192 -1.785424 -1.173149 0.642836 -0.119260 -0.723014 -0.251900 -0.211896 0.026873 0.290218 -0.267900 -0.736630 -1.480446 1.847386 0.525915 1.132852 -0.192801 0.231496 -1.897977 
3313 -1.427754 -0.391980 -0.965476 -1.134133 -0.121987 -0.634317 -0.045601 -0.187175 0.149631 -2.023657 0.395323 0.583024 -0.531641 -0.304882 -0.782912 -0.858697 0.269453 0.796713 0.728110 0.942858 -1.305731 -0.119642 1.062268 -1.277579 -0.640100 -0.321878 0.782445 0.444024 1.378906 -1.717048 -1.117011 0.328454 -1.025995 -0.042766 -0.411588 0.199302 -0.509038 0.233560 0.927981 0.003145 0.140210 -1.031656 2.272994 -0.886337 0.861021 1.366195 1.318015 -1.543715 0.590050 2.119014 -1.727248 0.593983 -1.103340 -1.236387 1.193927 -0.552486 2.121369 -0.282028 -0.802427 -1.749449 1.963465 -0.674406 -0.132610 0.818091 -0.465079 0.810339 0.685173 0.375559 -0.795557 -0.403705 0.105432 0.142175 -0.819644 0.322547 -0.305365 -0.166806 -0.373964 -0.146053 -0.683800 -1.491387 0.981326 -0.345066 0.558419 1.031817 -0.906493 0.172651 -0.834615 0.338423 0.469016 0.573255 -0.386309 -1.188039 0.501863 -0.506406 0.721514 -1.084453 -0.933262 -0.488703 0.285608 0.339281 
3740 -2.454895 -0.865284 -0.796164 -1.220816 -1.260013 -0.119041 1.898843 0.183765 -0.572210 -0.249645 1.266808 -0.274261 0.334826 -0.028280 -1.261311 1.137748 -0.015966 1.096985 0.283298 0.200480 -0.544006 0.458655 -1.156117 -0.035878 -1.162578 0.276417 0.815288 -0.353355 0.526257 -1.226883 -1.124153 -0.153855 -1.130486 -0.068831 -0.607937 0.691645 0.871881 -1.454704 0.479426 0.545248 0.213442 -0.679976 1.643358 0.583210 -0.392705 0.981312 1.617038 -0.466197 1.895186 0.858601 -1.091253 0.154423 -0.113984 -1.165543 1.572783 -0.176458 0.906074 -0.300329 -1.220268 0.019856 2.042342 -2.088922 1.183177 1.230811 -1.491268 1.289811 1.492444 -0.077941 0.374020 -0.491002 -0.087838 -0.990619 -0.552405 1.318621 0.122919 0.762330 -0.217834 -0.658896 -0.017756 -1.022025 0.773229 0.652010 0.861736 -0.314312 0.586875 -0.000849 0.359273 1.108945 -0.094725 -0.859117 -0.469679 0.113522 -0.630368 0.617769 -0.302503 -0.575210 -1.023167 -0.123459 -0.224023 -0.028089 
2057 -0.713613 -0.958926 1.018986 0.925224 0.803455 1.441130 0.361528 0.620808 -0.830179 -1.339977 -0.298098 0.698314 -0.142669 0.022241 -0.396234 -0.926426 -0.337100 -0.363659 2.410705 -0.674073 0.552219 1.790455 0.727858 -0.488886 -0.833372 0.512895 -0.761627 -0.395334 0.179595 1.475355 -0.301929 -0.231500 0.197846 -0.242986 1.472036 0.632370 -1.878121 0.597802 1.341603 -0.509676 -0.117478 -2.542564 1.188635 -0.250686 -0.208373 0.613815 0.680446 -1.108513 -1.412856 0.322322 0.323019 -0.178907 -0.240386 -0.542928 0.007767 -1.216459 -2.362725 0.242790 -1.439559 -0.923976 -1.756842 -0.377283 1.246666 -0.013324 -0.703144 -1.200041 0.058928 0.462910 -0.581868 -0.114395 0.488429 0.982035 0.897751 -0.883539 1.561720 -1.635340 0.683883 2.107857 -0.125149 0.142209 -0.148773 -0.854269 -0.811030 -1.073554 0.882166 -1.344532 -0.444553 -1.999764 -0.459649 -0.899783 0.859229 1.079999 -1.361945 -0.640709 0.703336 0.338343 -0.710949 0.439491 0.145566 -0.125382 
2151 -0.707183 0.100394 -0.530502 0.523426 -0.904851 -0.617511 0.510714 0.239663 -1.614746 0.167502 0.955351 -1.717785 -0.547726 0.499788 -0.550070 -1.053682 1.392871 0.105910 0.552569 0.780809 -0.321618 -0.540764 0.557324 0.017581 -0.586658 -0.961806 -0.190766 1.503874 1.753773 1.003684 -1.007921 0.728078 -0.628870 0.748744 -1.152852 -0.172218 -1.089865 0.319811 -0.616420 0.498630 1.267127 0.284928 1.592462 2.623966 1.085337 0.274421 0.733661 0.401700 1.540107 1.871556 -0.374575 -0.923914 0.634016 -0.049009 0.257021 -0.480265 -1.982058 0.538513 -0.473421 -0.590163 -0.091010 0.308666 -0.749043 -0.320303 1.276501 1.310542 0.469592 0.779049 -0.059819 0.906687 -0.249273 -1.500595 -0.192287 -0.594166 0.198774 -1.845084 1.073584 -1.085308 -0.519972 -0.972168 -0.265295 0.512237 0.027477 0.243440 -0.390534 0.384381 -0.823741 -1.132624 -0.939035 -0.793531 -0.968240 0.907806 -0.624837 -0.159687 -0.766713 -0.521092 0.250818 0.233472 0.575691 1.084486 
3097 0.913357 -0.739783 1.437513 0.963287 0.796765 0.213793 -0.797600 -0.334709 0.457862 -0.362151 -0.236313 0.418187 -0.468632 -0.315779 -0.112818 0.761791 -0.094040 0.199143 -0.063704 0.542590 -0.081174 -0.108618 1.777879 0.169764 -0.405540 0.909344 0.342068 0.679121 1.420998 0.894175 -0.387533 -0.393055 0.102034 0.323849 -2.087763 0.400825 -0.287685 -0.417701 -0.476433 -1.351677 0.353781 0.698238 -0.535676 1.213339 -0.607717 -0.565705 -1.145565 -0.893868 0.083243 -2.266076 -1.475498 2.354017 -0.715817 -0.551153 0.373286 0.656358 -0.548412 -1.832347 1.069266 0.067851 -0.370653 -0.527907 0.030804 -0.028419 -0.121480 0.223078 0.229706 -0.301803 -0.387742 0.152144 1.698612 -0.527687 -1.703123 0.233565 -0.839863 -1.494254 0.006419 -1.376445 -0.445477 -1.549855 1.686445 0.427524 0.870309 -0.293950 1.972595 1.361144 1.029069 0.658867 1.181790 1.167764 -1.316556 -0.048839 -1.154862 -0.204615 0.421546 -0.344681 0.773705 0.748505 -1.904617 0.457192 
916 -1.347163 -0.012963 0.089361 0.236442 -0.375547 -0.185775 -0.999407 0.060656 -0.945675 -0.677842 0.486160 -0.359367 -0.413561 -0.763073 -0.592924 0.777075 1.280211 0.613219 1.817847 -0.104413 -1.717194 0.615265 0.905373 -0.532901 -0.019653 -0.151005 0.026379 0.864663 0.702525 -1.476411 -0.503535 0.097702 -0.657332 -0.720316 -0.751753 0.290279 -0.870610 -1.042127 0.608713 -0.268260 -0.040934 -0.523726 0.824838 0.092140 1.003349 -0.304702 0.554019 -2.178794 0.116225 1.250471 1.764241 0.857324 0.635117 0.090760 -0.312561 -1.010193 0.982374 0.467291 -1.217465 -1.127092 -0.009378 -0.460323 0.049905 -0.958812 0.260607 1.111264 -0.675352 0.641648 0.390831 -0.195955 -0.670107 -0.016363 -0.194690 0.109686 -0.076784 -1.590534 0.422383 -1.720000 -1.935242 0.016837 0.315245 0.824674 -0.797400 -0.557273 0.098903 -0.381923 0.432004 -0.345811 -0.462224 -1.050299 -0.308155 -0.360769 -0.180713 -1.685231 -1.315878 -1.617704 0.069755 -0.858594 0.479690 0.407367 
2611 -0.799385 -0.513909 1.118638 1.596773 0.550208 0.808310 -0.659745 -0.381753 -0.877657 -0.139272 -0.810446 -0.629956 0.531865 0.138080 2.168086 -1.558089 0.071685 0.324694 0.092169 -0.152891 0.439718 -0.214527 -0.630630 1.585374 -0.038316 -0.927372 1.485571 0.066238 -1.218585 1.223401 0.291816 0.275252 -0.805660 -2.586536 0.429280 0.172889 -0.670045 1.466374 1.428236 0.365384 -0.682259 -0.190787 -0.968597 -0.796371 0.488669 -1.009258 1.097248 1.004068 1.735338 1.134985 -0.591362 -1.041000 0.375550 0.301097 -0.472796 0.290533 -1.506145 0.368714 -0.089004 0.640190 -0.771686 -1.119645 1.219579 0.423347 -1.155599 -1.683254 0.016312 -0.565746 0.756188 -2.114822 0.445953 1.685831 -0.954530 -0.804042 0.338390 0.767685 -0.346699 2.562832 1.371070 -1.633165 -0.684608 0.295045 -0.668599 0.319307 -0.934924 -0.825313 -0.150241 -0.248710 -0.901364 -0.065284 -0.464010 -1.744938 -0.066182 -0.412475 -0.646098 1.150219 0.349453 0.708362 0.260914 1.395369 
759 -1.875929 -0.154280 -0.338746 0.083965 -0.351440 0.855097 -0.767648 -0.806215 -0.124476 -0.721989 2.656237 0.257968 -0.930981 0.555903 0.438792 1.694729 0.479736 1.761211 -0.098024 0.097054 -0.156238 -0.702445 -0.243265 -0.705598 -0.075110 0.193940 -0.407060 0.304296 0.816076 -1.384467 -0.142550 0.664931 0.253814 0.215785 -0.651200 0.588263 -0.732567 -1.630510 1.660881 -0.917225 1.453198 -1.718127 1.599857 -0.692368 -0.567233 1.465420 1.088405 -0.619873 -0.232899 2.192563 0.002695 0.897011 -0.231912 -0.675515 -0.628034 -0.881044 2.409097 -1.431208 -1.875255 -0.499070 1.607068 -0.106893 0.293550 -1.477931 0.546077 0.561109 0.051023 -0.742096 0.239766 1.108827 -0.307645 0.101125 0.266491 1.187083 -0.461657 0.050561 0.011038 0.001282 0.448324 -0.295100 2.384558 0.449654 0.021046 1.566203 -1.520851 -0.680580 0.621165 -0.389526 0.872637 -0.655243 -0.918635 1.358898 0.015667 -0.403416 -0.651853 -0.979804 0.364875 0.057926 0.145599 0.729433 
3337 0.823678 0.172889 0.456465 1.551255 0.465152 0.858945 -0.108204 -0.363156 -0.684030 -0.050917 -1.197358 1.264184 0.240849 0.120809 1.225144 -1.470700 -0.165217 -1.676093 -0.125460 -0.069269 -0.923580 -0.618869 0.234337 0.779207 -0.216377 0.097775 0.799107 -0.688564 -0.585639 -0.821930 0.945266 0.032073 1.350641 0.117417 -0.704643 -0.085635 1.375713 0.769242 0.748323 0.209908 -0.362459 -1.328583 -0.011012 -0.501697 0.814546 -0.465757 -0.572411 -1.138192 -0.749246 1.140556 -1.828151 -0.683378 -1.373306 0.942867 -0.324363 0.609991 0.779406 0.548817 -0.678259 -0.784275 0.740531 0.286046 1.606166 0.196405 -0.548404 -1.590985 -0.443812 -0.552551 0.327523 1.292270 0.367059 0.394435 1.041370 -0.074772 1.301581 -0.240905 -1.405851 0.369111 1.638598 1.265952 -0.588014 -2.631776 -1.120964 -2.093477 1.018587 0.864037 -0.724784 0.084078 0.507831 1.157982 -0.061443 -0.291085 -0.768187 -0.199725 -0.279166 -0.071388 -0.011186 0.085199 -1.069524 1.080875 
2206 1.470481 0.670577 -0.785125 -0.088421 0.566825 1.357561 0.653175 0.518507 -0.231303 0.068390 0.399897 -1.324621 -0.817391 1.197967 0.999779 -0.915530 -0.338285 0.982739 -0.432698 -0.413955 0.029692 0.168814 -1.595583 0.947927 1.316035 -0.027265 1.108446 0.075473 -1.022383 -0.255597 1.069403 -0.174387 1.125315 0.632564 1.202576 -0.130813 -0.239853 1.322697 0.563070 0.674743 -1.043419 0.116523 0.283971 0.109477 0.760693 -1.064817 -0.194361 0.854282 -0.299949 2.110229 0.495750 0.850796 -0.227939 0.952130 -0.501755 0.135118 -1.189680 0.710504 -0.509297 1.801531 0.017846 -0.606443 -0.120725 1.745816 0.577512 -0.713640 0.732535 0.587050 0.063597 0.263954 -1.236784 1.945682 -0.787121 0.920008 0.549948 0.769189 -0.303964 1.042767 1.426350 1.627699 -0.053843 1.171405 -1.541340 -0.061935 0.513232 -0.458251 2.262186 0.153642 -0.018491 -0.152250 -0.554363 -0.090211 -0.695205 -0.020518 -0.098359 0.313877 -0.884955 0.683832 1.516282 0.071054 
3569 -0.394734 0.454986 -1.790427 0.159620 0.342220 -0.055614 0.257094 0.250681 0.204914 -0.372946 -0.207083 -2.636927 0.461926 1.245164 -0.986161 1.091593 0.574087 -1.329421 1.153420 -0.988919 1.789556 -0.260838 -0.208135 0.933733 -0.630091 1.362708 0.058257 0.341536 1.256720 0.887148 0.863423 0.787359 0.837754 0.344765 1.635575 -0.080068 0.212111 -0.380367 -0.508814 1.206449 0.278390 -0.468122 -1.862332 0.318685 0.542282 0.253798 2.712834 0.229809 1.473216 0.846888 -1.379089 1.805156 -0.051700 -0.797355 -1.148038 0.248105 -0.782220 1.082663 0.607185 0.965077 -0.158970 -0.870974 -0.499231 0.155506 0.276493 0.432661 1.533960 0.552260 -0.332394 -0.325602 -0.306503 0.145934 0.051554 -1.621588 -0.057521 -0.573281 0.135270 -1.010901 1.982444 0.039244 -0.186269 -0.342313 -0.385205 -0.139118 0.324861 -1.706828 1.038293 0.028583 -1.136046 0.008290 -1.239780 -1.041829 -1.264274 0.282473 -0.815746 -0.820423 -0.918122 -1.452450 0.356125 0.002029 
657 0.285931 -0.113825 0.389852 0.590406 -0.991826 -0.239445 0.472487 0.427578 -0.172093 0.728861 -0.259415 -0.163098 0.037002 0.569819 0.797394 -0.597415 0.247197 -1.177555 2.021034 2.217533 -0.142119 0.205893 -0.240464 0.416018 -1.071520 -0.259761 -0.051364 -1.399286 -0.530772 1.570453 -0.731559 2.874937 0.247137 -0.500443 1.516136 0.783260 -1.189042 -0.366704 0.178817 -0.426633 0.548685 0.267413 0.152070 -0.792797 1.227805 1.372407 0.013489 -0.606869 0.478239 0.961706 0.688963 -0.682907 0.873458 -1.320110 -1.661180 -3.027883 -2.855300 0.017189 0.575003 -0.289520 -0.834341 -0.311826 -0.251647 -1.747156 0.478197 0.813671 -0.247401 -0.732315 1.012896 -0.142982 -1.129452 1.622442 0.788902 0.019690 1.050737 0.544053 1.227278 0.952840 1.105386 0.025624 -0.290035 0.595079 -0.163701 0.199209 0.422302 -0.122722 0.418549 -0.636423 -1.798150 -1.879313 -0.278401 -0.120048 0.213624 0.755388 0.170536 -0.150334 1.331167 -2.293566 0.122860 0.515713 
3855 0.171037 -0.572863 -1.742607 -0.176818 1.455081 -0.580681 -1.026114 -0.026862 -0.422245 -0.644649 1.512469 0.999344 0.519636 0.156814 -0.985839 -0.442099 -0.742377 -0.203398 -0.023259 -0.688512 -0.941794 -0.508692 -0.972680 0.646990 0.147715 0.467714 0.275258 -0.141572 0.474086 -1.243498 -0.047584 -0.660350 0.380741 1.254086 -0.411552 -0.066263 0.129966 -0.379494 -1.028418 -0.557680 -0.607579 -1.185554 0.187194 0.796141 -0.405728 1.397852 0.016915 0.214979 0.677467 0.970056 -0.299477 1.702591 -0.725865 -0.546521 -0.917331 1.404075 0.748071 -0.264944 -1.753344 2.511749 -0.162179 0.194536 -0.056561 1.185430 -0.885843 -0.386915 0.341604 1.059622 -0.045621 0.165362 0.348370 -2.073063 0.811179 0.920257 -0.351517 -0.519116 0.014528 -0.794556 1.241625 -0.301608 2.231837 -0.597362 -0.808171 0.059469 0.439755 0.168176 -0.320174 -0.640350 1.293249 0.231907 -0.538547 -0.370822 -1.471205 2.040059 -1.475804 0.310842 -0.931778 -0.267595 0.270852 -1.256779 
898 -0.355700 -0.570675 0.837343 0.975997 -0.262937 -0.023454 0.550844 -0.362915 -0.727641 0.639057 0.535290 0.129990 0.037301 -0.352576 0.405780 1.137144 0.838919 0.450002 -0.035990 1.597924 -0.762725 0.866223 -0.684437 0.023422 -0.270517 0.944225 -0.923766 -0.456680 0.404487 -1.182680 -0.588922 1.461685 -1.306168 -1.324807 -1.266693 -1.742479 -1.208385 -0.850788 -1.088469 -1.753259 0.211210 -0.269134 2.896709 0.166358 -0.392854 -1.168231 -0.336134 -0.532511 -0.607103 -2.604590 -0.184220 0.001767 -0.109426 -0.920210 0.967413 0.518700 -0.311941 -0.214087 0.746511 0.222884 -1.171972 0.428845 -0.114126 0.027595 0.720693 0.346447 0.108782 1.309025 -1.104309 1.764792 0.295161 -0.369545 1.116119 -2.170502 -0.245342 -0.181283 1.071229 -0.794928 -0.816586 -2.003410 -0.691137 -0.431407 -0.621957 0.417328 1.313042 -0.268570 1.489963 -0.183913 0.002371 -0.072788 -0.927839 0.107331 -0.653697 -0.141789 -1.199949 -0.677270 -1.080162 -0.344311 0.798290 0.827000 
8012 -1.423409 -0.356956 -0.876944 0.056491 2.096580 -0.069329 -0.915170 1.688588 0.346176 1.163319 0.350695 -0.096325 -0.184003 0.030386 -0.799240 -0.306997 -1.055046 -0.888282 -0.914657 -1.133177 -0.147087 -1.845032 0.113582 0.747985 1.581543 0.605848 -1.629611 -0.147937 -0.699558 -2.905735 0.587604 -0.390377 -1.545872 -0.619060 -1.151699 -1.069782 -1.243576 1.159469 -1.530429 -0.336888 1.690533 -1.567796 1.160465 -0.487399 -0.283433 -0.266971 -0.094542 1.602775 -1.815777 -0.795054 1.105778 -0.386079 0.290365 0.930044 1.156221 0.025372 0.279916 1.271584 0.372308 2.023739 -0.336664 0.674130 -0.349266 -0.791635 0.996702 1.736489 0.683574 -0.457707 -1.373255 -0.615373 0.993884 0.920010 0.341772 0.637029 -0.802457 -0.050406 0.332952 -0.016447 -1.588942 -1.119009 -0.285273 -0.374272 0.695178 0.274545 -0.461340 0.363547 -0.362015 -0.328206 0.768676 1.533529 -0.383861 0.881360 0.725464 0.614140 -0.878787 -0.786536 -1.398523 1.888562 0.142967 1.448951 
815 -1.233889 0.176925 -0.550703 -0.337168 -0.412576 -1.451397 -0.295772 0.839376 0.029521 -0.854203 1.159246 -1.844957 -0.316759 0.937416 1.266717 -0.384377 -1.182700 1.929158 -1.078105 -0.158602 1.463109 0.346997 -1.534456 0.677399 0.890500 1.221634 1.196827 0.960305 -1.586193 -0.058258 0.521818 0.398179 0.471783 -1.420930 -0.192842 -0.003394 -0.634864 1.966865 0.711857 1.619848 -0.757361 -0.751365 -0.962885 0.460612 0.203082 0.695671 0.877680 1.517026 0.099221 0.156423 -1.531231 0.496888 0.400205 -0.348065 -0.541013 0.105290 0.137000 1.329578 0.176860 0.941210 0.801138 -0.409179 -0.782841 0.088007 0.665298 -0.660434 0.039489 1.156945 0.257468 -1.699063 0.879860 0.791659 -2.606525 -0.851338 -1.149189 1.926280 -0.850121 1.203452 -0.561103 -0.364349 -0.903744 0.454511 -1.472018 0.717537 -1.973821 -0.487294 -0.879450 -1.512135 0.717792 -1.465731 0.024843 -0.201197 -1.628850 -0.935771 -1.366820 -0.732313 -2.705662 0.710651 -1.126482 -0.595360 
3168 -1.291194 -0.897393 -0.117546 0.332592 -0.077595 0.882415 -0.551684 0.400686 -0.624039 -0.431382 -1.942015 -0.608704 -0.146407 -0.446016 1.154744 0.210693 0.651685 -1.247076 0.379840 1.184644 1.303222 0.022694 -0.298957 0.797464 -1.551122 -0.729036 -1.042856 -0.586878 -1.204798 0.539875 0.072580 -1.982185 1.910789 -0.141391 -1.028422 -0.151339 -0.503642 1.547823 -0.183320 -0.150857 0.215299 -1.494126 -0.492818 1.091267 1.380457 1.581261 -1.444258 -0.684284 0.935747 0.849570 0.777370 0.318110 -0.157672 1.279700 0.265487 0.831609 0.635587 0.533067 -0.383694 -2.147232 0.455995 -0.762133 0.870607 -0.128738 -1.629459 -0.968284 0.782359 0.657320 0.429214 -0.000280 1.314184 0.238169 0.327451 0.018544 0.484354 0.805857 -0.587148 1.407744 0.646561 0.751198 0.870486 -0.113525 -1.199317 -0.509139 0.643355 0.799922 0.120653 0.909806 -0.710198 0.561530 -0.059049 0.765358 -0.068680 -0.758923 2.451649 0.626016 0.856675 -0.940470 -1.160033 0.356640 
3027 -0.720810 0.158926 -1.131033 -0.359157 0.610660 0.922332 -0.044709 -1.467419 0.792892 0.629947 -0.241974 0.800664 0.288876 -0.728274 -0.158014 1.203116 0.554560 0.221804 0.276284 1.156619 -1.308753 -0.040809 0.989551 -0.276135 0.343407 -0.201189 0.197143 1.034979 1.234799 -0.585447 -1.643234 0.422464 0.179346 -1.956908 -1.247606 1.788801 0.189232 0.177367 0.299546 -0.289618 0.579282 0.323405 1.110942 -0.953454 2.136356 0.455095 0.673267 0.237856 1.260969 0.532433 -0.437365 -0.147375 0.079897 1.239804 2.018561 -0.648287 1.811837 -1.676915 -0.950415 -0.771789 1.529878 -0.579323 -0.128057 -0.932540 -1.627815 1.267660 -0.296233 0.231240 0.205802 1.343179 -1.042812 0.821752 -0.744836 -0.385570 0.111111 -2.098047 -0.505187 -0.329293 -0.010489 -0.638950 0.266493 -0.101601 -0.221798 1.148058 -0.531832 -0.634863 -0.957409 0.062589 -0.546456 -0.376998 -0.378336 0.950843 -0.399663 -0.293632 -1.452731 -0.598589 1.122278 -0.556393 1.209733 1.298883 
1874 -0.170459 -0.723677 0.351025 1.048191 1.386310 -0.152473 0.102317 1.093333 -0.054338 0.757152 -0.854573 0.810462 -0.456035 0.709686 0.577968 0.013582 -0.844117 -0.987593 1.336902 -1.203663 -0.935327 -0.832032 1.004746 0.369869 -1.070040 0.676659 -0.224092 -0.270590 -1.199222 0.524415 0.652422 0.140791 0.897129 0.122124 1.396467 0.414697 0.954354 0.669209 0.038643 -1.073707 0.659190 -0.927615 0.200590 0.473384 -0.118777 -0.719607 0.504569 -1.862043 0.417510 1.809750 0.569684 0.829615 0.677192 -0.966492 0.215382 -1.106147 -0.070317 0.420372 -1.427197 -0.526045 -1.297772 -0.603839 -0.135544 0.714019 -0.618023 0.026099 -0.116203 -0.493350 0.859890 0.027169 0.589498 0.186841 -0.353077 0.443477 0.961487 -1.019079 -0.632592 -0.226485 0.564091 0.635392 -0.523455 0.249163 0.834127 -0.791659 0.152338 -0.693949 0.491086 0.106707 0.647479 -1.199341 -0.298821 0.814050 -0.381689 -1.239076 0.865332 0.158419 1.141607 -1.271122 1.264975 -0.568191 
3738 -0.665630 -0.682601 -1.601665 -0.204074 0.822387 2.048738 0.803276 0.566674 1.024471 0.533408 0.211479 -2.799755 -0.058660 2.126024 -0.074225 -0.621734 -1.117158 0.460367 -0.867463 -1.801989 0.124039 0.205246 -1.338507 -0.470307 0.891690 1.691494 0.587549 1.191549 -1.345891 -0.307351 0.829134 -0.285791 1.227205 0.456520 1.621663 0.038642 -0.162167 0.254453 0.090345 1.211288 -0.132927 0.259218 -1.320307 1.076096 -0.281603 -0.806652 1.129515 0.522927 0.379319 1.196629 -0.404527 0.854109 -1.239434 0.944789 -1.162627 0.467927 -0.965111 1.057771 0.936226 0.295903 0.779415 -0.113990 1.215429 -0.152814 2.139318 1.048954 -0.299013 -0.022258 0.009245 0.554037 -0.271222 1.546745 1.621420 0.038081 0.714308 -0.312283 -0.740078 -0.160853 2.001774 1.633892 -0.189011 -0.551717 -0.120618 0.787113 -2.218557 -0.639959 0.118538 0.740122 -0.366149 -0.009575 -0.898041 0.300193 -1.614632 -0.117993 -0.240584 -0.560148 -1.237516 0.153387 1.522215 0.232161 
2576 -1.704541 0.606073 -1.012854 0.005315 -2.154038 -0.419065 0.104470 -1.364104 0.545716 -0.149403 0.516214 -0.959499 -1.227020 1.113365 1.656806 -1.547139 1.757253 0.656425 1.104001 1.734967 0.925231 -0.561407 0.403571 -1.688126 0.340828 -0.813419 -0.351742 -1.100011 1.323288 0.189141 -0.050209 -0.043984 -0.971321 -1.194063 0.488747 1.170682 -1.040915 -1.252839 1.567245 0.179470 -1.085504 -0.042158 0.519263 1.161370 1.436079 0.219774 1.074453 -1.034418 1.195936 -0.162079 0.155225 -1.407321 0.083251 0.336584 1.016451 -0.674352 -1.311088 -1.071745 0.631785 0.223949 0.351346 0.701194 -0.353222 0.921105 1.293298 0.103625 -0.406587 -0.878674 -0.412021 -0.427907 -2.033767 1.627067 -1.349502 -0.009640 -0.638038 0.323105 0.424289 -0.788616 0.004466 -2.156518 -0.635335 1.476334 -1.589536 1.216416 -1.492893 -1.276716 -1.077233 -2.452540 0.401109 -0.094347 -2.228104 -0.502710 -0.997100 -1.043862 -1.886269 0.157026 1.070311 -1.072855 -0.170112 0.872470 
3112 0.689889 -0.983234 -0.488246 1.974947 1.261366 0.225589 -0.738130 0.183093 -0.328848 -0.617454 -0.794939 1.858455 -1.711080 0.386868 0.858496 -0.720219 0.617290 0.729443 0.456592 0.492425 -0.398996 -0.947376 -0.393659 -0.843641 0.768437 0.040313 0.711655 -1.716044 -1.336128 -0.539573 0.919245 1.804925 -0.006166 -0.143751 -0.212142 -0.020736 0.657638 0.209140 1.702296 1.314084 -0.574807 -0.335487 -0.378519 -0.338008 -0.722161 -1.021338 -0.236417 -1.122696 -1.445193 1.606876 0.726905 -0.364316 0.024508 0.660982 1.927968 -0.039419 1.032393 -0.214326 -1.303033 1.423635 0.335591 0.091386 0.357020 0.785659 -1.832606 -0.829836 1.002172 -0.677729 1.277764 0.403464 0.957246 1.604825 0.775668 -0.024789 -0.208505 -0.158530 -1.399670 1.284938 1.264894 2.157092 -0.468951 -0.869937 -1.103457 -0.742911 0.807887 0.375611 1.614157 0.331078 0.056541 0.701099 -0.015964 -2.136246 -0.139295 -0.664995 0.135110 1.386065 -1.289546 -0.148207 0.713701 0.844213 
578 0.995997 1.867581 -1.333531 0.625128 0.793372 0.900224 1.199474 1.761033 -0.009932 -0.171754 0.412000 0.280508 -0.135226 -0.081349 0.997416 -0.078804 0.597195 -0.499263 1.266495 0.924759 -1.488383 -0.188330 0.506452 0.426875 0.705482 1.711949 -0.264408 0.046675 -0.842626 0.718945 -0.058633 -1.089944 0.604400 -0.924653 -0.279362 -0.246796 0.198011 0.659105 0.303535 -1.320790 -1.776263 -0.798188 0.253153 -0.395622 -0.662436 0.005762 -0.779397 -1.285311 -0.358338 0.058994 -0.526726 0.830170 -0.009367 0.264871 0.440402 1.112916 -0.565529 -0.303473 0.807678 -1.432095 -0.512912 -0.651826 0.600337 0.775245 -0.957366 0.374758 1.147823 1.045982 0.076022 0.237409 1.794162 0.313380 0.540121 -0.892324 -0.154974 0.183795 -2.086847 -0.869627 0.696875 1.549310 1.197483 1.341833 -0.349793 -0.105936 2.385271 -0.695362 1.141697 0.096291 0.233801 -0.629195 0.412767 -0.375762 -0.431762 -0.613706 0.276294 -0.568297 -1.008425 -0.613747 -1.340667 -0.634583 
2877 0.481391 0.223842 -0.166826 1.186811 0.677424 0.579509 1.122425 0.352326 -0.220398 -1.293707 -0.684237 1.052770 -1.679009 1.521583 -0.279922 0.132284 -0.256301 -1.445811 1.689698 -0.620109 -0.911390 -0.293090 0.085899 -0.222217 0.996919 0.481984 0.858447 0.656493 -0.423445 -0.496151 0.563936 -0.608835 0.805321 -0.099749 1.669427 -0.903192 0.655076 0.301334 1.021472 -0.423147 0.057416 0.171633 2.262621 0.088745 -0.247774 -0.228149 -0.382427 0.596691 0.305849 0.734884 0.322323 1.312783 -1.043693 -0.318129 0.088691 0.340291 1.699575 1.898398 -0.756476 1.102866 -0.058346 -0.914969 -0.318498 1.803438 0.370410 0.498198 1.860852 -0.484518 0.460904 0.460150 0.899742 -0.222889 1.877048 -0.483460 1.657032 0.002539 -0.124506 -0.350756 1.641227 1.426920 -0.166002 -1.340313 -1.363186 -1.303631 0.385773 -0.777623 0.625538 0.070959 0.073075 0.540522 0.068789 -0.537595 0.346842 0.166728 1.012522 -0.625055 1.316081 0.076623 1.478648 -1.038289 
3975 0.236007 0.369572 -0.791848 1.184688 0.337041 -0.027289 0.019694 0.472688 0.227764 0.797451 0.887839 -0.409159 0.107791 0.638805 0.039500 0.480286 0.417629 -1.182491 -0.184647 0.437544 -0.340680 -0.325992 0.361344 -0.175115 0.112471 1.808965 1.543106 -0.710303 -0.982606 1.393643 -0.662126 -0.536801 0.365162 0.124550 0.872667 -0.661618 -0.276615 -0.784450 -0.642217 0.231241 -0.297025 1.122616 0.906791 -0.011112 -0.768636 0.083953 -0.296736 -1.908121 -0.704202 1.480247 -0.504908 0.570416 -0.595574 1.262303 -1.037485 0.643749 -1.350207 0.522282 -0.351540 0.394484 -0.491374 -0.469078 -0.469762 1.082956 -0.965938 0.444938 1.351054 0.747562 -0.021291 0.199794 0.277916 -0.606933 0.786014 -1.964507 0.516669 -1.046530 -0.607262 -1.298507 0.433500 0.076080 0.655500 0.516564 -0.509744 0.207737 1.490148 -0.280134 0.485840 0.062961 0.127380 1.180596 -1.007242 -0.489575 -0.121609 0.324983 -1.341420 -0.521671 2.032904 -0.759157 -0.428482 -0.411392 
3036 0.460288 -0.037419 0.309188 0.945982 0.399028 0.753934 -1.287634 -1.347191 -0.620080 -0.639532 -3.238747 0.628088 0.313170 0.543591 0.860044 -1.384683 0.368867 -1.375592 -0.154168 0.279022 -0.677967 -0.855015 -0.224730 1.364938 -0.989114 -0.101373 0.201843 -0.772014 -0.456535 1.522664 -0.028788 -0.533379 -0.278769 -1.003109 0.285672 0.763640 -2.004678 1.236172 -0.728862 0.664328 0.173055 -0.909891 -0.306764 -0.039573 1.018851 1.162810 -0.198726 -0.430483 1.298776 -0.229810 0.320153 -0.043832 -0.992022 1.927305 0.099489 1.323817 -1.012928 0.837890 0.330846 -1.068107 0.200994 -0.925549 0.958997 -0.452452 -1.202258 -0.271030 0.368065 -0.799262 0.046600 0.147846 0.570518 0.786453 0.927307 -0.776438 0.589617 -0.556107 -0.951187 0.764179 -0.544468 -0.211545 -1.041228 -0.491970 -0.127958 -0.951689 0.888162 1.641918 1.740553 0.656859 -0.692963 -0.627667 1.154945 0.458680 -0.273262 -1.189113 1.029569 1.083569 0.630926 -1.099230 -0.851245 1.253859 
1256 0.297375 -1.173701 -0.243257 0.280115 -0.837953 1.409469 -0.154571 -0.752406 -1.073224 0.085740 -0.932483 -0.613272 -1.093213 -0.839561 0.952409 -0.778802 -0.184282 -1.122869 -1.016849 0.450296 0.467904 -0.013998 -0.184431 0.343482 0.953985 -0.034353 -0.731915 -1.124122 -0.300340 -0.574058 -0.593725 -0.153746 -0.930638 0.026015 1.099371 -0.216811 -0.784251 -0.078011 -0.034502 0.237360 -0.579788 -0.747532 -1.011072 0.598183 1.143020 0.648308 -0.624783 0.412882 0.863768 -0.786492 0.686987 -0.439864 -0.465990 0.725842 -1.013546 0.523326 -1.621877 1.133793 -0.580704 -1.492945 -0.699275 -1.196130 0.362727 0.095083 -0.817889 -1.543374 -1.208905 -1.546636 0.452934 0.452938 -0.322878 1.688051 -1.225240 -0.505219 0.158362 0.511053 -0.627879 1.681831 0.373532 -1.418993 -0.418710 0.329309 -0.203118 -0.215146 -0.659976 0.698586 1.057329 -0.474456 -0.478699 -0.229703 1.637083 -0.980354 0.880149 -0.055267 0.732268 0.898979 0.154868 0.837295 -1.448963 -0.050250 
617 0.510705 0.441894 0.981534 1.267579 0.697375 -0.844879 -0.567122 -0.059655 0.493621 -1.036969 -0.605233 0.963674 1.095765 0.134119 1.765011 0.336090 -1.622695 -2.384608 0.818151 -0.019839 -0.019467 1.890860 -0.160668 0.983346 -0.933084 -0.720414 0.170616 -0.786668 -0.336453 1.111113 0.966673 0.448915 1.202453 0.577200 0.327693 -0.457135 -1.117686 0.293141 0.926544 0.649502 -1.844582 -1.699201 -0.399686 -0.594377 0.193348 0.304715 0.996391 -1.191551 0.655455 0.591490 0.272073 -1.405777 -0.242148 -0.786808 -0.314238 -0.102468 0.020768 -0.252702 0.198878 0.034513 -0.104715 -1.083098 0.768651 -2.124409 -0.347043 -1.611210 0.576599 -0.178021 1.044934 0.043823 0.030179 0.522432 0.021372 -0.223289 0.287291 -0.886321 0.224581 0.182078 1.077440 0.837603 -0.806379 1.941010 -0.169361 -0.193764 1.213950 -0.532991 1.530046 -0.584579 -0.705129 -0.664210 0.512338 -0.815113 1.142574 0.574347 1.768644 -1.010900 0.082528 -1.339873 -1.718533 -0.043769 
6356 -0.450948 0.468879 0.360081 0.532811 -0.608012 -1.413324 0.084934 -2.367114 0.086248 -0.926547 -1.106052 0.037670 -1.326279 0.628345 1.086478 -0.314722 -0.900073 -0.503818 -1.061124 1.622711 -0.383819 -0.073574 -1.314540 -0.289977 0.348829 0.027364 0.046485 0.408620 0.478470 0.047443 1.907140 -1.005182 -0.091010 -0.217213 0.484485 -0.001403 -0.079323 0.798547 -0.443055 0.518041 -0.003249 -0.311233 -1.814650 0.588809 0.285567 0.981150 -0.516192 -0.534732 0.807631 0.691787 -0.687497 -0.976403 -0.959145 0.118174 1.168377 2.142005 0.694100 -0.003506 -1.011683 -0.852569 -0.335349 -0.037134 0.607246 -0.755151 -1.316055 -2.361830 -1.080182 -0.399963 0.849356 -0.245485 1.525578 1.172547 0.237774 0.480557 -0.510947 -0.641432 0.060945 2.291386 0.323317 1.630491 0.391088 0.190999 -0.870684 -0.047185 1.356363 -0.539648 0.059861 0.965474 0.180550 0.176234 1.453488 0.706876 0.817665 0.234205 0.716635 0.348443 2.283829 2.382799 -1.159247 0.277836 
791 -0.865951 -0.578933 0.939289 1.027539 -0.842803 -0.592884 0.571145 1.266068 -0.131547 -1.536358 1.297290 -0.201899 -0.870256 -0.208547 0.630361 0.533938 -1.025217 0.494420 0.010359 0.405352 0.858731 1.561491 -1.552599 -0.267962 0.009328 -0.595086 1.437078 0.748492 -0.895135 -0.016093 1.868373 0.123814 -0.637849 -0.941174 0.815162 0.162797 -0.041671 1.303166 2.513926 -0.780523 -0.477048 -1.167250 -1.451230 -1.052024 0.091647 2.010992 0.560916 1.036835 -0.899995 1.304248 0.630525 -0.944109 1.316524 -0.192316 -0.876104 -0.881040 -0.877490 -0.223926 2.724634 0.081287 -3.127295 1.607597 -0.342621 0.762433 0.815000 0.722974 0.691662 -0.206372 0.462957 -1.197844 -1.268742 -0.729370 0.863316 -0.773765 0.441700 0.365582 -0.850656 1.241228 0.385628 0.925612 -0.110914 -0.271122 -2.311998 0.510379 0.389404 -1.752261 -0.961551 -1.913173 -1.098379 -0.774540 0.668671 1.159659 -0.099030 -1.642548 -0.270397 -1.277480 -2.515316 -1.882157 0.727127 -0.454163 
4347 -0.576114 -0.980459 -0.760648 -1.473653 0.258520 0.145078 -1.168724 -0.378900 0.378585 -0.730241 -1.214756 -0.586415 1.697166 0.298169 0.557811 0.411160 -0.223829 -0.845706 0.229110 -0.776197 -1.380069 -0.339145 0.061990 0.163188 -0.492335 0.510613 -1.007932 1.071163 0.121724 -1.067518 0.621232 -1.154068 0.558127 -0.463518 1.129040 1.054875 0.387547 -1.357435 0.900283 0.331154 1.246921 -0.527260 0.730525 -0.732489 -0.398378 -0.581760 -0.605556 -0.510356 0.127745 1.858939 0.024140 0.642554 1.090168 0.391981 0.903167 1.403231 0.379145 0.231690 -0.207745 0.572855 -0.499908 0.446562 0.108355 -0.614413 0.182884 -0.450330 0.200656 -0.722440 1.672099 1.862404 0.822949 0.830024 0.759924 1.569154 -0.273910 -1.686067 0.755451 -1.527273 1.341443 0.631488 0.334314 -0.209449 -0.156052 0.583894 0.768098 -0.455562 0.518217 0.669637 0.746971 -0.076368 -0.606747 0.592292 -0.147905 1.783220 0.620283 -1.894921 0.031906 0.747619 -0.416871 -0.507240 
988 0.532961 -0.019046 0.537512 1.998492 -0.361163 -0.815818 -0.744708 -0.031505 0.077655 0.185874 0.656444 -2.335294 -1.066136 1.090297 0.334734 0.768241 -0.645999 0.044147 -0.972629 0.447528 0.230813 0.420995 -0.162762 1.003008 1.305746 1.729657 1.021752 0.718178 -1.198188 1.458214 0.765711 0.574898 -0.153931 -0.915140 2.001780 0.306540 0.312226 0.609365 1.615645 0.706476 -0.422972 0.326600 0.160049 1.078924 -0.431623 0.850084 0.489168 0.570419 0.200333 0.000334 -0.044563 -0.321023 -0.231769 0.180608 -0.819449 -1.218047 -2.038351 0.569027 1.502432 0.563263 -0.057520 0.735189 0.703895 1.482536 0.324530 -1.310611 0.002709 0.367790 -0.510001 -0.396294 -1.395852 1.452908 0.580400 0.420912 0.998551 0.274464 -0.060204 -0.290138 -0.033363 0.317912 -0.943258 1.159794 -2.116873 0.012045 0.048976 -1.528640 -0.546322 -1.853224 -1.524257 -0.530244 -0.456517 -0.488004 -0.512185 0.087975 -2.507292 0.247562 -2.046762 0.259525 0.966198 -0.641842 
3066 0.182582 -0.426274 0.607448 0.471337 1.651785 -0.281574 -0.431346 1.011613 0.180855 -0.967943 1.122788 1.028222 -0.344878 -1.008663 0.641223 0.721860 -0.159736 0.890900 -0.078468 -1.539245 1.675709 0.034739 0.122408 1.545369 0.513023 0.405750 0.495618 -0.257769 -0.111426 -0.059427 -0.662824 0.490178 -0.213453 1.656749 -1.049554 -0.758230 0.529228 1.662756 0.872788 -0.457527 -0.397004 -0.259191 -0.780156 -0.060016 1.272651 0.399707 -0.667966 0.450744 0.574115 -1.225025 -1.180973 2.380176 -1.236566 -0.617626 -0.821252 -0.239169 1.088983 -0.734658 0.248560 0.894268 -1.529944 -0.073936 0.327534 -0.771852 -0.474887 0.001266 0.976233 0.017165 1.027222 1.478104 -0.224232 -0.295068 0.335039 0.442772 -0.280091 -1.017959 0.509911 -2.677956 0.445969 -1.778440 0.422298 -0.446548 0.102369 -0.337482 -0.006515 1.890101 -0.387162 2.310789 1.862488 0.809078 -1.948857 -0.533583 -0.025418 -1.183770 0.331270 0.302796 -1.329516 0.542150 -1.717107 -0.105441 
4000 0.245438 -1.772746 -0.758466 0.720080 0.126200 0.839437 0.504223 0.789462 -0.076131 -0.176267 0.823218 0.373012 -0.555084 -1.690940 0.639791 1.146511 0.108784 0.583620 1.779579 0.012859 1.502313 0.457678 -0.887758 -0.041690 0.656593 0.979087 1.867411 0.625241 -0.129079 1.113646 -0.158137 0.991055 0.846154 0.322425 -0.109669 -0.613835 -0.267453 0.950480 -0.106520 -0.150039 -0.292243 0.417992 -1.202198 0.062408 -1.035698 0.970049 -1.242224 0.973216 -0.006715 -1.022074 -0.349280 3.025504 -0.406184 -1.483048 0.684564 1.195002 0.426686 0.104802 -0.444149 1.569984 -0.294350 -0.430600 -1.388824 -0.485163 0.045599 1.240286 -1.150031 0.985796 -0.566855 0.315016 -0.039135 -1.115180 -0.260454 -1.581864 -0.047152 -0.963298 -1.756479 -1.852659 0.239456 0.022752 0.403629 0.371022 -0.254827 0.865994 0.067331 1.707866 0.875903 0.241969 1.587506 1.213838 -0.686884 0.122274 -0.754470 -0.084499 -0.054910 -1.032821 -0.380130 0.429207 -0.590130 -1.016088 
1143 -0.483496 -0.158296 0.536621 1.167295 0.222226 1.958496 0.513165 -0.427735 0.001467 -1.312545 -0.546277 -0.044135 0.434347 -2.434867 0.288807 -0.028924 0.101207 -1.312197 0.039079 -0.034662 0.367595 1.145731 0.503775 0.519177 -0.729933 -1.488362 -0.630456 -0.340608 -0.540075 -0.377904 0.019719 0.083514 0.497067 -0.656397 0.205131 -0.299701 -2.390932 0.919466 -0.128391 -1.085904 0.383604 -0.224586 0.056724 -0.606038 -1.429622 1.714840 0.020604 -0.503555 -0.446204 0.481978 0.603636 -0.224338 0.545962 0.547619 -0.449253 -0.911312 -1.937352 -0.490100 0.507140 0.894658 -1.432718 -1.088823 1.155518 0.449898 0.981445 0.238660 -0.461384 0.415349 -0.276007 0.976342 -0.591969 0.164149 -0.904045 -0.163536 1.824777 0.223782 -1.236818 3.351512 1.433693 -0.626888 -0.126084 1.006274 -1.253306 -0.017284 0.553865 0.170425 -1.178669 -2.104489 -0.102523 0.395016 2.306612 -0.161411 -0.824956 -0.699361 0.732215 0.764111 -0.096250 -2.055694 -0.923004 -1.804537 
1876 -0.179813 0.220418 -0.677352 -0.707416 0.822546 -1.497063 0.312617 0.052154 -0.265416 0.381749 0.208725 -0.985256 0.993365 1.289504 1.153095 1.426744 -1.325284 -2.571918 -0.106527 0.106437 -1.514925 1.751009 -0.380915 -0.595937 -0.354703 1.451901 0.227411 -0.795012 0.451192 0.157067 -0.457018 0.071651 2.506610 0.363945 0.246871 -0.236826 0.144173 -1.428513 0.314405 -0.254356 -0.655312 -1.160652 0.024784 -0.881488 -0.142802 -0.651150 -0.846545 -0.493645 0.738821 1.548795 0.055277 -0.079375 0.349677 -1.157364 -0.488117 0.126946 -0.345780 0.967960 -1.387158 -0.594141 -0.426900 0.110031 -0.521183 0.818210 -0.663930 1.039592 -0.735370 0.937848 0.524515 -0.654131 0.521944 0.673147 1.887081 1.581820 0.778797 -0.379111 0.246446 -0.894992 0.963417 0.990610 0.232524 0.740860 -0.929714 -1.114750 0.055577 0.145877 -0.764825 0.912354 -0.690919 -0.419311 0.101602 0.221883 0.627194 1.867994 1.926800 -0.604260 0.811225 -0.702373 0.634220 0.325054 
